{"type":"LSTM","options":{"inputSize":30,"inputRange":30,"hiddenLayers":[20,20],"outputSize":30,"decayRate":0.999,"smoothEps":1e-8,"regc":0.000001,"clipval":5,"maxPredictionLength":100,"dataFormatter":{"values":["were incoherent","bad","easy","good","is bad","well defined","was abrupt","technical words","should improve","best vocabulary","presentation needs","when appropriate","was difficult","English","more varied","formal","too long","demonstrated command","should work","well adapted","too much information","avoided filler","consistent colour","maintain interest","appropriately changed","is difficult","was coherent","conversational","better focus","used natural","is disappointing","just nice","better quality","good time","could use","meets requirements","more hand","very nuanced","should try","completely addressed","well selected","should smile","well developed","when talking","appropriate tone","would help","easily follow","more friendly","logically presented","presentation lacks","evidence shown","are unsupported","is supporting","more reliable sources","immaculate delivery","need better","impeccable script","not convincing","interesting topic","be feasible","good understanding","content shows","too tense","very engaging script","not consistent","potential","could improve","have great","more consistent pace","wonderful presentation","other parts","robust evidence","too slow","ideas substantiated","much technical jargon","superb delivery","exceptional quality","general audience","excellent","should use","is perfect","less technical jargon","flawless execution","should replace","fine delivery","technical jargon","good job","are easy","solid grasp","more concise","good intonation","not professional","clear effort","sound","good flow","more formal words","good content","more professional","is adequate","pictures used","superior quality","not appropriate","is satisfactory","more formal","fine execution","when speaking","high quality","be more","latest revision","is much","to rehearse more","professional","have poor","concise","was hard","clear","well organised","to look more","well thought","font used","overarching ideas","too small","is present","were distracting","good signposting","too distracting","good effort","overly use","last script","should rehearse","have improved","badly prepared","impressive speech","is obvious","are reading","good use","more confident","have read","best scripts","convincing","wow","is more","well written","too many","is good","awkward","impressive job","should look","cool ideas","maintain eye","cool presentation","not good","well backed","not","raised good","well done"],"indexTable":{"w":0,"e":1,"r":2," ":3,"i":4,"n":5,"c":6,"o":7,"h":8,"t":9,"b":10,"a":11,"d":12,"s":13,"y":14,"g":15,"l":16,"f":17,"u":18,"p":19,"m":20,"v":21,"E":22,"k":23,"j":24,"q":25,"x":26,"stop-input":27,"start-output":28,"unrecognized":29},"characterTable":{"0":"w","1":"e","2":"r","3":" ","4":"i","5":"n","6":"c","7":"o","8":"h","9":"t","10":"b","11":"a","12":"d","13":"s","14":"y","15":"g","16":"l","17":"f","18":"u","19":"p","20":"m","21":"v","22":"E","23":"k","24":"j","25":"q","26":"x","27":null,"28":null,"29":null},"characters":["w","e","r"," ","i","n","c","o","h","t","b","a","d","s","y","g","l","f","u","p","m","v","E","k","j","q","x","stop-input","start-output","unrecognized"],"specialIndexes":[27,28,29]}},"input":{"rows":31,"columns":30,"weights":{"0":-3.0302586555480957,"1":-2.1415939331054688,"2":5.698179721832275,"3":-2.940889358520508,"4":-1.1326723098754883,"5":-1.7995609045028687,"6":-1.9116097688674927,"7":0.4758532643318176,"8":-4.681021213531494,"9":-0.028805281966924667,"10":3.790238618850708,"11":-4.034493923187256,"12":-0.6417880654335022,"13":1.5497078895568848,"14":2.9031424522399902,"15":2.317328691482544,"16":1.4405410289764404,"17":0.6022659540176392,"18":-2.036938190460205,"19":-0.7031741738319397,"20":-1.55019211769104,"21":-2.5784871578216553,"22":-0.35202556848526,"23":-2.1834909915924072,"24":1.7695356607437134,"25":-4.264439582824707,"26":-1.457976222038269,"27":-0.11527808755636215,"28":-0.9675425291061401,"29":5.419379234313965,"30":5.672532081604004,"31":0.189843088388443,"32":3.8130853176116943,"33":0.8370656371116638,"34":2.9884092807769775,"35":0.8119588494300842,"36":-6.1671366691589355,"37":11.052358627319336,"38":-7.86377477645874,"39":-9.351385116577148,"40":8.660604476928711,"41":-5.988874912261963,"42":1.1864979267120361,"43":-1.4144892692565918,"44":11.919381141662598,"45":17.498506546020508,"46":9.012106895446777,"47":5.754498481750488,"48":-5.394337177276611,"49":9.884187698364258,"50":-9.10222053527832,"51":-12.811620712280273,"52":-10.026877403259277,"53":-2.861678123474121,"54":-11.895785331726074,"55":22.33045768737793,"56":5.106448650360107,"57":3.22853946685791,"58":-8.173702239990234,"59":-5.947650909423828,"60":0.07097965478897095,"61":-1.8588002920150757,"62":1.2912944555282593,"63":0.6962833404541016,"64":1.5502264499664307,"65":0.5893101692199707,"66":-1.4349249601364136,"67":0.2557781934738159,"68":-1.761815071105957,"69":0.0018664691597223282,"70":1.0157917737960815,"71":4.042766571044922,"72":1.4253875017166138,"73":0.5228171944618225,"74":-0.9177797436714172,"75":-1.5859986543655396,"76":-2.6522693634033203,"77":5.220067501068115,"78":-3.034219264984131,"79":7.447823524475098,"80":1.4939690828323364,"81":0.7320178747177124,"82":-1.40121328830719,"83":-1.7968820333480835,"84":1.2383053302764893,"85":-4.305621147155762,"86":1.882650375366211,"87":0.08345004916191101,"88":-1.3495147228240967,"89":-0.8318081498146057,"90":3.098762273788452,"91":-6.209486961364746,"92":-3.5994203090667725,"93":-1.2753103971481323,"94":-4.212838172912598,"95":-0.5187956690788269,"96":-1.1209770441055298,"97":-5.806549072265625,"98":-7.293231010437012,"99":1.8332339525222778,"100":8.64306640625,"101":2.084000587463379,"102":1.525815725326538,"103":0.14816080033779144,"104":5.966062068939209,"105":-3.671491861343384,"106":2.119262456893921,"107":2.8268752098083496,"108":-6.080230712890625,"109":-3.0015180110931396,"110":3.8155319690704346,"111":6.062212944030762,"112":0.27657434344291687,"113":-0.011619719676673412,"114":-0.32038408517837524,"115":-7.952112197875977,"116":-1.5307470560073853,"117":-4.261048793792725,"118":-3.0353684425354004,"119":-4.436376094818115,"120":-1.0960750579833984,"121":-7.218050003051758,"122":3.85481333732605,"123":-7.514235496520996,"124":-2.4488086700439453,"125":-5.073667526245117,"126":0.45767053961753845,"127":-5.8552141189575195,"128":-2.323317289352417,"129":4.115991592407227,"130":0.0707654356956482,"131":0.9341126084327698,"132":0.42358434200286865,"133":-0.5818585753440857,"134":3.9108924865722656,"135":-7.7038350105285645,"136":-1.1229792833328247,"137":-3.9179069995880127,"138":-2.253544330596924,"139":-2.131035804748535,"140":4.382997512817383,"141":-2.7093629837036133,"142":5.416720867156982,"143":0.8229817748069763,"144":-0.3295854926109314,"145":-2.4801783561706543,"146":-0.8292440176010132,"147":-2.11411714553833,"148":-6.377089500427246,"149":-3.528019428253174,"150":2.6557440757751465,"151":-2.4381625652313232,"152":3.6469600200653076,"153":5.928935527801514,"154":-0.3232121467590332,"155":-0.17035022377967834,"156":-6.901261806488037,"157":2.353961944580078,"158":0.027617095038294792,"159":-6.654407501220703,"160":-0.504874050617218,"161":4.396655559539795,"162":-2.593153953552246,"163":-8.158565521240234,"164":-5.099307537078857,"165":-0.45518413186073303,"166":9.208173751831055,"167":-10.520339965820312,"168":-3.971874475479126,"169":-0.5412229895591736,"170":4.871891498565674,"171":1.4247534275054932,"172":5.827636241912842,"173":11.936931610107422,"174":6.160248756408691,"175":-5.604009628295898,"176":-0.10311915725469589,"177":-9.518381118774414,"178":7.4686384201049805,"179":6.507163047790527,"180":0.49897491931915283,"181":8.15643310546875,"182":-2.814492702484131,"183":2.6327385902404785,"184":-3.7025442123413086,"185":-8.09445858001709,"186":1.6136614084243774,"187":0.4653322696685791,"188":0.4923330247402191,"189":0.06721564382314682,"190":4.21620512008667,"191":0.24806882441043854,"192":-7.29568338394165,"193":-3.2328782081604004,"194":0.7707193493843079,"195":-1.9848061800003052,"196":2.1944570541381836,"197":-16.278432846069336,"198":-6.574721336364746,"199":6.20637845993042,"200":4.259654998779297,"201":1.0674939155578613,"202":-3.547215461730957,"203":-0.10349743813276291,"204":6.399861812591553,"205":4.092919826507568,"206":0.13082312047481537,"207":5.038881778717041,"208":2.054001569747925,"209":-7.755473613739014,"210":4.654247760772705,"211":-3.4633333683013916,"212":3.4615707397460938,"213":-3.906956195831299,"214":-10.34627914428711,"215":-4.079097747802734,"216":2.2242326736450195,"217":-2.920370101928711,"218":-4.861318111419678,"219":-5.431051731109619,"220":-9.270992279052734,"221":-6.259707450866699,"222":3.8956642150878906,"223":-2.708324432373047,"224":-6.1112895011901855,"225":-3.8195159435272217,"226":-2.8748886585235596,"227":-12.174031257629395,"228":-2.163419246673584,"229":4.955161094665527,"230":2.043856143951416,"231":-7.03830099105835,"232":5.830100059509277,"233":3.378133773803711,"234":3.517829656600952,"235":-5.804518222808838,"236":-6.4397430419921875,"237":-1.2275333404541016,"238":5.258248805999756,"239":-8.314001083374023,"240":0.019040938466787338,"241":0.043730478733778,"242":-0.08657869696617126,"243":0.1161518543958664,"244":0.10182106494903564,"245":0.2505578100681305,"246":0.06595055758953094,"247":0.23619168996810913,"248":0.10269872099161148,"249":-0.394479364156723,"250":-0.31165674328804016,"251":-0.36603856086730957,"252":-0.06788796931505203,"253":0.08129393309354782,"254":-0.6418124437332153,"255":-0.12288393825292587,"256":-0.04417450726032257,"257":0.38138386607170105,"258":-0.5080063343048096,"259":-0.15793922543525696,"260":-0.05885310471057892,"261":1.5808840990066528,"262":-0.003822274273261428,"263":-0.05797233432531357,"264":-0.22106604278087616,"265":0.16592474281787872,"266":-0.17171967029571533,"267":0.18630120158195496,"268":0.26678740978240967,"269":-0.21172216534614563,"270":2.224503517150879,"271":7.232565879821777,"272":-2.2281336784362793,"273":8.570836067199707,"274":-4.2963738441467285,"275":-3.681098699569702,"276":-2.0264413356781006,"277":-0.6165106892585754,"278":4.870072364807129,"279":-0.5608875155448914,"280":-8.163681030273438,"281":8.31895923614502,"282":-9.33764362335205,"283":-2.7200751304626465,"284":-4.444236755371094,"285":6.306768417358398,"286":1.3478660583496094,"287":-15.086400032043457,"288":4.250363349914551,"289":0.29337945580482483,"290":3.916785717010498,"291":-4.667708873748779,"292":-7.096285343170166,"293":7.051789283752441,"294":0.7857425808906555,"295":-6.953595161437988,"296":7.9804816246032715,"297":4.262195110321045,"298":18.08693504333496,"299":-1.8519080877304077,"300":4.21815299987793,"301":-7.658176422119141,"302":-2.4582362174987793,"303":-8.302201271057129,"304":2.017843008041382,"305":-0.1803039014339447,"306":-2.9656829833984375,"307":-10.529150009155273,"308":1.6390939950942993,"309":2.4643592834472656,"310":0.006942885462194681,"311":-0.72402423620224,"312":3.1482131481170654,"313":-3.2433838844299316,"314":7.516633033752441,"315":1.5418623685836792,"316":-3.197413206100464,"317":-4.834527969360352,"318":-1.252631425857544,"319":4.774803638458252,"320":-0.6098007559776306,"321":-1.5872831344604492,"322":-3.6402525901794434,"323":0.11658450216054916,"324":-1.036019206047058,"325":4.909575462341309,"326":-1.6603522300720215,"327":-6.534969329833984,"328":7.324682712554932,"329":-13.471702575683594,"330":-1.0559284687042236,"331":-2.435559034347534,"332":-7.228070259094238,"333":9.79108715057373,"334":1.924497127532959,"335":0.6846933960914612,"336":-3.562072515487671,"337":3.0702736377716064,"338":2.259948968887329,"339":-4.492748260498047,"340":6.218122959136963,"341":-0.8510506749153137,"342":3.4013848304748535,"343":2.6424920558929443,"344":-5.7655720710754395,"345":-2.4696412086486816,"346":6.050065517425537,"347":1.209456443786621,"348":-2.464423894882202,"349":1.85527503490448,"350":0.5534043908119202,"351":0.6122811436653137,"352":0.5251104235649109,"353":2.087989568710327,"354":-0.5158345699310303,"355":0.1745786815881729,"356":-3.283468723297119,"357":2.636016368865967,"358":-3.394620895385742,"359":2.1826603412628174,"360":0.4882870614528656,"361":-1.5712053775787354,"362":-0.7106285095214844,"363":-7.660619735717773,"364":-3.4962852001190186,"365":-2.168405055999756,"366":-0.3788449168205261,"367":-5.569458484649658,"368":0.36025577783584595,"369":1.7884141206741333,"370":-3.1199498176574707,"371":0.627825140953064,"372":2.6590428352355957,"373":-1.807586908340454,"374":-2.942471981048584,"375":0.4388902187347412,"376":-7.142816543579102,"377":-1.7732733488082886,"378":-3.508070468902588,"379":-1.2870776653289795,"380":4.3864545822143555,"381":-6.771575450897217,"382":0.04542174190282822,"383":3.75754714012146,"384":-0.27018260955810547,"385":3.4185588359832764,"386":1.1761847734451294,"387":1.9426100254058838,"388":0.451352596282959,"389":0.7998479008674622,"390":1.7466906309127808,"391":-0.2731574773788452,"392":0.8662359118461609,"393":0.49320027232170105,"394":-1.2846823930740356,"395":1.6170551776885986,"396":4.183254718780518,"397":-2.9121572971343994,"398":0.9682009816169739,"399":2.5603370666503906,"400":-3.112445831298828,"401":0.8135068416595459,"402":0.003893661079928279,"403":0.28311774134635925,"404":0.5362861156463623,"405":0.27021047472953796,"406":-0.3117941915988922,"407":2.7711639404296875,"408":1.3527450561523438,"409":2.6176559925079346,"410":-1.7429701089859009,"411":-5.1581292152404785,"412":-2.3164093494415283,"413":5.910871505737305,"414":1.5169166326522827,"415":3.0128965377807617,"416":2.0082507133483887,"417":-1.848900318145752,"418":1.682837724685669,"419":-2.498469829559326,"420":1.3743102550506592,"421":-0.5529952645301819,"422":3.2803092002868652,"423":-6.218392848968506,"424":-7.841341018676758,"425":-0.946649432182312,"426":-7.307406902313232,"427":-0.415154367685318,"428":3.3240277767181396,"429":6.392739772796631,"430":5.190874099731445,"431":-0.4133419394493103,"432":-4.0676589012146,"433":-8.252933502197266,"434":4.502570152282715,"435":-3.710261583328247,"436":-0.6516969799995422,"437":-3.539768695831299,"438":-6.48510217666626,"439":1.8962143659591675,"440":6.177079200744629,"441":2.1028947830200195,"442":2.7960445880889893,"443":-0.9043582677841187,"444":0.44987934827804565,"445":-3.309481143951416,"446":-0.12287880480289459,"447":3.04805588722229,"448":2.0686514377593994,"449":-4.8050923347473145,"450":4.415793418884277,"451":-27.992368698120117,"452":-6.2392730712890625,"453":6.846805572509766,"454":-4.59585428237915,"455":4.699905872344971,"456":1.5185446739196777,"457":-8.10544204711914,"458":4.183877468109131,"459":10.294272422790527,"460":10.825703620910645,"461":-3.9140641689300537,"462":6.51994514465332,"463":-11.693803787231445,"464":6.834464073181152,"465":-5.88075065612793,"466":5.111385822296143,"467":5.16195821762085,"468":-5.34384298324585,"469":-15.650611877441406,"470":8.936294555664062,"471":13.624764442443848,"472":-5.8611273765563965,"473":-0.7985066175460815,"474":-2.610663414001465,"475":-5.350733280181885,"476":-9.904733657836914,"477":-10.182502746582031,"478":-6.5837249755859375,"479":7.757132530212402,"480":-1.6494722366333008,"481":0.05543119087815285,"482":2.1047985553741455,"483":-7.138458251953125,"484":0.9703420400619507,"485":1.1497244834899902,"486":0.11860188841819763,"487":1.269089698791504,"488":-1.8377381563186646,"489":-1.7436273097991943,"490":8.249710083007812,"491":-2.3674681186676025,"492":-1.1658289432525635,"493":1.090808391571045,"494":-0.5547838807106018,"495":-2.888139486312866,"496":-1.0677565336227417,"497":-7.1270623207092285,"498":0.17407238483428955,"499":-1.0498645305633545,"500":-2.042060613632202,"501":-1.3669275045394897,"502":0.9025338888168335,"503":-3.3546254634857178,"504":-1.7105169296264648,"505":0.8073369860649109,"506":1.4545611143112183,"507":1.990797996520996,"508":-6.838907241821289,"509":0.37046530842781067,"510":3.695990562438965,"511":2.5939788818359375,"512":3.8138415813446045,"513":3.8775012493133545,"514":-3.740328311920166,"515":-1.4968982934951782,"516":6.915879249572754,"517":0.2126154750585556,"518":-6.339260101318359,"519":-5.348078727722168,"520":-2.759744644165039,"521":1.0072439908981323,"522":-1.0670170783996582,"523":5.754558086395264,"524":-2.9784653186798096,"525":-1.302457332611084,"526":-3.0510668754577637,"527":1.3298540115356445,"528":3.394207239151001,"529":3.6879568099975586,"530":-5.819851875305176,"531":-3.6437935829162598,"532":-7.952995300292969,"533":5.849446773529053,"534":-2.3422932624816895,"535":-10.391915321350098,"536":2.4141299724578857,"537":0.21613730490207672,"538":1.9047044515609741,"539":-8.492508888244629,"540":-1.5100899934768677,"541":19.963245391845703,"542":0.8445912599563599,"543":-5.299929141998291,"544":1.8216028213500977,"545":12.469524383544922,"546":8.367473602294922,"547":2.1167256832122803,"548":-3.297050714492798,"549":-1.8143060207366943,"550":16.592952728271484,"551":-0.41394901275634766,"552":-4.765995979309082,"553":-5.247503757476807,"554":-7.25600004196167,"555":5.599498748779297,"556":-4.737826347351074,"557":-3.0810208320617676,"558":-21.53469467163086,"559":-11.538496971130371,"560":23.444290161132812,"561":11.385918617248535,"562":3.1552531719207764,"563":-3.0507452487945557,"564":-5.936223030090332,"565":-1.4907948970794678,"566":-9.762388229370117,"567":1.3792575597763062,"568":4.066611289978027,"569":-11.294698715209961,"570":6.0831756591796875,"571":-5.554603099822998,"572":11.498571395874023,"573":-2.821131706237793,"574":-8.24508285522461,"575":2.6560912132263184,"576":4.666543483734131,"577":-0.16566944122314453,"578":-9.29903793334961,"579":-1.9665900468826294,"580":3.9151172637939453,"581":-10.041898727416992,"582":1.748746633529663,"583":-10.76563549041748,"584":0.18702402710914612,"585":2.280465841293335,"586":1.8967807292938232,"587":-7.235790729522705,"588":-1.1985703706741333,"589":-7.570995807647705,"590":-13.767067909240723,"591":-3.664588212966919,"592":7.28812837600708,"593":0.3887943625450134,"594":7.124743938446045,"595":2.3373591899871826,"596":-7.45039176940918,"597":-1.0100171566009521,"598":-10.101917266845703,"599":2.2558634281158447,"600":-0.7989329099655151,"601":3.546942949295044,"602":-2.9018454551696777,"603":11.12034797668457,"604":-6.421300888061523,"605":-1.502657413482666,"606":8.146282196044922,"607":9.256433486938477,"608":-0.23515762388706207,"609":-0.09511029720306396,"610":4.8419647216796875,"611":5.670701503753662,"612":11.021556854248047,"613":1.9840209484100342,"614":-15.935397148132324,"615":-3.7833733558654785,"616":-5.538897514343262,"617":-1.0428764820098877,"618":-11.87445068359375,"619":0.061476513743400574,"620":-3.5167081356048584,"621":-1.8018616437911987,"622":-3.124411106109619,"623":-3.488676071166992,"624":5.172141075134277,"625":-4.608309268951416,"626":7.921929359436035,"627":13.50662612915039,"628":-9.845458030700684,"629":-3.3875880241394043,"630":4.094110488891602,"631":-6.7920918464660645,"632":-0.04911540821194649,"633":-9.105774879455566,"634":-4.2855682373046875,"635":0.7299893498420715,"636":0.40188226103782654,"637":-6.4196038246154785,"638":-5.603047847747803,"639":-3.750267505645752,"640":4.860920429229736,"641":3.948806047439575,"642":3.601888418197632,"643":0.31217995285987854,"644":0.6406785249710083,"645":-20.099258422851562,"646":12.533127784729004,"647":3.10139536857605,"648":-8.090706825256348,"649":-6.588622093200684,"650":7.342466831207275,"651":3.775332450866699,"652":5.236703872680664,"653":3.638375997543335,"654":-6.643784999847412,"655":-8.564835548400879,"656":2.4835469722747803,"657":-3.1512234210968018,"658":-2.845093250274658,"659":-3.146514415740967,"660":-1.195052981376648,"661":5.066327095031738,"662":7.3551459312438965,"663":-10.542472839355469,"664":1.0817005634307861,"665":-8.919415473937988,"666":-14.712403297424316,"667":-3.7779810428619385,"668":-0.2796545922756195,"669":-4.980850696563721,"670":12.139376640319824,"671":-1.4609657526016235,"672":15.744766235351562,"673":0.4199094772338867,"674":-1.563644528388977,"675":6.354629993438721,"676":7.424406051635742,"677":5.3555378913879395,"678":6.390281677246094,"679":-19.052265167236328,"680":17.948875427246094,"681":10.994424819946289,"682":-7.81572961807251,"683":-10.194877624511719,"684":-10.827058792114258,"685":-1.3194828033447266,"686":7.85687255859375,"687":15.093745231628418,"688":2.689249277114868,"689":4.72301721572876,"690":-3.9316258430480957,"691":-1.4605333805084229,"692":9.984783172607422,"693":-18.463687896728516,"694":-78.05248260498047,"695":15.243780136108398,"696":37.435943603515625,"697":-53.82463455200195,"698":26.142332077026367,"699":89.7311019897461,"700":14.620061874389648,"701":50.6075325012207,"702":18.037992477416992,"703":18.23245620727539,"704":37.15216827392578,"705":-71.01283264160156,"706":6.024243354797363,"707":-16.855451583862305,"708":-38.41523361206055,"709":-23.282392501831055,"710":-4.780235290527344,"711":-10.854165077209473,"712":42.85710525512695,"713":87.05533599853516,"714":-16.75042152404785,"715":-47.69109344482422,"716":-18.08738136291504,"717":-36.289710998535156,"718":-26.59847068786621,"719":-11.174295425415039,"720":6.319180011749268,"721":-3.382474422454834,"722":-29.81613540649414,"723":8.745162963867188,"724":-2.4758028984069824,"725":11.897673606872559,"726":12.541258811950684,"727":7.64348030090332,"728":-7.254969596862793,"729":15.466988563537598,"730":7.227691650390625,"731":-5.935904026031494,"732":-19.854263305664062,"733":-8.008346557617188,"734":-6.336730003356934,"735":5.291172504425049,"736":-25.690631866455078,"737":10.207141876220703,"738":3.1479034423828125,"739":20.758623123168945,"740":2.078778028488159,"741":-15.227940559387207,"742":8.684392929077148,"743":-30.53033447265625,"744":2.8856592178344727,"745":-5.086935520172119,"746":-20.075836181640625,"747":9.999926567077637,"748":5.3660888671875,"749":-4.418227672576904,"750":4.482001304626465,"751":2.1103098392486572,"752":-17.545198440551758,"753":5.320783615112305,"754":-11.366557121276855,"755":7.583425045013428,"756":4.694980144500732,"757":15.211634635925293,"758":2.0531532764434814,"759":6.813719749450684,"760":-4.112756252288818,"761":-6.823955535888672,"762":-32.11585998535156,"763":9.203357696533203,"764":-10.600897789001465,"765":-0.6666107177734375,"766":-16.825355529785156,"767":5.702102184295654,"768":7.797091007232666,"769":37.90145492553711,"770":0.4134366512298584,"771":-19.624420166015625,"772":-5.68074369430542,"773":10.679424285888672,"774":-0.8592674136161804,"775":-6.155574798583984,"776":4.760754585266113,"777":19.20073127746582,"778":12.250876426696777,"779":-28.89986801147461,"780":9.39535903930664,"781":-8.173457145690918,"782":27.814870834350586,"783":2.904148578643799,"784":-1.5821574926376343,"785":-5.676732063293457,"786":-7.4041032791137695,"787":-1.0300192832946777,"788":-25.053455352783203,"789":-2.7384917736053467,"790":-7.664264678955078,"791":-10.481266021728516,"792":-5.942483425140381,"793":-14.559442520141602,"794":-9.595821380615234,"795":10.085348129272461,"796":20.817018508911133,"797":-21.7000675201416,"798":4.820007801055908,"799":-1.1890418529510498,"800":-4.156679153442383,"801":-7.221038818359375,"802":12.101842880249023,"803":4.081704139709473,"804":4.106295585632324,"805":-8.090639114379883,"806":-15.057998657226562,"807":-20.252470016479492,"808":11.35592269897461,"809":18.164379119873047,"810":-9.473135948181152,"811":16.14497184753418,"812":35.60542678833008,"813":4.513161659240723,"814":18.428407669067383,"815":17.422801971435547,"816":-13.837824821472168,"817":-0.1681119054555893,"818":11.681842803955078,"819":11.219160079956055,"820":7.200767517089844,"821":16.04678726196289,"822":-7.603692531585693,"823":-18.941469192504883,"824":10.011960983276367,"825":16.251388549804688,"826":-5.514530181884766,"827":-4.864248275756836,"828":-25.518726348876953,"829":5.656377792358398,"830":23.07484245300293,"831":0.4437762200832367,"832":19.2735652923584,"833":-7.519154071807861,"834":0.901166558265686,"835":-0.13001036643981934,"836":17.167747497558594,"837":-5.959277153015137,"838":50.71128463745117,"839":-11.108458518981934,"840":-1.5088707208633423,"841":-0.47417473793029785,"842":-4.49683141708374,"843":2.812232732772827,"844":3.031668186187744,"845":0.7277302742004395,"846":-0.46763548254966736,"847":-0.6285144686698914,"848":0.9828860759735107,"849":-5.591259002685547,"850":-5.1970367431640625,"851":-2.751922369003296,"852":2.675018310546875,"853":1.135625958442688,"854":1.5258030891418457,"855":0.19766037166118622,"856":2.7246768474578857,"857":3.2285211086273193,"858":-0.722673237323761,"859":4.928266525268555,"860":-2.0108864307403564,"861":-2.9502599239349365,"862":-1.4306427240371704,"863":-5.256272792816162,"864":3.1830928325653076,"865":6.773160457611084,"866":-0.6407175660133362,"867":0.1372041404247284,"868":0.8139033913612366,"869":2.654644250869751,"870":-1.9261252880096436,"871":8.618744850158691,"872":5.287065505981445,"873":-2.994901180267334,"874":-0.14998143911361694,"875":-3.305302143096924,"876":2.773914337158203,"877":-1.2814451456069946,"878":-2.3340017795562744,"879":-0.6664044260978699,"880":2.284719944000244,"881":2.025041341781616,"882":6.45211935043335,"883":1.1730496883392334,"884":3.0477664470672607,"885":6.540432453155518,"886":3.4900755882263184,"887":2.7063350677490234,"888":3.5761473178863525,"889":-2.550306797027588,"890":3.622762680053711,"891":-0.009981554001569748,"892":-4.098111629486084,"893":-5.3387227058410645,"894":0.28135010600090027,"895":1.15580415725708,"896":4.265864372253418,"897":6.015748500823975,"898":-5.01917028427124,"899":0.046764105558395386,"900":0.012575900182127953,"901":0.005102142691612244,"902":0.03384476527571678,"903":0.009115253575146198,"904":0.0106284748762846,"905":-0.01530481781810522,"906":-0.048971448093652725,"907":-0.03028758615255356,"908":-0.044838886708021164,"909":-0.04970838129520416,"910":-0.02066366747021675,"911":0.036721233278512955,"912":-0.018592555075883865,"913":0.0017182762967422605,"914":-0.005388528108596802,"915":0.017003782093524933,"916":-0.008882515132427216,"917":-0.02874624729156494,"918":0.03733880817890167,"919":0.006261562928557396,"920":-0.03960312157869339,"921":0.04864147678017616,"922":0.0514642558991909,"923":0.010420670732855797,"924":0.0064125158824026585,"925":0.030070632696151733,"926":0.046357303857803345,"927":0.04748770222067833,"928":0.007820261642336845,"929":0.04270036146044731}},"hiddenLayers":[{"inputMatrix":{"rows":20,"columns":30,"weights":{"0":-0.7327425479888916,"1":4.632084846496582,"2":-0.6601149439811707,"3":-0.13469453155994415,"4":1.440744400024414,"5":-1.3844329118728638,"6":-0.795244038105011,"7":1.1464312076568604,"8":1.1331366300582886,"9":-1.9070204496383667,"10":1.216770887374878,"11":-0.6729837656021118,"12":0.8422748446464539,"13":-1.1288866996765137,"14":1.3579633235931396,"15":1.6785606145858765,"16":0.21933069825172424,"17":0.16760040819644928,"18":3.1068685054779053,"19":-2.514688491821289,"20":-2.2886528968811035,"21":-1.730303406715393,"22":0.6868304014205933,"23":-2.7704076766967773,"24":1.325005054473877,"25":-0.4504401683807373,"26":-0.9966298937797546,"27":1.4040007591247559,"28":-2.535874128341675,"29":1.3747650384902954,"30":6.041234016418457,"31":-3.9784786701202393,"32":5.464534759521484,"33":-1.296069860458374,"34":1.8662325143814087,"35":1.3421357870101929,"36":-2.356581687927246,"37":2.696103572845459,"38":-0.849510669708252,"39":4.209504127502441,"40":5.512056827545166,"41":0.9011786580085754,"42":-0.7651113271713257,"43":-0.042527321726083755,"44":1.4175559282302856,"45":0.14014047384262085,"46":-2.418854236602783,"47":-1.9443222284317017,"48":0.740354061126709,"49":-3.0051259994506836,"50":1.546493649482727,"51":3.4362339973449707,"52":0.5556824207305908,"53":-4.808372497558594,"54":0.3062916100025177,"55":-3.503129005432129,"56":-1.225480079650879,"57":-2.248905897140503,"58":-0.49074283242225647,"59":-1.6716493368148804,"60":-1.1531301736831665,"61":0.1355784386396408,"62":-2.9994704723358154,"63":-1.4561512470245361,"64":-0.7971076369285583,"65":-1.9020732641220093,"66":-0.915774405002594,"67":-1.670779824256897,"68":-1.5171631574630737,"69":-1.8250032663345337,"70":-0.517433226108551,"71":0.678096354007721,"72":0.9179604649543762,"73":-0.25729891657829285,"74":0.5003331899642944,"75":0.5614621043205261,"76":0.18329085409641266,"77":-1.400164008140564,"78":1.4647858142852783,"79":-3.263648509979248,"80":2.556269407272339,"81":-2.48580265045166,"82":-0.5281144976615906,"83":-1.2632797956466675,"84":0.8632723689079285,"85":0.02365999110043049,"86":1.5051801204681396,"87":-0.23225006461143494,"88":-1.6786067485809326,"89":2.9077579975128174,"90":-0.3790486752986908,"91":0.16676382720470428,"92":0.12308362871408463,"93":-2.0142769813537598,"94":1.1987355947494507,"95":-0.3566599488258362,"96":-0.27766096591949463,"97":-0.781226634979248,"98":-0.23876769840717316,"99":-1.5680912733078003,"100":-3.0182032585144043,"101":0.6171864867210388,"102":1.0867724418640137,"103":1.0322312116622925,"104":1.1376136541366577,"105":2.5643837451934814,"106":-1.213963508605957,"107":-0.7315452694892883,"108":1.5879827737808228,"109":0.19089892506599426,"110":-1.7387741804122925,"111":-0.9389492869377136,"112":-0.640343964099884,"113":0.5309911370277405,"114":0.03322351723909378,"115":0.9535747766494751,"116":2.7500240802764893,"117":1.2336453199386597,"118":2.0024893283843994,"119":-0.7342248558998108,"120":1.2047616243362427,"121":0.14270801842212677,"122":-0.7618026733398438,"123":1.5564048290252686,"124":0.047975894063711166,"125":0.3765130937099457,"126":-2.01653790473938,"127":1.6530957221984863,"128":1.9174171686172485,"129":-0.4504760801792145,"130":-0.18115952610969543,"131":1.276723861694336,"132":-0.407164990901947,"133":1.2356349229812622,"134":-2.014897108078003,"135":-1.9337047338485718,"136":-0.06993567198514938,"137":-0.04159257933497429,"138":-2.7347564697265625,"139":3.9604015350341797,"140":-0.2154451161623001,"141":1.8373805284500122,"142":0.5368573665618896,"143":-2.4272406101226807,"144":1.8777002096176147,"145":0.41589054465293884,"146":0.42901861667633057,"147":2.8045332431793213,"148":3.106667995452881,"149":1.8556345701217651,"150":-0.43958529829978943,"151":0.4647686779499054,"152":-0.32408416271209717,"153":0.03292359039187431,"154":-0.8135870099067688,"155":1.307058334350586,"156":1.5385620594024658,"157":-0.0867304876446724,"158":2.2616164684295654,"159":0.8332242965698242,"160":-1.9950852394104004,"161":0.22124995291233063,"162":1.013331651687622,"163":1.23598051071167,"164":1.028580665588379,"165":-0.037658315151929855,"166":-0.11569325625896454,"167":2.321420907974243,"168":1.3066083192825317,"169":-1.5944786071777344,"170":1.3802225589752197,"171":-0.49805763363838196,"172":-0.7160105109214783,"173":0.13704051077365875,"174":0.42525696754455566,"175":2.3849058151245117,"176":1.2264442443847656,"177":0.3552958369255066,"178":-0.4518701434135437,"179":1.7520194053649902,"180":0.5433936715126038,"181":0.20379258692264557,"182":-0.7868881225585938,"183":0.88624107837677,"184":0.5739412307739258,"185":1.1712491512298584,"186":-0.5518510341644287,"187":0.17607295513153076,"188":1.24550199508667,"189":1.0223246812820435,"190":0.7429729700088501,"191":1.1274304389953613,"192":0.04728436470031738,"193":-0.22719961404800415,"194":1.199829339981079,"195":0.1668717861175537,"196":0.17947137355804443,"197":0.1342497318983078,"198":-3.9585342407226562,"199":0.2610328197479248,"200":-1.1751747131347656,"201":3.2946882247924805,"202":-0.5251224637031555,"203":1.2567274570465088,"204":0.3173951506614685,"205":-0.5304800271987915,"206":0.13239170610904694,"207":-0.980247974395752,"208":2.535665988922119,"209":-1.0943187475204468,"210":0.39076921343803406,"211":1.9190486669540405,"212":0.9958284497261047,"213":0.8543590307235718,"214":-1.7599893808364868,"215":0.29782384634017944,"216":-1.154965877532959,"217":2.0248162746429443,"218":-1.5393890142440796,"219":0.03226504847407341,"220":3.318814516067505,"221":-0.8275570869445801,"222":-1.193251609802246,"223":2.142012357711792,"224":0.3659137487411499,"225":1.8899739980697632,"226":-1.3468323945999146,"227":0.6666941046714783,"228":1.6746225357055664,"229":-0.21391554176807404,"230":-0.04058599844574928,"231":-1.2741999626159668,"232":-0.13709604740142822,"233":-3.0539262294769287,"234":0.12482956051826477,"235":-0.16747310757637024,"236":0.2978626489639282,"237":0.3315446078777313,"238":-2.082287311553955,"239":-0.6140624284744263,"240":-0.7080506682395935,"241":-0.5171644687652588,"242":-3.522564172744751,"243":2.3199377059936523,"244":-1.4402931928634644,"245":-0.17699207365512848,"246":0.8677828907966614,"247":-0.25482043623924255,"248":-0.42634040117263794,"249":1.4511421918869019,"250":-3.4612348079681396,"251":-0.26847749948501587,"252":1.145112156867981,"253":-0.3978922367095947,"254":-3.0226359367370605,"255":-0.8741772174835205,"256":-2.5956201553344727,"257":-0.01989058405160904,"258":-0.6683605313301086,"259":1.11528480052948,"260":-1.7353465557098389,"261":1.3800246715545654,"262":-1.180663824081421,"263":-0.04056186228990555,"264":0.4945777952671051,"265":1.1654387712478638,"266":2.1079132556915283,"267":2.927579402923584,"268":2.947111129760742,"269":-0.5493763089179993,"270":1.4570863246917725,"271":0.4437384605407715,"272":-0.8903917074203491,"273":-0.9209479689598083,"274":-0.9547784328460693,"275":-1.618435263633728,"276":0.14484478533267975,"277":-0.6773999333381653,"278":-0.9483336210250854,"279":1.7406708002090454,"280":-0.9267330169677734,"281":-0.7879586219787598,"282":-0.9019885659217834,"283":-0.20370694994926453,"284":-4.996988773345947,"285":-2.036818027496338,"286":-0.28061920404434204,"287":-3.69809889793396,"288":-2.2472825050354004,"289":-2.932380199432373,"290":4.917940616607666,"291":1.9827711582183838,"292":-0.080651193857193,"293":-0.5539371967315674,"294":-0.44752413034439087,"295":-1.7094504833221436,"296":4.002326965332031,"297":4.677308082580566,"298":4.304671764373779,"299":-4.920619487762451,"300":-0.7151217460632324,"301":0.6045791506767273,"302":-0.6901747584342957,"303":-0.9758572578430176,"304":0.5738628506660461,"305":0.12883085012435913,"306":0.6336747407913208,"307":2.588484525680542,"308":-0.2836984097957611,"309":-2.697355031967163,"310":-0.4065001606941223,"311":1.755936622619629,"312":-0.35720768570899963,"313":0.10728608816862106,"314":-1.1166292428970337,"315":0.9337440133094788,"316":-0.5253438353538513,"317":-0.976891279220581,"318":2.1581132411956787,"319":-0.6903780102729797,"320":1.0702637434005737,"321":2.4381253719329834,"322":-0.3436623215675354,"323":-1.5584743022918701,"324":-0.6377527713775635,"325":1.742667317390442,"326":-2.430924415588379,"327":0.6458073258399963,"328":-0.4290417730808258,"329":-0.38439756631851196,"330":0.8218824863433838,"331":0.09536101669073105,"332":-0.6937488913536072,"333":0.2710210084915161,"334":0.11083082854747772,"335":0.009860387071967125,"336":-0.31622859835624695,"337":-0.6870428919792175,"338":0.3094269037246704,"339":-0.06569522619247437,"340":-1.484849214553833,"341":-0.44284728169441223,"342":0.6916376948356628,"343":-2.3411338329315186,"344":0.4944685399532318,"345":0.8334820866584778,"346":-0.13481660187244415,"347":-1.6667451858520508,"348":-0.16891396045684814,"349":0.11909885704517365,"350":0.7240141034126282,"351":-1.8315929174423218,"352":0.11670628190040588,"353":-0.2840336561203003,"354":1.017227053642273,"355":2.3273518085479736,"356":-0.8165666460990906,"357":-1.2712798118591309,"358":0.41469621658325195,"359":0.44212406873703003,"360":-0.12119585275650024,"361":-2.354340076446533,"362":2.672886371612549,"363":0.8825967907905579,"364":2.876110315322876,"365":0.5533930063247681,"366":-3.276444435119629,"367":-1.6194684505462646,"368":-1.7833061218261719,"369":2.8400025367736816,"370":2.4850728511810303,"371":1.0312364101409912,"372":0.5066009759902954,"373":1.1004260778427124,"374":-0.829410970211029,"375":-1.7711169719696045,"376":0.2116781324148178,"377":-0.026670824736356735,"378":-2.1459712982177734,"379":-1.8735160827636719,"380":0.8385105729103088,"381":2.2600979804992676,"382":0.19967609643936157,"383":-1.2627791166305542,"384":-0.8932202458381653,"385":-1.826026201248169,"386":-0.2901078462600708,"387":-1.0156248807907104,"388":2.314263105392456,"389":0.7457343339920044,"390":0.06648647785186768,"391":2.109575033187866,"392":0.19747331738471985,"393":-1.9811424016952515,"394":-0.33306947350502014,"395":0.1324194073677063,"396":0.16067776083946228,"397":0.9143707752227783,"398":-0.07752649486064911,"399":0.4777820110321045,"400":-1.7561044692993164,"401":-0.019675731658935547,"402":-0.730025589466095,"403":-0.7451627850532532,"404":-2.2181520462036133,"405":0.9598051309585571,"406":-1.7083439826965332,"407":1.3754686117172241,"408":-0.3572177588939667,"409":2.281405448913574,"410":1.6774293184280396,"411":1.1819573640823364,"412":-2.6229054927825928,"413":-0.7773901224136353,"414":-0.35706964135169983,"415":1.004045009613037,"416":0.01894894801080227,"417":3.347411870956421,"418":3.2029969692230225,"419":-2.3900389671325684,"420":-1.0835201740264893,"421":0.96424400806427,"422":-0.516514241695404,"423":2.1930205821990967,"424":-0.2810371220111847,"425":1.5632283687591553,"426":-0.0010535945184528828,"427":-1.1204643249511719,"428":2.1910927295684814,"429":0.41497543454170227,"430":0.6780462265014648,"431":1.5543001890182495,"432":-0.8589288592338562,"433":-1.9083830118179321,"434":1.6386176347732544,"435":0.5756768584251404,"436":0.8757986426353455,"437":1.0120480060577393,"438":3.3260498046875,"439":-0.873546302318573,"440":-1.136909008026123,"441":-2.0592899322509766,"442":1.100021481513977,"443":0.5506372451782227,"444":0.4566500186920166,"445":-0.4562518298625946,"446":0.2197776734828949,"447":-2.7827446460723877,"448":-0.23257943987846375,"449":2.1183111667633057,"450":0.3637668788433075,"451":1.4915084838867188,"452":-1.7741291522979736,"453":3.143280506134033,"454":2.222790479660034,"455":-0.15271113812923431,"456":5.528199195861816,"457":1.7290207147598267,"458":-4.3841423988342285,"459":-0.3383394777774811,"460":-1.3352299928665161,"461":-2.5235025882720947,"462":-3.188091993331909,"463":-1.3109509944915771,"464":1.9236348867416382,"465":2.999969005584717,"466":-0.04079301655292511,"467":-5.240042686462402,"468":-1.7460479736328125,"469":-0.03794978931546211,"470":-2.0216472148895264,"471":-2.1449859142303467,"472":-2.854640483856201,"473":0.02478097565472126,"474":4.755268573760986,"475":2.6182734966278076,"476":-0.7025262713432312,"477":-4.126559734344482,"478":3.055074691772461,"479":-4.40454626083374,"480":2.5524849891662598,"481":0.35107505321502686,"482":-0.1021559089422226,"483":-0.766618013381958,"484":-2.543233871459961,"485":1.1287102699279785,"486":-0.0951678678393364,"487":-0.2943532168865204,"488":-2.8523664474487305,"489":-2.4716992378234863,"490":0.6833600401878357,"491":2.3175246715545654,"492":0.2930355966091156,"493":-0.8484576344490051,"494":-0.7887113690376282,"495":1.8006603717803955,"496":1.8241337537765503,"497":-2.89109206199646,"498":-2.126220226287842,"499":-1.2915736436843872,"500":-0.4116201400756836,"501":0.8101024031639099,"502":1.2161141633987427,"503":1.5096184015274048,"504":-2.401949405670166,"505":1.0411584377288818,"506":0.6363590359687805,"507":2.8819808959960938,"508":-1.6140515804290771,"509":-2.3891332149505615,"510":0.9138466119766235,"511":-0.6299735307693481,"512":1.8958799839019775,"513":3.8157951831817627,"514":1.7336325645446777,"515":-0.330411821603775,"516":-1.1986600160598755,"517":-0.681503415107727,"518":3.423635244369507,"519":-3.0637853145599365,"520":1.8932558298110962,"521":-2.3990859985351562,"522":0.532574474811554,"523":-2.3441355228424072,"524":2.6563594341278076,"525":2.463665246963501,"526":2.2327792644500732,"527":-1.0786269903182983,"528":3.3863039016723633,"529":2.1447367668151855,"530":-2.1486480236053467,"531":-1.3992794752120972,"532":-0.9437732696533203,"533":0.24057748913764954,"534":1.3472349643707275,"535":1.9621622562408447,"536":-1.2868348360061646,"537":-3.0222575664520264,"538":-3.644658327102661,"539":3.5357749462127686,"540":-2.9081501960754395,"541":1.1041103601455688,"542":-2.482614040374756,"543":2.202695846557617,"544":2.282472610473633,"545":0.39724183082580566,"546":1.629667043685913,"547":3.1931991577148438,"548":-2.062742233276367,"549":0.24660393595695496,"550":-1.8198972940444946,"551":-0.2804538607597351,"552":-2.66172194480896,"553":2.3976058959960938,"554":-2.556699514389038,"555":-1.122877597808838,"556":1.8419100046157837,"557":1.3119163513183594,"558":0.12616735696792603,"559":-1.485389232635498,"560":-1.6339128017425537,"561":2.8986663818359375,"562":0.5503952503204346,"563":-0.5364958643913269,"564":-1.5973098278045654,"565":-0.9825510382652283,"566":2.0350289344787598,"567":4.6436309814453125,"568":1.7777130603790283,"569":0.6815855503082275,"570":-2.451244592666626,"571":-0.3409116268157959,"572":-1.8300899267196655,"573":-1.780214548110962,"574":-0.6643889546394348,"575":-0.2488449364900589,"576":1.9391103982925415,"577":1.2534992694854736,"578":-3.971806287765503,"579":-1.2575247287750244,"580":-3.3375775814056396,"581":2.1898696422576904,"582":-0.8761991858482361,"583":1.0552852153778076,"584":-4.360096454620361,"585":-0.40239349007606506,"586":-3.5934648513793945,"587":-0.23887991905212402,"588":-3.071430206298828,"589":-0.9974600672721863,"590":1.1743125915527344,"591":4.843761920928955,"592":0.20995664596557617,"593":-0.776013195514679,"594":-1.3024554252624512,"595":-2.855083465576172,"596":3.4177775382995605,"597":2.4434142112731934,"598":8.089367866516113,"599":-1.070220947265625}},"inputHidden":{"rows":20,"columns":20,"weights":{"0":-5.639584064483643,"1":-0.906946063041687,"2":-3.5417239665985107,"3":8.317453384399414,"4":1.1359626054763794,"5":-1.4155164957046509,"6":1.5668928623199463,"7":3.8580641746520996,"8":18.810108184814453,"9":-3.982034206390381,"10":-0.10615555197000504,"11":0.5166257619857788,"12":-5.142266750335693,"13":-5.931247711181641,"14":9.201457023620605,"15":-1.9999254941940308,"16":9.088767051696777,"17":8.211686134338379,"18":-0.7947784066200256,"19":-4.280121326446533,"20":5.7137627601623535,"21":-10.488112449645996,"22":5.6375412940979,"23":3.3686985969543457,"24":-3.637629985809326,"25":4.884940147399902,"26":4.050018310546875,"27":2.3545665740966797,"28":-10.457639694213867,"29":-2.352363109588623,"30":9.995710372924805,"31":2.8771607875823975,"32":0.89003586769104,"33":-2.1683549880981445,"34":6.46157693862915,"35":6.610822677612305,"36":2.053659677505493,"37":-5.709185600280762,"38":-1.1359797716140747,"39":2.537538528442383,"40":2.5886640548706055,"41":2.091238260269165,"42":-0.11522839218378067,"43":-3.470194101333618,"44":-6.172852993011475,"45":-8.033774375915527,"46":4.941066265106201,"47":-5.007201671600342,"48":5.732979774475098,"49":-0.6874842047691345,"50":-4.2179179191589355,"51":-4.968359470367432,"52":2.149024486541748,"53":-2.9748177528381348,"54":-1.2901965379714966,"55":-4.720607757568359,"56":-4.197000503540039,"57":2.7401442527770996,"58":4.313980579376221,"59":-2.0045478343963623,"60":-12.659255981445312,"61":3.504728078842163,"62":-4.121340274810791,"63":-4.922666072845459,"64":-1.4312469959259033,"65":-1.9839762449264526,"66":4.069052696228027,"67":4.8112993240356445,"68":0.003085391828790307,"69":5.06770133972168,"70":-3.4705801010131836,"71":-5.120693683624268,"72":-5.202732563018799,"73":7.764971733093262,"74":5.68413782119751,"75":0.35870739817619324,"76":6.035736560821533,"77":1.6471120119094849,"78":1.5342515707015991,"79":5.550073623657227,"80":-5.978863716125488,"81":-8.957412719726562,"82":1.5697190761566162,"83":-7.923798084259033,"84":1.8687337636947632,"85":6.519374847412109,"86":2.6375341415405273,"87":7.4042534828186035,"88":-1.8295191526412964,"89":5.052800178527832,"90":2.7600011825561523,"91":-2.0648915767669678,"92":-3.7224619388580322,"93":7.3528666496276855,"94":1.246104121208191,"95":-8.159463882446289,"96":2.30173397064209,"97":-2.307692766189575,"98":6.99663782119751,"99":-0.2943529188632965,"100":0.5286270380020142,"101":-0.785122811794281,"102":1.2432304620742798,"103":-2.9409453868865967,"104":-7.793854236602783,"105":-2.064784526824951,"106":11.346834182739258,"107":-0.978992223739624,"108":-0.33657631278038025,"109":0.7040140628814697,"110":0.3575577139854431,"111":-2.602003812789917,"112":-2.162914991378784,"113":9.95700454711914,"114":3.633000373840332,"115":-0.6563208699226379,"116":-12.837997436523438,"117":-5.041250705718994,"118":-3.8312973976135254,"119":1.6702651977539062,"120":-0.40731850266456604,"121":-3.862616777420044,"122":6.595895290374756,"123":-3.497697114944458,"124":-11.573310852050781,"125":-6.345842361450195,"126":-0.4039921462535858,"127":-6.06377649307251,"128":-7.495987892150879,"129":4.691494941711426,"130":-1.2053884267807007,"131":-3.570528507232666,"132":1.710210919380188,"133":1.2242430448532104,"134":-11.578639030456543,"135":-2.319582223892212,"136":2.372605323791504,"137":8.137377738952637,"138":-7.999213695526123,"139":3.456975221633911,"140":-3.9287335872650146,"141":2.5493481159210205,"142":-1.9281872510910034,"143":1.9093880653381348,"144":2.2516047954559326,"145":4.977731227874756,"146":-3.6539390087127686,"147":-1.6535091400146484,"148":0.3303965926170349,"149":4.3471784591674805,"150":-3.9154882431030273,"151":1.1512088775634766,"152":-6.741182804107666,"153":-1.7489848136901855,"154":1.3538318872451782,"155":-4.53486442565918,"156":3.4684898853302,"157":3.44920015335083,"158":-0.34906062483787537,"159":-2.6781976222991943,"160":2.6349310874938965,"161":-4.587027549743652,"162":0.5312075018882751,"163":1.8636202812194824,"164":-4.283440589904785,"165":-4.63554573059082,"166":1.4266277551651,"167":6.673767566680908,"168":2.6653127670288086,"169":0.12545982003211975,"170":-2.4105453491210938,"171":-5.806811809539795,"172":10.458287239074707,"173":3.286503553390503,"174":5.085076808929443,"175":1.845796823501587,"176":-6.143415451049805,"177":0.5123953819274902,"178":1.4704853296279907,"179":7.421771049499512,"180":6.50301456451416,"181":-10.584068298339844,"182":-1.4503235816955566,"183":2.3366403579711914,"184":-1.7912333011627197,"185":7.9382643699646,"186":2.2234714031219482,"187":-2.8660964965820312,"188":3.1258792877197266,"189":-1.256129503250122,"190":-0.105589859187603,"191":2.322984218597412,"192":-2.463306188583374,"193":0.09326598048210144,"194":-3.896461009979248,"195":-2.5723142623901367,"196":-0.9189370274543762,"197":0.30977746844291687,"198":5.671616554260254,"199":3.4357783794403076,"200":-11.033856391906738,"201":3.8848111629486084,"202":-11.576229095458984,"203":6.27078104019165,"204":1.5439729690551758,"205":-3.3105854988098145,"206":-7.475033760070801,"207":5.955981254577637,"208":-9.077042579650879,"209":-0.3418589234352112,"210":1.0466362237930298,"211":-2.193683624267578,"212":-4.831941604614258,"213":10.052465438842773,"214":3.790944814682007,"215":1.7128301858901978,"216":5.021700382232666,"217":1.5592308044433594,"218":-2.1283111572265625,"219":2.333371877670288,"220":-4.764793395996094,"221":-2.933084487915039,"222":-8.371541976928711,"223":-4.023547649383545,"224":-5.789288520812988,"225":7.986361980438232,"226":1.5028462409973145,"227":-5.262479305267334,"228":-7.772427558898926,"229":1.1644364595413208,"230":-0.7901946306228638,"231":-9.677321434020996,"232":-4.383769512176514,"233":-3.708021640777588,"234":3.530918598175049,"235":-5.435431957244873,"236":-18.876667022705078,"237":2.7707619667053223,"238":-2.533552646636963,"239":1.3462581634521484,"240":9.021943092346191,"241":2.522833824157715,"242":5.4534406661987305,"243":6.827702522277832,"244":0.9858362078666687,"245":-5.07677698135376,"246":7.5835723876953125,"247":-4.995974540710449,"248":1.0094084739685059,"249":7.721620082855225,"250":-2.6073873043060303,"251":-3.2407495975494385,"252":-0.30539584159851074,"253":-3.1382553577423096,"254":-10.9468412399292,"255":-11.627778053283691,"256":-3.320507049560547,"257":-6.584780693054199,"258":4.9601545333862305,"259":4.308305263519287,"260":2.1073451042175293,"261":1.1889430284500122,"262":1.8547148704528809,"263":1.1123275756835938,"264":-15.164270401000977,"265":-0.32380032539367676,"266":2.9705073833465576,"267":1.2006481885910034,"268":-1.8320330381393433,"269":2.564420700073242,"270":0.8020856976509094,"271":1.8538539409637451,"272":8.567609786987305,"273":4.730084419250488,"274":-3.1023130416870117,"275":4.012199401855469,"276":-1.3488764762878418,"277":-9.853423118591309,"278":-7.415384769439697,"279":4.1098952293396,"280":13.614152908325195,"281":3.229656219482422,"282":0.01039760559797287,"283":-0.7889502048492432,"284":2.3788864612579346,"285":-4.619974613189697,"286":-3.0963785648345947,"287":-4.579963207244873,"288":-3.398383617401123,"289":-3.0917515754699707,"290":-5.296946048736572,"291":-10.39279842376709,"292":-2.243448495864868,"293":5.48337459564209,"294":-1.112044334411621,"295":4.145322799682617,"296":10.249395370483398,"297":6.358898639678955,"298":-4.203022480010986,"299":4.492315769195557,"300":-1.9423890113830566,"301":-1.7840384244918823,"302":-1.1545058488845825,"303":-0.2516917884349823,"304":-5.226651191711426,"305":0.44013088941574097,"306":4.8134260177612305,"307":-5.5128021240234375,"308":0.4433414340019226,"309":-3.8541672229766846,"310":-0.8494442701339722,"311":4.616162300109863,"312":2.4143781661987305,"313":-3.5182738304138184,"314":1.9029827117919922,"315":0.5883498787879944,"316":4.008693695068359,"317":0.7803652882575989,"318":4.147909164428711,"319":6.303767204284668,"320":5.441176891326904,"321":-1.6346110105514526,"322":3.284856081008911,"323":0.6400717496871948,"324":1.5243430137634277,"325":-3.9192333221435547,"326":-6.181767463684082,"327":-0.20777374505996704,"328":8.0488920211792,"329":-3.589944362640381,"330":6.446132183074951,"331":-5.771459102630615,"332":-11.592040061950684,"333":0.03197052329778671,"334":-10.333864212036133,"335":-0.43484437465667725,"336":5.023128986358643,"337":-4.117106914520264,"338":-0.3767542541027069,"339":1.1370384693145752,"340":7.502532005310059,"341":-0.5623220205307007,"342":0.22314833104610443,"343":-0.28700482845306396,"344":4.06852388381958,"345":0.46070876717567444,"346":-1.6401664018630981,"347":1.3171610832214355,"348":-1.5126910209655762,"349":-3.298520803451538,"350":0.6743296980857849,"351":5.535720348358154,"352":-1.6722683906555176,"353":-6.734549045562744,"354":8.041163444519043,"355":-4.305677890777588,"356":2.740957498550415,"357":1.637285590171814,"358":-0.8990607857704163,"359":10.903297424316406,"360":5.879527568817139,"361":3.673142194747925,"362":7.166958332061768,"363":-4.1031107902526855,"364":-4.6442790031433105,"365":-0.6211557388305664,"366":4.879337787628174,"367":1.418184757232666,"368":3.192406177520752,"369":-1.2054966688156128,"370":5.245443820953369,"371":-4.634245872497559,"372":7.24497127532959,"373":0.1593879908323288,"374":-5.658627986907959,"375":2.4327549934387207,"376":-0.8861879110336304,"377":-7.180088043212891,"378":-1.9153043031692505,"379":4.3729119300842285,"380":0.9008816480636597,"381":-5.607556343078613,"382":-0.3520529568195343,"383":2.8163607120513916,"384":-3.851658582687378,"385":-2.410432815551758,"386":6.188766002655029,"387":1.6784477233886719,"388":-2.683412790298462,"389":-9.862735748291016,"390":-1.4696547985076904,"391":4.787663459777832,"392":5.771128177642822,"393":-3.7527413368225098,"394":2.2409892082214355,"395":2.771941900253296,"396":-1.3313562870025635,"397":-0.07758934795856476,"398":2.956460475921631,"399":0.856021523475647}},"inputBias":{"rows":20,"columns":1,"weights":{"0":-8.885534286499023,"1":-5.242842197418213,"2":-2.167473793029785,"3":-2.2265262603759766,"4":-5.755820274353027,"5":-2.967215061187744,"6":0.2803795039653778,"7":-0.7337998747825623,"8":-0.2086058259010315,"9":-0.9193962216377258,"10":-4.2026848793029785,"11":-0.562537431716919,"12":3.2193491458892822,"13":2.88639497756958,"14":-1.3674498796463013,"15":-1.4359866380691528,"16":-2.241528034210205,"17":-0.21585890650749207,"18":-1.1149550676345825,"19":-4.772628307342529}},"forgetMatrix":{"rows":20,"columns":30,"weights":{"0":-1.304215908050537,"1":-0.7116289734840393,"2":-1.0084842443466187,"3":-2.7169742584228516,"4":0.3364067077636719,"5":-0.8188043236732483,"6":-1.147592306137085,"7":-0.9471826553344727,"8":0.842223584651947,"9":-1.2651442289352417,"10":4.799813747406006,"11":1.302017331123352,"12":-0.4488820731639862,"13":0.8629192113876343,"14":5.168145179748535,"15":2.402634859085083,"16":-0.344227135181427,"17":-0.5683153867721558,"18":2.400165319442749,"19":-0.505776047706604,"20":1.0549860000610352,"21":-1.1768877506256104,"22":2.8846359252929688,"23":-3.3372325897216797,"24":-1.1731541156768799,"25":-2.139007091522217,"26":-1.989579439163208,"27":-1.5884034633636475,"28":-0.9360876679420471,"29":-0.2981387674808502,"30":-2.3659212589263916,"31":1.5898852348327637,"32":-5.535798072814941,"33":5.535806179046631,"34":-2.0698113441467285,"35":1.5416269302368164,"36":3.512667655944824,"37":2.2741525173187256,"38":2.0567564964294434,"39":0.4796451926231384,"40":0.6133913397789001,"41":-3.4094479084014893,"42":-0.38014450669288635,"43":-0.3824198246002197,"44":-4.221588611602783,"45":-1.340541958808899,"46":2.736523151397705,"47":-0.9444026350975037,"48":0.8763087391853333,"49":-2.367668867111206,"50":-1.09470796585083,"51":6.4086480140686035,"52":-2.3436379432678223,"53":-4.202820301055908,"54":0.9439740777015686,"55":-0.8563942909240723,"56":-0.735594630241394,"57":3.260807752609253,"58":1.9758570194244385,"59":1.6282328367233276,"60":-0.9400154948234558,"61":0.0415363535284996,"62":-0.2132626324892044,"63":2.127117395401001,"64":-0.7402340173721313,"65":-1.7936762571334839,"66":1.0415316820144653,"67":0.22828496992588043,"68":-0.09098365902900696,"69":-2.3113627433776855,"70":0.5302181839942932,"71":-0.14347746968269348,"72":3.282099962234497,"73":1.393065094947815,"74":0.42582887411117554,"75":0.16709911823272705,"76":1.0720239877700806,"77":-1.9141885042190552,"78":2.4125263690948486,"79":0.45923876762390137,"80":0.07666867226362228,"81":-1.0199652910232544,"82":0.4873521327972412,"83":0.6212817430496216,"84":-0.05074402689933777,"85":0.7081688642501831,"86":-1.9814890623092651,"87":0.04357215389609337,"88":-2.160281181335449,"89":3.0954103469848633,"90":2.9185121059417725,"91":-1.4663842916488647,"92":1.1228783130645752,"93":-0.2038506269454956,"94":-3.988835573196411,"95":1.8442975282669067,"96":-4.617177963256836,"97":-2.3166449069976807,"98":3.839367389678955,"99":3.4126052856445312,"100":0.022922728210687637,"101":4.4138922691345215,"102":0.9474387764930725,"103":0.8965535163879395,"104":-3.1212730407714844,"105":-2.881711483001709,"106":-0.9799837470054626,"107":-0.46940216422080994,"108":1.5155946016311646,"109":-0.5698517560958862,"110":-1.621895432472229,"111":-0.40466001629829407,"112":-0.9931943416595459,"113":5.920536518096924,"114":-1.3475099802017212,"115":-2.1906635761260986,"116":0.932442307472229,"117":-0.3720988631248474,"118":-1.0696479082107544,"119":-1.0664536952972412,"120":0.6349483132362366,"121":-0.40537896752357483,"122":0.36376819014549255,"123":2.378683567047119,"124":-0.2991039454936981,"125":1.064151406288147,"126":-1.1394767761230469,"127":5.340312957763672,"128":1.8604865074157715,"129":-3.1712636947631836,"130":-2.160301446914673,"131":-0.6111817955970764,"132":1.2224211692810059,"133":-0.7846054434776306,"134":-3.9176011085510254,"135":-2.7999074459075928,"136":1.5403318405151367,"137":3.2738797664642334,"138":1.403937816619873,"139":1.705639362335205,"140":-2.747326374053955,"141":-0.24760764837265015,"142":-0.34559667110443115,"143":1.6005598306655884,"144":-1.2920068502426147,"145":1.3809539079666138,"146":-1.6846587657928467,"147":0.02397264540195465,"148":-0.09422329068183899,"149":2.9701104164123535,"150":1.8129754066467285,"151":-0.25060757994651794,"152":-0.04918286204338074,"153":-1.2620357275009155,"154":-1.6152170896530151,"155":0.8792280554771423,"156":-3.889456272125244,"157":-1.194275975227356,"158":2.497429132461548,"159":-1.4469048976898193,"160":7.226357460021973,"161":3.422236680984497,"162":4.163314342498779,"163":-0.6407079696655273,"164":2.5948660373687744,"165":-1.6238179206848145,"166":-2.508444309234619,"167":0.3761398494243622,"168":-0.5911213755607605,"169":-0.4896659851074219,"170":2.0501227378845215,"171":0.4898756146430969,"172":-1.8214507102966309,"173":1.7166754007339478,"174":-1.3810817003250122,"175":0.9006319642066956,"176":-0.6392049789428711,"177":0.13061963021755219,"178":-9.031107902526855,"179":3.6596291065216064,"180":0.5541375279426575,"181":-0.7155066728591919,"182":-2.110715389251709,"183":-1.9289443492889404,"184":2.685445785522461,"185":0.9709761738777161,"186":1.3150442838668823,"187":-0.22808204591274261,"188":-1.1541112661361694,"189":-1.7946640253067017,"190":-3.498053550720215,"191":-4.623794078826904,"192":-1.0618525743484497,"193":3.8116137981414795,"194":-7.413161277770996,"195":-1.860047698020935,"196":-3.1342520713806152,"197":-0.9103831648826599,"198":-0.2537325322628021,"199":-0.5206477642059326,"200":-4.180586814880371,"201":0.7148901224136353,"202":-0.6571770310401917,"203":0.04476452246308327,"204":-1.8428902626037598,"205":2.1073858737945557,"206":-3.3438644409179688,"207":2.426194667816162,"208":1.2139601707458496,"209":0.024785730987787247,"210":1.3544957637786865,"211":1.3059029579162598,"212":-0.9827436208724976,"213":2.881376028060913,"214":-2.151594638824463,"215":-0.46870553493499756,"216":3.1834940910339355,"217":2.8569846153259277,"218":-1.4285439252853394,"219":-2.561476469039917,"220":-3.85310697555542,"221":1.5592243671417236,"222":-1.0933077335357666,"223":-2.968130588531494,"224":-2.326540946960449,"225":-0.8477978110313416,"226":0.2620673179626465,"227":0.08739198744297028,"228":1.5429463386535645,"229":2.576488733291626,"230":-1.7643693685531616,"231":0.1757451891899109,"232":0.046841442584991455,"233":2.1554837226867676,"234":3.5682313442230225,"235":1.844176173210144,"236":-1.6623700857162476,"237":-3.7191104888916016,"238":1.7970292568206787,"239":0.4315204918384552,"240":-3.3396050930023193,"241":-2.820953130722046,"242":0.3239535987377167,"243":-1.2964977025985718,"244":-0.9805229902267456,"245":-0.9182602763175964,"246":-1.1023911237716675,"247":0.09722262620925903,"248":-0.32271695137023926,"249":1.8267935514450073,"250":2.27809739112854,"251":-1.7714496850967407,"252":-1.0064725875854492,"253":2.1688263416290283,"254":1.875960350036621,"255":-1.1569324731826782,"256":0.632009744644165,"257":0.7077526450157166,"258":4.491175651550293,"259":-3.0111100673675537,"260":1.477394700050354,"261":1.2279062271118164,"262":-1.582444429397583,"263":-0.8588835597038269,"264":0.09449995309114456,"265":0.38388878107070923,"266":2.3132379055023193,"267":-1.7420567274093628,"268":-1.6251633167266846,"269":1.7014069557189941,"270":-0.31463757157325745,"271":-2.13917875289917,"272":1.0263737440109253,"273":1.234688401222229,"274":2.3233895301818848,"275":-0.6168484687805176,"276":0.11616743355989456,"277":-0.4688358008861542,"278":3.1635308265686035,"279":2.455519676208496,"280":4.850255489349365,"281":-2.4242091178894043,"282":-0.9955736994743347,"283":1.7150800228118896,"284":3.7773265838623047,"285":1.162615418434143,"286":3.1837852001190186,"287":2.464648723602295,"288":4.7625041007995605,"289":-0.28316986560821533,"290":-1.3965723514556885,"291":-1.552517294883728,"292":-0.3426398038864136,"293":-0.07508371770381927,"294":-0.10618090629577637,"295":2.3845791816711426,"296":0.009263898245990276,"297":-0.001443009008653462,"298":-3.3805792331695557,"299":1.0059280395507812,"300":1.7815355062484741,"301":-1.305297613143921,"302":-0.6758579611778259,"303":0.2614876329898834,"304":-1.555585265159607,"305":1.9032553434371948,"306":0.6682286262512207,"307":3.088172674179077,"308":2.9878392219543457,"309":0.2751476764678955,"310":2.166440486907959,"311":3.873307466506958,"312":1.1018562316894531,"313":0.5654100179672241,"314":-0.35488083958625793,"315":-1.6136800050735474,"316":1.534577488899231,"317":-0.07265915721654892,"318":-8.307604789733887,"319":1.8733272552490234,"320":3.0233988761901855,"321":-3.1769838333129883,"322":2.623356819152832,"323":-3.0391197204589844,"324":0.22248096764087677,"325":1.7228999137878418,"326":-0.10468708723783493,"327":-0.4881543815135956,"328":0.5893805027008057,"329":-0.18890076875686646,"330":-2.304466724395752,"331":4.002870559692383,"332":1.0168732404708862,"333":0.012353559955954552,"334":0.4214573800563812,"335":-2.3654239177703857,"336":-0.043588485568761826,"337":0.716648280620575,"338":-2.155681848526001,"339":-1.1750104427337646,"340":0.0716167464852333,"341":-1.8585816621780396,"342":3.4013309478759766,"343":2.9213171005249023,"344":2.6868739128112793,"345":4.477152347564697,"346":-2.5768332481384277,"347":2.664611577987671,"348":4.659049987792969,"349":-1.0170589685440063,"350":0.3133929669857025,"351":-1.0554723739624023,"352":-5.269762992858887,"353":-0.06776296347379684,"354":-3.3804931640625,"355":-3.4298391342163086,"356":-2.1594903469085693,"357":-3.534815549850464,"358":-1.098219871520996,"359":1.7267801761627197,"360":-1.029004454612732,"361":1.6872597932815552,"362":3.042259693145752,"363":-1.9688130617141724,"364":4.087118625640869,"365":3.7482335567474365,"366":-0.7340982556343079,"367":-0.3565899431705475,"368":0.8474146723747253,"369":-2.69938063621521,"370":2.9981062412261963,"371":1.9918606281280518,"372":0.9546297788619995,"373":-0.35439106822013855,"374":2.6791775226593018,"375":2.510420560836792,"376":-0.5691182017326355,"377":0.9360238313674927,"378":-1.47072172164917,"379":0.8709041476249695,"380":-1.1224291324615479,"381":-1.4781804084777832,"382":-2.664433240890503,"383":-2.530724287033081,"384":-2.083176851272583,"385":1.5295863151550293,"386":1.4117313623428345,"387":-0.3843458294868469,"388":-1.4443683624267578,"389":3.848780393600464,"390":-0.02899252250790596,"391":6.4918293952941895,"392":-1.666152834892273,"393":3.4250991344451904,"394":-0.9476112127304077,"395":2.4027469158172607,"396":3.8186511993408203,"397":-1.8091553449630737,"398":3.428607940673828,"399":-3.212524175643921,"400":-0.14277081191539764,"401":-2.0129189491271973,"402":3.670919418334961,"403":0.16470184922218323,"404":-0.0010606328723952174,"405":0.35595226287841797,"406":-2.181462049484253,"407":-0.2316281944513321,"408":-0.3358211815357208,"409":3.7469985485076904,"410":-1.8844387531280518,"411":-4.434648513793945,"412":0.6669922471046448,"413":2.53415584564209,"414":1.1755740642547607,"415":3.435786008834839,"416":-4.279469013214111,"417":-1.2742093801498413,"418":-2.200063705444336,"419":-2.28214430809021,"420":-3.2709946632385254,"421":1.9743831157684326,"422":-4.538942337036133,"423":-1.034513235092163,"424":-2.8376643657684326,"425":-1.715538740158081,"426":5.041723251342773,"427":0.32446548342704773,"428":-1.2214611768722534,"429":0.782192587852478,"430":-4.3991217613220215,"431":-3.0856268405914307,"432":-1.340593695640564,"433":3.3422062397003174,"434":-2.025822639465332,"435":-0.9241741299629211,"436":-5.152251720428467,"437":4.482036113739014,"438":1.9865177869796753,"439":6.22278356552124,"440":-0.2549990117549896,"441":0.5022373795509338,"442":-0.5820127129554749,"443":0.8791710734367371,"444":-1.901021122932434,"445":1.1315826177597046,"446":0.9506224393844604,"447":3.8273680210113525,"448":4.204609394073486,"449":-5.84710693359375,"450":2.2674217224121094,"451":0.9251914620399475,"452":2.4233577251434326,"453":-2.5546624660491943,"454":-0.0740959644317627,"455":-0.5344557166099548,"456":-0.36967647075653076,"457":-2.971806526184082,"458":0.7722522020339966,"459":2.730010986328125,"460":-0.660946786403656,"461":1.7775371074676514,"462":0.931858479976654,"463":-0.4396844804286957,"464":4.195851802825928,"465":2.3565964698791504,"466":-1.0840880870819092,"467":0.268167644739151,"468":2.8806843757629395,"469":-3.3783133029937744,"470":1.9316917657852173,"471":-1.1590098142623901,"472":0.9675159454345703,"473":1.3445206880569458,"474":-0.9951927065849304,"475":-0.9846609830856323,"476":-0.05003494396805763,"477":-2.2183289527893066,"478":1.3339284658432007,"479":-2.318150758743286,"480":-2.416337013244629,"481":0.7502334117889404,"482":-3.0734431743621826,"483":-0.7249947786331177,"484":2.3868048191070557,"485":1.480333924293518,"486":-0.812505841255188,"487":0.5086699724197388,"488":-5.49638557434082,"489":-0.955873966217041,"490":-4.600246429443359,"491":-1.288233757019043,"492":-2.321671962738037,"493":1.6486979722976685,"494":-2.079129934310913,"495":3.1452198028564453,"496":-0.14831344783306122,"497":2.8436782360076904,"498":-0.15783901512622833,"499":3.066469192504883,"500":1.8355059623718262,"501":2.004988431930542,"502":-1.0961530208587646,"503":-0.4927155673503876,"504":-5.152370929718018,"505":0.07764418423175812,"506":2.999236822128296,"507":4.035891532897949,"508":1.1675376892089844,"509":1.0514172315597534,"510":1.509183645248413,"511":0.3460717797279358,"512":1.946942925453186,"513":0.3233165144920349,"514":0.5177792906761169,"515":0.9465935826301575,"516":-0.1304023116827011,"517":1.79447340965271,"518":-2.2206308841705322,"519":-0.006614120677113533,"520":-0.4294157922267914,"521":-1.4143651723861694,"522":-1.135816216468811,"523":-1.3307271003723145,"524":1.0422987937927246,"525":0.10860425978899002,"526":1.1219183206558228,"527":-4.746637344360352,"528":1.4757871627807617,"529":0.7326003909111023,"530":-4.1981635093688965,"531":-3.272026538848877,"532":-2.533522844314575,"533":2.2131171226501465,"534":2.2684710025787354,"535":0.22793126106262207,"536":0.24667887389659882,"537":-1.7344584465026855,"538":-1.3048237562179565,"539":1.484883189201355,"540":-1.9879323244094849,"541":2.490452766418457,"542":-2.1294233798980713,"543":2.444999933242798,"544":0.8896580934524536,"545":-1.1448557376861572,"546":-1.2185249328613281,"547":-0.7399360537528992,"548":-0.14029660820960999,"549":0.7322342395782471,"550":0.9571365118026733,"551":0.8180835843086243,"552":-3.1930341720581055,"553":0.4226550757884979,"554":-3.1857542991638184,"555":-1.5443339347839355,"556":3.823415517807007,"557":-0.07385217398405075,"558":1.6461151838302612,"559":-1.9073474407196045,"560":2.906248092651367,"561":1.6982992887496948,"562":1.9411743879318237,"563":-0.223158061504364,"564":2.109805107116699,"565":-0.027929775416851044,"566":0.6702774167060852,"567":1.1168774366378784,"568":1.4739797115325928,"569":3.8724515438079834,"570":1.8248993158340454,"571":-0.22567766904830933,"572":5.886226654052734,"573":-1.574500322341919,"574":1.5579427480697632,"575":-3.3215975761413574,"576":-1.5151137113571167,"577":2.3242697715759277,"578":-2.4407711029052734,"579":-1.0868430137634277,"580":2.9559485912323,"581":1.165946125984192,"582":3.431447744369507,"583":0.13009683787822723,"584":2.544740676879883,"585":4.851937294006348,"586":-1.3653500080108643,"587":0.6851202845573425,"588":2.1411020755767822,"589":1.69902503490448,"590":-4.192786693572998,"591":0.10828021913766861,"592":-3.215198040008545,"593":2.7899839878082275,"594":-0.4128214716911316,"595":-1.8519445657730103,"596":2.944577217102051,"597":-5.752468109130859,"598":-2.840397596359253,"599":2.0020320415496826}},"forgetHidden":{"rows":20,"columns":20,"weights":{"0":-0.43131276965141296,"1":2.210493564605713,"2":3.0418989658355713,"3":-2.155413866043091,"4":1.4489465951919556,"5":-1.0392411947250366,"6":-4.96332311630249,"7":1.9400737285614014,"8":-3.0029070377349854,"9":2.4059853553771973,"10":2.251976728439331,"11":0.36846989393234253,"12":-3.9995546340942383,"13":1.3491902351379395,"14":0.9909935593605042,"15":0.19481821358203888,"16":-0.5169056057929993,"17":0.16623179614543915,"18":-1.304682970046997,"19":-0.08143848180770874,"20":-2.0071425437927246,"21":-1.4334365129470825,"22":-2.604368209838867,"23":1.8654063940048218,"24":-4.228206634521484,"25":5.1960768699646,"26":-7.487536907196045,"27":4.7344651222229,"28":5.95890998840332,"29":1.6304718255996704,"30":5.017202377319336,"31":-1.0707873106002808,"32":-2.9205715656280518,"33":-3.492682456970215,"34":7.2860236167907715,"35":-6.627413749694824,"36":6.098089694976807,"37":0.7337554693222046,"38":2.9450910091400146,"39":-3.5346412658691406,"40":-2.7211945056915283,"41":1.0069397687911987,"42":-3.5386712551116943,"43":-1.6179006099700928,"44":3.080045223236084,"45":1.6771314144134521,"46":-0.13833913207054138,"47":-0.15644623339176178,"48":-3.0599441528320312,"49":4.247106075286865,"50":-2.3220531940460205,"51":-2.068369150161743,"52":-3.6952762603759766,"53":0.0033252350986003876,"54":0.685182511806488,"55":2.7470080852508545,"56":-0.3732520639896393,"57":0.4102557897567749,"58":-2.14884090423584,"59":-0.9743499755859375,"60":0.25822293758392334,"61":3.4508841037750244,"62":-0.1963401436805725,"63":-0.45099711418151855,"64":4.099153518676758,"65":1.1058048009872437,"66":-5.293015480041504,"67":2.507525682449341,"68":-2.8710556030273438,"69":2.2186784744262695,"70":4.7853312492370605,"71":-3.482395648956299,"72":-5.112395763397217,"73":1.4572261571884155,"74":-5.923868656158447,"75":2.499786853790283,"76":1.4749006032943726,"77":-1.077180027961731,"78":1.3865981101989746,"79":-4.453207969665527,"80":-0.08774890750646591,"81":4.123030662536621,"82":-1.0904854536056519,"83":0.5348346829414368,"84":7.05710506439209,"85":1.1155369281768799,"86":-7.805183410644531,"87":-1.0736078023910522,"88":0.6724388599395752,"89":-2.654733896255493,"90":0.8355899453163147,"91":-1.1982771158218384,"92":-7.655027389526367,"93":2.684616804122925,"94":0.3124094307422638,"95":4.235208034515381,"96":-4.672675132751465,"97":-0.5787116885185242,"98":0.48779234290122986,"99":-8.679776191711426,"100":-0.5829670429229736,"101":5.739211082458496,"102":-2.127687931060791,"103":3.567347764968872,"104":3.4750301837921143,"105":-1.739301085472107,"106":-4.316364765167236,"107":2.8525424003601074,"108":-4.485350131988525,"109":3.392040967941284,"110":-4.260131359100342,"111":-2.6870193481445312,"112":-2.2534985542297363,"113":0.21222852170467377,"114":1.5028096437454224,"115":2.380525588989258,"116":-6.615645408630371,"117":2.751917600631714,"118":-1.5900459289550781,"119":-2.757219076156616,"120":-1.7955647706985474,"121":-6.993584156036377,"122":1.38764488697052,"123":0.5060122013092041,"124":-11.137740135192871,"125":-7.688928604125977,"126":0.8568714261054993,"127":-3.6265923976898193,"128":5.2158589363098145,"129":5.30224084854126,"130":7.0992751121521,"131":2.9071168899536133,"132":2.382650375366211,"133":9.18228816986084,"134":-2.791064977645874,"135":-0.35847121477127075,"136":-2.973956823348999,"137":-5.265071392059326,"138":2.311115264892578,"139":-1.9569371938705444,"140":0.0727483481168747,"141":-3.4205117225646973,"142":1.1673049926757812,"143":-0.9921314120292664,"144":-1.1662495136260986,"145":-1.858562707901001,"146":-1.0045762062072754,"147":-0.641812801361084,"148":-2.6425468921661377,"149":7.516857147216797,"150":-3.3451645374298096,"151":-6.03174352645874,"152":-1.4951742887496948,"153":4.129413604736328,"154":-1.119897723197937,"155":1.4543732404708862,"156":-2.5759050846099854,"157":0.8631176352500916,"158":-1.0503877401351929,"159":-2.4910900592803955,"160":-0.7125519514083862,"161":-2.0260701179504395,"162":-0.9732667803764343,"163":2.7688145637512207,"164":4.39341402053833,"165":9.171257019042969,"166":2.4757561683654785,"167":-5.8558807373046875,"168":-2.432338237762451,"169":4.777143478393555,"170":-0.08776050806045532,"171":-10.81677532196045,"172":-0.7601756453514099,"173":8.772025108337402,"174":-6.3067145347595215,"175":3.6419951915740967,"176":-4.138278484344482,"177":0.8546186685562134,"178":7.916363716125488,"179":-5.886610507965088,"180":-5.3394880294799805,"181":-13.301497459411621,"182":-1.8781204223632812,"183":8.690728187561035,"184":6.077067852020264,"185":-3.8760263919830322,"186":5.638035774230957,"187":3.383047103881836,"188":10.758399963378906,"189":0.5045201182365417,"190":0.0790698379278183,"191":5.728536605834961,"192":0.0705251470208168,"193":14.39383316040039,"194":2.193028211593628,"195":-5.746587753295898,"196":7.30480432510376,"197":7.26777982711792,"198":8.61489486694336,"199":-3.1880276203155518,"200":-2.7418127059936523,"201":-7.3865838050842285,"202":-3.3720297813415527,"203":-0.6672414541244507,"204":-5.09254264831543,"205":-1.6426901817321777,"206":5.187971591949463,"207":-4.505852222442627,"208":5.627081394195557,"209":1.7445690631866455,"210":6.166053771972656,"211":3.9587390422821045,"212":2.13836932182312,"213":-2.5398504734039307,"214":-2.9299845695495605,"215":-2.2092413902282715,"216":-1.4711579084396362,"217":1.5879065990447998,"218":-0.7934564352035522,"219":3.686974287033081,"220":-1.759347677230835,"221":7.188690185546875,"222":0.08539647608995438,"223":0.156972274184227,"224":-1.0733497142791748,"225":1.991773009300232,"226":-5.062469005584717,"227":-3.789299488067627,"228":-1.9222187995910645,"229":6.4843430519104,"230":-1.7969967126846313,"231":-3.5316572189331055,"232":-4.934868335723877,"233":5.864714622497559,"234":-5.418564796447754,"235":-4.904747486114502,"236":-4.905150413513184,"237":-9.833754539489746,"238":2.155424118041992,"239":-4.857157230377197,"240":9.316079139709473,"241":-1.4001383781433105,"242":3.2491140365600586,"243":6.158622741699219,"244":1.5964152812957764,"245":-5.366211891174316,"246":-1.1735445261001587,"247":2.2798893451690674,"248":-5.512275218963623,"249":2.827786922454834,"250":-19.10270118713379,"251":1.153990387916565,"252":0.6811782717704773,"253":3.9731757640838623,"254":-3.778308629989624,"255":4.3842949867248535,"256":0.7765892744064331,"257":-10.447972297668457,"258":-6.586309909820557,"259":-1.3294248580932617,"260":0.6102484464645386,"261":3.504556179046631,"262":-3.8725123405456543,"263":0.87489253282547,"264":-8.020242691040039,"265":3.259726047515869,"266":-3.7887842655181885,"267":-2.3888165950775146,"268":-0.6019901037216187,"269":3.134707450866699,"270":0.2135314792394638,"271":-5.701590538024902,"272":-8.065727233886719,"273":0.584571123123169,"274":1.323136568069458,"275":-0.20014789700508118,"276":-2.044201374053955,"277":-2.6997644901275635,"278":7.541651248931885,"279":-5.717087268829346,"280":-2.3795976638793945,"281":-1.1397932767868042,"282":-0.2632581293582916,"283":-0.908331573009491,"284":-0.061984509229660034,"285":-4.836052894592285,"286":10.974133491516113,"287":1.9245705604553223,"288":2.557260274887085,"289":2.2469232082366943,"290":3.3633534908294678,"291":-1.7173269987106323,"292":-4.069219589233398,"293":-3.087228298187256,"294":1.944655418395996,"295":1.6551539897918701,"296":-1.1435424089431763,"297":3.064234972000122,"298":-0.3613724410533905,"299":-3.528569221496582,"300":-1.9890748262405396,"301":0.9830467700958252,"302":-1.34244966506958,"303":-1.609147071838379,"304":2.782681703567505,"305":0.18127469718456268,"306":0.15332767367362976,"307":-0.48919668793678284,"308":-0.22288131713867188,"309":-2.6938729286193848,"310":-1.2600982189178467,"311":-3.379794120788574,"312":-3.8890137672424316,"313":2.3412201404571533,"314":0.9662680625915527,"315":-2.513914108276367,"316":5.151840686798096,"317":0.668290376663208,"318":0.8710797429084778,"319":-4.333578109741211,"320":2.4080350399017334,"321":-0.47901082038879395,"322":1.8849889039993286,"323":2.9554715156555176,"324":-0.6824448108673096,"325":-2.018164873123169,"326":-2.773601531982422,"327":1.2553138732910156,"328":-1.7697879076004028,"329":2.0666844844818115,"330":3.110811233520508,"331":0.710986852645874,"332":-3.583329439163208,"333":-0.9194311499595642,"334":-1.0018247365951538,"335":-1.6829030513763428,"336":-0.1908116489648819,"337":-3.6165194511413574,"338":3.1249897480010986,"339":-0.1625405251979828,"340":-1.7771364450454712,"341":5.995036602020264,"342":-0.12783922255039215,"343":-1.3821797370910645,"344":0.5701682567596436,"345":5.964710712432861,"346":-4.076972007751465,"347":1.0995432138442993,"348":1.0874385833740234,"349":2.1111721992492676,"350":-3.3620057106018066,"351":0.7385052442550659,"352":-7.470832824707031,"353":2.106665849685669,"354":-1.3330551385879517,"355":0.45483219623565674,"356":1.7958242893218994,"357":5.010676860809326,"358":-1.2254457473754883,"359":-4.2740559577941895,"360":-2.226012706756592,"361":2.283601999282837,"362":0.25150641798973083,"363":-3.940258026123047,"364":0.3248516023159027,"365":3.7815020084381104,"366":-6.791463851928711,"367":-9.080110549926758,"368":-4.092374324798584,"369":0.8374074101448059,"370":-0.5502486228942871,"371":-4.865192890167236,"372":-6.065221786499023,"373":4.125459671020508,"374":-3.1805925369262695,"375":-0.4409032166004181,"376":1.9543402194976807,"377":-3.248218536376953,"378":10.562360763549805,"379":0.30963134765625,"380":-1.33653724193573,"381":1.2211858034133911,"382":6.049323081970215,"383":-4.177016258239746,"384":0.7762978076934814,"385":0.0903167799115181,"386":-10.625885963439941,"387":-1.048056721687317,"388":-1.3714070320129395,"389":2.7632906436920166,"390":-4.261704444885254,"391":-4.865370750427246,"392":0.6625499129295349,"393":0.2899653911590576,"394":-3.8436107635498047,"395":-3.5568199157714844,"396":-0.05207692086696625,"397":0.8157901167869568,"398":3.906721353530884,"399":1.9478098154067993}},"forgetBias":{"rows":20,"columns":1,"weights":{"0":0,"1":0,"2":0,"3":0,"4":0,"5":0,"6":0,"7":0,"8":0,"9":0,"10":0,"11":0,"12":0,"13":0,"14":0,"15":0,"16":0,"17":0,"18":0,"19":0}},"outputMatrix":{"rows":20,"columns":30,"weights":{"0":0.41675451397895813,"1":-0.6499039530754089,"2":-0.08330117911100388,"3":-0.8111740946769714,"4":-0.589544415473938,"5":0.297880083322525,"6":-0.8158502578735352,"7":-2.908358335494995,"8":1.7983474731445312,"9":2.249847412109375,"10":-1.4207537174224854,"11":-0.4015287160873413,"12":-1.5893067121505737,"13":-1.4317330121994019,"14":0.2998022437095642,"15":-1.1333982944488525,"16":0.2993740439414978,"17":0.3936980664730072,"18":1.7526215314865112,"19":-0.9137281179428101,"20":0.3638855516910553,"21":0.020852351561188698,"22":-0.039698608219623566,"23":4.3202900886535645,"24":-0.42260709404945374,"25":0.7495606541633606,"26":1.4068331718444824,"27":-0.7869850993156433,"28":0.3616360127925873,"29":-0.49387484788894653,"30":0.6021813154220581,"31":-0.13867662847042084,"32":0.7849045395851135,"33":-0.5838420987129211,"34":-0.9151237607002258,"35":-0.7050856947898865,"36":0.18582674860954285,"37":-0.04515942931175232,"38":-0.14605702459812164,"39":2.4550154209136963,"40":5.074514865875244,"41":0.970080554485321,"42":1.0050015449523926,"43":-1.5657551288604736,"44":3.420283555984497,"45":0.027678092941641808,"46":-1.4932165145874023,"47":0.01028812862932682,"48":-0.8297581672668457,"49":-0.1558300256729126,"50":1.2725727558135986,"51":-1.460382103919983,"52":-1.0164508819580078,"53":-1.4964584112167358,"54":0.14820383489131927,"55":-0.3128432333469391,"56":1.3947114944458008,"57":-0.1699383407831192,"58":-2.7310755252838135,"59":-1.9859000444412231,"60":-0.1696794480085373,"61":0.385425865650177,"62":0.6741739511489868,"63":0.9530329704284668,"64":1.4232264757156372,"65":1.780207633972168,"66":-0.26878246665000916,"67":-0.41881129145622253,"68":0.9487051367759705,"69":0.8765065670013428,"70":-0.9113075137138367,"71":-0.8172703981399536,"72":-0.21641241014003754,"73":0.24641087651252747,"74":0.5656706094741821,"75":0.28544381260871887,"76":-0.5533199906349182,"77":1.3079919815063477,"78":-0.19114813208580017,"79":1.2028348445892334,"80":-1.789837121963501,"81":0.3118763267993927,"82":-0.49904099106788635,"83":-0.5356347560882568,"84":-0.08129121363162994,"85":1.3877214193344116,"86":0.7160216569900513,"87":-0.517711877822876,"88":1.0647392272949219,"89":-0.48748815059661865,"90":0.23960329592227936,"91":-0.7266361117362976,"92":-1.7773358821868896,"93":0.1299641877412796,"94":-0.27855363488197327,"95":-0.5752838253974915,"96":0.3134099543094635,"97":-0.4810725152492523,"98":-0.5250479578971863,"99":-3.782292366027832,"100":1.6938071250915527,"101":-0.6566910743713379,"102":-0.28873467445373535,"103":-1.7219090461730957,"104":1.0671757459640503,"105":0.40488117933273315,"106":3.640085458755493,"107":0.40510544180870056,"108":1.4161921739578247,"109":0.04380063712596893,"110":0.27560192346572876,"111":1.0312929153442383,"112":0.42919158935546875,"113":-0.8732967376708984,"114":0.7971681356430054,"115":0.8162409067153931,"116":-0.41678860783576965,"117":0.044750794768333435,"118":-1.9042898416519165,"119":1.9382137060165405,"120":-0.03449130058288574,"121":0.14508241415023804,"122":-0.9468029141426086,"123":-0.6408905982971191,"124":2.103954553604126,"125":-1.5972660779953003,"126":-2.3365824222564697,"127":0.9661318063735962,"128":1.8894885778427124,"129":-1.8010057210922241,"130":1.3979802131652832,"131":0.015019801445305347,"132":1.525363564491272,"133":-0.243325874209404,"134":2.334690809249878,"135":1.1821105480194092,"136":-0.9559392333030701,"137":-0.008939920924603939,"138":-4.731588363647461,"139":3.274867296218872,"140":2.332378625869751,"141":0.5051594972610474,"142":-0.42580872774124146,"143":-4.350709438323975,"144":-0.7743244767189026,"145":1.2626780271530151,"146":-5.114201068878174,"147":-0.6384071111679077,"148":-0.08727113157510757,"149":0.44427886605262756,"150":-1.275526523590088,"151":-0.6086621284484863,"152":1.9278826713562012,"153":-1.5367608070373535,"154":-0.3237397372722626,"155":0.12572361528873444,"156":1.2475697994232178,"157":-1.0422662496566772,"158":-2.5004570484161377,"159":0.08992453664541245,"160":-3.042428493499756,"161":0.6476967334747314,"162":-1.5848287343978882,"163":-0.2667136788368225,"164":-2.889106035232544,"165":0.7754325270652771,"166":-0.5031754374504089,"167":-0.980873167514801,"168":1.294287919998169,"169":-0.9106136560440063,"170":0.7840610146522522,"171":-2.002894401550293,"172":1.3030537366867065,"173":5.12839937210083,"174":0.0998070016503334,"175":0.3797922134399414,"176":-0.1754409670829773,"177":-1.3701012134552002,"178":0.836850106716156,"179":-0.20359477400779724,"180":-0.09185290336608887,"181":0.46920713782310486,"182":0.7366017699241638,"183":-1.2939188480377197,"184":-0.23790428042411804,"185":0.23866784572601318,"186":-0.1737707108259201,"187":0.38792744278907776,"188":-0.3328512907028198,"189":-0.03427585959434509,"190":1.3874984979629517,"191":0.011117878369987011,"192":-1.1930605173110962,"193":-1.8840844631195068,"194":1.4531147480010986,"195":0.3283819556236267,"196":0.9709077477455139,"197":-3.316124677658081,"198":-0.9762464165687561,"199":-3.6745643615722656,"200":0.11786937713623047,"201":0.9003729224205017,"202":1.512620210647583,"203":-0.7446027398109436,"204":-0.45483970642089844,"205":-1.2814006805419922,"206":-0.44554468989372253,"207":-0.784412682056427,"208":1.8020474910736084,"209":-0.0931638777256012,"210":-2.2742252349853516,"211":0.6083102226257324,"212":0.0701960101723671,"213":0.6148229241371155,"214":-1.7733503580093384,"215":1.2437649965286255,"216":-0.3027772009372711,"217":0.641975998878479,"218":0.34727129340171814,"219":2.302530288696289,"220":-3.1140084266662598,"221":-0.9104632139205933,"222":-0.29166755080223083,"223":-2.3313865661621094,"224":1.6054248809814453,"225":-0.34145450592041016,"226":2.1700851917266846,"227":0.4884108603000641,"228":5.699581146240234,"229":2.5650131702423096,"230":-3.337597370147705,"231":-2.9507524967193604,"232":2.4241511821746826,"233":1.0961211919784546,"234":2.7316901683807373,"235":0.24437376856803894,"236":-3.093625068664551,"237":-5.030572891235352,"238":0.37638354301452637,"239":4.372775554656982,"240":-0.010784062556922436,"241":0.4371063709259033,"242":-1.111638069152832,"243":0.8287281394004822,"244":-0.8239442706108093,"245":0.49305206537246704,"246":3.4344582557678223,"247":0.730370044708252,"248":-1.5637927055358887,"249":-1.4767563343048096,"250":-7.440136909484863,"251":-0.9907243847846985,"252":-0.8711180090904236,"253":-0.6318429112434387,"254":-4.880654335021973,"255":0.15870340168476105,"256":-0.8345117568969727,"257":-1.336284875869751,"258":-1.2372708320617676,"259":0.9291207790374756,"260":-0.510367751121521,"261":0.31480884552001953,"262":-0.7366233468055725,"263":0.8233766555786133,"264":0.6465551853179932,"265":1.5504624843597412,"266":-0.6928765773773193,"267":1.7332178354263306,"268":3.879105567932129,"269":1.1965962648391724,"270":-3.195910930633545,"271":2.2036564350128174,"272":-2.879507541656494,"273":-0.3546646535396576,"274":-2.027172088623047,"275":0.11538691818714142,"276":-1.788026213645935,"277":1.4474668502807617,"278":2.443032741546631,"279":-1.0205128192901611,"280":-2.643599510192871,"281":-3.84567928314209,"282":-2.665825366973877,"283":0.5442758798599243,"284":-4.325013160705566,"285":-2.485477924346924,"286":0.3054983615875244,"287":-0.04685131460428238,"288":-2.9688987731933594,"289":-4.550114154815674,"290":5.362062931060791,"291":2.096231698989868,"292":2.355672836303711,"293":2.3187453746795654,"294":-2.173008680343628,"295":0.7672202587127686,"296":3.950688123703003,"297":3.9369328022003174,"298":5.590397834777832,"299":-0.013979826122522354,"300":-1.232962727546692,"301":-0.18838344514369965,"302":1.8207871913909912,"303":-1.5797019004821777,"304":0.4013465344905853,"305":1.8349250555038452,"306":-0.24326205253601074,"307":-1.1698096990585327,"308":-2.740675449371338,"309":1.1199921369552612,"310":1.8075422048568726,"311":-0.450496107339859,"312":0.08594365417957306,"313":-0.8677042126655579,"314":1.4071120023727417,"315":0.29908913373947144,"316":-1.055046558380127,"317":1.677861213684082,"318":-0.24574321508407593,"319":-1.2611249685287476,"320":0.5967052578926086,"321":1.8960111141204834,"322":1.8549139499664307,"323":-1.5703446865081787,"324":0.023397495970129967,"325":-2.6081180572509766,"326":0.9987420439720154,"327":-0.42413800954818726,"328":-2.096269369125366,"329":1.0639094114303589,"330":-0.8784399032592773,"331":-0.18659448623657227,"332":-0.08166493475437164,"333":1.87825608253479,"334":0.8379051685333252,"335":0.17881062626838684,"336":-1.2423955202102661,"337":1.1912469863891602,"338":0.18593421578407288,"339":-1.4515767097473145,"340":-0.44489216804504395,"341":-0.6897873282432556,"342":-1.2503198385238647,"343":0.5399218797683716,"344":-2.7572638988494873,"345":-1.4744960069656372,"346":-0.0756198912858963,"347":-1.7061444520950317,"348":1.5538016557693481,"349":-0.4240512251853943,"350":-1.410011649131775,"351":-0.919527530670166,"352":0.833350658416748,"353":-0.7842577695846558,"354":0.5544230341911316,"355":-0.513605535030365,"356":-2.323678731918335,"357":1.312882423400879,"358":0.22707287967205048,"359":-0.11711317300796509,"360":0.7327776551246643,"361":-0.9076753854751587,"362":-0.2622741460800171,"363":1.2162779569625854,"364":0.5283094644546509,"365":0.10758796334266663,"366":-1.4629572629928589,"367":1.5422202348709106,"368":-0.44661620259284973,"369":0.4771591126918793,"370":1.4322422742843628,"371":-1.5043319463729858,"372":-0.0849892646074295,"373":-0.18101046979427338,"374":-2.3707571029663086,"375":0.8775714039802551,"376":1.4351578950881958,"377":0.029376214370131493,"378":-2.8089942932128906,"379":0.7199339270591736,"380":1.2596276998519897,"381":1.6737027168273926,"382":-0.7111984491348267,"383":0.4783114194869995,"384":0.10029147565364838,"385":-3.9298171997070312,"386":1.930511236190796,"387":0.5724295973777771,"388":2.2379918098449707,"389":-0.1483214646577835,"390":-0.31242382526397705,"391":0.41194841265678406,"392":-0.5399819612503052,"393":1.795164942741394,"394":-0.05536026135087013,"395":-0.08404513448476791,"396":0.1810087263584137,"397":1.3068792819976807,"398":-0.12166734039783478,"399":-1.3352000713348389,"400":2.3958241939544678,"401":-0.4172137975692749,"402":-0.5968402028083801,"403":0.15482518076896667,"404":-1.609236478805542,"405":-2.062258243560791,"406":-0.21512490510940552,"407":-0.5778023600578308,"408":-1.667927622795105,"409":-0.43066635727882385,"410":2.1065618991851807,"411":1.0287971496582031,"412":-0.2669195234775543,"413":-0.8975095748901367,"414":-0.0031345325987786055,"415":-3.228350877761841,"416":-0.5260411500930786,"417":0.037420980632305145,"418":1.7545024156570435,"419":-1.1771676540374756,"420":0.35869523882865906,"421":-1.2621049880981445,"422":0.9329834580421448,"423":-0.2664649784564972,"424":-1.1506060361862183,"425":-1.2922263145446777,"426":1.5998328924179077,"427":-0.7172456979751587,"428":-1.0928611755371094,"429":-0.19569168984889984,"430":-1.683825969696045,"431":0.9522770643234253,"432":1.0396205186843872,"433":1.1673942804336548,"434":-1.0088506937026978,"435":-1.1060980558395386,"436":-0.7704079151153564,"437":-0.8388157486915588,"438":-1.2244113683700562,"439":1.325171709060669,"440":0.24603904783725739,"441":1.3426164388656616,"442":-0.35113367438316345,"443":1.9841837882995605,"444":0.6202945709228516,"445":-2.356149911880493,"446":2.798666000366211,"447":-0.6803258657455444,"448":2.1730165481567383,"449":-1.0777294635772705,"450":1.459629774093628,"451":0.6995838284492493,"452":1.3892207145690918,"453":-0.9144117832183838,"454":-0.16803781688213348,"455":-1.607800006866455,"456":-1.5742008686065674,"457":-0.31121405959129333,"458":4.522812843322754,"459":1.482643961906433,"460":2.01236629486084,"461":0.17139264941215515,"462":0.23229973018169403,"463":-2.1555166244506836,"464":4.294345855712891,"465":1.7696411609649658,"466":-3.5078606605529785,"467":0.4670814275741577,"468":0.01994522660970688,"469":5.456512928009033,"470":2.226637601852417,"471":-3.087770700454712,"472":-0.14986568689346313,"473":-1.454033613204956,"474":0.19700868427753448,"475":1.5873490571975708,"476":0.0050396001897752285,"477":-0.7440056204795837,"478":-2.4395182132720947,"479":-0.47862008213996887,"480":-0.2904399037361145,"481":0.3212960660457611,"482":0.4150800108909607,"483":-0.9143478274345398,"484":0.46736159920692444,"485":0.12160629779100418,"486":-0.08613105863332748,"487":1.0287182331085205,"488":-0.592573344707489,"489":-2.0026235580444336,"490":-0.8180402517318726,"491":0.1490258276462555,"492":-1.1271836757659912,"493":0.11070020496845245,"494":0.05653255432844162,"495":0.6322885155677795,"496":0.21994531154632568,"497":-0.10825631022453308,"498":2.7312746047973633,"499":-0.9776486754417419,"500":-1.750678539276123,"501":0.9974285364151001,"502":0.425008088350296,"503":-3.89603853225708,"504":-0.748831570148468,"505":0.844563901424408,"506":-0.02716151252388954,"507":-0.2210150808095932,"508":-0.7764628529548645,"509":1.4662094116210938,"510":0.8220525979995728,"511":0.5634598135948181,"512":-0.6636081337928772,"513":0.9289581775665283,"514":-0.40977251529693604,"515":-0.6816380023956299,"516":-1.4245471954345703,"517":-2.275733232498169,"518":1.1899724006652832,"519":2.0272982120513916,"520":2.387693405151367,"521":1.5630533695220947,"522":-0.10777272284030914,"523":-1.0012295246124268,"524":-0.22909745573997498,"525":-2.801112651824951,"526":1.5587520599365234,"527":0.6233816742897034,"528":1.6644530296325684,"529":-0.1191369816660881,"530":2.4866068363189697,"531":4.125206470489502,"532":0.8044450283050537,"533":2.1497631072998047,"534":0.8619101643562317,"535":-3.8009579181671143,"536":-0.9683811068534851,"537":-1.1780548095703125,"538":-1.7199316024780273,"539":0.37769120931625366,"540":0.04453166574239731,"541":-0.42500123381614685,"542":0.7514602541923523,"543":-0.34394845366477966,"544":-1.3319023847579956,"545":-0.14687328040599823,"546":0.5084710717201233,"547":-0.40201336145401,"548":0.10351574420928955,"549":0.9738249778747559,"550":-2.137564182281494,"551":0.5191978216171265,"552":-0.6829836964607239,"553":-0.6978205442428589,"554":0.31029626727104187,"555":0.8530387878417969,"556":-0.9776546359062195,"557":-0.360350638628006,"558":1.9804774522781372,"559":-1.2788549661636353,"560":-1.1711984872817993,"561":0.7491129040718079,"562":-0.006551630329340696,"563":3.1282267570495605,"564":-1.0737404823303223,"565":0.2360554337501526,"566":0.6356887221336365,"567":-0.6344094276428223,"568":3.5103671550750732,"569":0.06417261809110641,"570":-1.2685025930404663,"571":-0.21273191273212433,"572":0.6121743321418762,"573":-0.36714014410972595,"574":0.9143563508987427,"575":-0.510195255279541,"576":-0.6855908632278442,"577":0.5225593447685242,"578":-1.954214096069336,"579":-0.49099215865135193,"580":-1.1234747171401978,"581":0.8104470372200012,"582":1.2644953727722168,"583":0.09051015228033066,"584":-4.040500164031982,"585":1.541210651397705,"586":-2.3831748962402344,"587":0.3927019238471985,"588":-0.14677830040454865,"589":0.8260354399681091,"590":1.6946438550949097,"591":0.961527407169342,"592":0.9205106496810913,"593":1.0341962575912476,"594":-0.840584933757782,"595":-1.9614070653915405,"596":0.31716370582580566,"597":1.3525198698043823,"598":2.84401535987854,"599":2.6928155422210693}},"outputHidden":{"rows":20,"columns":20,"weights":{"0":-0.5609048008918762,"1":-3.76788067817688,"2":3.206463575363159,"3":1.4579675197601318,"4":-3.7516748905181885,"5":-0.7321082353591919,"6":-0.3839740455150604,"7":-0.8908396363258362,"8":-0.4157441556453705,"9":1.4804164171218872,"10":-4.9110918045043945,"11":8.145352363586426,"12":0.9973382949829102,"13":4.930380344390869,"14":-2.09964656829834,"15":-10.34841537475586,"16":-3.1955556869506836,"17":3.0573060512542725,"18":-5.879323482513428,"19":-13.433671951293945,"20":-4.476795196533203,"21":-4.735503673553467,"22":6.162769317626953,"23":1.7370843887329102,"24":-3.3114545345306396,"25":2.8924307823181152,"26":-5.415537357330322,"27":3.678694486618042,"28":0.5402494072914124,"29":-1.0767817497253418,"30":2.708822727203369,"31":0.005128337070345879,"32":0.6020889282226562,"33":0.6647210121154785,"34":7.260944843292236,"35":5.970027446746826,"36":12.105131149291992,"37":-8.591541290283203,"38":-1.1847281455993652,"39":-9.740911483764648,"40":-8.064116477966309,"41":6.771997451782227,"42":-10.106526374816895,"43":-6.651045799255371,"44":-3.8727569580078125,"45":-5.362857818603516,"46":2.307619571685791,"47":2.937567710876465,"48":-1.171007752418518,"49":0.04419618472456932,"50":-2.9268600940704346,"51":1.443887710571289,"52":0.16181397438049316,"53":5.665924072265625,"54":3.8902792930603027,"55":-6.44999885559082,"56":-8.371577262878418,"57":3.69826340675354,"58":0.27636000514030457,"59":-4.271618366241455,"60":-2.6020259857177734,"61":3.4746177196502686,"62":-4.18531608581543,"63":-3.0870840549468994,"64":-7.411022186279297,"65":-1.0801230669021606,"66":-5.890022277832031,"67":0.6827458739280701,"68":-3.920513391494751,"69":2.0491325855255127,"70":-0.9241256713867188,"71":-4.51520299911499,"72":1.7199246883392334,"73":0.490317702293396,"74":3.5937042236328125,"75":-2.0786328315734863,"76":0.41235628724098206,"77":1.7794288396835327,"78":-2.3481013774871826,"79":6.787987232208252,"80":-2.233741283416748,"81":-3.5864028930664062,"82":2.202606678009033,"83":-6.312202453613281,"84":4.17273473739624,"85":0.4003179669380188,"86":3.321138620376587,"87":4.954680442810059,"88":8.859309196472168,"89":-11.651107788085938,"90":0.2534257173538208,"91":-0.09116838872432709,"92":5.470152854919434,"93":4.528549671173096,"94":-0.4426581859588623,"95":-0.9794089198112488,"96":-6.861874103546143,"97":-1.2184287309646606,"98":-1.822648048400879,"99":2.944559097290039,"100":3.658170461654663,"101":-9.873090744018555,"102":-0.3997946083545685,"103":8.270187377929688,"104":-4.504903793334961,"105":3.336826801300049,"106":2.2986490726470947,"107":11.617888450622559,"108":5.946885108947754,"109":2.327044725418091,"110":-3.10544753074646,"111":-3.6990604400634766,"112":2.748744249343872,"113":-4.928017616271973,"114":-3.4660024642944336,"115":-2.8775336742401123,"116":-7.7705464363098145,"117":-6.681015491485596,"118":-4.680342197418213,"119":-10.22698974609375,"120":-5.42924690246582,"121":-16.636144638061523,"122":1.188742995262146,"123":-7.825428009033203,"124":6.322551727294922,"125":-9.197325706481934,"126":7.350019931793213,"127":-13.090275764465332,"128":2.4887802600860596,"129":-0.5185114145278931,"130":4.9852728843688965,"131":3.271120548248291,"132":4.895500183105469,"133":-10.159021377563477,"134":-14.329455375671387,"135":-6.617175102233887,"136":4.087219715118408,"137":-10.89057731628418,"138":13.675270080566406,"139":-5.564838409423828,"140":-1.3813090324401855,"141":1.319035530090332,"142":-0.47860926389694214,"143":1.0104644298553467,"144":-3.868541717529297,"145":5.039562225341797,"146":-4.037825107574463,"147":0.9519469738006592,"148":3.1299941539764404,"149":-1.6350232362747192,"150":-1.7281595468521118,"151":-1.9007364511489868,"152":3.0391111373901367,"153":4.779224872589111,"154":0.6089547276496887,"155":-7.595569610595703,"156":6.212006092071533,"157":1.331687092781067,"158":-2.1368942260742188,"159":-5.030714511871338,"160":3.675779342651367,"161":2.0225558280944824,"162":4.697185039520264,"163":-5.428181171417236,"164":4.287076473236084,"165":-14.733742713928223,"166":-8.805256843566895,"167":6.072944641113281,"168":-18.470855712890625,"169":-1.2827699184417725,"170":-4.646285533905029,"171":3.0192761421203613,"172":-1.5777053833007812,"173":-3.4413604736328125,"174":0.480084091424942,"175":9.921826362609863,"176":-7.772975444793701,"177":-5.228390216827393,"178":2.871019124984741,"179":4.009852409362793,"180":4.137392044067383,"181":1.4245531558990479,"182":0.19331477582454681,"183":-2.4134252071380615,"184":-2.841432571411133,"185":2.213824510574341,"186":0.9357134699821472,"187":-1.1125829219818115,"188":-0.700894832611084,"189":-1.6856082677841187,"190":8.364744186401367,"191":3.7668044567108154,"192":-2.5660758018493652,"193":3.4305801391601562,"194":-0.7500734925270081,"195":-0.27983930706977844,"196":-3.9998106956481934,"197":2.281092405319214,"198":5.5832414627075195,"199":5.26837682723999,"200":0.9217110276222229,"201":-2.7689523696899414,"202":2.0044617652893066,"203":-6.410734176635742,"204":-5.250943660736084,"205":-0.4453200399875641,"206":-0.5697320103645325,"207":4.40822172164917,"208":-4.717289924621582,"209":-2.9003851413726807,"210":6.700016498565674,"211":-12.350713729858398,"212":-0.2998529076576233,"213":3.7166035175323486,"214":-0.587425172328949,"215":0.8039856553077698,"216":13.093875885009766,"217":-1.6916099786758423,"218":0.07871923595666885,"219":2.5213589668273926,"220":4.31027364730835,"221":-2.591430902481079,"222":-2.415868043899536,"223":-7.745264053344727,"224":3.0274035930633545,"225":10.223581314086914,"226":3.918489933013916,"227":-8.185306549072266,"228":-0.5408248901367188,"229":2.0738070011138916,"230":3.2025744915008545,"231":2.005178451538086,"232":-3.888253927230835,"233":-7.052567958831787,"234":4.614087104797363,"235":4.804049968719482,"236":2.4109556674957275,"237":-1.8537509441375732,"238":8.807140350341797,"239":4.400393962860107,"240":1.5503398180007935,"241":-4.147878646850586,"242":4.663479804992676,"243":-5.006542682647705,"244":0.4935339689254761,"245":-0.20221056044101715,"246":-2.8907454013824463,"247":3.084735155105591,"248":-9.237805366516113,"249":5.769336223602295,"250":3.9325051307678223,"251":0.41802650690078735,"252":6.102201461791992,"253":5.380731582641602,"254":-8.58838176727295,"255":3.172330856323242,"256":1.1798537969589233,"257":-4.083153247833252,"258":-7.1932477951049805,"259":-1.9165043830871582,"260":0.8439554572105408,"261":1.7927196025848389,"262":4.825791358947754,"263":-0.09354276955127716,"264":2.179725408554077,"265":-0.712831437587738,"266":8.35297679901123,"267":7.349343299865723,"268":2.272516965866089,"269":1.1123228073120117,"270":-4.839824199676514,"271":-4.376274108886719,"272":3.366304874420166,"273":2.4429452419281006,"274":0.09711206704378128,"275":-5.447372913360596,"276":-9.138882637023926,"277":-5.320615291595459,"278":-3.1995813846588135,"279":2.3868350982666016,"280":1.685103416442871,"281":-6.3192362785339355,"282":1.125467300415039,"283":11.340751647949219,"284":3.486377239227295,