{"type":"LSTM","options":{"inputSize":30,"inputRange":30,"hiddenLayers":[20,20],"outputSize":30,"decayRate":0.999,"smoothEps":1e-8,"regc":0.000001,"clipval":5,"maxPredictionLength":100,"dataFormatter":{"values":["were incoherent","bad","easy","good","is bad","well defined","was abrupt","technical words","should improve","best vocabulary","presentation needs","when appropriate","was difficult","English","more varied","formal","too long","demonstrated command","should work","well adapted","too much information","avoided filler","consistent colour","maintain interest","appropriately changed","is difficult","was coherent","conversational","better focus","used natural","is disappointing","just nice","better quality","good time","could use","meets requirements","more hand","very nuanced","should try","completely addressed","well selected","should smile","well developed","when talking","appropriate tone","would help","easily follow","more friendly","logically presented","presentation lacks","evidence shown","are unsupported","is supporting","more reliable sources","immaculate delivery","need better","impeccable script","not convincing","interesting topic","be feasible","good understanding","content shows","too tense","very engaging script","not consistent","potential","could improve","have great","more consistent pace","wonderful presentation","other parts","robust evidence","too slow","ideas substantiated","much technical jargon","superb delivery","exceptional quality","general audience","excellent","should use","is perfect","less technical jargon","flawless execution","should replace","fine delivery","technical jargon","good job","are easy","solid grasp","more concise","good intonation","not professional","clear effort","sound","good flow","more formal words","good content","more professional","is adequate","pictures used","superior quality","not appropriate","is satisfactory","more formal","fine execution","when speaking","high quality","be more","latest revision","is much","to rehearse more","professional","have poor","concise","was hard","clear","well organised","to look more","well thought","font used","overarching ideas","too small","is present","were distracting","good signposting","too distracting","good effort","overly use","last script","should rehearse","have improved","badly prepared","impressive speech","is obvious","are reading","good use"],"indexTable":{"w":0,"e":1,"r":2," ":3,"i":4,"n":5,"c":6,"o":7,"h":8,"t":9,"b":10,"a":11,"d":12,"s":13,"y":14,"g":15,"l":16,"f":17,"u":18,"p":19,"m":20,"v":21,"E":22,"k":23,"j":24,"q":25,"x":26,"stop-input":27,"start-output":28,"unrecognized":29},"characterTable":{"0":"w","1":"e","2":"r","3":" ","4":"i","5":"n","6":"c","7":"o","8":"h","9":"t","10":"b","11":"a","12":"d","13":"s","14":"y","15":"g","16":"l","17":"f","18":"u","19":"p","20":"m","21":"v","22":"E","23":"k","24":"j","25":"q","26":"x","27":null,"28":null,"29":null},"characters":["w","e","r"," ","i","n","c","o","h","t","b","a","d","s","y","g","l","f","u","p","m","v","E","k","j","q","x","stop-input","start-output","unrecognized"],"specialIndexes":[27,28,29]}},"input":{"rows":31,"columns":30,"weights":{"0":2.2692461013793945,"1":3.3806610107421875,"2":-1.125179648399353,"3":1.061274766921997,"4":-1.1923917531967163,"5":-2.955904245376587,"6":2.920647144317627,"7":-0.5835246443748474,"8":-0.7281803488731384,"9":2.203814744949341,"10":7.45305061340332,"11":-0.07048454135656357,"12":1.4674253463745117,"13":-1.0442986488342285,"14":-2.286036252975464,"15":-1.0607260465621948,"16":-2.0764992237091064,"17":-0.0634206235408783,"18":-0.08294953405857086,"19":0.2738335132598877,"20":1.3560923337936401,"21":-0.4528334140777588,"22":2.1744942665100098,"23":-3.1301159858703613,"24":0.6205156445503235,"25":0.002072217408567667,"26":3.482725143432617,"27":3.6284899711608887,"28":-3.627958297729492,"29":-1.1482855081558228,"30":2.8125364780426025,"31":-2.214470624923706,"32":6.88714075088501,"33":-0.2773462235927582,"34":10.37833309173584,"35":13.362025260925293,"36":-11.377437591552734,"37":-18.00181770324707,"38":8.051802635192871,"39":12.341948509216309,"40":-6.652477741241455,"41":4.598808288574219,"42":-2.7163736820220947,"43":2.652468204498291,"44":5.5849785804748535,"45":20.45667266845703,"46":-4.387833595275879,"47":-10.472148895263672,"48":3.719341278076172,"49":-10.627684593200684,"50":2.1876115798950195,"51":-2.2223925590515137,"52":-0.5359815359115601,"53":-2.716676712036133,"54":-0.718420684337616,"55":-0.4359745383262634,"56":-0.6306402087211609,"57":10.840670585632324,"58":-2.0833539962768555,"59":1.1988495588302612,"60":-7.0347514152526855,"61":4.239035129547119,"62":1.0363423824310303,"63":2.31223726272583,"64":4.526529312133789,"65":1.1197336912155151,"66":-2.736314058303833,"67":-0.4111497104167938,"68":-0.2186940610408783,"69":-0.18488186597824097,"70":-2.46799898147583,"71":-3.8061397075653076,"72":-0.3942353129386902,"73":0.6491061449050903,"74":-3.6863009929656982,"75":-0.09644041210412979,"76":1.6246744394302368,"77":-3.1698784828186035,"78":2.133920907974243,"79":-0.8024594783782959,"80":0.9104748964309692,"81":0.5078088641166687,"82":0.9488453269004822,"83":-1.714730978012085,"84":0.7678192853927612,"85":-2.1780972480773926,"86":3.802574396133423,"87":-2.1030426025390625,"88":1.3002451658248901,"89":1.3602083921432495,"90":-5.362171173095703,"91":0.6862581968307495,"92":0.8218880891799927,"93":0.12811808288097382,"94":0.0585581511259079,"95":2.4100606441497803,"96":0.027431655675172806,"97":0.9927161931991577,"98":-0.9607313871383667,"99":0.16701512038707733,"100":1.002405047416687,"101":-0.8234202265739441,"102":0.8503596782684326,"103":0.5129639506340027,"104":-0.43776699900627136,"105":-0.4753290116786957,"106":1.690179705619812,"107":1.0187699794769287,"108":0.07889252156019211,"109":-1.177162528038025,"110":-0.7680299282073975,"111":0.22259745001792908,"112":0.9803688526153564,"113":-0.24575647711753845,"114":0.02312944456934929,"115":3.441751480102539,"116":-1.360268473625183,"117":0.6860371232032776,"118":0.002124370541423559,"119":-0.5536904335021973,"120":1.5829461812973022,"121":-1.217297077178955,"122":-0.9660252332687378,"123":-1.7844371795654297,"124":-0.9797475337982178,"125":0.7689362168312073,"126":2.160897970199585,"127":-0.0783190205693245,"128":0.2795373201370239,"129":0.10345780104398727,"130":0.9281011819839478,"131":1.0694643259048462,"132":-0.34667089581489563,"133":-0.3010016977787018,"134":2.9293737411499023,"135":2.6414523124694824,"136":-1.104613184928894,"137":1.4640666246414185,"138":-0.6153678297996521,"139":1.5732133388519287,"140":3.1718482971191406,"141":-0.44097039103507996,"142":1.1652932167053223,"143":-1.3974111080169678,"144":-0.6365134119987488,"145":-2.9851691722869873,"146":1.8862043619155884,"147":0.9422592520713806,"148":-0.7122231721878052,"149":-0.2852039933204651,"150":1.5432833433151245,"151":-3.7662675380706787,"152":5.165183067321777,"153":1.5079679489135742,"154":-3.093085765838623,"155":-4.76665735244751,"156":-10.561787605285645,"157":-0.3903496265411377,"158":-0.6889281868934631,"159":0.1079782024025917,"160":-4.553590774536133,"161":-4.435133934020996,"162":-0.36269429326057434,"163":0.27858564257621765,"164":1.1055748462677002,"165":-3.687690258026123,"166":0.5093958377838135,"167":1.946220874786377,"168":1.6875022649765015,"169":3.3462178707122803,"170":4.198829174041748,"171":3.4385769367218018,"172":-10.8897123336792,"173":-1.0796117782592773,"174":1.2743169069290161,"175":2.0809457302093506,"176":6.719198703765869,"177":0.2260909229516983,"178":0.06879359483718872,"179":4.862761497497559,"180":4.6068267822265625,"181":0.2683298587799072,"182":4.459685325622559,"183":1.0149469375610352,"184":6.748833179473877,"185":3.0999910831451416,"186":-3.1252543926239014,"187":-2.914489984512329,"188":0.2986394464969635,"189":1.494253158569336,"190":-0.9420152306556702,"191":0.4077969789505005,"192":0.04969245195388794,"193":-0.4165617525577545,"194":-0.19662445783615112,"195":-2.201918601989746,"196":-5.062863349914551,"197":-2.471094846725464,"198":0.8859630227088928,"199":-0.8923355340957642,"200":-0.574846625328064,"201":0.06285563856363297,"202":3.2866263389587402,"203":-3.7313616275787354,"204":1.0775718688964844,"205":0.12056481093168259,"206":0.6743804216384888,"207":3.174347162246704,"208":-7.169856548309326,"209":-0.5798505544662476,"210":1.3754463195800781,"211":1.011156678199768,"212":-6.059180736541748,"213":1.0539088249206543,"214":-1.4809337854385376,"215":1.5189752578735352,"216":2.2498035430908203,"217":2.108286142349243,"218":0.6790701746940613,"219":-0.8361650109291077,"220":5.0162353515625,"221":3.3779797554016113,"222":-0.16115634143352509,"223":-1.248917818069458,"224":-0.5016520023345947,"225":-0.1619899868965149,"226":-0.36640557646751404,"227":1.651936411857605,"228":0.8275115489959717,"229":1.281463384628296,"230":0.36742550134658813,"231":-0.9192241430282593,"232":-3.4752862453460693,"233":5.483043670654297,"234":1.5102766752243042,"235":1.5219459533691406,"236":4.062692642211914,"237":-0.9930739402770996,"238":1.1911386251449585,"239":-1.3700588941574097,"240":-0.7538880109786987,"241":-1.2177186012268066,"242":0.2264130860567093,"243":0.07248005270957947,"244":0.5518749952316284,"245":-1.23989737033844,"246":0.4982961416244507,"247":0.375415563583374,"248":-0.24182970821857452,"249":-2.744614362716675,"250":1.0192506313323975,"251":0.36478835344314575,"252":-0.25597134232521057,"253":-0.5988855957984924,"254":-0.851196825504303,"255":1.0278972387313843,"256":-2.5510449409484863,"257":-0.5209070444107056,"258":3.2065703868865967,"259":0.9733166098594666,"260":0.33834153413772583,"261":0.45542600750923157,"262":0.5259830951690674,"263":-1.3903828859329224,"264":-0.1811998337507248,"265":-2.5906193256378174,"266":0.8657783269882202,"267":-0.09978671371936798,"268":-2.6190590858459473,"269":-0.6482023596763611,"270":-4.680833339691162,"271":8.222658157348633,"272":0.9683211445808411,"273":-1.690616250038147,"274":-10.600171089172363,"275":3.9411985874176025,"276":0.7896338701248169,"277":-4.264756679534912,"278":5.240879535675049,"279":-1.2937308549880981,"280":-2.8542401790618896,"281":-7.980282306671143,"282":1.062059760093689,"283":-4.300866603851318,"284":4.659817695617676,"285":4.092997074127197,"286":2.444528818130493,"287":-3.543884754180908,"288":-3.8744993209838867,"289":4.587335586547852,"290":-5.4858012199401855,"291":0.9978263974189758,"292":8.412859916687012,"293":-5.888421535491943,"294":1.2180076837539673,"295":-8.008016586303711,"296":0.05891020968556404,"297":3.0961122512817383,"298":-3.441394805908203,"299":2.6903908252716064,"300":-3.1749794483184814,"301":-0.5190762281417847,"302":0.36762750148773193,"303":-3.4131126403808594,"304":3.4812400341033936,"305":2.484931707382202,"306":0.377318412065506,"307":-0.013018723577260971,"308":0.08820870518684387,"309":1.7427481412887573,"310":-2.245936632156372,"311":-2.8236770629882812,"312":1.6547908782958984,"313":-0.6495204567909241,"314":-6.772932052612305,"315":-0.1956942230463028,"316":0.09249706566333771,"317":-0.04771334305405617,"318":-3.456998825073242,"319":-1.718069076538086,"320":1.5662039518356323,"321":-0.10356386005878448,"322":1.6765998601913452,"323":-1.4119279384613037,"324":0.1363532990217209,"325":-0.9679639935493469,"326":0.47102248668670654,"327":-2.027923583984375,"328":1.1851319074630737,"329":1.0496419668197632,"330":2.402438163757324,"331":3.424090623855591,"332":1.5585654973983765,"333":-0.18147635459899902,"334":-0.04995369911193848,"335":-3.4323670864105225,"336":4.2829108238220215,"337":-0.7225056290626526,"338":3.0977001190185547,"339":1.0172842741012573,"340":3.873932123184204,"341":3.996063470840454,"342":-1.5964040756225586,"343":2.0950653553009033,"344":0.982990562915802,"345":-1.7182589769363403,"346":-2.990455389022827,"347":-3.803682327270508,"348":-1.349994421005249,"349":-2.7581539154052734,"350":1.9758082628250122,"351":3.135598659515381,"352":0.81364506483078,"353":1.7523452043533325,"354":3.815241575241089,"355":-2.3291053771972656,"356":-0.5125665068626404,"357":-5.776575565338135,"358":-6.185389518737793,"359":2.56609845161438,"360":0.25245368480682373,"361":-0.3659040331840515,"362":-0.7811766266822815,"363":0.178411066532135,"364":-0.6375929117202759,"365":-0.895923376083374,"366":1.5651174783706665,"367":-0.11366360634565353,"368":-0.3742292821407318,"369":-0.5273931622505188,"370":-1.3619952201843262,"371":0.2525377571582794,"372":0.12912669777870178,"373":-0.15343278646469116,"374":0.9622918963432312,"375":-0.3517642021179199,"376":-0.5540164113044739,"377":-1.0831935405731201,"378":-0.41776394844055176,"379":-0.4161379933357239,"380":-1.4027597904205322,"381":0.27187925577163696,"382":-0.15909287333488464,"383":-5.5791473388671875,"384":-0.03384370729327202,"385":-1.733306646347046,"386":-0.31632450222969055,"387":0.22211337089538574,"388":0.7311170697212219,"389":-0.019983498379588127,"390":-0.8972924947738647,"391":0.2093796581029892,"392":0.4581525921821594,"393":-0.023193247616291046,"394":0.4088671803474426,"395":2.6752991676330566,"396":0.6652193665504456,"397":-0.1917690634727478,"398":0.24974332749843597,"399":0.025757722556591034,"400":-2.52689266204834,"401":0.3220231831073761,"402":-0.06994655728340149,"403":0.5888327360153198,"404":-1.232954740524292,"405":-0.35534560680389404,"406":-0.2684813141822815,"407":0.3890233337879181,"408":1.062934398651123,"409":0.11997155100107193,"410":-0.7013927102088928,"411":-0.17089258134365082,"412":0.1858394294977188,"413":1.8393350839614868,"414":-0.019872337579727173,"415":2.8484268188476562,"416":-0.09236720204353333,"417":-0.9639260768890381,"418":2.3156819343566895,"419":-0.14660772681236267,"420":1.748878002166748,"421":2.1809206008911133,"422":-0.1674734652042389,"423":-1.5126285552978516,"424":3.435810089111328,"425":-10.126500129699707,"426":-1.1157792806625366,"427":1.3432592153549194,"428":-0.570119321346283,"429":0.3902709484100342,"430":4.523906230926514,"431":3.2083656787872314,"432":-0.29403597116470337,"433":-1.7441322803497314,"434":-1.489043116569519,"435":2.218749761581421,"436":-2.592085599899292,"437":3.658909320831299,"438":2.0217905044555664,"439":0.8509331345558167,"440":2.830261468887329,"441":-0.2755200266838074,"442":3.9634580612182617,"443":4.064852714538574,"444":-0.708264946937561,"445":6.519907474517822,"446":3.6760900020599365,"447":2.351289749145508,"448":-2.3565852642059326,"449":-1.831695318222046,"450":-8.912510871887207,"451":-11.130999565124512,"452":2.560636281967163,"453":-0.8300378918647766,"454":-1.3611618280410767,"455":18.287540435791016,"456":-5.794145107269287,"457":-9.688141822814941,"458":-8.088601112365723,"459":-4.395378112792969,"460":-5.997776508331299,"461":-2.5786378383636475,"462":-0.17614157497882843,"463":-5.809874534606934,"464":12.567126274108887,"465":7.250431060791016,"466":-12.547961235046387,"467":0.34300416707992554,"468":-18.33407211303711,"469":-4.896000385284424,"470":-15.903590202331543,"471":-4.818777561187744,"472":-1.3260623216629028,"473":6.441452503204346,"474":-4.156763553619385,"475":-6.339783191680908,"476":-2.9117634296417236,"477":3.4211950302124023,"478":17.541316986083984,"479":-0.31236591935157776,"480":0.1177983358502388,"481":2.079017400741577,"482":3.5592522621154785,"483":0.1476370394229889,"484":0.3399387001991272,"485":-3.5819015502929688,"486":-1.5129317045211792,"487":-2.0641226768493652,"488":1.2096790075302124,"489":0.21195581555366516,"490":-2.6235454082489014,"491":-4.808050155639648,"492":0.2516699433326721,"493":0.37977564334869385,"494":1.8100006580352783,"495":1.2653189897537231,"496":0.9754693508148193,"497":-2.1460349559783936,"498":-3.440013885498047,"499":0.18251647055149078,"500":-3.2851736545562744,"501":0.8022205829620361,"502":0.16013391315937042,"503":-4.710437297821045,"504":1.6614197492599487,"505":-2.2576913833618164,"506":0.36407390236854553,"507":2.285292387008667,"508":1.2699934244155884,"509":0.5167701244354248,"510":1.654434084892273,"511":1.4939029216766357,"512":1.0064802169799805,"513":0.9944910407066345,"514":-1.1503328084945679,"515":5.612473964691162,"516":-0.6564958095550537,"517":1.2184373140335083,"518":-0.4786238968372345,"519":-0.11927612125873566,"520":-11.517091751098633,"521":0.014897111803293228,"522":-0.712026059627533,"523":1.6843090057373047,"524":-2.795320510864258,"525":0.8127424120903015,"526":2.0798521041870117,"527":5.077073574066162,"528":-0.653538167476654,"529":-1.1416904926300049,"530":0.4804318845272064,"531":-0.042906519025564194,"532":3.1593706607818604,"533":1.099335789680481,"534":-0.35907676815986633,"535":-1.527909278869629,"536":-4.388291835784912,"537":2.2023561000823975,"538":0.698758065700531,"539":-2.503382444381714,"540":-7.371007919311523,"541":3.2676615715026855,"542":10.163383483886719,"543":-1.7837992906570435,"544":5.889679908752441,"545":-0.26365911960601807,"546":-1.9291448593139648,"547":-2.436979055404663,"548":3.25970721244812,"549":2.933915853500366,"550":-3.0378520488739014,"551":-20.558143615722656,"552":-0.6017006635665894,"553":-2.8312594890594482,"554":11.207408905029297,"555":0.0913739800453186,"556":-9.340622901916504,"557":-3.5343565940856934,"558":-7.0729804039001465,"559":-6.383922100067139,"560":-10.920976638793945,"561":6.859634876251221,"562":0.3684854507446289,"563":-5.148923873901367,"564":2.9635865688323975,"565":2.349756956100464,"566":-0.7730743885040283,"567":18.260835647583008,"568":-11.067754745483398,"569":0.7509773373603821,"570":2.940561532974243,"571":4.910017490386963,"572":-0.8076735734939575,"573":-6.30625057220459,"574":-6.15670919418335,"575":-1.7819360494613647,"576":11.268927574157715,"577":-0.9495728015899658,"578":-0.5306617021560669,"579":-2.7322075366973877,"580":1.467309832572937,"581":3.33870005607605,"582":1.5510176420211792,"583":-0.5550328493118286,"584":-1.1933907270431519,"585":-0.3447134494781494,"586":-0.6706971526145935,"587":-1.5614304542541504,"588":0.2386351078748703,"589":-3.761721611022949,"590":-1.520964503288269,"591":2.130221366882324,"592":1.574577808380127,"593":-3.1048762798309326,"594":1.4454576969146729,"595":-2.055075168609619,"596":-1.1374950408935547,"597":-4.565547466278076,"598":3.2887377738952637,"599":-0.9894643425941467,"600":5.128568649291992,"601":-4.6621527671813965,"602":-0.7864677309989929,"603":-1.1801737546920776,"604":-7.362431049346924,"605":-15.989116668701172,"606":1.5107587575912476,"607":-0.5202692151069641,"608":-0.34000298380851746,"609":-7.898871421813965,"610":-0.3293253779411316,"611":2.879504680633545,"612":-3.3635056018829346,"613":-0.4908372461795807,"614":3.31530499458313,"615":-1.4198647737503052,"616":11.05539608001709,"617":4.504330635070801,"618":9.685998916625977,"619":-3.190023899078369,"620":7.72489070892334,"621":-0.9348464012145996,"622":0.09008432924747467,"623":10.316088676452637,"624":0.9845337271690369,"625":10.542241096496582,"626":2.467470645904541,"627":-1.168763518333435,"628":-4.564446449279785,"629":-5.496582508087158,"630":2.2533936500549316,"631":2.1554439067840576,"632":10.173327445983887,"633":1.5710760354995728,"634":-2.8794846534729004,"635":1.9153817892074585,"636":0.1054937094449997,"637":-4.518280029296875,"638":3.6322174072265625,"639":2.869266986846924,"640":-0.5585290789604187,"641":-3.717905044555664,"642":2.817248821258545,"643":5.6854472160339355,"644":4.465612411499023,"645":3.3026883602142334,"646":-1.2956581115722656,"647":-5.616002559661865,"648":-0.45601803064346313,"649":1.9582821130752563,"650":-2.1322579383850098,"651":11.490228652954102,"652":-4.623291492462158,"653":-13.337029457092285,"654":5.25150728225708,"655":-14.335015296936035,"656":-3.0751686096191406,"657":0.33362284302711487,"658":3.299180507659912,"659":-0.04622853919863701,"660":6.014989852905273,"661":1.1798938512802124,"662":-4.167726993560791,"663":-3.1227340698242188,"664":-0.08178826421499252,"665":2.032038450241089,"666":2.0162692070007324,"667":12.893155097961426,"668":-0.2695661187171936,"669":7.909068584442139,"670":-7.984635829925537,"671":3.1625092029571533,"672":1.5851998329162598,"673":-5.273552417755127,"674":-8.7637300491333,"675":-3.206634283065796,"676":8.71347427368164,"677":7.567985534667969,"678":-7.320806503295898,"679":-3.3646419048309326,"680":12.183691024780273,"681":-6.819546222686768,"682":-7.452056884765625,"683":4.53391170501709,"684":-2.015732526779175,"685":6.924290657043457,"686":-7.392265319824219,"687":-14.805255889892578,"688":5.315341472625732,"689":-2.7330613136291504,"690":0.9731447696685791,"691":45.48062515258789,"692":-41.48226547241211,"693":23.07600975036621,"694":31.68981170654297,"695":-17.349653244018555,"696":32.83875274658203,"697":-32.63184356689453,"698":-42.86048126220703,"699":63.282711029052734,"700":-1.4951201677322388,"701":-28.742876052856445,"702":-10.671504974365234,"703":30.124507904052734,"704":-40.17694854736328,"705":65.25526428222656,"706":-7.1580681800842285,"707":4.635437965393066,"708":6.745707035064697,"709":-20.445823669433594,"710":-31.697223663330078,"711":-31.045270919799805,"712":7.318610668182373,"713":0.7651268243789673,"714":50.900699615478516,"715":12.06153678894043,"716":46.109981536865234,"717":58.02637481689453,"718":-10.355299949645996,"719":-79.69309997558594,"720":0.08976045995950699,"721":-5.607252597808838,"722":14.333486557006836,"723":-24.8841495513916,"724":6.856607437133789,"725":27.73574447631836,"726":-7.3481125831604,"727":5.618837833404541,"728":-13.5145902633667,"729":-4.949230194091797,"730":-6.046141624450684,"731":-15.555163383483887,"732":9.718304634094238,"733":4.197232246398926,"734":11.591282844543457,"735":-4.89545202255249,"736":10.57934856414795,"737":2.257854700088501,"738":4.241758346557617,"739":-23.187124252319336,"740":-19.451292037963867,"741":-5.7410430908203125,"742":-1.3541722297668457,"743":11.212767601013184,"744":-7.096232891082764,"745":-6.817506313323975,"746":-11.013471603393555,"747":8.292682647705078,"748":31.13912010192871,"749":-4.063652992248535,"750":15.83545970916748,"751":29.285415649414062,"752":-1.6259644031524658,"753":10.485150337219238,"754":-4.3138933181762695,"755":-22.53505516052246,"756":40.84067916870117,"757":15.583962440490723,"758":2.830641508102417,"759":8.273876190185547,"760":10.098145484924316,"761":8.722579002380371,"762":8.695464134216309,"763":-9.16482162475586,"764":-2.8867218494415283,"765":12.698378562927246,"766":-4.383999347686768,"767":-15.284202575683594,"768":19.180734634399414,"769":-10.301106452941895,"770":9.923500061035156,"771":11.56833267211914,"772":18.38153648376465,"773":-25.409557342529297,"774":21.135061264038086,"775":-5.732861042022705,"776":-10.679234504699707,"777":15.425897598266602,"778":12.762444496154785,"779":-8.066736221313477,"780":16.67644691467285,"781":-22.089021682739258,"782":-26.296802520751953,"783":1.673843264579773,"784":9.973758697509766,"785":-5.892024517059326,"786":-0.967801034450531,"787":-24.770875930786133,"788":8.561576843261719,"789":4.534474849700928,"790":13.795909881591797,"791":31.421003341674805,"792":-5.950770854949951,"793":5.871890544891357,"794":-6.711580753326416,"795":4.924616813659668,"796":-10.279911041259766,"797":-9.093901634216309,"798":5.1345062255859375,"799":2.540724992752075,"800":16.257646560668945,"801":-15.569527626037598,"802":-9.204591751098633,"803":1.5658921003341675,"804":-4.441405296325684,"805":11.108726501464844,"806":11.653226852416992,"807":-23.825960159301758,"808":-6.518784999847412,"809":7.096508026123047,"810":2.947646141052246,"811":-2.4637913703918457,"812":-13.524494171142578,"813":18.12480926513672,"814":-28.654237747192383,"815":-0.8285739421844482,"816":9.363731384277344,"817":9.31243896484375,"818":22.944610595703125,"819":-29.107297897338867,"820":-3.102903366088867,"821":-9.767178535461426,"822":-24.937475204467773,"823":-15.815925598144531,"824":51.52354431152344,"825":19.621353149414062,"826":3.439216136932373,"827":-25.787479400634766,"828":-31.54013442993164,"829":18.992881774902344,"830":-11.292437553405762,"831":14.275717735290527,"832":6.230278968811035,"833":-16.20514678955078,"834":30.22403907775879,"835":-4.421572208404541,"836":-31.39651107788086,"837":-0.020495550706982613,"838":1.3009237051010132,"839":8.870147705078125,"840":-0.23095300793647766,"841":3.615508556365967,"842":-0.12098583579063416,"843":2.2576682567596436,"844":-2.3133857250213623,"845":2.35871958732605,"846":-1.6374000310897827,"847":-0.19188188016414642,"848":0.29353809356689453,"849":2.9212758541107178,"850":2.566210985183716,"851":-4.347882270812988,"852":1.1934415102005005,"853":0.13155972957611084,"854":5.126507759094238,"855":0.9940385222434998,"856":-3.6714773178100586,"857":-6.650181293487549,"858":-4.818168640136719,"859":0.15642298758029938,"860":-0.15508778393268585,"861":-1.3983982801437378,"862":1.0014641284942627,"863":-6.539305686950684,"864":1.2768241167068481,"865":-4.725152015686035,"866":-0.7182829976081848,"867":2.3760175704956055,"868":-1.6806625127792358,"869":0.9153458476066589,"870":-2.2356083393096924,"871":7.494955539703369,"872":-2.0887675285339355,"873":2.852571725845337,"874":-2.8966257572174072,"875":-0.5116062760353088,"876":5.642909049987793,"877":2.0913619995117188,"878":1.1856659650802612,"879":-4.45250940322876,"880":2.2710483074188232,"881":-1.5715053081512451,"882":-0.9205911755561829,"883":-1.737499713897705,"884":2.5497472286224365,"885":-1.4252796173095703,"886":1.0392279624938965,"887":-5.881072998046875,"888":-1.3966057300567627,"889":-1.498243808746338,"890":-4.637396335601807,"891":3.5973641872406006,"892":4.320583820343018,"893":-2.2057859897613525,"894":4.669308185577393,"895":-2.6991987228393555,"896":-2.3870182037353516,"897":-0.6787273287773132,"898":1.1770468950271606,"899":2.081753969192505,"900":-0.043849632143974304,"901":0.05423818156123161,"902":0.05282602086663246,"903":0.04649635776877403,"904":-0.013240686617791653,"905":0.019863277673721313,"906":-0.0047711655497550964,"907":0.03374151140451431,"908":-0.03227624297142029,"909":-0.04664449766278267,"910":0.040257830172777176,"911":0.0650036484003067,"912":-0.0629778802394867,"913":-0.002068734262138605,"914":-0.05418214574456215,"915":-0.030041664838790894,"916":-0.006327638402581215,"917":0.027769973501563072,"918":0.048650600016117096,"919":-0.048090610653162,"920":-0.030294768512248993,"921":0.05913583189249039,"922":0.030899863690137863,"923":0.015185380354523659,"924":-0.06061591953039169,"925":-0.05948221683502197,"926":0.03597209230065346,"927":0.02322702668607235,"928":-0.03769182041287422,"929":0.0397624708712101}},"hiddenLayers":[{"inputMatrix":{"rows":20,"columns":30,"weights":{"0":-0.32342880964279175,"1":-2.799999475479126,"2":-0.7853289842605591,"3":0.635768711566925,"4":-2.7734322547912598,"5":2.600313186645508,"6":1.1564816236495972,"7":1.5468004941940308,"8":-0.5778490900993347,"9":-0.5683037042617798,"10":-2.7379229068756104,"11":0.09841425716876984,"12":-0.6358593702316284,"13":-0.17067447304725647,"14":-0.16968096792697906,"15":0.31221598386764526,"16":2.677104949951172,"17":2.6473464965820312,"18":-1.523033618927002,"19":1.5186923742294312,"20":0.37152335047721863,"21":0.045895468443632126,"22":-0.5230783224105835,"23":0.0745060071349144,"24":-0.14420446753501892,"25":-0.5818817615509033,"26":0.17565903067588806,"27":1.5289294719696045,"28":-0.5065829753875732,"29":-0.5330083966255188,"30":0.8022280335426331,"31":0.40933758020401,"32":-0.0906018391251564,"33":-0.32714998722076416,"34":-1.3061920404434204,"35":2.139921188354492,"36":-0.12078734487295151,"37":-0.2614904046058655,"38":-0.26456111669540405,"39":-0.20738328993320465,"40":-4.019812107086182,"41":-0.8805264234542847,"42":0.40393316745758057,"43":0.16582292318344116,"44":0.5213254690170288,"45":-0.623480498790741,"46":1.3639389276504517,"47":-1.116042971611023,"48":-1.7721898555755615,"49":-1.405090093612671,"50":-0.5339237451553345,"51":0.319266140460968,"52":0.2578701376914978,"53":-0.502869188785553,"54":0.3419387936592102,"55":-1.193519949913025,"56":-2.789628267288208,"57":-0.2456672042608261,"58":1.984900951385498,"59":0.19937817752361298,"60":-6.808323383331299,"61":0.029287392273545265,"62":2.9948079586029053,"63":-3.1065123081207275,"64":8.344830513000488,"65":1.7585301399230957,"66":-0.3108566403388977,"67":-1.7678717374801636,"68":-1.0197033882141113,"69":-2.5591208934783936,"70":-1.945547103881836,"71":0.3531353175640106,"72":2.470289468765259,"73":-1.1225618124008179,"74":-3.9558238983154297,"75":-0.34179553389549255,"76":-2.7607555389404297,"77":2.6336605548858643,"78":0.14091312885284424,"79":-0.22036147117614746,"80":0.22510755062103271,"81":0.36872613430023193,"82":2.5891971588134766,"83":0.8904581069946289,"84":-0.5773327946662903,"85":-0.661311686038971,"86":1.777030110359192,"87":-0.6910223960876465,"88":0.9317906498908997,"89":-0.8472115993499756,"90":-0.6819325685501099,"91":-1.927261233329773,"92":-0.6750615239143372,"93":-1.3549052476882935,"94":-0.2583971619606018,"95":0.1812565177679062,"96":0.209830641746521,"97":1.0483622550964355,"98":0.08061300963163376,"99":-0.026854995638132095,"100":0.6095281839370728,"101":0.008747978135943413,"102":1.5000051259994507,"103":-0.5969577431678772,"104":-0.20270614326000214,"105":-0.4089678227901459,"106":0.6067688465118408,"107":2.442418336868286,"108":1.5280842781066895,"109":1.0272488594055176,"110":-1.2389501333236694,"111":0.0022556453477591276,"112":-0.6737484931945801,"113":0.6597849130630493,"114":0.06745591014623642,"115":1.4095675945281982,"116":-1.2123037576675415,"117":0.23329691588878632,"118":-0.07686512172222137,"119":-0.15137143433094025,"120":-1.8391505479812622,"121":-2.5582399368286133,"122":-1.1389203071594238,"123":-0.959760308265686,"124":-0.5875999331474304,"125":0.8597973585128784,"126":1.6964737176895142,"127":-1.2587471008300781,"128":1.6000868082046509,"129":-1.4063340425491333,"130":-1.636538028717041,"131":-1.4400503635406494,"132":-1.7879146337509155,"133":-1.8337620496749878,"134":1.6937271356582642,"135":2.310633420944214,"136":-1.3629072904586792,"137":-1.8119962215423584,"138":-1.3906046152114868,"139":1.719185709953308,"140":2.440063238143921,"141":3.582307815551758,"142":-0.8915933966636658,"143":-3.746155023574829,"144":2.1009910106658936,"145":-6.738023281097412,"146":3.4387032985687256,"147":-2.9174225330352783,"148":1.9782085418701172,"149":1.2687971591949463,"150":-1.0656219720840454,"151":1.0636951923370361,"152":0.06717608124017715,"153":0.30721625685691833,"154":-1.8896445035934448,"155":2.6081161499023438,"156":1.4325618743896484,"157":-0.20193222165107727,"158":0.32519325613975525,"159":-1.7195159196853638,"160":-2.300464391708374,"161":-0.8375513553619385,"162":0.1253102719783783,"163":-0.21334904432296753,"164":-1.9429900646209717,"165":-0.4382423460483551,"166":-0.43406811356544495,"167":-1.0852950811386108,"168":2.5103752613067627,"169":1.4661365747451782,"170":-1.1853814125061035,"171":0.6141316890716553,"172":0.8576263189315796,"173":0.3136237859725952,"174":-0.1269206553697586,"175":-0.6986124515533447,"176":-0.6728866696357727,"177":-0.07610245794057846,"178":1.0416326522827148,"179":0.607784628868103,"180":2.211437463760376,"181":-1.0053822994232178,"182":-0.5635483860969543,"183":1.2483566999435425,"184":-2.7395334243774414,"185":-1.1341265439987183,"186":1.7642652988433838,"187":0.7453274726867676,"188":0.4825647473335266,"189":-1.1298168897628784,"190":1.3077641725540161,"191":2.18947172164917,"192":-0.5392679572105408,"193":0.32749679684638977,"194":0.7227907776832581,"195":0.1467372477054596,"196":-2.194986581802368,"197":-0.06909795105457306,"198":3.2492408752441406,"199":0.16570468246936798,"200":1.124660849571228,"201":1.5703963041305542,"202":-1.0405988693237305,"203":-0.6452370285987854,"204":0.045025959610939026,"205":0.5065983533859253,"206":0.1192677915096283,"207":-0.49479132890701294,"208":1.2575780153274536,"209":-0.77642422914505,"210":0.41289880871772766,"211":0.19451938569545746,"212":-1.168216586112976,"213":-0.15357257425785065,"214":-1.3787975311279297,"215":-0.1372932344675064,"216":2.509612560272217,"217":0.026021132245659828,"218":-0.1818152517080307,"219":-0.23723247647285461,"220":0.2559439539909363,"221":1.484529972076416,"222":-1.2002352476119995,"223":-0.04536962881684303,"224":2.2809271812438965,"225":0.8662639856338501,"226":-2.0731191635131836,"227":0.557197093963623,"228":-0.6032447218894958,"229":1.3686676025390625,"230":0.9215180277824402,"231":-1.3303377628326416,"232":1.5166569948196411,"233":1.8223280906677246,"234":-0.14959716796875,"235":1.2405474185943604,"236":1.8383173942565918,"237":-3.0493228435516357,"238":1.425547480583191,"239":0.3294566571712494,"240":-1.1551238298416138,"241":2.474825143814087,"242":0.11010893434286118,"243":2.3834972381591797,"244":-0.9549784660339355,"245":-0.4740312695503235,"246":3.0068745613098145,"247":-4.136871814727783,"248":0.46207019686698914,"249":-0.06387486308813095,"250":-1.4586259126663208,"251":1.4365708827972412,"252":-4.245388031005859,"253":2.2349600791931152,"254":-0.12369561195373535,"255":5.0059075355529785,"256":-0.7023830413818359,"257":-0.7511160373687744,"258":1.5277535915374756,"259":3.010932683944702,"260":-1.1243059635162354,"261":0.6477497816085815,"262":1.607979655265808,"263":-0.6746298670768738,"264":-0.038935936987400055,"265":-4.7119832038879395,"266":-1.473893642425537,"267":0.43865513801574707,"268":3.160377025604248,"269":1.1590129137039185,"270":-1.5426985025405884,"271":-1.4879549741744995,"272":-1.8151347637176514,"273":0.6850929856300354,"274":-0.5993785858154297,"275":-0.26593533158302307,"276":1.8178153038024902,"277":-1.314501404762268,"278":-0.42433640360832214,"279":-1.3903391361236572,"280":-0.7353200316429138,"281":-1.3223124742507935,"282":0.8194108009338379,"283":-1.099566102027893,"284":-1.0832600593566895,"285":-0.7522936463356018,"286":-1.2663582563400269,"287":-2.857379674911499,"288":-0.2481725513935089,"289":3.2293307781219482,"290":-1.271546483039856,"291":0.5411547422409058,"292":-2.1977627277374268,"293":-2.2665793895721436,"294":0.640092670917511,"295":-4.58999490737915,"296":1.2268621921539307,"297":-2.5394046306610107,"298":1.1246143579483032,"299":2.237029790878296,"300":-1.4191851615905762,"301":0.7519609332084656,"302":1.5905817747116089,"303":0.07171469926834106,"304":-0.13229559361934662,"305":-1.3634172677993774,"306":-0.03146074339747429,"307":-0.5292881727218628,"308":4.00490665435791,"309":0.3790844976902008,"310":-1.8211454153060913,"311":-0.2839662730693817,"312":1.2451292276382446,"313":-1.4451408386230469,"314":-0.8473806381225586,"315":-1.2336556911468506,"316":-1.2711948156356812,"317":-2.1232893466949463,"318":-1.6760303974151611,"319":1.017236590385437,"320":0.29531240463256836,"321":4.274994373321533,"322":0.39641237258911133,"323":-3.786208152770996,"324":2.9619877338409424,"325":-3.8954293727874756,"326":0.6751833558082581,"327":-0.26571133732795715,"328":-3.2260866165161133,"329":1.0381828546524048,"330":-2.066288709640503,"331":0.19545422494411469,"332":1.2875832319259644,"333":0.6497894525527954,"334":1.5806140899658203,"335":-3.0878453254699707,"336":-2.657320022583008,"337":0.2820989191532135,"338":-0.18696850538253784,"339":-1.334922432899475,"340":-1.5262948274612427,"341":0.5850206017494202,"342":-0.0018141724867746234,"343":0.36488059163093567,"344":-0.7774691581726074,"345":-0.9788592457771301,"346":1.4128211736679077,"347":0.5658213496208191,"348":1.5618054866790771,"349":0.01547041442245245,"350":-1.6429589986801147,"351":0.6693042516708374,"352":0.19991831481456757,"353":-0.6716765761375427,"354":0.2530497908592224,"355":1.8318504095077515,"356":-1.1260513067245483,"357":0.5490086078643799,"358":-1.2656021118164062,"359":-0.4625602960586548,"360":1.0832325220108032,"361":1.7026739120483398,"362":0.9230108857154846,"363":1.5263065099716187,"364":-0.09656398743391037,"365":-3.9050002098083496,"366":-0.20924149453639984,"367":1.1235671043395996,"368":-0.5804992318153381,"369":-0.41894686222076416,"370":-0.4732629656791687,"371":-0.5108404159545898,"372":-0.8547232151031494,"373":0.9188976287841797,"374":-1.6025900840759277,"375":0.024321001023054123,"376":3.3413288593292236,"377":-0.060757704079151154,"378":1.776774525642395,"379":-0.011216380633413792,"380":0.20776976644992828,"381":0.12046287953853607,"382":0.3210872411727905,"383":0.10769191384315491,"384":0.25957512855529785,"385":1.1312142610549927,"386":-0.8523740768432617,"387":-0.005701554473489523,"388":-0.4777161777019501,"389":-0.1236620545387268,"390":-3.4687588214874268,"391":0.17581357061862946,"392":1.8980207443237305,"393":-0.25657522678375244,"394":3.086446762084961,"395":3.3249330520629883,"396":-2.2040185928344727,"397":-2.130399227142334,"398":-0.18455803394317627,"399":1.1484684944152832,"400":-1.7169922590255737,"401":-3.4844577312469482,"402":0.05850894749164581,"403":0.24242497980594635,"404":0.9684754014015198,"405":-0.3008124530315399,"406":0.965401828289032,"407":-0.899609386920929,"408":-1.883312463760376,"409":-1.5167256593704224,"410":0.5557138919830322,"411":-2.1833224296569824,"412":0.9989484548568726,"413":2.1951162815093994,"414":1.0313961505889893,"415":1.5749824047088623,"416":1.0198348760604858,"417":1.8736763000488281,"418":0.27585718035697937,"419":0.03362796828150749,"420":-0.3861284852027893,"421":2.019749164581299,"422":1.940386176109314,"423":1.83241605758667,"424":-0.13314944505691528,"425":-1.5146657228469849,"426":0.5795456767082214,"427":-0.8654415011405945,"428":-0.21848687529563904,"429":0.6945255994796753,"430":-1.1126892566680908,"431":-0.37860605120658875,"432":-1.986318826675415,"433":1.920508623123169,"434":-1.1555341482162476,"435":0.30346959829330444,"436":0.28054019808769226,"437":-4.481889247894287,"438":1.2313321828842163,"439":-1.476615309715271,"440":-2.2925825119018555,"441":0.32437750697135925,"442":1.2580770254135132,"443":0.9291172623634338,"444":0.5074353814125061,"445":0.8593591451644897,"446":-3.2602956295013428,"447":1.721198558807373,"448":0.17366965115070343,"449":-0.9518130421638489,"450":-1.6969740390777588,"451":-0.9759634733200073,"452":0.5228232145309448,"453":1.6079000234603882,"454":-0.7278933525085449,"455":1.4747288227081299,"456":-0.9128689169883728,"457":1.365943431854248,"458":-0.7389642596244812,"459":-0.3521703779697418,"460":-3.216193199157715,"461":-2.941545009613037,"462":1.617331862449646,"463":-1.0649484395980835,"464":1.5967063903808594,"465":0.7784410119056702,"466":3.15842342376709,"467":-0.44743308424949646,"468":-2.397038459777832,"469":0.6658197045326233,"470":-1.36959969997406,"471":-0.13431550562381744,"472":-1.2621990442276,"473":-0.4736846387386322,"474":0.24823111295700073,"475":-1.0802720785140991,"476":-1.7085331678390503,"477":0.04275840148329735,"478":1.708203673362732,"479":1.1279399394989014,"480":0.4982427656650543,"481":0.0930529460310936,"482":-0.5130594968795776,"483":-0.11459018290042877,"484":-1.740153431892395,"485":-1.4645787477493286,"486":0.18093176186084747,"487":1.145007848739624,"488":0.22874675691127777,"489":-0.3770274221897125,"490":3.7384660243988037,"491":0.4148951768875122,"492":0.5108979940414429,"493":-0.7787192463874817,"494":-0.3428889513015747,"495":0.2274128645658493,"496":0.5899976491928101,"497":0.03357214480638504,"498":-0.9089115858078003,"499":-0.11755209416151047,"500":1.2636921405792236,"501":0.25770097970962524,"502":0.489484041929245,"503":-0.17537499964237213,"504":0.13186103105545044,"505":-0.7817067503929138,"506":-0.7402341365814209,"507":-0.9378769993782043,"508":-0.6535098552703857,"509":-0.21621891856193542,"510":1.459897518157959,"511":0.6685536503791809,"512":0.3597205877304077,"513":0.5700828433036804,"514":0.8937749266624451,"515":-2.5333926677703857,"516":2.4551432132720947,"517":-2.9875504970550537,"518":-0.23426738381385803,"519":1.2738090753555298,"520":-3.317619562149048,"521":3.435941696166992,"522":-3.5014164447784424,"523":0.15955416858196259,"524":-3.8422718048095703,"525":3.430185079574585,"526":0.17814241349697113,"527":0.29913875460624695,"528":0.34210675954818726,"529":0.5867279171943665,"530":1.87245774269104,"531":0.20512287318706512,"532":1.5430127382278442,"533":-2.736332893371582,"534":0.38841041922569275,"535":-0.846086859703064,"536":1.3022139072418213,"537":0.7212462425231934,"538":-1.1850112676620483,"539":-1.338483452796936,"540":-0.46162712574005127,"541":1.0220916271209717,"542":0.4561389982700348,"543":-1.3403569459915161,"544":-0.6623870730400085,"545":1.482395052909851,"546":0.2879639267921448,"547":-1.4641772508621216,"548":0.3653121590614319,"549":-0.8744609951972961,"550":-3.0574586391448975,"551":-1.293924331665039,"552":-0.4247356057167053,"553":1.3309335708618164,"554":-2.5418615341186523,"555":-0.08879806101322174,"556":-0.5502166152000427,"557":-2.9263174533843994,"558":-0.8831773400306702,"559":-0.32492882013320923,"560":-1.3453043699264526,"561":-0.07658778876066208,"562":-0.7215551137924194,"563":0.07432791590690613,"564":-0.6350624561309814,"565":-1.2364455461502075,"566":0.912784218788147,"567":-0.5010151863098145,"568":0.3833900988101959,"569":0.7553275227546692,"570":2.6562466621398926,"571":2.1093294620513916,"572":-1.6598881483078003,"573":2.280606746673584,"574":-5.734689235687256,"575":-1.186205267906189,"576":0.8983854055404663,"577":-0.5504799485206604,"578":1.5335878133773804,"579":-2.02705717086792,"580":3.057567834854126,"581":0.8281305432319641,"582":0.338890939950943,"583":-1.2972168922424316,"584":3.0115129947662354,"585":0.2794489562511444,"586":1.62151300907135,"587":-0.19188658893108368,"588":0.5665487051010132,"589":0.9855323433876038,"590":-1.9217969179153442,"591":0.6599599123001099,"592":0.5125600099563599,"593":-3.470615863800049,"594":0.42669737339019775,"595":-2.7099123001098633,"596":-1.3099371194839478,"597":-0.49954935908317566,"598":1.5039671659469604,"599":2.3804125785827637}},"inputHidden":{"rows":20,"columns":20,"weights":{"0":-3.819472551345825,"1":7.939523696899414,"2":-0.17757289111614227,"3":-3.127924680709839,"4":-1.8076672554016113,"5":-4.881904602050781,"6":7.156583309173584,"7":1.9593923091888428,"8":0.427296906709671,"9":-2.666616916656494,"10":1.9375253915786743,"11":-0.45934605598449707,"12":-2.9330203533172607,"13":-7.292447566986084,"14":-2.1892709732055664,"15":-1.8232651948928833,"16":4.228221893310547,"17":7.805046081542969,"18":-8.747981071472168,"19":-0.5761458277702332,"20":-0.7140997052192688,"21":8.018645286560059,"22":6.282026290893555,"23":-2.5675230026245117,"24":-3.5812652111053467,"25":0.3372684717178345,"26":2.784176826477051,"27":-7.260281562805176,"28":3.493543863296509,"29":-3.797865152359009,"30":7.970244884490967,"31":-2.6582484245300293,"32":-1.7187800407409668,"33":-3.7625303268432617,"34":2.920287847518921,"35":-4.604950904846191,"36":-3.3820719718933105,"37":1.097240924835205,"38":0.4996044933795929,"39":0.4606054127216339,"40":2.3487768173217773,"41":2.3626253604888916,"42":0.5359320640563965,"43":-1.0783648490905762,"44":1.6148884296417236,"45":-2.558110475540161,"46":-1.7993249893188477,"47":0.5011648535728455,"48":-2.299110174179077,"49":1.76907479763031,"50":1.3438069820404053,"51":0.020380210131406784,"52":0.23533307015895844,"53":2.021003007888794,"54":2.702582359313965,"55":-3.1855480670928955,"56":-0.4476224482059479,"57":-0.44948819279670715,"58":-0.670394778251648,"59":-0.9568376541137695,"60":-5.162160396575928,"61":2.3001959323883057,"62":-1.211689829826355,"63":5.634123802185059,"64":4.815077781677246,"65":0.2385702133178711,"66":-3.744239091873169,"67":-11.812329292297363,"68":-0.4077386260032654,"69":-0.9406260251998901,"70":-2.95306658744812,"71":-5.301707744598389,"72":-1.2369405031204224,"73":4.398873805999756,"74":-2.291794776916504,"75":5.60345458984375,"76":-10.115901947021484,"77":1.625104308128357,"78":0.9156943559646606,"79":8.084392547607422,"80":-0.16941724717617035,"81":-2.426447629928589,"82":-0.46499887108802795,"83":4.533547401428223,"84":0.46142110228538513,"85":0.07699768245220184,"86":0.4280853867530823,"87":0.23736223578453064,"88":0.35428720712661743,"89":-0.8748763203620911,"90":-0.8710424304008484,"91":2.440192699432373,"92":-1.6840872764587402,"93":3.904942750930786,"94":3.4189648628234863,"95":0.08615201711654663,"96":2.8584606647491455,"97":-2.1992273330688477,"98":-0.5671865344047546,"99":-2.7368321418762207,"100":4.9364471435546875,"101":0.6435428261756897,"102":4.039949417114258,"103":1.5359464883804321,"104":-4.308127403259277,"105":-1.425901174545288,"106":5.386099338531494,"107":-1.8710038661956787,"108":-3.7987844944000244,"109":10.035219192504883,"110":-0.18033751845359802,"111":3.0015616416931152,"112":3.022132396697998,"113":-9.982858657836914,"114":2.405454158782959,"115":3.723331928253174,"116":0.6774582266807556,"117":6.775365352630615,"118":2.6909687519073486,"119":4.653168201446533,"120":2.669874906539917,"121":2.7522759437561035,"122":-5.602411270141602,"123":-3.7946033477783203,"124":-1.7026702165603638,"125":-3.0345683097839355,"126":-1.7219635248184204,"127":-5.317307472229004,"128":-1.0361852645874023,"129":0.33878353238105774,"130":2.695376396179199,"131":-1.6033562421798706,"132":5.221167087554932,"133":4.636616230010986,"134":5.452328681945801,"135":-6.4383463859558105,"136":5.397420883178711,"137":1.260061264038086,"138":4.590101718902588,"139":4.036643981933594,"140":-0.47909802198410034,"141":2.0766043663024902,"142":3.2136528491973877,"143":0.24569492042064667,"144":2.621540069580078,"145":4.35432243347168,"146":-3.5775294303894043,"147":0.8293929696083069,"148":-3.744640350341797,"149":2.065481662750244,"150":5.272216796875,"151":5.456188678741455,"152":-2.449638605117798,"153":10.39637279510498,"154":-4.737135410308838,"155":0.3860839605331421,"156":-4.1148176193237305,"157":-2.8412599563598633,"158":2.043001651763916,"159":7.087960243225098,"160":-0.9880350828170776,"161":2.3382318019866943,"162":-4.619733810424805,"163":3.6078221797943115,"164":-0.5267978310585022,"165":-5.514578342437744,"166":-3.7204232215881348,"167":0.8953319191932678,"168":-0.8500869870185852,"169":1.9890774488449097,"170":2.7225842475891113,"171":4.193655490875244,"172":0.5296484231948853,"173":-5.123739719390869,"174":5.698368072509766,"175":2.740144968032837,"176":-4.228313446044922,"177":-4.695427417755127,"178":-1.8869303464889526,"179":3.104616165161133,"180":0.3000301718711853,"181":1.4360610246658325,"182":0.545667827129364,"183":-4.90018892288208,"184":1.4461160898208618,"185":5.178215503692627,"186":-1.3401926755905151,"187":-6.7843475341796875,"188":2.9490296840667725,"189":1.694266438484192,"190":-1.5104209184646606,"191":9.159696578979492,"192":-1.3921453952789307,"193":-6.250820159912109,"194":4.948879241943359,"195":-1.227866291999817,"196":2.720592737197876,"197":-6.745475769042969,"198":3.8519234657287598,"199":-6.766781330108643,"200":-2.93117094039917,"201":3.4051623344421387,"202":-3.0992915630340576,"203":-1.0779566764831543,"204":0.548546314239502,"205":-0.3169678747653961,"206":0.5616875290870667,"207":3.434955596923828,"208":2.3514537811279297,"209":0.31319698691368103,"210":3.8282229900360107,"211":-2.0838911533355713,"212":-0.6088110208511353,"213":-5.411262512207031,"214":4.883539199829102,"215":-0.5081993341445923,"216":-5.781513214111328,"217":-0.2617740035057068,"218":-1.4753706455230713,"219":-0.6865851879119873,"220":-1.1147363185882568,"221":0.6420083045959473,"222":-6.284487724304199,"223":8.030966758728027,"224":-3.1415417194366455,"225":-4.438230991363525,"226":-2.6904234886169434,"227":8.352516174316406,"228":-2.130333185195923,"229":6.139707088470459,"230":0.01194145530462265,"231":-3.543592929840088,"232":6.011194705963135,"233":-4.1657395362854,"234":-5.57288932800293,"235":5.6185197830200195,"236":3.677490472793579,"237":2.0578300952911377,"238":3.785647392272949,"239":-2.391108512878418,"240":3.030400514602661,"241":0.5140126347541809,"242":4.23090124130249,"243":1.1133458614349365,"244":1.824476957321167,"245":5.835850238800049,"246":-0.478000283241272,"247":1.4864513874053955,"248":0.9477329850196838,"249":0.9511674642562866,"250":-6.088563919067383,"251":-3.574641704559326,"252":-6.255948543548584,"253":6.876540184020996,"254":6.16123104095459,"255":-3.6454994678497314,"256":-5.640232086181641,"257":-5.8871941566467285,"258":1.452508807182312,"259":5.591025352478027,"260":0.37327417731285095,"261":0.49136635661125183,"262":3.1824402809143066,"263":4.283519744873047,"264":-0.09909062832593918,"265":0.09532269090414047,"266":-2.020552396774292,"267":0.3194955289363861,"268":-3.301912307739258,"269":0.6665884256362915,"270":-1.412197232246399,"271":3.982645034790039,"272":-5.876160144805908,"273":1.96640145778656,"274":-1.5476866960525513,"275":-1.1281739473342896,"276":-5.1008148193359375,"277":-4.253819465637207,"278":0.7791687846183777,"279":-0.5440661907196045,"280":1.5958837270736694,"281":-0.029428528621792793,"282":-5.7956767082214355,"283":2.920711040496826,"284":-0.8982000350952148,"285":-0.49216458201408386,"286":-3.6039466857910156,"287":-0.6105087995529175,"288":-5.532474994659424,"289":4.099698543548584,"290":5.632203578948975,"291":2.6788039207458496,"292":-1.3555110692977905,"293":9.06284236907959,"294":-6.833908557891846,"295":0.9656903743743896,"296":1.4353212118148804,"297":-2.709836959838867,"298":-0.9596160054206848,"299":-0.8898245096206665,"300":-4.900835990905762,"301":-2.113574981689453,"302":3.2535288333892822,"303":2.497967481613159,"304":-1.2475154399871826,"305":6.091490268707275,"306":3.192769765853882,"307":1.2102749347686768,"308":-4.069911956787109,"309":-2.021061420440674,"310":3.220123529434204,"311":-6.053632736206055,"312":8.285173416137695,"313":4.240492343902588,"314":6.389199256896973,"315":-2.303839921951294,"316":6.830421447753906,"317":0.013375532813370228,"318":-2.405571937561035,"319":-2.130732536315918,"320":-7.478750228881836,"321":-2.675926446914673,"322":2.758085012435913,"323":-3.5015172958374023,"324":-1.327901005744934,"325":2.306805372238159,"326":3.504390239715576,"327":-7.8814167976379395,"328":2.4838833808898926,"329":5.797025203704834,"330":4.197243690490723,"331":-4.396138668060303,"332":3.7584478855133057,"333":2.9457664489746094,"334":-6.831905841827393,"335":5.561710834503174,"336":1.1824817657470703,"337":1.986190676689148,"338":-0.1432700753211975,"339":-0.7446147799491882,"340":-1.7973597049713135,"341":0.32684868574142456,"342":1.2908756732940674,"343":2.866386890411377,"344":1.5154199600219727,"345":-2.3688998222351074,"346":-0.21018867194652557,"347":4.155942440032959,"348":1.358781337738037,"349":-0.30387258529663086,"350":-0.32243791222572327,"351":0.1690792441368103,"352":-1.7296360731124878,"353":0.08086279779672623,"354":0.6065419912338257,"355":-1.780945062637329,"356":0.27314335107803345,"357":-5.177005767822266,"358":-0.00012897922715637833,"359":-4.382040500640869,"360":1.5240145921707153,"361":0.43632838129997253,"362":2.985199451446533,"363":1.7848374843597412,"364":-3.1546480655670166,"365":1.456709623336792,"366":2.147562265396118,"367":3.7306108474731445,"368":-1.2349096536636353,"369":-2.560133934020996,"370":3.8628811836242676,"371":5.423191547393799,"372":-2.72410249710083,"373":3.5803747177124023,"374":3.633810043334961,"375":9.381155014038086,"376":5.807225704193115,"377":0.5796534419059753,"378":-0.2722278833389282,"379":-3.307995080947876,"380":-4.092569351196289,"381":-0.11746828258037567,"382":0.8619695901870728,"383":-3.7067272663116455,"384":1.3350411653518677,"385":1.578611969947815,"386":-0.5938408970832825,"387":-2.761498212814331,"388":2.9094746112823486,"389":-2.6594667434692383,"390":-3.21889591217041,"391":-4.251972198486328,"392":8.253655433654785,"393":2.20517897605896,"394":-3.1216490268707275,"395":-0.4653434753417969,"396":-1.506701946258545,"397":-2.770718574523926,"398":0.6449986696243286,"399":-2.7309257984161377}},"inputBias":{"rows":20,"columns":1,"weights":{"0":-0.9634896516799927,"1":0.04266616702079773,"2":-0.4222739636898041,"3":-4.1290435791015625,"4":-3.378051996231079,"5":-0.671006977558136,"6":-0.20050708949565887,"7":-3.0790247917175293,"8":-4.662724494934082,"9":0.17888174951076508,"10":-0.7787044048309326,"11":-2.2412166595458984,"12":-0.7359766364097595,"13":-0.865258514881134,"14":0.3639470934867859,"15":-0.5424448847770691,"16":-0.42862677574157715,"17":2.5964601039886475,"18":-0.37129437923431396,"19":-1.2048780918121338}},"forgetMatrix":{"rows":20,"columns":30,"weights":{"0":-0.016857225447893143,"1":2.34348464012146,"2":0.16855528950691223,"3":-2.455254316329956,"4":-1.8177714347839355,"5":6.533376693725586,"6":-0.06731122732162476,"7":-0.3826303780078888,"8":0.21641099452972412,"9":-1.0676556825637817,"10":-0.3200305998325348,"11":1.439748764038086,"12":1.7971153259277344,"13":-2.0192935466766357,"14":-0.12209096550941467,"15":-5.442562580108643,"16":-0.8649348616600037,"17":0.09630285203456879,"18":-1.4765766859054565,"19":-1.1452327966690063,"20":-0.9142388701438904,"21":-1.7086573839187622,"22":1.4564906358718872,"23":2.4155490398406982,"24":-1.1331418752670288,"25":0.02083602547645569,"26":0.9246959090232849,"27":-2.819915294647217,"28":-2.1278553009033203,"29":0.9836630821228027,"30":-2.0592477321624756,"31":-1.3106591701507568,"32":-3.5552754402160645,"33":0.16989941895008087,"34":0.37230998277664185,"35":-0.37301814556121826,"36":6.073203086853027,"37":0.44247373938560486,"38":0.20169946551322937,"39":-0.3864409029483795,"40":-1.4803440570831299,"41":-0.16933764517307281,"42":-1.6102454662322998,"43":-2.831315517425537,"44":-1.754930853843689,"45":-2.896951198577881,"46":0.23480944335460663,"47":-3.073723316192627,"48":0.8105323314666748,"49":2.1697323322296143,"50":-1.0227010250091553,"51":0.7273006439208984,"52":-1.4805855751037598,"53":-3.3073627948760986,"54":1.0412945747375488,"55":-1.6965882778167725,"56":0.9829844236373901,"57":-5.987868309020996,"58":1.7778788805007935,"59":5.685850143432617,"60":-4.277091026306152,"61":0.03790817782282829,"62":0.33839449286460876,"63":-2.9137556552886963,"64":5.7243828773498535,"65":3.1934022903442383,"66":-3.212739944458008,"67":-0.6901727318763733,"68":-1.5560312271118164,"69":2.503655195236206,"70":4.231316089630127,"71":1.6189311742782593,"72":2.9091663360595703,"73":-0.48216670751571655,"74":-1.2408524751663208,"75":0.46139365434646606,"76":-3.194571018218994,"77":0.43898341059684753,"78":3.1649506092071533,"79":-1.2413572072982788,"80":0.3897278308868408,"81":-1.3432672023773193,"82":1.153273582458496,"83":0.49268725514411926,"84":1.2796300649642944,"85":-2.36218523979187,"86":2.9138550758361816,"87":-2.0395073890686035,"88":-0.8736602663993835,"89":-2.0002613067626953,"90":-1.4960873126983643,"91":-2.7545011043548584,"92":-1.5640060901641846,"93":-1.497273564338684,"94":-0.8136404752731323,"95":0.5713505148887634,"96":-0.6897257566452026,"97":0.6941322684288025,"98":-1.1890140771865845,"99":-0.23650909960269928,"100":-3.51007080078125,"101":-2.1531944274902344,"102":1.5533649921417236,"103":-0.9862686991691589,"104":1.221635103225708,"105":1.529140591621399,"106":1.6155283451080322,"107":0.09915855526924133,"108":-2.9681897163391113,"109":-0.3209032714366913,"110":1.8203511238098145,"111":-0.09044034779071808,"112":-0.45819467306137085,"113":-1.7965344190597534,"114":0.2793421149253845,"115":-0.7811432480812073,"116":-0.735832154750824,"117":1.2065510749816895,"118":0.8743008971214294,"119":-1.456948161125183,"120":-0.33261382579803467,"121":2.1433091163635254,"122":0.7485826015472412,"123":1.0287394523620605,"124":2.036524534225464,"125":-1.2915356159210205,"126":1.3178924322128296,"127":-1.1582189798355103,"128":-0.6019362807273865,"129":-0.23278190195560455,"130":-2.207227945327759,"131":1.479966402053833,"132":-1.3449815511703491,"133":0.838355541229248,"134":-1.5623102188110352,"135":1.893625259399414,"136":-2.3566956520080566,"137":-1.848026990890503,"138":0.8594789505004883,"139":0.37612050771713257,"140":-0.647710382938385,"141":0.2706570625305176,"142":1.6590170860290527,"143":-0.439529150724411,"144":-0.04958796128630638,"145":-0.0815502256155014,"146":-0.39052096009254456,"147":-0.4882657527923584,"148":0.35503390431404114,"149":0.051608774811029434,"150":1.8184787034988403,"151":1.2877018451690674,"152":1.0620321035385132,"153":-0.2806079387664795,"154":-1.9551414251327515,"155":-2.711881399154663,"156":0.9156778454780579,"157":0.08164697885513306,"158":-0.24268263578414917,"159":1.1957265138626099,"160":-0.6392062306404114,"161":2.0921175479888916,"162":-0.17635120451450348,"163":2.026510000228882,"164":1.1747770309448242,"165":1.3569215536117554,"166":1.7817089557647705,"167":-2.484598398208618,"168":-2.251633882522583,"169":-2.444138526916504,"170":1.788521647453308,"171":0.8401498794555664,"172":0.33054324984550476,"173":1.5049644708633423,"174":0.0541834756731987,"175":-1.2984373569488525,"176":1.8204039335250854,"177":2.862056255340576,"178":-2.6185264587402344,"179":0.11582144349813461,"180":2.387950897216797,"181":-0.5931562185287476,"182":1.9828577041625977,"183":-0.4119577705860138,"184":0.356174111366272,"185":-3.8742599487304688,"186":1.790314793586731,"187":-2.6459619998931885,"188":0.11061166226863861,"189":0.17868731915950775,"190":0.5764689445495605,"191":0.30860665440559387,"192":-1.0270277261734009,"193":3.1664698123931885,"194":-0.4117536246776581,"195":2.208810567855835,"196":-3.3760247230529785,"197":-0.38374218344688416,"198":0.33342665433883667,"199":2.7067131996154785,"200":0.13827162981033325,"201":-0.8148044347763062,"202":0.8561288714408875,"203":0.9901077747344971,"204":-0.9433826804161072,"205":-0.5426348447799683,"206":1.2262165546417236,"207":-0.693209707736969,"208":-0.7158783674240112,"209":-0.5120578408241272,"210":0.9712233543395996,"211":0.17580212652683258,"212":-1.5095854997634888,"213":-0.1693899929523468,"214":-0.5665954947471619,"215":0.5089054107666016,"216":2.4296674728393555,"217":-0.5298532843589783,"218":-0.791994571685791,"219":-0.39545920491218567,"220":1.0845894813537598,"221":2.646885633468628,"222":-1.2817127704620361,"223":2.0132362842559814,"224":-0.9408211708068848,"225":-1.1160098314285278,"226":0.449657678604126,"227":2.5924787521362305,"228":0.33303654193878174,"229":-0.8537123799324036,"230":2.0119144916534424,"231":-0.962089478969574,"232":1.2852907180786133,"233":1.116546869277954,"234":1.63992440700531,"235":-2.276986837387085,"236":-1.1956223249435425,"237":-2.333371162414551,"238":-1.743927001953125,"239":2.3474531173706055,"240":-4.390850067138672,"241":-0.8123137354850769,"242":-2.4692296981811523,"243":-1.5621352195739746,"244":-1.119539737701416,"245":0.029543662443757057,"246":2.916353940963745,"247":0.18298256397247314,"248":0.7812199592590332,"249":-1.7806414365768433,"250":0.9365745782852173,"251":-0.5421541929244995,"252":-0.7075470685958862,"253":-1.5425000190734863,"254":-2.689436435699463,"255":-0.2822006046772003,"256":0.22574235498905182,"257":-0.09212183952331543,"258":2.280904531478882,"259":1.1784288883209229,"260":1.2186042070388794,"261":1.4848443269729614,"262":1.2333557605743408,"263":-0.9050700664520264,"264":0.8210279941558838,"265":-0.8186577558517456,"266":-0.08210284262895584,"267":-1.9999135732650757,"268":-0.896435022354126,"269":1.888466238975525,"270":1.0474333763122559,"271":1.8181499242782593,"272":-0.19652076065540314,"273":1.8644294738769531,"274":1.3019274473190308,"275":-6.435414791107178,"276":1.0004042387008667,"277":-0.5227882862091064,"278":-0.09034143388271332,"279":-2.9679617881774902,"280":-2.009617328643799,"281":0.9809280633926392,"282":-1.4829274415969849,"283":-3.2911055088043213,"284":-0.6684361696243286,"285":-0.22211870551109314,"286":1.4980988502502441,"287":-1.6497498750686646,"288":3.936180591583252,"289":0.8160292506217957,"290":0.8767836093902588,"291":1.3827557563781738,"292":4.184048175811768,"293":-1.7664138078689575,"294":0.6737363338470459,"295":0.4613485634326935,"296":6.0405731201171875,"297":0.07093300670385361,"298":-2.0017447471618652,"299":-0.11368729174137115,"300":0.2353460043668747,"301":-0.7447382211685181,"302":1.754805326461792,"303":-3.6276397705078125,"304":1.3317475318908691,"305":-2.0061638355255127,"306":1.7164251804351807,"307":-0.6769014000892639,"308":1.7804759740829468,"309":0.7777784466743469,"310":5.0549421310424805,"311":3.974142074584961,"312":0.3101821839809418,"313":1.198790192604065,"314":-0.24860146641731262,"315":0.07201524823904037,"316":-1.6351382732391357,"317":1.5545872449874878,"318":2.966115713119507,"319":0.1863337755203247,"320":1.9115116596221924,"321":1.0499106645584106,"322":-1.196358561515808,"323":-0.38731813430786133,"324":0.49422067403793335,"325":-0.3938616216182709,"326":-1.6015675067901611,"327":-3.4377553462982178,"328":0.10050967335700989,"329":-0.5154796242713928,"330":1.427642822265625,"331":2.876675605773926,"332":-3.070927858352661,"333":2.7920355796813965,"334":0.77909255027771,"335":-1.7766364812850952,"336":-5.213829517364502,"337":0.46004071831703186,"338":-0.743520200252533,"339":-1.659729242324829,"340":-2.6656174659729004,"341":-3.980897903442383,"342":0.1809222549200058,"343":2.522287130355835,"344":-1.4192625284194946,"345":-0.22003385424613953,"346":4.993490219116211,"347":0.07061748206615448,"348":-0.09297703206539154,"349":-1.2491765022277832,"350":-0.4607897698879242,"351":2.0014126300811768,"352":0.2876434326171875,"353":-2.055248975753784,"354":3.1466684341430664,"355":1.53054940700531,"356":-2.3175179958343506,"357":8.736692428588867,"358":-4.1830315589904785,"359":-4.085062026977539,"360":1.5159343481063843,"361":0.14914292097091675,"362":-1.8720625638961792,"363":0.7323986291885376,"364":-4.265803337097168,"365":-1.3194520473480225,"366":-1.6093368530273438,"367":2.571441888809204,"368":-0.4283094108104706,"369":0.2175104171037674,"370":2.235719680786133,"371":-0.5475103855133057,"372":-0.4921730160713196,"373":0.8798408508300781,"374":3.1352410316467285,"375":-1.726928472518921,"376":2.5714919567108154,"377":1.8665111064910889,"378":-0.22356534004211426,"379":-1.3370190858840942,"380":3.8853983879089355,"381":-0.9880937933921814,"382":-2.2496941089630127,"383":0.7727948427200317,"384":0.6707629561424255,"385":-0.17439837753772736,"386":0.31886404752731323,"387":-0.4015386998653412,"388":-1.1118139028549194,"389":0.40738552808761597,"390":2.322453022003174,"391":0.14184287190437317,"392":-0.6758426427841187,"393":0.41425248980522156,"394":1.6220046281814575,"395":-1.347981333732605,"396":1.42494797706604,"397":0.9933573603630066,"398":-0.9929364323616028,"399":-2.2116618156433105,"400":4.295196533203125,"401":2.73911190032959,"402":-1.458055019378662,"403":-1.3061578273773193,"404":1.419301986694336,"405":-1.349346399307251,"406":-5.137092113494873,"407":-0.7690991163253784,"408":0.537163257598877,"409":-0.20309993624687195,"410":1.5402307510375977,"411":0.8193397521972656,"412":2.613805055618286,"413":2.0276801586151123,"414":2.0481159687042236,"415":1.0493695735931396,"416":1.542555570602417,"417":-3.4279773235321045,"418":-0.12628601491451263,"419":-2.5161867141723633,"420":-0.6293810606002808,"421":5.143094062805176,"422":0.7148110270500183,"423":1.8726136684417725,"424":-3.167262315750122,"425":-1.4374438524246216,"426":-3.8826379776000977,"427":1.6743634939193726,"428":0.553567111492157,"429":-0.01913152076303959,"430":0.1369745284318924,"431":-0.6362271308898926,"432":-1.1347793340682983,"433":2.863579273223877,"434":0.4313059151172638,"435":0.8310105204582214,"436":5.520960330963135,"437":0.22955010831356049,"438":-0.7241665124893188,"439":1.7103235721588135,"440":2.266085386276245,"441":1.7236744165420532,"442":-2.3823227882385254,"443":1.038884162902832,"444":1.4276089668273926,"445":-1.9049794673919678,"446":-1.6751354932785034,"447":-0.7636233568191528,"448":-1.8725557327270508,"449":1.972503900527954,"450":-0.7659353017807007,"451":-3.3814659118652344,"452":2.4316110610961914,"453":1.256774663925171,"454":-0.5978444218635559,"455":-1.05234956741333,"456":-2.7811014652252197,"457":-0.32570722699165344,"458":-1.9059069156646729,"459":-3.008929491043091,"460":0.3126782774925232,"461":-2.256394386291504,"462":1.5383095741271973,"463":0.6168345212936401,"464":3.7391357421875,"465":-0.05145220458507538,"466":3.613671064376831,"467":-2.017104387283325,"468":-1.280363917350769,"469":-2.2636990547180176,"470":-3.512424945831299,"471":-0.5720681548118591,"472":-3.831414222717285,"473":3.4559788703918457,"474":-2.5001237392425537,"475":5.290398120880127,"476":-2.4615986347198486,"477":0.4950125217437744,"478":-2.6139440536499023,"479":-1.3116331100463867,"480":-2.1103315353393555,"481":-1.0945079326629639,"482":-2.634843587875366,"483":-1.2153476476669312,"484":-1.3133562803268433,"485":1.259562611579895,"486":1.554809808731079,"487":1.2956944704055786,"488":0.24844548106193542,"489":-3.0449743270874023,"490":3.772108793258667,"491":-0.6136251091957092,"492":1.9141016006469727,"493":-2.247325897216797,"494":0.5137752294540405,"495":-0.030043743550777435,"496":-0.5301727652549744,"497":0.4764324426651001,"498":1.1299968957901,"499":2.1636602878570557,"500":-3.5646157264709473,"501":0.653508722782135,"502":-2.1635491847991943,"503":-2.4044675827026367,"504":1.1567575931549072,"505":-0.7935189008712769,"506":-2.3480184078216553,"507":0.5548694729804993,"508":2.0920796394348145,"509":0.9229699969291687,"510":3.810040235519409,"511":7.633012294769287,"512":0.5648741126060486,"513":0.3720530569553375,"514":0.9749349355697632,"515":0.4263112246990204,"516":0.09393961727619171,"517":-2.286360025405884,"518":1.0858066082000732,"519":3.0155692100524902,"520":4.779465675354004,"521":-1.14151132106781,"522":-3.6541225910186768,"523":-1.3652201890945435,"524":3.9952919483184814,"525":1.8558111190795898,"526":-2.8733339309692383,"527":2.0182032585144043,"528":-2.636786937713623,"529":-0.9959225654602051,"530":-1.8034917116165161,"531":0.7890709042549133,"532":2.990473508834839,"533":2.133349895477295,"534":-0.6048407554626465,"535":1.4155843257904053,"536":-0.08139514178037643,"537":0.10146401822566986,"538":-1.265223741531372,"539":1.395009160041809,"540":0.6236134767532349,"541":2.772409200668335,"542":-4.930348873138428,"543":0.8682200908660889,"544":-3.440807580947876,"545":-2.232133626937866,"546":1.4276961088180542,"547":-0.8427796363830566,"548":0.9787991642951965,"549":0.6771125197410583,"550":3.6319942474365234,"551":-1.4280413389205933,"552":-0.4749632775783539,"553":-0.8034138083457947,"554":2.6736886501312256,"555":-2.3829457759857178,"556":1.1153658628463745,"557":-0.24581792950630188,"558":0.026923496276140213,"559":1.939398169517517,"560":1.2916243076324463,"561":-0.8052167296409607,"562":1.9483327865600586,"563":-1.35280442237854,"564":0.24369646608829498,"565":2.005086660385132,"566":2.024223804473877,"567":-0.38539209961891174,"568":-2.2472176551818848,"569":2.6712095737457275,"570":-1.4955244064331055,"571":-3.4166128635406494,"572":-1.0634318590164185,"573":-3.233518362045288,"574":0.7085680365562439,"575":-0.7296295166015625,"576":-0.02233065664768219,"577":-0.11051440984010696,"578":-0.969253420829773,"579":1.8626508712768555,"580":0.902670681476593,"581":0.34025171399116516,"582":0.008704738691449165,"583":2.2765450477600098,"584":-0.4165959656238556,"585":-0.5662024021148682,"586":-2.0638129711151123,"587":0.6394084095954895,"588":0.9554751515388489,"589":0.7759445309638977,"590":-0.18990430235862732,"591":-3.4681026935577393,"592":-0.02965402416884899,"593":1.9399679899215698,"594":-1.5330554246902466,"595":-1.4870989322662354,"596":-2.294644832611084,"597":-1.9920390844345093,"598":-0.007134531624615192,"599":1.9774821996688843}},"forgetHidden":{"rows":20,"columns":20,"weights":{"0":-8.80238151550293,"1":0.21930041909217834,"2":-1.0942497253417969,"3":-4.527030944824219,"4":-2.075340747833252,"5":3.1016228199005127,"6":3.3451459407806396,"7":-8.253280639648438,"8":2.8853790760040283,"9":0.5359330177307129,"10":-0.7741169333457947,"11":0.2528548538684845,"12":-3.384572982788086,"13":3.7752294540405273,"14":2.153752565383911,"15":6.123873233795166,"16":-10.04064655303955,"17":-0.551770031452179,"18":5.581067085266113,"19":3.7358803749084473,"20":-1.35298752784729,"21":4.175251007080078,"22":4.0170369148254395,"23":8.001317024230957,"24":0.08279985189437866,"25":-0.995193600654602,"26":-1.2484041452407837,"27":2.957122325897217,"28":4.399656295776367,"29":-3.177614212036133,"30":-0.07263126969337463,"31":-1.161307692527771,"32":6.135709762573242,"33":1.9644453525543213,"34":-0.34526264667510986,"35":7.926170825958252,"36":-1.467692494392395,"37":-1.1209559440612793,"38":0.9363792538642883,"39":1.4560080766677856,"40":-0.2089337557554245,"41":-1.5753406286239624,"42":2.9111413955688477,"43":1.6296730041503906,"44":6.91439151763916,"45":0.40235573053359985,"46":-6.5121169090271,"47":7.711118698120117,"48":1.1738770008087158,"49":-5.6508331298828125,"50":-6.788612365722656,"51":-4.146044731140137,"52":-2.999469518661499,"53":-0.8236768841743469,"54":1.8195433616638184,"55":-4.118518352508545,"56":-6.02628755569458,"57":-0.24332359433174133,"58":0.3876688480377197,"59":-0.09381869435310364,"60":8.293323516845703,"61":-6.1126604080200195,"62":0.6857998371124268,"63":11.52245807647705,"64":2.2734405994415283,"65":-2.6271581649780273,"66":1.7678768634796143,"67":-0.17339573800563812,"68":2.6319000720977783,"69":0.9573298692703247,"70":1.8911765813827515,"71":-1.9185869693756104,"72":0.9414279460906982,"73":-5.719172477722168,"74":-9.111334800720215,"75":-2.562312126159668,"76":10.193039894104004,"77":0.6568518877029419,"78":-2.807837724685669,"79":-5.809169769287109,"80":0.6813374757766724,"81":-3.3892476558685303,"82":-7.018398284912109,"83":-0.3352890610694885,"84":6.8041486740112305,"85":-1.472266674041748,"86":-0.4292246699333191,"87":-9.386281967163086,"88":-6.345818519592285,"89":-2.1704866886138916,"90":3.4865171909332275,"91":-2.603501081466675,"92":3.3941407203674316,"93":-6.6953253746032715,"94":-9.05290699005127,"95":5.602953910827637,"96":-7.014832496643066,"97":-5.075579643249512,"98":-6.1624674797058105,"99":-3.244694232940674,"100":-9.333747863769531,"101":10.804689407348633,"102":-13.303801536560059,"103":-12.255056381225586,"104":-2.6032330989837646,"105":-7.606640338897705,"106":4.505676746368408,"107":0.3214617967605591,"108":-2.974508285522461,"109":1.8886653184890747,"110":-0.3166777193546295,"111":5.926578521728516,"112":1.4719065427780151,"113":1.4996565580368042,"114":-1.152675747871399,"115":-3.476217269897461,"116":-5.754302501678467,"117":-1.108533263206482,"118":-0.9636436104774475,"119":-3.643420457839966,"120":-2.697876453399658,"121":4.951321125030518,"122":1.1052577495574951,"123":-0.035164471715688705,"124":0.7795154452323914,"125":2.0364255905151367,"126":-1.9067074060440063,"127":7.460966110229492,"128":-4.002773284912109,"129":-6.8776140213012695,"130":5.992663860321045,"131":3.503969669342041,"132":-3.1029903888702393,"133":-1.3933013677597046,"134":5.26713228225708,"135":1.6116206645965576,"136":-2.72409725189209,"137":2.7016654014587402,"138":-2.495758056640625,"139":5.878591060638428,"140":-0.3597952425479889,"141":0.4916112720966339,"142":-1.322688341140747,"143":-2.574488878250122,"144":-2.050591230392456,"145":-1.7174030542373657,"146":0.3506042957305908,"147":0.6337107419967651,"148":1.5827587842941284,"149":0.9926759004592896,"150":-0.4623892605304718,"151":-1.7595646381378174,"152":2.190138816833496,"153":-0.7348967790603638,"154":0.5866537094116211,"155":0.6074144840240479,"156":0.27761155366897583,"157":0.99826979637146,"158":-1.1076366901397705,"159":-0.6970503330230713,"160":7.2118821144104,"161":-1.351647973060608,"162":9.70479679107666,"163":8.734345436096191,"164":2.468451499938965,"165":11.009637832641602,"166":2.646202802658081,"167":4.269268035888672,"168":-3.666025400161743,"169":-3.7153866291046143,"170":-2.4845571517944336,"171":-6.639287948608398,"172":2.0522944927215576,"173":-6.098342418670654,"174":5.026341915130615,"175":-6.19598913192749,"176":-4.618103981018066,"177":0.17325280606746674,"178":-0.16359081864356995,"179":-3.07635760307312,"180":-1.333460807800293,"181":1.1139466762542725,"182":8.39268684387207,"183":5.7889604568481445,"184":-0.5777277946472168,"185":3.9032468795776367,"186":-0.8869742751121521,"187":-0.51300048828125,"188":-5.659084796905518,"189":1.6006382703781128,"190":0.6037800312042236,"191":-0.9156919717788696,"192":-3.044219970703125,"193":0.919226884841919,"194":5.968465328216553,"195":5.9240570068359375,"196":-1.7188390493392944,"197":1.0301446914672852,"198":0.1623707115650177,"199":6.686403751373291,"200":3.4215941429138184,"201":1.418787956237793,"202":-1.2278105020523071,"203":4.374535083770752,"204":-1.1170663833618164,"205":-3.282702684402466,"206":1.4364261627197266,"207":3.6572415828704834,"208":-0.2779689431190491,"209":-3.103862762451172,"210":-0.4638420343399048,"211":-10.021605491638184,"212":-0.6329899430274963,"213":-2.0563716888427734,"214":12.87658405303955,"215":-0.9697754979133606,"216":-9.824871063232422,"217":3.8130288124084473,"218":-7.009144306182861,"219":-2.2108750343322754,"220":2.024794578552246,"221":2.724400758743286,"222":-2.1645166873931885,"223":-0.572411060333252,"224":-3.0867695808410645,"225":-2.638597249984741,"226":0.6557343006134033,"227":2.762824535369873,"228":-2.0403075218200684,"229":5.10540246963501,"230":0.3419012129306793,"231":2.052130937576294,"232":-3.1269307136535645,"233":-5.309300422668457,"234":2.1507973670959473,"235":1.7903867959976196,"236":-0.6833963990211487,"237":2.9905121326446533,"238":-1.4971654415130615,"239":3.5039727687835693,"240":-4.134618759155273,"241":1.1078732013702393,"242":3.279085159301758,"243":-9.347938537597656,"244":-0.28907546401023865,"245":6.565658092498779,"246":-1.7438842058181763,"247":-4.777542591094971,"248":0.7176305651664734,"249":-4.48556661605835,"250":-5.722368240356445,"251":3.515286445617676,"252":-4.7107768058776855,"253":-1.188441514968872,"254":7.710765361785889,"255":3.3889975547790527,"256":0.28114259243011475,"257":-0.6557503342628479,"258":5.5041823387146,"259":-1.461778998374939,"260":2.333648681640625,"261":2.736987829208374,"262":2.980736017227173,"263":-9.480754852294922,"264":6.157949924468994,"265":-1.3876456022262573,"266":-10.377266883850098,"267":6.840996265411377,"268":-4.0789055824279785,"269":0.7853150963783264,"270":-2.831461191177368,"271":8.077927589416504,"272":3.4652435779571533,"273":1.8836339712142944,"274":1.0735269784927368,"275":-0.45152661204338074,"276":2.5751872062683105,"277":-4.492316246032715,"278":1.3623534440994263,"279":-5.37689208984375,"280":1.376889944076538,"281":5.066892623901367,"282":-6.25161075592041,"283":-3.1104743480682373,"284":-4.182763576507568,"285":-4.742869853973389,"286":-2.4156713485717773,"287":7.795351028442383,"288":-4.210641384124756,"289":0.7723791599273682,"290":4.459486484527588,"291":3.375819444656372,"292":-3.479652166366577,"293":10.317156791687012,"294":-1.4526419639587402,"295":0.9446380734443665,"296":8.391975402832031,"297":-1.3321731090545654,"298":-0.638886570930481,"299":2.2176666259765625,"300":4.394094467163086,"301":-4.298222541809082,"302":6.2887797355651855,"303":2.899962902069092,"304":2.412635087966919,"305":3.747293710708618,"306":5.007681846618652,"307":3.641145706176758,"308":-0.8873398303985596,"309":0.747166097164154,"310":2.0108418464660645,"311":-2.1578657627105713,"312":-3.3114805221557617,"313":-0.9415315389633179,"314":-1.144473910331726,"315":-5.868846416473389,"316":6.497824192047119,"317":6.250387191772461,"318":-1.8808931112289429,"319":-9.580658912658691,"320":-1.2995691299438477,"321":4.933569431304932,"322":-0.7896332144737244,"323":-1.4186679124832153,"324":3.0048391819000244,"325":-0.1303562968969345,"326":0.3348379135131836,"327":2.2757880687713623,"328":-3.734307289123535,"329":-5.718724250793457,"330":-3.426302909851074,"331":4.792181968688965,"332":2.4228668212890625,"333":-0.44679734110832214,"334":-6.68184757232666,"335":9.973358154296875,"336":-0.3054903447628021,"337":-2.1233363151550293,"338":7.887660026550293,"339":6.933158874511719,"340":-2.471508026123047,"341":-3.9387099742889404,"342":3.088380813598633,"343":-4.10141134262085,"344":1.306280255317688,"345":1.5705896615982056,"346":0.03281783312559128,"347":0.195262148976326,"348":-3.466165065765381,"349":0.6563641428947449,"350":2.9022107124328613,"351":3.3065452575683594,"352":-0.12753866612911224,"353":-3.565800428390503,"354":-2.7833645343780518,"355":3.5876786708831787,"356":3.0698416233062744,"357":0.032415714114904404,"358":2.057612419128418,"359":1.1493926048278809,"360":-2.279900312423706,"361":-0.21500466763973236,"362":-4.32845401763916,"363":-8.303688049316406,"364":4.138437271118164,"365":2.5076143741607666,"366":3.2394022941589355,"367":-0.6338383555412292,"368":-0.7780585885047913,"369":-2.5028889179229736,"370":-4.2396345138549805,"371":3.6404194831848145,"372":1.897215723991394,"373":3.810655117034912,"374":-11.827900886535645,"375":-2.027744770050049,"376":7.584848880767822,"377":8.407267570495605,"378":-1.8941351175308228,"379":5.113225936889648,"380":-0.9070833325386047,"381":-2.15439772605896,"382":1.174684762954712,"383":0.6414585113525391,"384":-0.9884716272354126,"385":2.3863492012023926,"386":2.7132036685943604,"387":-0.5816686749458313,"388":0.6177949905395508,"389":2.1662182807922363,"390":-0.10711371898651123,"391":0.9001826047897339,"392":-4.47052001953125,"393":-1.0971139669418335,"394":-1.4377201795578003,"395":-0.7764164805412292,"396":1.1243572235107422,"397":1.038864016532898,"398":1.3364152908325195,"399":-2.0773696899414062}},"forgetBias":{"rows":20,"columns":1,"weights":{"0":0,"1":0,"2":0,"3":0,"4":0,"5":0,"6":0,"7":0,"8":0,"9":0,"10":0,"11":0,"12":0,"13":0,"14":0,"15":0,"16":0,"17":0,"18":0,"19":0}},"outputMatrix":{"rows":20,"columns":30,"weights":{"0":0.17442718148231506,"1":-0.6953223347663879,"2":-0.6724595427513123,"3":-1.6042330265045166,"4":-0.53122478723526,"5":1.0828278064727783,"6":1.6443153619766235,"7":-0.2367473542690277,"8":0.02487337402999401,"9":0.2810782194137573,"10":-0.9532756805419922,"11":1.1514917612075806,"12":0.13144971430301666,"13":-0.2803337872028351,"14":1.1678494215011597,"15":0.06760262697935104,"16":-0.05124455317854881,"17":0.41122156381607056,"18":-1.5866062641143799,"19":0.37709736824035645,"20":0.276723712682724,"21":-0.6358206272125244,"22":0.7598316073417664,"23":-1.1977015733718872,"24":-0.6339239478111267,"25":-1.2489068508148193,"26":-1.005611538887024,"27":0.3839915692806244,"28":1.4155027866363525,"29":0.06309429556131363,"30":-0.5343224406242371,"31":-1.8444710969924927,"32":-0.9831954836845398,"33":-1.089228630065918,"34":0.6478114724159241,"35":1.455414891242981,"36":1.0729923248291016,"37":0.23873496055603027,"38":-0.3369750380516052,"39":-1.486395001411438,"40":2.3013126850128174,"41":1.4048913717269897,"42":1.3964968919754028,"43":-1.2918241024017334,"44":-3.1405029296875,"45":-0.2531256079673767,"46":-2.1594104766845703,"47":0.8991553783416748,"48":-0.3825709819793701,"49":-0.857504665851593,"50":-1.0201789140701294,"51":0.5361999869346619,"52":-0.18670654296875,"53":0.9179220199584961,"54":0.13310520350933075,"55":0.90189129114151,"56":-2.2134311199188232,"57":-0.39808014035224915,"58":0.012043450959026814,"59":-0.6641758680343628,"60":-0.5121005773544312,"61":-1.6243144273757935,"62":-0.46350693702697754,"63":-0.00889648962765932,"64":1.9000486135482788,"65":0.9393097758293152,"66":-2.018244981765747,"67":0.16594642400741577,"68":-0.4555876553058624,"69":-1.217594861984253,"70":-0.9376360774040222,"71":0.5027081966400146,"72":0.33466213941574097,"73":0.01587306521832943,"74":-4.0468597412109375,"75":0.44944635033607483,"76":1.0360196828842163,"77":0.14107035100460052,"78":2.8747940063476562,"79":0.5044488310813904,"80":2.1841683387756348,"81":0.4190133213996887,"82":-0.21236009895801544,"83":-0.9344664812088013,"84":-0.6402912139892578,"85":-3.620454788208008,"86":0.011433244682848454,"87":-1.120205283164978,"88":1.4342615604400635,"89":0.23408587276935577,"90":-0.49885863065719604,"91":2.31003475189209,"92":-0.7284244298934937,"93":0.0626407340168953,"94":2.6593079566955566,"95":1.1113661527633667,"96":-0.6493338346481323,"97":1.6006149053573608,"98":0.33060017228126526,"99":2.7270493507385254,"100":-0.7236777544021606,"101":-1.8856128454208374,"102":1.38315749168396,"103":-0.13582059741020203,"104":-1.5628587007522583,"105":-0.8389142155647278,"106":3.775300979614258,"107":-1.9417725801467896,"108":-1.9776194095611572,"109":-1.3345948457717896,"110":-1.7137746810913086,"111":-1.0545463562011719,"112":-1.0558334589004517,"113":-1.9330812692642212,"114":-1.440433382987976,"115":-1.058401346206665,"116":-4.667378902435303,"117":4.36713171005249,"118":-1.377123475074768,"119":0.8181676864624023,"120":2.952775001525879,"121":-0.09619011729955673,"122":0.8184142112731934,"123":0.1539861410856247,"124":0.9058265686035156,"125":-2.541555404663086,"126":-0.09031756967306137,"127":-0.7209243774414062,"128":-0.9312757849693298,"129":-0.5096995830535889,"130":-2.1394238471984863,"131":0.6336913704872131,"132":-1.7448687553405762,"133":0.08377604931592941,"134":-2.28914737701416,"135":1.4637157917022705,"136":-0.034259140491485596,"137":-0.8020320534706116,"138":0.022284699603915215,"139":-2.2223803997039795,"140":2.9736828804016113,"141":1.7499297857284546,"142":0.5985124707221985,"143":-0.7216284275054932,"144":1.7212626934051514,"145":-2.4608564376831055,"146":2.8468570709228516,"147":-1.2371078729629517,"148":0.0260020662099123,"149":-0.24070313572883606,"150":-1.71204674243927,"151":0.8597189784049988,"152":2.512406349182129,"153":1.9632786512374878,"154":-1.8567496538162231,"155":-3.763793706893921,"156":4.694022178649902,"157":-2.3013999462127686,"158":-0.44499149918556213,"159":-3.365004777908325,"160":-5.619501113891602,"161":2.767256736755371,"162":-1.4532597064971924,"163":2.097468137741089,"164":-1.6142640113830566,"165":1.5764873027801514,"166":1.8510277271270752,"167":-4.558594703674316,"168":1.8414424657821655,"169":1.6681888103485107,"170":-4.539837837219238,"171":1.9025801420211792,"172":-1.3757460117340088,"173":-2.9816911220550537,"174":0.6345927715301514,"175":-0.4720492660999298,"176":-0.8281850218772888,"177":-2.929830551147461,"178":0.675640344619751,"179":-1.5077658891677856,"180":-3.2007367610931396,"181":-2.4778549671173096,"182":0.3463010787963867,"183":-1.1573424339294434,"184":-0.9259816408157349,"185":-3.3804471492767334,"186":1.8140062093734741,"187":0.2944609522819519,"188":1.6346499919891357,"189":-3.3701393604278564,"190":-1.3373987674713135,"191":-0.27136456966400146,"192":-0.188650980591774,"193":0.820050060749054,"194":-0.7536910176277161,"195":0.5364580750465393,"196":2.2168562412261963,"197":-4.432526111602783,"198":0.19198542833328247,"199":0.7077047228813171,"200":-1.3794894218444824,"201":0.7849233150482178,"202":1.2699470520019531,"203":-0.8924025893211365,"204":0.7709007859230042,"205":-1.507773756980896,"206":-0.4494989216327667,"207":-1.3885362148284912,"208":-1.1959582567214966,"209":-1.6693871021270752,"210":3.0852489471435547,"211":-3.6687092781066895,"212":-1.368232250213623,"213":0.7324098944664001,"214":-2.5407493114471436,"215":3.2838237285614014,"216":0.7734317779541016,"217":-1.431343674659729,"218":-2.12992000579834,"219":-0.319715291261673,"220":-1.864115595817566,"221":0.2261698842048645,"222":-1.146543264389038,"223":-1.135783076286316,"224":3.6722054481506348,"225":-0.7011645436286926,"226":-0.9344242215156555,"227":2.092226505279541,"228":-1.275998830795288,"229":3.2106802463531494,"230":2.91745924949646,"231":-2.3208935260772705,"232":0.12402068078517914,"233":3.055736780166626,"234":-2.501706600189209,"235":3.099642753601074,"236":-0.13446862995624542,"237":-2.3080639839172363,"238":0.7911249399185181,"239":2.5300562381744385,"240":-0.5418092608451843,"241":-0.4166940152645111,"242":-0.8067288398742676,"243":-1.3000354766845703,"244":0.3417198061943054,"245":0.39765045046806335,"246":-0.6034993529319763,"247":-0.6515545845031738,"248":0.4265473783016205,"249":0.17895202338695526,"250":0.9681261777877808,"251":-2.3033387660980225,"252":0.7111696004867554,"253":-0.8807076215744019,"254":1.4593257904052734,"255":0.1097969263792038,"256":-1.1011860370635986,"257":-2.033162832260132,"258":-1.4452829360961914,"259":-0.5290413498878479,"260":-1.0450927019119263,"261":-0.3115750849246979,"262":-0.4846629500389099,"263":-1.0456280708312988,"264":0.1379333883523941,"265":-0.37434884905815125,"266":0.060566246509552,"267":0.9024477601051331,"268":-0.8949525952339172,"269":-0.22650639712810516,"270":-2.0368173122406006,"271":0.3781980574131012,"272":1.1483219861984253,"273":-0.059720609337091446,"274":1.8136347532272339,"275":1.5632394552230835,"276":-2.0096092224121094,"277":0.6378153562545776,"278":-0.4433532953262329,"279":0.7108661532402039,"280":-3.2683093547821045,"281":-2.634251832962036,"282":0.27868160605430603,"283":0.3795245587825775,"284":-1.395532488822937,"285":-0.7987045049667358,"286":1.5202738046646118,"287":-1.740278959274292,"288":-0.8928399682044983,"289":-0.10131533443927765,"290":0.09424639493227005,"291":-0.22576653957366943,"292":-0.18428146839141846,"293":-1.618825912475586,"294":-0.011079568415880203,"295":-0.013431279920041561,"296":-0.3819650113582611,"297":1.108152985572815,"298":0.49220070242881775,"299":-0.12792253494262695,"300":-3.8738605976104736,"301":0.1024661436676979,"302":1.707617998123169,"303":-1.65142822265625,"304":-0.5792971849441528,"305":-3.5014374256134033,"306":0.627914309501648,"307":1.0621249675750732,"308":1.8032655715942383,"309":-2.5549793243408203,"310":-1.8568036556243896,"311":-3.002983331680298,"312":-0.5884758830070496,"313":-1.7654905319213867,"314":-0.9554588794708252,"315":-1.7072643041610718,"316":-0.23215842247009277,"317":-5.035404682159424,"318":-2.9912760257720947,"319":0.34902164340019226,"320":-1.607377052307129,"321":4.505083084106445,"322":-3.128061294555664,"323":-2.1522207260131836,"324":2.743245840072632,"325":-4.858820915222168,"326":0.6430606842041016,"327":-2.9390385150909424,"328":0.8833040595054626,"329":1.8613392114639282,"330":-2.225085496902466,"331":-1.3136215209960938,"332":-0.5203668475151062,"333":-0.14537717401981354,"334":1.510459303855896,"335":-1.1569312810897827,"336":1.3241897821426392,"337":1.0388894081115723,"338":-0.5271123051643372,"339":-0.5637595653533936,"340":1.0002483129501343,"341":0.27801039814949036,"342":0.07840422540903091,"343":0.1422673761844635,"344":-0.5921906232833862,"345":0.9303280711174011,"346":0.34252646565437317,"347":-0.8351566195487976,"348":2.6679348945617676,"349":0.9103816747665405,"350":-0.10061482340097427,"351":-0.1342564821243286,"352":1.5567649602890015,"353":2.0439858436584473,"354":-0.2185230404138565,"355":0.8948585391044617,"356":1.1693395376205444,"357":-0.13921037316322327,"358":0.6027365922927856,"359":0.2872370779514313,"360":-1.2032734155654907,"361":-1.3798446655273438,"362":0.8173482418060303,"363":0.8569117784500122,"364":1.7372742891311646,"365":2.2242777347564697,"366":-0.6462110877037048,"367":1.1561541557312012,"368":-1.1107234954833984,"369":0.34984835982322693,"370":-2.390498161315918,"371":0.5084862112998962,"372":-0.7804858088493347,"373":0.16251012682914734,"374":-3.2783234119415283,"375":-2.290187358856201,"376":3.096202850341797,"377":-0.3940362334251404,"378":1.0904382467269897,"379":-0.788474440574646,"380":0.11922034621238708,"381":0.5624513030052185,"382":-1.9841028451919556,"383":-1.7031776905059814,"384":-1.3219218254089355,"385":-0.25092145800590515,"386":-1.2445778846740723,"387":0.9937177896499634,"388":0.6270622611045837,"389":0.09652175009250641,"390":0.40997761487960815,"391":0.4445510804653168,"392":-0.054884202778339386,"393":0.4973929822444916,"394":0.23696699738502502,"395":0.0013662565033882856,"396":1.1390944719314575,"397":-1.8208270072937012,"398":-0.3573176860809326,"399":0.21378079056739807,"400":-2.702338457107544,"401":0.5359223484992981,"402":-0.396403431892395,"403":-0.32170096039772034,"404":-2.3826611042022705,"405":0.5716593861579895,"406":-1.95598304271698,"407":-2.067922830581665,"408":-0.551491379737854,"409":0.2566225230693817,"410":0.5090517997741699,"411":-0.34516626596450806,"412":3.2541654109954834,"413":-0.7367427945137024,"414":0.13573835790157318,"415":-4.01267671585083,"416":0.7032051682472229,"417":-1.059808611869812,"418":-0.008862089365720749,"419":1.305004358291626,"420":2.722313642501831,"421":0.4516323208808899,"422":2.1102683544158936,"423":1.0638877153396606,"424":0.16641463339328766,"425":2.2374789714813232,"426":-1.1603779792785645,"427":-0.902588963508606,"428":1.7043235301971436,"429":0.6861510276794434,"430":-3.4932026863098145,"431":-1.8033396005630493,"432":-1.2650090456008911,"433":2.11738920211792,"434":0.6621842384338379,"435":-1.397370457649231,"436":-0.7181814312934875,"437":-3.2570106983184814,"438":-2.823030471801758,"439":-1.168210506439209,"440":1.417252779006958,"441":1.7537479400634766,"442":0.29370635747909546,"443":1.1813380718231201,"444":0.28623276948928833,"445":-0.30563586950302124,"446":-0.4478660523891449,"447":-1.4582399129867554,"448":0.1251058280467987,"449":1.6509863138198853,"450":1.81011164188385,"451":0.9925700426101685,"452":1.4760017395019531,"453":0.6140320301055908,"454":-1.4661320447921753,"455":-0.7761159539222717,"456":2.28234601020813,"457":-1.9230971336364746,"458":-0.15628626942634583,"459":-4.65260124206543,"460":-2.753570318222046,"461":0.97476726770401,"462":-3.3098385334014893,"463":1.884680151939392,"464":0.6482251286506653,"465":2.888262987136841,"466":1.435099720954895,"467":-0.8716419339179993,"468":1.4982166290283203,"469":-0.11526389420032501,"470":-0.6792974472045898,"471":1.1066176891326904,"472":1.1494545936584473,"473":-0.2427527904510498,"474":0.30378636717796326,"475":-2.255218505859375,"476":-0.6130335330963135,"477":-0.22042182087898254,"478":1.6860082149505615,"479":0.5553556084632874,"480":-1.2504045963287354,"481":0.4461061954498291,"482":-0.8462480902671814,"483":0.9044603705406189,"484":-2.953814744949341,"485":0.17113864421844482,"486":2.1240413188934326,"487":0.41618359088897705,"488":-0.3640981912612915,"489":-0.3712003529071808,"490":-0.15066586434841156,"491":1.1841187477111816,"492":0.7320067286491394,"493":-0.04927412047982216,"494":-1.645046591758728,"495":-0.7227728366851807,"496":2.8937599658966064,"497":-0.056300196796655655,"498":0.17763526737689972,"499":-0.751862108707428,"500":-4.299628734588623,"501":0.13407830893993378,"502":-2.880009174346924,"503":0.9899941086769104,"504":-0.025818295776844025,"505":3.33536958694458,"506":-2.4676413536071777,"507":-0.8734362125396729,"508":2.076322555541992,"509":-1.2269659042358398,"510":0.9096044301986694,"511":-0.529103696346283,"512":-1.8972816467285156,"513":0.5479254126548767,"514":-0.4021399915218353,"515":-5.903482913970947,"516":2.9688148498535156,"517":0.8749199509620667,"518":-1.0849239826202393,"519":-2.9353039264678955,"520":3.0796730518341064,"521":1.8971575498580933,"522":-2.601520299911499,"523":-0.03905046731233597,"524":-0.32764309644699097,"525":-0.2598870098590851,"526":-1.871433138847351,"527":0.20448505878448486,"528":-1.1311149597167969,"529":0.01721433736383915,"530":-0.02824084274470806,"531":2.0062670707702637,"532":0.10648512095212936,"533":0.2974090874195099,"534":-0.6302999258041382,"535":-1.929024338722229,"536":-0.053810372948646545,"537":-0.8987446427345276,"538":-1.4814475774765015,"539":1.3109842538833618,"540":-2.077385187149048,"541":0.35039210319519043,"542":-1.02761971950531,"543":-0.6682161688804626,"544":-1.8190436363220215,"545":3.3542470932006836,"546":1.6652493476867676,"547":-1.7035738229751587,"548":0.4189915955066681,"549":0.09511198103427887,"550":-4.6094489097595215,"551":-2.277224063873291,"552":-0.448391854763031,"553":0.9034330248832703,"554":-1.2547062635421753,"555":1.223791480064392,"556":-1.3555787801742554,"557":-3.2900590896606445,"558":-0.8711620569229126,"559":0.8761353492736816,"560":-1.9240645170211792,"561":-0.7552998065948486,"562":0.8961343169212341,"563":0.09949787706136703,"564":0.5822571516036987,"565":-0.29762405157089233,"566":0.22458219528198242,"567":-0.12480886280536652,"568":3.857077121734619,"569":1.0950757265090942,"570":0.44979894161224365,"571":1.407910704612732,"572":2.618856191635132,"573":2.0472168922424316,"574":-0.30797380208969116,"575":-1.7270545959472656,"576":-3.4202256202697754,"577":4.8826470375061035,"578":2.29539155960083,"579":-0.7760419249534607,"580":-2.786428451538086,"581":-6.31629753112793,"582":0.7154704928398132,"583":0.06369905918836594,"584":1.4972407817840576,"585":1.7975701093673706,"586":2.2775089740753174,"587":-3.529453754425049,"588":-4.018383502960205,"589":-0.9445908069610596,"590":-1.6661174297332764,"591":0.5403280854225159,"592":0.5642865300178528,"593":-3.4285943508148193,"594":-0.2294420599937439,"595":-1.6277273893356323,"596":-0.9097399711608887,"597":2.7583167552948,"598":1.0828500986099243,"599":2.4073214530944824}},"outputHidden":{"rows":20,"columns":20,"weights":{"0":6.951882839202881,"1":-3.073507785797119,"2":5.7653021812438965,"3":-5.262591361999512,"4":-1.2906806468963623,"5":2.5662128925323486,"6":-2.998422622680664,"7":8.198936462402344,"8":-9.018712997436523,"9":2.379042863845825,"10":7.932628154754639,"11":6.449723720550537,"12":13.234109878540039,"13":-0.3216336667537689,"14":1.2061412334442139,"15":-10.448885917663574,"16":1.5767438411712646,"17":6.220605850219727,"18":-18.538150787353516,"19":-2.4535951614379883,"20":-3.3793325424194336,"21":0.22395539283752441,"22":-1.4488167762756348,"23":-0.97042316198349,"24":8.121235847473145,"25":-3.414693593978882,"26":-5.896789073944092,"27":-4.600571155548096,"28":4.009469509124756,"29":0.8312538266181946,"30":-3.1668508052825928,"31":-0.0738430768251419,"32":4.808135509490967,"33":-0.7251034379005432,"34":0.7323578596115112,"35":1.0164644718170166,"36":6.684021472930908,"37":-4.7341814041137695,"38":8.57302188873291,"39":4.572004318237305,"40":-8.519699096679688,"41":-0.25018933415412903,"42":0.21677090227603912,"43":9.20236873626709,"44":-0.5915526151657104,"45":10.076258659362793,"46":-0.9884177446365356,"47":-2.850862503051758,"48":-0.7841267585754395,"49":0.019457826390862465,"50":-1.4117790460586548,"51":0.14979907870292664,"52":-10.20623779296875,"53":4.005745887756348,"54":1.275583028793335,"55":-1.2839504480361938,"56":5.015971660614014,"57":-3.900397300720215,"58":-1.5390950441360474,"59":14.163045883178711,"60":-2.3602194786071777,"61":-0.4480941891670227,"62":2.259002208709717,"63":0.06355321407318115,"64":5.063307762145996,"65":-6.906049728393555,"66":-4.892168045043945,"67":-4.244722843170166,"68":6.345591068267822,"69":0.7654536366462708,"70":-3.6873888969421387,"71":2.1243603229522705,"72":2.851250171661377,"73":-2.000605821609497,"74":-2.9357242584228516,"75":4.234154224395752,"76":-0.6451582312583923,"77":-6.015965938568115,"78":-1.303391456604004,"79":-4.026957035064697,"80":2.998196601867676,"81":3.538888454437256,"82":-0.17841754853725433,"83":0.7033041715621948,"84":-1.2786303758621216,"85":-1.5680983066558838,"86":-3.0039379596710205,"87":7.422116756439209,"88":1.3531938791275024,"89":2.6648898124694824,"90":-5.557908058166504,"91":1.6307315826416016,"92":-3.2754595279693604,"93":-0.36403465270996094,"94":-0.6129928827285767,"95":1.3765149116516113,"96":-5.687978267669678,"97":-8.38188648223877,"98":0.4018653929233551,"99":-4.507087230682373,"100":1.5710142850875854,"101":0.881426215171814,"102":0.016145067289471626,"103":-2.952498197555542,"104":1.1468818187713623,"105":-1.8996225595474243,"106":0.5211091637611389,"107":-2.549022912979126,"108":1.3138339519500732,"109":1.1247055530548096,"110":-0.8483240604400635,"111":-0.14679761230945587,"112":1.549041986465454,"113":-1.3060520887374878,"114":3.3881077766418457,"115":1.134873867034912,"116":1.527253270149231,"117":2.0009920597076416,"118":1.793084740638733,"119":0.7378631234169006,"120":-0.14140266180038452,"121":4.483052730560303,"122":3.1813323497772217,"123":-2.558173179626465,"124":0.8968595266342163,"125":-0.5569795966148376,"126":3.1203773021698,"127":2.7512948513031006,"128":7.540210723876953,"129":-1.1673173904418945,"130":1.7879191637039185,"131":3.9795753955841064,"132":4.650847911834717,"133":0.09255032986402512,"134":0.8110255002975464,"135":1.2722309827804565,"136":-2.6834716796875,"137":2.483920097351074,"138":1.5911539793014526,"139":-2.430006504058838,"140":-2.737996816635132,"141":-1.442238688468933,"142":-3.957489013671875,"143":3.7820775508880615,"144":1.0390746593475342,"145":0.020254075527191162,"146":0.3460118770599365,"147":-2.179433822631836,"148":3.139580488204956,"149":-3.482292890548706,"150":-0.7742969393730164,"151":1.921803593635559,"152":-0.45739027857780457,"153":-0.8779531717300415,"154":3.0575883388519287,"155":-0.22679413855075836,"156":-0.007803680375218391,"157":-1.0605528354644775,"158":-0.1469687521457672,"159":0.15683326125144958,"160":3.273442029953003,"161":-2.4746253490448,"162":3.178537607192993,"163":-3.514549732208252,"164":-10.135965347290039,"165":-1.3561232089996338,"166":4.06495475769043,"167":6.477795600891113,"168":-7.043230056762695,"169":2.3666586875915527,"170":8.405458450317383,"171":8.31801986694336,"172":-4.74701452255249,"173":-7.96969747543335,"174":2.520259141921997,"175":0.29772111773490906,"176":-0.8114902973175049,"177":3.613929033279419,"178":-2.535787582397461,"179":-4.15879487991333,"180":0.3442389667034149,"181":-12.405851364135742,"182":-5.590312957763672,"183":3.609177589416504,"184":1.8991872072219849,"185":-0.5196813941001892,"186":-4.246820449829102,"187":-6.733253479003906,"188":3.0145554542541504,"189":-7.653883457183838,"190":7.915135383605957,"191":-1.0960575342178345,"192":-3.757704257965088,"193":1.721453070640564,"194":6.596243858337402,"195":-1.731088399887085,"196":11.688590049743652,"197":1.8131440877914429,"198":-4.015285968780518,"199":-2.8009471893310547,"200":2.4653189182281494,"201":1.8165321350097656,"202":1.0791467428207397,"203":0.9810593128204346,"204":1.2840367555618286,"205":-0.48543187975883484,"206":0.12466759979724884,"207":0.1007792130112648,"208":-0.30836769938468933,"209":-0.873059093952179,"210":-0.24298568069934845,"211":-2.1304666996002197,"212":-5.406010627746582,"213":-0.38789692521095276,"214":-0.24123263359069824,"215":0.2348913550376892,"216":2.4321537017822266,"217":-3.0478262901306152,"218":-1.0765793323516846,"219":-1.2299360036849976,"220":-0.7146515846252441,"221":-5.4838786125183105,"222":-5.939397811889648,"223":-1.5848325490951538,"224":-1.327366828918457,"225":3.4065639972686768,"226":10.903416633605957,"227":-3.6421377658843994,"228":-7.140979290008545,"229":2.802255392074585,"230":5.620319843292236,"231":-1.2441370487213135,"232":-1.7244389057159424,"233":-1.2301558256149292,"234":-6.0429816246032715,"235":6.084547519683838,"236":-0.48615261912345886,"237":1.2643470764160156,"238":-8.339201927185059,"239":-3.958930253982544,"240":4.873311519622803,"241":4.053003787994385,"242":-2.128714084625244,"243":13.247159957885742,"244":2.843381643295288,"245":1.9088383913040161,"246":-3.4884676933288574,"247":6.301258563995361,"248":0.3659917414188385,"249":-0.041475292295217514,"250":-6.799191474914551,"251":-3.491337776184082,"252":-10.372377395629883,"253":5.680861949920654,"254":-1.3985809087753296,"255":-0.4808270037174225,"256":2.5835213661193848,"257":0.979061484336853,"258":3.5578293800354004,"259":4.047354221343994,"260":1.852835774421692,"261":-2.1961567401885986,"262":1.82015860080719,"263":-5.741825580596924,"264":5.847665786743164,"265":2.1197807788848877,"266":-2.0755934715270996,"267":1.2175612449645996,"268":2.8992998600006104,"269":-1.6824612617492676,"270":-2.1703898906707764,"271":3.1193454265594482,"272":4.9217000007629395,"273":-9.235493659973145,"274":2.5583581924438477,"275":-1.1656328439712524,"276":-5.901252746582031,"277":0.021435970440506935,"278":-1.0297107696533203,"279":6.51092004776001,"280":-0.4659682810306549,"281":-0.17440436780452728,"282":-1.2203068733215332,"283":-4.641849517822266,"284":-0.2910182774066925,"285":2.7572779655456543,