{"type":"LSTM","options":{"inputSize":30,"inputRange":30,"hiddenLayers":[20,20],"outputSize":30,"decayRate":0.999,"smoothEps":1e-8,"regc":0.000001,"clipval":5,"maxPredictionLength":100,"dataFormatter":{"values":["were incoherent","bad","easy","good","is bad","well defined","was abrupt","technical words","should improve","best vocabulary","presentation needs","when appropriate","was difficult","English","more varied","formal","too long","demonstrated command","should work","well adapted","too much information","avoided filler","consistent colour","maintain interest","appropriately changed","is difficult","was coherent","conversational","better focus","used natural","is disappointing","just nice","better quality","good time","could use","meets requirements","more hand","very nuanced","should try","completely addressed","well selected","should smile","well developed","when talking","appropriate tone","would help","easily follow","more friendly","logically presented","presentation lacks","evidence shown","are unsupported","is supporting","more reliable sources","immaculate delivery","need better","impeccable script","not convincing","interesting topic","be feasible","good understanding","content shows","too tense","very engaging script","not consistent","potential","could improve","have great","more consistent pace","wonderful presentation","other parts","robust evidence","too slow","ideas substantiated","much technical jargon","superb delivery","exceptional quality","general audience","excellent","should use","is perfect","less technical jargon","flawless execution","should replace","fine delivery","technical jargon","good job","are easy","solid grasp","more concise","good intonation","not professional","clear effort","sound","good flow","more formal words","good content","more professional","is adequate","pictures used","superior quality","not appropriate","is satisfactory","more formal","fine execution","when speaking","high quality","be more","latest revision","is much","to rehearse more","professional","have poor","concise","was hard","clear","well organised","to look more","well thought","font used","overarching ideas","too small","is present","were distracting","good signposting","too distracting","good effort","overly use","last script","should rehearse","have improved","badly prepared","impressive speech","is obvious","are reading","good use"],"indexTable":{"w":0,"e":1,"r":2," ":3,"i":4,"n":5,"c":6,"o":7,"h":8,"t":9,"b":10,"a":11,"d":12,"s":13,"y":14,"g":15,"l":16,"f":17,"u":18,"p":19,"m":20,"v":21,"E":22,"k":23,"j":24,"q":25,"x":26,"stop-input":27,"start-output":28,"unrecognized":29},"characterTable":{"0":"w","1":"e","2":"r","3":" ","4":"i","5":"n","6":"c","7":"o","8":"h","9":"t","10":"b","11":"a","12":"d","13":"s","14":"y","15":"g","16":"l","17":"f","18":"u","19":"p","20":"m","21":"v","22":"E","23":"k","24":"j","25":"q","26":"x","27":null,"28":null,"29":null},"characters":["w","e","r"," ","i","n","c","o","h","t","b","a","d","s","y","g","l","f","u","p","m","v","E","k","j","q","x","stop-input","start-output","unrecognized"],"specialIndexes":[27,28,29]}},"input":{"rows":31,"columns":30,"weights":{"0":2.9229774475097656,"1":0.4879884421825409,"2":-3.4879465103149414,"3":-0.2950524091720581,"4":1.0002542734146118,"5":4.002110004425049,"6":1.9870295524597168,"7":-0.5182957649230957,"8":0.8079612255096436,"9":-4.344664096832275,"10":0.5486161112785339,"11":0.8886585235595703,"12":0.6850824356079102,"13":-1.9933148622512817,"14":2.480485677719116,"15":-2.029527425765991,"16":2.0156238079071045,"17":1.367285966873169,"18":-0.4420155882835388,"19":-1.043734073638916,"20":2.0423636436462402,"21":-0.0904453843832016,"22":-0.3301958441734314,"23":-3.369758129119873,"24":1.1549824476242065,"25":-0.6811964511871338,"26":1.4180675745010376,"27":2.6635899543762207,"28":-1.0813161134719849,"29":0.6581602692604065,"30":-6.181084632873535,"31":-15.905707359313965,"32":-1.1156585216522217,"33":14.07691478729248,"34":8.28165054321289,"35":0.7484716176986694,"36":-4.252396106719971,"37":0.25603100657463074,"38":4.156501293182373,"39":4.974667549133301,"40":-1.90782630443573,"41":-0.48658856749534607,"42":-6.897740840911865,"43":-0.8602627515792847,"44":-7.251499176025391,"45":0.12424062937498093,"46":-10.100992202758789,"47":7.10636568069458,"48":3.0794007778167725,"49":-5.87739896774292,"50":-5.349424362182617,"51":-4.592925071716309,"52":-5.1514997482299805,"53":6.0500946044921875,"54":-1.9196152687072754,"55":9.041723251342773,"56":3.772566318511963,"57":2.600430727005005,"58":2.239382028579712,"59":7.104214668273926,"60":3.5462288856506348,"61":0.7738515138626099,"62":3.9947896003723145,"63":-4.567989826202393,"64":4.163442134857178,"65":2.2707431316375732,"66":4.346729278564453,"67":-2.957770586013794,"68":-1.8545523881912231,"69":2.416566848754883,"70":-4.199070930480957,"71":2.7258334159851074,"72":-0.9624480605125427,"73":-4.9799675941467285,"74":0.3208933472633362,"75":3.072864532470703,"76":1.2356958389282227,"77":0.5691908001899719,"78":-0.263096421957016,"79":-3.6178221702575684,"80":1.8124812841415405,"81":-1.4749863147735596,"82":3.7690012454986572,"83":1.9387505054473877,"84":1.4520537853240967,"85":0.3058222830295563,"86":-1.3326815366744995,"87":-1.219435691833496,"88":-3.4799273014068604,"89":-3.0282938480377197,"90":1.8214917182922363,"91":2.8221981525421143,"92":2.4034266471862793,"93":2.4902141094207764,"94":1.8512800931930542,"95":6.238062381744385,"96":-2.4984452724456787,"97":1.7629342079162598,"98":-3.469707727432251,"99":4.563350200653076,"100":3.208062171936035,"101":5.649337291717529,"102":1.3739150762557983,"103":0.8093377351760864,"104":-2.1847498416900635,"105":1.2950921058654785,"106":1.4453926086425781,"107":-7.948421001434326,"108":-1.5665708780288696,"109":2.984163999557495,"110":-6.803158760070801,"111":1.0692522525787354,"112":1.1353110074996948,"113":5.3018646240234375,"114":-0.644704282283783,"115":3.406674385070801,"116":3.3337926864624023,"117":-0.08752471953630447,"118":0.3498677909374237,"119":3.8822684288024902,"120":-2.216475248336792,"121":0.09821382910013199,"122":-2.022665500640869,"123":1.6925840377807617,"124":-2.792391777038574,"125":-0.9898684024810791,"126":-0.34661075472831726,"127":3.039362668991089,"128":0.22099852561950684,"129":0.4267338812351227,"130":-1.0985432863235474,"131":1.1632963418960571,"132":0.6415920853614807,"133":-0.11343634128570557,"134":1.0207161903381348,"135":0.9007061123847961,"136":1.3399337530136108,"137":-0.21594679355621338,"138":-0.42636042833328247,"139":1.1801655292510986,"140":4.434505939483643,"141":-2.7454276084899902,"142":-3.066425323486328,"143":1.0663655996322632,"144":-0.669891893863678,"145":-2.4679555892944336,"146":-0.216438427567482,"147":2.9452154636383057,"148":-1.2659342288970947,"149":2.0289933681488037,"150":-6.123846530914307,"151":0.5838295221328735,"152":7.5433478355407715,"153":-2.103904962539673,"154":4.434660911560059,"155":-4.667596340179443,"156":-2.2514145374298096,"157":-1.469329595565796,"158":-3.497499704360962,"159":-0.38943591713905334,"160":-5.81486701965332,"161":-1.1535041332244873,"162":9.153509140014648,"163":0.7656670808792114,"164":-1.221798062324524,"165":-0.20354606211185455,"166":-4.529061317443848,"167":2.2367475032806396,"168":6.285778522491455,"169":-0.621447741985321,"170":-0.015546169131994247,"171":-1.6474708318710327,"172":-0.6312606334686279,"173":-1.0910131931304932,"174":1.1339161396026611,"175":-2.6697020530700684,"176":-0.038997337222099304,"177":-4.041368007659912,"178":2.8777894973754883,"179":-3.3574700355529785,"180":4.562761306762695,"181":-5.548634052276611,"182":-9.038029670715332,"183":-0.9628239274024963,"184":-1.5442358255386353,"185":-3.6653952598571777,"186":1.0413520336151123,"187":-3.1190922260284424,"188":-0.49051353335380554,"189":-2.3011908531188965,"190":3.053828716278076,"191":4.325240135192871,"192":-4.992197513580322,"193":2.8927011489868164,"194":2.563352346420288,"195":-3.5663058757781982,"196":2.3946821689605713,"197":2.156994104385376,"198":-2.687230110168457,"199":-1.1709833145141602,"200":-2.451359987258911,"201":-4.941470146179199,"202":-2.289424419403076,"203":3.3676390647888184,"204":-3.4908430576324463,"205":-2.385160207748413,"206":7.590432643890381,"207":-0.5501282215118408,"208":2.7502429485321045,"209":5.300704002380371,"210":5.754760265350342,"211":7.965311527252197,"212":-3.1239118576049805,"213":2.097860097885132,"214":2.350649833679199,"215":4.568976879119873,"216":-6.742233753204346,"217":3.436183214187622,"218":4.015445709228516,"219":-2.505466938018799,"220":1.3331923484802246,"221":-1.518445611000061,"222":5.991053581237793,"223":3.785804510116577,"224":-2.612644672393799,"225":-3.58870792388916,"226":0.707434356212616,"227":-2.034754753112793,"228":5.668085098266602,"229":8.32900333404541,"230":-0.12497290223836899,"231":-3.5078811645507812,"232":-0.56512051820755,"233":-0.8341511487960815,"234":3.1577391624450684,"235":0.5363028645515442,"236":-2.3298401832580566,"237":-3.3896028995513916,"238":8.903380393981934,"239":-4.812501430511475,"240":1.004378318786621,"241":-2.3321709632873535,"242":1.5990585088729858,"243":0.021543851122260094,"244":-1.0358712673187256,"245":-1.3350555896759033,"246":-0.060223039239645004,"247":0.9509568810462952,"248":0.30872321128845215,"249":-3.0672881603240967,"250":0.23315909504890442,"251":0.9752221703529358,"252":-0.6327791213989258,"253":-0.0773395523428917,"254":1.4027115106582642,"255":1.4307944774627686,"256":1.6822965145111084,"257":0.8338878154754639,"258":0.549856424331665,"259":0.017987379804253578,"260":-1.7709505558013916,"261":-0.014396822080016136,"262":-0.907914936542511,"263":-0.10556436330080032,"264":0.15435241162776947,"265":1.3399077653884888,"266":-0.4921862781047821,"267":-0.3964099586009979,"268":-0.5685652494430542,"269":0.1704217940568924,"270":5.967694282531738,"271":-5.758046627044678,"272":-7.979818820953369,"273":1.9419828653335571,"274":-10.127635955810547,"275":2.0301501750946045,"276":1.8707151412963867,"277":5.13264799118042,"278":2.1629505157470703,"279":-5.285810947418213,"280":4.704257488250732,"281":0.022890405729413033,"282":14.596273422241211,"283":0.10621028393507004,"284":4.741213798522949,"285":5.471063137054443,"286":3.1432013511657715,"287":-3.834867000579834,"288":-6.260946273803711,"289":-5.505737781524658,"290":7.368621349334717,"291":-2.610426902770996,"292":4.108092784881592,"293":-4.799252033233643,"294":2.326826572418213,"295":4.8022284507751465,"296":-8.647093772888184,"297":4.134582042694092,"298":0.3159041106700897,"299":5.744314193725586,"300":-0.7768664956092834,"301":-0.9653526544570923,"302":-8.19119644165039,"303":-1.345542311668396,"304":0.09215757995843887,"305":-0.8805593848228455,"306":-0.0013397384900599718,"307":0.36522287130355835,"308":2.7065744400024414,"309":3.297752618789673,"310":-0.20413179695606232,"311":0.5099416375160217,"312":-2.2216782569885254,"313":-0.7258321642875671,"314":-0.9571674466133118,"315":-1.3149685859680176,"316":8.930571556091309,"317":-1.8665217161178589,"318":-4.535525321960449,"319":0.16878855228424072,"320":-2.0387678146362305,"321":-2.7351226806640625,"322":2.61869740486145,"323":1.6444743871688843,"324":1.5846320390701294,"325":-1.2757574319839478,"326":2.2390105724334717,"327":-1.2552807331085205,"328":-3.3843603134155273,"329":-2.4254891872406006,"330":-6.592682361602783,"331":3.195528507232666,"332":-0.04227534681558609,"333":2.965904474258423,"334":0.8265146613121033,"335":3.532254219055176,"336":-2.209022045135498,"337":-5.7806267738342285,"338":-2.975034236907959,"339":-1.7330034971237183,"340":6.002189636230469,"341":1.6539958715438843,"342":0.16702702641487122,"343":0.8245474696159363,"344":3.2913777828216553,"345":-1.6354107856750488,"346":0.04605914279818535,"347":5.630440711975098,"348":4.922224998474121,"349":5.9090657234191895,"350":0.4323265850543976,"351":7.0173516273498535,"352":2.8011560440063477,"353":-2.610588312149048,"354":-8.095398902893066,"355":-0.539327085018158,"356":-2.140329599380493,"357":-0.48080819845199585,"358":2.0566420555114746,"359":3.1506595611572266,"360":3.203432321548462,"361":-0.9151042699813843,"362":-3.201270341873169,"363":-2.0602612495422363,"364":-0.09641596674919128,"365":-2.744440793991089,"366":-2.371230125427246,"367":-0.27638939023017883,"368":-3.755788803100586,"369":2.6126339435577393,"370":1.1329509019851685,"371":1.5189313888549805,"372":-3.257183790206909,"373":0.39498916268348694,"374":1.835233449935913,"375":2.478642463684082,"376":-0.261423259973526,"377":2.4299323558807373,"378":-4.457671642303467,"379":-1.934075117111206,"380":6.801026344299316,"381":-3.3780367374420166,"382":-2.085327386856079,"383":2.510526180267334,"384":-1.239763617515564,"385":0.2666259706020355,"386":5.28273344039917,"387":-2.5080764293670654,"388":1.1399821043014526,"389":-4.059703350067139,"390":-3.7874820232391357,"391":0.39644894003868103,"392":1.1636580228805542,"393":-1.261083960533142,"394":-2.038088798522949,"395":-1.3603620529174805,"396":0.9407732486724854,"397":1.5651264190673828,"398":-3.892998456954956,"399":4.394198417663574,"400":0.970852255821228,"401":0.6773549318313599,"402":2.223280191421509,"403":-6.233805179595947,"404":-1.3129591941833496,"405":-0.04948236048221588,"406":0.15635602176189423,"407":2.802668571472168,"408":-2.2556304931640625,"409":-1.184024453163147,"410":4.663164138793945,"411":0.011140283197164536,"412":1.8803333044052124,"413":-1.4880263805389404,"414":-0.1097366064786911,"415":-3.918152093887329,"416":1.111293077468872,"417":5.70916748046875,"418":2.015367269515991,"419":0.27449607849121094,"420":2.085984468460083,"421":-4.9614949226379395,"422":-3.6092004776000977,"423":-2.162688970565796,"424":3.449472188949585,"425":1.682981252670288,"426":2.3228061199188232,"427":-4.4403886795043945,"428":1.5341558456420898,"429":-0.6020618081092834,"430":4.191646099090576,"431":-0.0263080932199955,"432":-8.988190650939941,"433":3.0543832778930664,"434":3.2285661697387695,"435":-0.7768582105636597,"436":0.00020905012206640095,"437":0.22875671088695526,"438":-0.13272732496261597,"439":-4.246934413909912,"440":-1.431882381439209,"441":-1.3981751203536987,"442":4.750472545623779,"443":5.455052852630615,"444":4.869648456573486,"445":-1.3692125082015991,"446":-1.0054471492767334,"447":-0.8538115620613098,"448":4.946246147155762,"449":4.414809703826904,"450":-2.395965576171875,"451":-8.639056205749512,"452":-16.727304458618164,"453":-4.870244979858398,"454":7.036501884460449,"455":-3.766423225402832,"456":-1.4369853734970093,"457":-8.797343254089355,"458":3.023944854736328,"459":-2.1710829734802246,"460":12.109416961669922,"461":-6.839986324310303,"462":-8.972371101379395,"463":0.7992828488349915,"464":18.32864761352539,"465":1.2786352634429932,"466":-0.8813376426696777,"467":6.612946510314941,"468":-6.39929723739624,"469":2.746112108230591,"470":-0.37667807936668396,"471":-2.981987714767456,"472":15.070438385009766,"473":-3.5652952194213867,"474":-1.0795342922210693,"475":-7.9071946144104,"476":5.4970173835754395,"477":7.516979217529297,"478":1.0289878845214844,"479":-5.293548107147217,"480":-0.632431149482727,"481":1.739453673362732,"482":4.120149612426758,"483":-4.8307785987854,"484":0.2760791480541229,"485":-7.6703314781188965,"486":1.852449655532837,"487":-1.7973939180374146,"488":0.34736311435699463,"489":-4.14785623550415,"490":-2.9056339263916016,"491":-1.8668276071548462,"492":1.2109246253967285,"493":0.5259755849838257,"494":-2.388282299041748,"495":-0.4622800648212433,"496":-2.847348928451538,"497":3.8886868953704834,"498":7.090824127197266,"499":-1.0315907001495361,"500":-0.6751683950424194,"501":1.905105710029602,"502":3.598784923553467,"503":2.691519021987915,"504":-2.349487781524658,"505":0.3315633535385132,"506":-0.5695501565933228,"507":-0.37955713272094727,"508":-0.28483372926712036,"509":-3.1005399227142334,"510":1.142737627029419,"511":1.4494425058364868,"512":-2.5010693073272705,"513":0.687497079372406,"514":-3.1823267936706543,"515":2.8010709285736084,"516":-1.1668587923049927,"517":0.06897430121898651,"518":5.795231342315674,"519":0.35864999890327454,"520":-0.21147000789642334,"521":-1.7080624103546143,"522":-0.06796538084745407,"523":1.1207131147384644,"524":3.1396121978759766,"525":-1.9868028163909912,"526":0.09191543608903885,"527":-6.208486080169678,"528":3.775900363922119,"529":0.206014022231102,"530":0.44777971506118774,"531":3.1030168533325195,"532":1.0894083976745605,"533":1.0111275911331177,"534":-0.19052521884441376,"535":-3.0404019355773926,"536":0.8648722171783447,"537":0.3153958320617676,"538":0.8134222626686096,"539":0.5736928582191467,"540":2.2739837169647217,"541":-8.500659942626953,"542":-3.483146905899048,"543":6.8605546951293945,"544":-1.459465503692627,"545":-2.42645525932312,"546":-19.34198760986328,"547":0.7284896969795227,"548":-3.6581780910491943,"549":1.2030926942825317,"550":-4.616023063659668,"551":-6.684637069702148,"552":-2.291386604309082,"553":-0.30451130867004395,"554":-8.375446319580078,"555":-10.640366554260254,"556":6.415455341339111,"557":6.6799445152282715,"558":2.5758755207061768,"559":3.5273773670196533,"560":-1.3114092350006104,"561":6.299846172332764,"562":-9.999317169189453,"563":-0.6209918856620789,"564":-5.7514729499816895,"565":-5.738690376281738,"566":0.9585692882537842,"567":12.783236503601074,"568":-3.2600386142730713,"569":-2.853756904602051,"570":-1.3019237518310547,"571":10.444555282592773,"572":1.3790123462677002,"573":0.3933100700378418,"574":0.8191675543785095,"575":-3.3058040142059326,"576":1.2555701732635498,"577":3.761127471923828,"578":2.4655492305755615,"579":-3.878497838973999,"580":8.746513366699219,"581":-3.9426536560058594,"582":8.041715621948242,"583":0.848035454750061,"584":0.22679471969604492,"585":-3.4778337478637695,"586":-5.5764994621276855,"587":-3.8343887329101562,"588":4.77565860748291,"589":3.9645495414733887,"590":-1.1050018072128296,"591":3.493741750717163,"592":-3.647935390472412,"593":-2.995419502258301,"594":-6.019677639007568,"595":0.6094372868537903,"596":-1.3661744594573975,"597":-0.4888126254081726,"598":1.607467770576477,"599":2.0371601581573486,"600":3.274918556213379,"601":-7.64517068862915,"602":5.224469184875488,"603":-9.58649730682373,"604":-1.1068228483200073,"605":-6.395330429077148,"606":3.9323537349700928,"607":1.6366283893585205,"608":0.43430352210998535,"609":-1.378765344619751,"610":-5.3168416023254395,"611":-4.030447006225586,"612":-7.310600280761719,"613":3.9233579635620117,"614":3.023824691772461,"615":2.027338981628418,"616":1.4712986946105957,"617":10.183602333068848,"618":2.486797332763672,"619":-4.849236965179443,"620":-1.4689675569534302,"621":3.3525495529174805,"622":-0.025297118350863457,"623":-0.40224072337150574,"624":4.112021446228027,"625":6.220146656036377,"626":9.851634979248047,"627":-9.01439094543457,"628":-8.696892738342285,"629":-2.505237340927124,"630":0.3601546585559845,"631":11.850306510925293,"632":-3.974757194519043,"633":-4.4234089851379395,"634":1.631182312965393,"635":-6.931110382080078,"636":0.12382425367832184,"637":5.5295491218566895,"638":-0.1975068897008896,"639":3.0175650119781494,"640":9.573384284973145,"641":9.763428688049316,"642":3.819028615951538,"643":6.030145645141602,"644":-8.800121307373047,"645":11.827072143554688,"646":-1.582236886024475,"647":-2.361804962158203,"648":-6.7605299949646,"649":-2.0774426460266113,"650":2.897371292114258,"651":7.196532249450684,"652":7.894291877746582,"653":-10.848401069641113,"654":2.1277058124542236,"655":1.5459455251693726,"656":3.1141974925994873,"657":3.344831705093384,"658":-6.832485198974609,"659":-2.3725476264953613,"660":-3.281308889389038,"661":4.827103137969971,"662":-2.5021793842315674,"663":-11.590041160583496,"664":0.5316582322120667,"665":4.924248218536377,"666":-4.362051486968994,"667":7.6857075691223145,"668":6.189999103546143,"669":-3.8247337341308594,"670":-16.825298309326172,"671":18.983116149902344,"672":9.452392578125,"673":1.6484709978103638,"674":10.11323070526123,"675":7.158116340637207,"676":-0.46812793612480164,"677":-13.140135765075684,"678":-7.6359734535217285,"679":6.932529449462891,"680":13.759255409240723,"681":-19.07481575012207,"682":-7.758381366729736,"683":-3.666795015335083,"684":4.077418804168701,"685":-11.23743724822998,"686":-6.062237739562988,"687":1.807287335395813,"688":-0.43567657470703125,"689":-7.556042194366455,"690":-35.63549041748047,"691":-13.356468200683594,"692":-7.223023891448975,"693":-41.317813873291016,"694":-3.282153844833374,"695":-44.801326751708984,"696":-8.346498489379883,"697":1.6887927055358887,"698":-22.93269157409668,"699":13.656200408935547,"700":52.56855010986328,"701":31.29431915283203,"702":3.104640007019043,"703":-16.018056869506836,"704":8.109381675720215,"705":1.46049165725708,"706":-15.68213939666748,"707":36.960121154785156,"708":26.185415267944336,"709":21.40008544921875,"710":-83.04109191894531,"711":-15.407516479492188,"712":28.906095504760742,"713":5.317666053771973,"714":-46.732601165771484,"715":-27.902612686157227,"716":0.7847867012023926,"717":36.52949142456055,"718":36.92649841308594,"719":12.123027801513672,"720":-3.0585150718688965,"721":-15.51319408416748,"722":-7.514916896820068,"723":1.1419909000396729,"724":2.2653391361236572,"725":1.2380917072296143,"726":10.829148292541504,"727":-3.4088850021362305,"728":9.786237716674805,"729":-14.19765567779541,"730":-9.861680030822754,"731":6.359338760375977,"732":-0.8936842083930969,"733":-5.820951461791992,"734":3.6032586097717285,"735":14.38541316986084,"736":26.918285369873047,"737":10.733444213867188,"738":-1.8478025197982788,"739":9.258485794067383,"740":-2.2969212532043457,"741":-12.261636734008789,"742":-3.44830060005188,"743":-2.1505813598632812,"744":1.8043664693832397,"745":16.388221740722656,"746":-13.303679466247559,"747":4.427970886230469,"748":-4.14896297454834,"749":20.577478408813477,"750":10.815398216247559,"751":26.435298919677734,"752":9.339396476745605,"753":-6.701785087585449,"754":-21.88544464111328,"755":27.83989906311035,"756":-5.462137222290039,"757":13.19193172454834,"758":8.887391090393066,"759":5.7069573402404785,"760":13.857854843139648,"761":9.871454238891602,"762":-27.034324645996094,"763":6.991648197174072,"764":13.390657424926758,"765":11.851755142211914,"766":-9.778078079223633,"767":-17.795827865600586,"768":0.04594114422798157,"769":-10.55258846282959,"770":28.1230411529541,"771":14.847668647766113,"772":-7.185805320739746,"773":10.99030876159668,"774":-2.5034689903259277,"775":-4.456903457641602,"776":-7.175121784210205,"777":-24.586076736450195,"778":-4.193142890930176,"779":4.520104885101318,"780":-13.919458389282227,"781":-17.924800872802734,"782":-7.364490985870361,"783":10.3915433883667,"784":-15.374324798583984,"785":-15.965550422668457,"786":-15.31732177734375,"787":-6.4022135734558105,"788":9.556300163269043,"789":-1.9210058450698853,"790":-1.3816016912460327,"791":6.646847724914551,"792":1.655167579650879,"793":10.943157196044922,"794":8.701482772827148,"795":-3.5324490070343018,"796":-16.82146453857422,"797":-6.611519813537598,"798":10.776575088500977,"799":4.3566789627075195,"800":-11.226541519165039,"801":-15.11564826965332,"802":-12.945551872253418,"803":6.141744136810303,"804":1.4407368898391724,"805":23.956787109375,"806":-9.581119537353516,"807":-4.573450565338135,"808":11.159429550170898,"809":10.159764289855957,"810":-7.927217960357666,"811":10.234724998474121,"812":10.709259033203125,"813":-1.3764125108718872,"814":-3.6524133682250977,"815":-11.73962688446045,"816":0.5077768564224243,"817":-0.7306245565414429,"818":7.552858829498291,"819":5.239580154418945,"820":-20.8295955657959,"821":-4.360162258148193,"822":18.114778518676758,"823":8.341444969177246,"824":-8.960668563842773,"825":-5.85847282409668,"826":-26.83365821838379,"827":0.6776262521743774,"828":18.381824493408203,"829":12.589424133300781,"830":-19.76021957397461,"831":-14.516910552978516,"832":3.384552478790283,"833":-2.4405276775360107,"834":-11.391091346740723,"835":-10.968082427978516,"836":-20.649213790893555,"837":6.3910231590271,"838":10.890791893005371,"839":-7.488265037536621,"840":1.9293756484985352,"841":-1.318152904510498,"842":-3.069004535675049,"843":-3.648268699645996,"844":-2.5780670642852783,"845":-2.2994472980499268,"846":1.6383056640625,"847":-3.2954764366149902,"848":-0.1625753492116928,"849":-2.4398624897003174,"850":-0.1735457181930542,"851":-3.0088112354278564,"852":-3.8118057250976562,"853":2.4893932342529297,"854":3.509762763977051,"855":4.214727401733398,"856":2.448072910308838,"857":-1.5494794845581055,"858":0.49128440022468567,"859":-0.5317233800888062,"860":0.1347081959247589,"861":5.001291275024414,"862":0.967162013053894,"863":-1.5873310565948486,"864":-0.5914367437362671,"865":-0.2660219371318817,"866":0.9887841939926147,"867":1.8488221168518066,"868":-4.1600518226623535,"869":-1.3855929374694824,"870":-0.012255794368684292,"871":1.4664627313613892,"872":-0.9272274374961853,"873":1.7966318130493164,"874":1.0028563737869263,"875":-1.1634156703948975,"876":-2.623831272125244,"877":1.679355263710022,"878":-0.8997966051101685,"879":-1.4427603483200073,"880":-0.8693498969078064,"881":-1.4615848064422607,"882":2.2007486820220947,"883":3.6076853275299072,"884":-0.22009727358818054,"885":-5.316856861114502,"886":-0.3076803684234619,"887":-1.602717638015747,"888":1.755591630935669,"889":0.2250026911497116,"890":-2.0720317363739014,"891":-1.1926683187484741,"892":-5.779968738555908,"893":2.521695137023926,"894":-0.6795686483383179,"895":1.2682520151138306,"896":-2.6537625789642334,"897":0.043358076363801956,"898":1.0705984830856323,"899":3.9471702575683594,"900":0.0022866118233650923,"901":0.00006749379826942459,"902":-0.00393339991569519,"903":0.002898070029914379,"904":-0.002096820855513215,"905":-0.004003443289548159,"906":-0.004060783889144659,"907":-0.0023176264949142933,"908":0.0036482750438153744,"909":0.0007237610407173634,"910":-0.004071666393429041,"911":-0.00044438609620556235,"912":-0.0015516701387241483,"913":0.0035094867926090956,"914":0.004129389766603708,"915":-0.00007429854304064065,"916":-0.001230723806656897,"917":0.0029985324945300817,"918":0.000010499575182620902,"919":0.0004609568859450519,"920":0.0028846701607108116,"921":0.0043627419508993626,"922":-0.001703621936030686,"923":-0.0033004209399223328,"924":0.0012480422155931592,"925":-0.002967302920296788,"926":-0.003170375945046544,"927":0.0011402275413274765,"928":-0.0024104241747409105,"929":0.002917482750490308}},"hiddenLayers":[{"inputMatrix":{"rows":20,"columns":30,"weights":{"0":-0.17442408204078674,"1":1.6647610664367676,"2":-2.936932325363159,"3":2.2046830654144287,"4":0.043834153562784195,"5":-0.13137415051460266,"6":0.18858200311660767,"7":-2.4562885761260986,"8":0.14042465388774872,"9":1.203750729560852,"10":-0.6786295771598816,"11":0.1700996309518814,"12":-0.14845067262649536,"13":-1.366471290588379,"14":0.28126260638237,"15":-4.27172327041626,"16":-1.6063909530639648,"17":-1.5474321842193604,"18":0.7839152216911316,"19":0.2240220308303833,"20":-0.28552109003067017,"21":-0.26594313979148865,"22":-3.0503485202789307,"23":2.406736373901367,"24":-3.604245901107788,"25":-1.5464251041412354,"26":4.309170722961426,"27":2.0562257766723633,"28":2.425537347793579,"29":1.6723312139511108,"30":-0.6257301568984985,"31":-0.222922220826149,"32":1.101693868637085,"33":0.23527275025844574,"34":2.1168582439422607,"35":-0.4903615117073059,"36":-1.5601773262023926,"37":1.0424686670303345,"38":1.2524181604385376,"39":-0.20002523064613342,"40":-1.5598148107528687,"41":0.14281055331230164,"42":1.9951926469802856,"43":0.48113417625427246,"44":-0.7474124431610107,"45":-0.16434355080127716,"46":-0.6722399592399597,"47":-0.12380865216255188,"48":2.7409656047821045,"49":1.9101394414901733,"50":-1.8608012199401855,"51":0.19482728838920593,"52":-2.5859625339508057,"53":0.38493117690086365,"54":-1.4680513143539429,"55":-0.7356706261634827,"56":-2.3668651580810547,"57":0.10071171820163727,"58":2.2320194244384766,"59":1.178877830505371,"60":3.0778162479400635,"61":-2.4733197689056396,"62":0.9078325033187866,"63":-2.4299166202545166,"64":-0.9342995285987854,"65":-2.078702211380005,"66":-3.1246278285980225,"67":-1.1753993034362793,"68":-3.159137487411499,"69":-1.541183352470398,"70":-0.32211950421333313,"71":0.6838991045951843,"72":-3.0483579635620117,"73":1.654923439025879,"74":1.6090586185455322,"75":2.122771978378296,"76":-0.2343519628047943,"77":2.4145376682281494,"78":3.00565242767334,"79":-1.3642125129699707,"80":0.09313496202230453,"81":-2.3869075775146484,"82":-1.9124770164489746,"83":2.0906383991241455,"84":-0.722788393497467,"85":3.224327802658081,"86":-2.3500988483428955,"87":-2.4855661392211914,"88":-1.4008965492248535,"89":-2.1727230548858643,"90":-0.019717497751116753,"91":-2.6412270069122314,"92":-2.6297080516815186,"93":-0.0326940156519413,"94":-0.24344483017921448,"95":-0.9475798010826111,"96":0.5289931893348694,"97":-0.04846033453941345,"98":-0.35284149646759033,"99":-0.5742784142494202,"100":-0.5635128021240234,"101":-0.1748257726430893,"102":-0.2113168090581894,"103":-0.23398828506469727,"104":0.15433497726917267,"105":-0.14034748077392578,"106":-0.1918594241142273,"107":-0.039556361734867096,"108":-0.7772212624549866,"109":-0.0230694692581892,"110":-0.3193773925304413,"111":-0.7360109090805054,"112":-1.3220746517181396,"113":-0.006636227946728468,"114":-0.2280440330505371,"115":-0.2506820261478424,"116":0.19362874329090118,"117":0.3734293580055237,"118":0.02151525765657425,"119":0.005557074677199125,"120":0.24276034533977509,"121":3.454408884048462,"122":-2.912034749984741,"123":2.0610122680664062,"124":-0.3691864311695099,"125":0.393951416015625,"126":-1.450352668762207,"127":1.0463391542434692,"128":-1.8257100582122803,"129":0.10252169519662857,"130":0.912255048751831,"131":-1.0526787042617798,"132":0.794197678565979,"133":-1.6286200284957886,"134":0.03723790869116783,"135":-0.8648908734321594,"136":0.7574796676635742,"137":-3.1859426498413086,"138":0.37616482377052307,"139":1.4874181747436523,"140":2.132646322250366,"141":-0.0903264731168747,"142":-1.8060331344604492,"143":-1.5739456415176392,"144":-0.3308888375759125,"145":-2.1194350719451904,"146":-0.14653117954730988,"147":1.7177989482879639,"148":0.4980963170528412,"149":0.1526850014925003,"150":-2.0582196712493896,"151":0.5349643230438232,"152":-0.45669978857040405,"153":0.9067693948745728,"154":2.6372718811035156,"155":0.8725501298904419,"156":-0.32909947633743286,"157":-0.0010858179302886128,"158":0.24110499024391174,"159":-0.6801537871360779,"160":1.0105804204940796,"161":-1.2490570545196533,"162":-0.8976474404335022,"163":0.2778613567352295,"164":0.871299147605896,"165":-1.4222084283828735,"166":-2.4036080837249756,"167":-2.7282137870788574,"168":0.3231183588504791,"169":0.6927107572555542,"170":2.8784055709838867,"171":3.849940299987793,"172":-1.7673479318618774,"173":-0.6655309200286865,"174":-1.649588942527771,"175":-2.965390920639038,"176":1.7128944396972656,"177":4.379976272583008,"178":-2.880297899246216,"179":1.753495693206787,"180":2.006641387939453,"181":0.1443420648574829,"182":-0.06362012773752213,"183":-1.3349206447601318,"184":0.17314413189888,"185":-1.7643985748291016,"186":0.9886499643325806,"187":-2.7272117137908936,"188":0.29312214255332947,"189":-0.38556602597236633,"190":1.8516056537628174,"191":0.5206315517425537,"192":-1.9193655252456665,"193":0.5142218470573425,"194":-0.42897358536720276,"195":0.5327547192573547,"196":-0.5175922513008118,"197":0.0842803567647934,"198":0.2231677770614624,"199":-0.5689710974693298,"200":0.33010128140449524,"201":0.9582437872886658,"202":1.1676578521728516,"203":0.22920958697795868,"204":1.6947189569473267,"205":0.4713301956653595,"206":0.40641170740127563,"207":-2.219299554824829,"208":-2.7874739170074463,"209":-0.6459076404571533,"210":1.09746515750885,"211":0.5352972149848938,"212":4.33670711517334,"213":-2.609245777130127,"214":1.4785003662109375,"215":0.1628454029560089,"216":1.3826994895935059,"217":0.6739292740821838,"218":-1.9963490962982178,"219":-1.2105836868286133,"220":-1.0904773473739624,"221":0.21995657682418823,"222":1.5726687908172607,"223":-4.772996425628662,"224":0.3409876227378845,"225":-0.9959742426872253,"226":-0.9566012024879456,"227":1.4319978952407837,"228":-0.5306388139724731,"229":-2.453455686569214,"230":2.9137089252471924,"231":1.8720731735229492,"232":-0.26804032921791077,"233":-1.3975905179977417,"234":0.6179978847503662,"235":-2.732905387878418,"236":2.729996681213379,"237":-5.7127203941345215,"238":0.9240720868110657,"239":-2.4154088497161865,"240":-0.17606393992900848,"241":0.9957126379013062,"242":1.1657944917678833,"243":-2.4046456813812256,"244":2.7677345275878906,"245":-2.095616579055786,"246":1.6791114807128906,"247":-1.2566051483154297,"248":-0.2367427796125412,"249":-1.2993359565734863,"250":0.5039593577384949,"251":-1.1005568504333496,"252":1.0522549152374268,"253":0.7147976160049438,"254":-0.329788476228714,"255":-0.8331066966056824,"256":-2.1931731700897217,"257":1.1923362016677856,"258":-0.024782754480838776,"259":0.9763227701187134,"260":-0.9402623176574707,"261":1.1577214002609253,"262":1.1456611156463623,"263":0.5845096111297607,"264":-0.39306724071502686,"265":-0.03001455031335354,"266":0.2369142323732376,"267":-2.4169254302978516,"268":-0.02852872759103775,"269":1.5670286417007446,"270":2.2598395347595215,"271":-0.11142787337303162,"272":0.6921038031578064,"273":1.9497467279434204,"274":0.6235809922218323,"275":3.5604538917541504,"276":-1.6333495378494263,"277":-0.2966029644012451,"278":1.408914566040039,"279":1.9411163330078125,"280":-0.4668523371219635,"281":0.3586407005786896,"282":-0.6435313820838928,"283":2.4285144805908203,"284":-1.6444400548934937,"285":-0.9200146198272705,"286":-1.5484209060668945,"287":-3.481874465942383,"288":0.21231111884117126,"289":1.5226916074752808,"290":-1.2053625583648682,"291":-0.17748312652111053,"292":-1.4738874435424805,"293":2.573667049407959,"294":-0.3243909478187561,"295":-3.398013114929199,"296":0.26932916045188904,"297":0.8868588209152222,"298":0.5251567363739014,"299":2.86203670501709,"300":-2.80316162109375,"301":1.2782435417175293,"302":1.8241074085235596,"303":1.2316081523895264,"304":-0.6265605688095093,"305":-3.44533109664917,"306":-1.659932017326355,"307":2.96374249458313,"308":-0.21508289873600006,"309":-1.2009899616241455,"310":0.9099624156951904,"311":4.187047481536865,"312":3.0698583126068115,"313":0.26503604650497437,"314":-1.8548684120178223,"315":1.5189296007156372,"316":-0.09524401277303696,"317":-1.136405110359192,"318":0.11661103367805481,"319":2.544680118560791,"320":-2.8226778507232666,"321":1.301102638244629,"322":-2.681389093399048,"323":1.3794244527816772,"324":0.7969290018081665,"325":0.9230285882949829,"326":-4.907918930053711,"327":-1.8387418985366821,"328":-1.5894511938095093,"329":1.1514482498168945,"330":1.4882417917251587,"331":2.1095731258392334,"332":-1.816199779510498,"333":1.7543050050735474,"334":-1.758963704109192,"335":4.102657794952393,"336":-0.2815450429916382,"337":1.2314677238464355,"338":-0.6836223602294922,"339":2.222839117050171,"340":-1.30508291721344,"341":1.1998941898345947,"342":0.6713437438011169,"343":-1.6369801759719849,"344":-0.19896113872528076,"345":-1.1282801628112793,"346":1.5270518064498901,"347":-1.5853780508041382,"348":-2.486154079437256,"349":-1.9120227098464966,"350":2.748875617980957,"351":-1.9550505876541138,"352":-1.0855684280395508,"353":2.3756816387176514,"354":0.9275635480880737,"355":-2.4881367683410645,"356":0.30357223749160767,"357":0.47455137968063354,"358":1.3211616277694702,"359":1.4268518686294556,"360":-0.4651380479335785,"361":-1.3240694999694824,"362":1.717100739479065,"363":-3.007927417755127,"364":-2.9999873638153076,"365":-0.40728774666786194,"366":2.5301766395568848,"367":-0.6403121948242188,"368":-1.2542730569839478,"369":3.8097548484802246,"370":-3.894110918045044,"371":-0.3923541009426117,"372":0.7609201073646545,"373":-2.6273531913757324,"374":-0.5160934925079346,"375":-0.5975990891456604,"376":-3.4754223823547363,"377":0.05893489718437195,"378":1.2693976163864136,"379":0.16272211074829102,"380":1.1690131425857544,"381":-0.28471991419792175,"382":1.4178242683410645,"383":2.572813034057617,"384":-0.2340586632490158,"385":-3.7570395469665527,"386":-1.33643639087677,"387":-0.07641704380512238,"388":2.1708853244781494,"389":-3.133042097091675,"390":2.3298416137695312,"391":0.35925957560539246,"392":-1.2021578550338745,"393":-1.1079435348510742,"394":2.2462728023529053,"395":-1.9855061769485474,"396":0.5354591012001038,"397":-2.4753835201263428,"398":0.23755210638046265,"399":2.429109811782837,"400":-1.1362141370773315,"401":-0.8377808332443237,"402":-0.2651473879814148,"403":2.807966709136963,"404":0.2814410328865051,"405":0.9941199421882629,"406":-1.205137014389038,"407":-2.611879587173462,"408":0.32112184166908264,"409":1.1830185651779175,"410":-0.42085549235343933,"411":-1.211687684059143,"412":3.007972240447998,"413":0.7816768288612366,"414":-0.3792732357978821,"415":0.35329777002334595,"416":1.6702183485031128,"417":-0.8623685240745544,"418":-0.48550084233283997,"419":-1.383391261100769,"420":2.5751287937164307,"421":-1.042162537574768,"422":-1.2750766277313232,"423":0.28592878580093384,"424":-0.7013550996780396,"425":2.0162954330444336,"426":-0.4151935279369354,"427":-1.3340919017791748,"428":0.4097706973552704,"429":-1.2337290048599243,"430":0.15137529373168945,"431":-1.3227131366729736,"432":-4.171446323394775,"433":0.5986337661743164,"434":0.22975103557109833,"435":0.9193138480186462,"436":0.11811056733131409,"437":-0.4290641248226166,"438":-1.3617700338363647,"439":-3.176527738571167,"440":-0.40921032428741455,"441":-0.12210498005151749,"442":-0.4776413142681122,"443":1.175804853439331,"444":0.7774732708930969,"445":1.5502938032150269,"446":1.9102762937545776,"447":-0.4688827097415924,"448":-2.400705575942993,"449":0.30942609906196594,"450":-0.30616986751556396,"451":-0.19669930636882782,"452":-0.9513804316520691,"453":3.1344804763793945,"454":3.193774938583374,"455":0.6842641234397888,"456":-2.076890230178833,"457":0.04229707270860672,"458":1.1733933687210083,"459":0.28338977694511414,"460":-0.7523316144943237,"461":-3.4667105674743652,"462":1.1252901554107666,"463":1.1236741542816162,"464":0.37505465745925903,"465":-0.5288930535316467,"466":-0.8401132225990295,"467":-0.8039689064025879,"468":1.6422208547592163,"469":0.4503368139266968,"470":0.8588201999664307,"471":1.1139532327651978,"472":-1.2797677516937256,"473":-2.2792792320251465,"474":-0.07653987407684326,"475":0.3293590545654297,"476":-0.8883592486381531,"477":1.3226982355117798,"478":0.4222085475921631,"479":-0.9339199662208557,"480":-0.44898125529289246,"481":-0.7604333162307739,"482":-0.35272637009620667,"483":-0.17561544477939606,"484":1.310666561126709,"485":-3.894619941711426,"486":-0.7997409701347351,"487":-1.2586352825164795,"488":-2.2129366397857666,"489":-0.9988949298858643,"490":1.166007161140442,"491":-0.6710451245307922,"492":-0.5178608894348145,"493":2.28853702545166,"494":-2.323774576187134,"495":-0.3151712715625763,"496":-1.8935651779174805,"497":0.7653099298477173,"498":0.7213743925094604,"499":-2.1187515258789062,"500":-0.37694522738456726,"501":2.397338628768921,"502":-0.27040717005729675,"503":-0.7978828549385071,"504":-2.4046542644500732,"505":1.2311314344406128,"506":1.728027105331421,"507":-1.5577994585037231,"508":0.9479865431785583,"509":-1.0134577751159668,"510":1.0214030742645264,"511":-0.40652430057525635,"512":-2.0559592247009277,"513":1.889875054359436,"514":-0.25866949558258057,"515":2.491947650909424,"516":-2.4499762058258057,"517":0.8356066346168518,"518":0.7868477702140808,"519":0.6976576447486877,"520":-0.73416668176651,"521":1.3024057149887085,"522":-0.8153111338615417,"523":1.4850127696990967,"524":0.557576060295105,"525":-3.5377283096313477,"526":1.7179750204086304,"527":-2.065326452255249,"528":-0.8019260764122009,"529":-0.19466803967952728,"530":1.210853099822998,"531":-2.521157741546631,"532":-1.9855989217758179,"533":1.6396429538726807,"534":-0.060053952038288116,"535":-0.3639639914035797,"536":0.26850131154060364,"537":-0.9872263073921204,"538":-0.6318380236625671,"539":2.239108085632324,"540":-2.188450574874878,"541":0.45172545313835144,"542":1.6832510232925415,"543":0.8444768190383911,"544":-0.6242430806159973,"545":-2.071706533432007,"546":0.44557884335517883,"547":2.2685976028442383,"548":1.4348126649856567,"549":-0.8350303769111633,"550":1.7228436470031738,"551":1.4850919246673584,"552":2.447208881378174,"553":1.9661144018173218,"554":-0.28565895557403564,"555":1.3327674865722656,"556":-2.524712085723877,"557":1.1593748331069946,"558":1.9815198183059692,"559":0.15180455148220062,"560":1.6108084917068481,"561":-0.659862756729126,"562":-4.113476753234863,"563":0.0596463717520237,"564":-0.8068717122077942,"565":3.117706060409546,"566":-3.799888849258423,"567":-0.6920664310455322,"568":1.8934975862503052,"569":1.9669907093048096,"570":1.6509329080581665,"571":-0.29773691296577454,"572":3.5734477043151855,"573":-1.366401195526123,"574":-2.493286371231079,"575":-0.5949780344963074,"576":-0.7956410050392151,"577":2.198227643966675,"578":-2.1800780296325684,"579":0.4755136966705322,"580":-0.08894310146570206,"581":0.5874866843223572,"582":-2.8053231239318848,"583":-0.34614986181259155,"584":-2.189462661743164,"585":1.7305494546890259,"586":-0.8476653695106506,"587":1.600242018699646,"588":3.1825480461120605,"589":0.4026603102684021,"590":-0.7740986943244934,"591":0.32536640763282776,"592":0.7090524435043335,"593":0.01240899320691824,"594":-0.34441256523132324,"595":1.519284725189209,"596":3.1517701148986816,"597":0.21459081768989563,"598":-2.2222962379455566,"599":-3.502018690109253}},"inputHidden":{"rows":20,"columns":20,"weights":{"0":2.2762460708618164,"1":-0.2860577702522278,"2":3.4734644889831543,"3":-2.4295811653137207,"4":0.938346266746521,"5":-1.0934553146362305,"6":2.650132179260254,"7":5.4055256843566895,"8":-1.015331506729126,"9":0.253033846616745,"10":3.6674084663391113,"11":-3.4629485607147217,"12":4.294978618621826,"13":0.49307119846343994,"14":-2.541665554046631,"15":0.18362988531589508,"16":-1.3697831630706787,"17":-0.1530257761478424,"18":-0.6377407312393188,"19":3.1017308235168457,"20":0.7413501739501953,"21":0.1598903238773346,"22":2.87790846824646,"23":1.8704252243041992,"24":1.1437995433807373,"25":2.6830337047576904,"26":-0.2590787708759308,"27":1.7776119709014893,"28":0.5511481165885925,"29":1.4845786094665527,"30":-0.3600906431674957,"31":1.0227233171463013,"32":-0.7365317940711975,"33":0.9385519027709961,"34":2.2344675064086914,"35":1.3242710828781128,"36":-0.5623911619186401,"37":-1.1487334966659546,"38":2.1390275955200195,"39":-0.5577594041824341,"40":0.4721222221851349,"41":-0.59702467918396,"42":-3.651782512664795,"43":-2.197239398956299,"44":-1.7897881269454956,"45":1.7208998203277588,"46":-2.267232894897461,"47":3.6909196376800537,"48":2.0794126987457275,"49":1.7425110340118408,"50":-0.23165909945964813,"51":0.010011850856244564,"52":-0.3202732503414154,"53":-4.496913433074951,"54":-3.066922903060913,"55":-2.191039562225342,"56":0.52885901927948,"57":-2.6359946727752686,"58":4.162355899810791,"59":-3.5434513092041016,"60":-7.380503177642822,"61":0.9528346061706543,"62":7.558958530426025,"63":3.6265413761138916,"64":-7.868282794952393,"65":6.286640644073486,"66":5.336636066436768,"67":-5.038400650024414,"68":11.179139137268066,"69":3.076009511947632,"70":17.194082260131836,"71":-1.2612085342407227,"72":5.014332294464111,"73":5.782988548278809,"74":-1.4062252044677734,"75":-10.726449012756348,"76":0.8543925881385803,"77":1.5932285785675049,"78":-1.943318486213684,"79":-0.5871109366416931,"80":-1.35121488571167,"81":-1.463547706604004,"82":0.004674477968364954,"83":3.2972826957702637,"84":-1.268370509147644,"85":-0.05123470723628998,"86":-2.2103636264801025,"87":1.8946197032928467,"88":0.14733614027500153,"89":-1.3823446035385132,"90":-2.014101505279541,"91":0.6921939849853516,"92":-2.5427613258361816,"93":0.9092178344726562,"94":-1.5952919721603394,"95":3.964033365249634,"96":-2.6053695678710938,"97":-0.22174333035945892,"98":0.22578248381614685,"99":-0.17375633120536804,"100":1.225504994392395,"101":0.5237144827842712,"102":1.6475886106491089,"103":-0.24595338106155396,"104":0.07177969068288803,"105":-0.8941766023635864,"106":0.8367778062820435,"107":1.1742247343063354,"108":1.3045110702514648,"109":1.666191577911377,"110":1.6616296768188477,"111":0.22177210450172424,"112":-0.6454131007194519,"113":-0.4384354054927826,"114":1.1901888847351074,"115":-0.18363942205905914,"116":-1.17206871509552,"117":0.7661890387535095,"118":-0.7651483416557312,"119":-0.03522515296936035,"120":-0.5984084010124207,"121":1.1631840467453003,"122":2.7108452320098877,"123":-0.6974283456802368,"124":0.9356094002723694,"125":-0.3634052276611328,"126":-1.5549432039260864,"127":3.469122886657715,"128":0.5256205797195435,"129":-0.18545053899288177,"130":0.9969853162765503,"131":-0.07792143523693085,"132":0.8079012036323547,"133":-2.1467185020446777,"134":4.78062629699707,"135":-2.3177473545074463,"136":1.7752777338027954,"137":0.9514843821525574,"138":-2.0733981132507324,"139":3.2954890727996826,"140":1.3300052881240845,"141":0.3859085440635681,"142":-0.7509438395500183,"143":-1.0113730430603027,"144":-0.8744986653327942,"145":2.083056926727295,"146":1.0279484987258911,"147":-0.5673611760139465,"148":2.9474942684173584,"149":0.8900099396705627,"150":-0.23403362929821014,"151":0.9691444635391235,"152":2.1595842838287354,"153":0.491254061460495,"154":-1.740968108177185,"155":-0.24937769770622253,"156":-2.807224988937378,"157":-0.3312409222126007,"158":0.5364474654197693,"159":-1.9721391201019287,"160":-9.757183074951172,"161":-5.457764148712158,"162":6.682172775268555,"163":1.872623085975647,"164":3.135444402694702,"165":-2.772188663482666,"166":1.5051548480987549,"167":4.75070333480835,"168":1.985822081565857,"169":-1.976549506187439,"170":-1.273311972618103,"171":-2.439655303955078,"172":-0.0632290169596672,"173":5.239449977874756,"174":-3.0454699993133545,"175":-4.491671085357666,"176":-4.235938549041748,"177":1.5869261026382446,"178":-2.4078238010406494,"179":-2.1649813652038574,"180":-0.1463707834482193,"181":-2.585420846939087,"182":1.463364839553833,"183":-0.395952045917511,"184":-1.4148285388946533,"185":0.653849184513092,"186":-2.4611425399780273,"187":3.234224319458008,"188":1.8040668964385986,"189":-1.9785377979278564,"190":-0.8438106775283813,"191":-1.1652963161468506,"192":-0.29254910349845886,"193":-0.25785842537879944,"194":-1.86257004737854,"195":-0.5546196103096008,"196":-0.22856839001178741,"197":1.0470283031463623,"198":-0.8748877644538879,"199":0.6094876527786255,"200":1.938706398010254,"201":-0.7733523845672607,"202":-2.2553789615631104,"203":-1.4695844650268555,"204":0.916473925113678,"205":0.7963571548461914,"206":-0.2718498408794403,"207":-1.4553465843200684,"208":-0.5345094203948975,"209":0.2613960802555084,"210":-1.188956618309021,"211":1.9482753276824951,"212":0.168962761759758,"213":-0.697907030582428,"214":-2.262927532196045,"215":1.6932787895202637,"216":-1.4111521244049072,"217":-0.10466063022613525,"218":0.0243038609623909,"219":-1.1026418209075928,"220":0.06118380278348923,"221":-2.3924789428710938,"222":-1.0829136371612549,"223":-3.329674482345581,"224":-4.60680627822876,"225":3.411990165710449,"226":4.053246021270752,"227":-4.179997444152832,"228":3.304267168045044,"229":0.7654939889907837,"230":-1.2513587474822998,"231":-1.799340009689331,"232":-2.0526256561279297,"233":-3.166501045227051,"234":-3.3466038703918457,"235":-1.4114853143692017,"236":4.058309555053711,"237":2.3871254920959473,"238":4.018956184387207,"239":0.28839632868766785,"240":0.05691859871149063,"241":0.8907337784767151,"242":-0.13064104318618774,"243":-2.0454254150390625,"244":-1.1551369428634644,"245":-0.5892618298530579,"246":-0.6281424760818481,"247":2.2888224124908447,"248":1.2245893478393555,"249":2.507767915725708,"250":0.9642666578292847,"251":1.0666675567626953,"252":1.5176105499267578,"253":1.7872816324234009,"254":-2.540955066680908,"255":-0.44605571031570435,"256":0.9942266345024109,"257":1.6369022130966187,"258":-0.14709985256195068,"259":0.7002127170562744,"260":-0.08538877964019775,"261":0.7426546812057495,"262":0.990781843662262,"263":-0.4366893768310547,"264":0.4228477478027344,"265":2.7047672271728516,"266":0.3731363117694855,"267":2.816300630569458,"268":-1.1588572263717651,"269":2.023012399673462,"270":-0.4398585557937622,"271":-0.7783100008964539,"272":-0.14249692857265472,"273":0.08544082939624786,"274":-1.5869402885437012,"275":0.6691034436225891,"276":-0.5312791466712952,"277":0.7670087814331055,"278":-0.2694615423679352,"279":0.836896538734436,"280":1.0381016731262207,"281":0.5100971460342407,"282":-0.5871880650520325,"283":-0.5226343274116516,"284":1.1448837518692017,"285":-0.00558835593983531,"286":0.20795537531375885,"287":0.2645667493343353,"288":-1.6419703960418701,"289":0.3577447533607483,"290":-0.9844189286231995,"291":-0.07116974145174026,"292":-0.7498775124549866,"293":-2.1366288661956787,"294":1.6923388242721558,"295":-0.13257348537445068,"296":0.7084711790084839,"297":-1.8850042819976807,"298":0.14556793868541718,"299":0.011468950659036636,"300":-2.012855291366577,"301":0.7870913147926331,"302":3.5474331378936768,"303":-2.307865619659424,"304":0.17632675170898438,"305":-1.4592103958129883,"306":-2.205461263656616,"307":0.7045745253562927,"308":0.018655207008123398,"309":0.13278034329414368,"310":0.09945408999919891,"311":4.742735385894775,"312":-0.12898997962474823,"313":1.2319406270980835,"314":0.930968701839447,"315":-0.5555455684661865,"316":-0.4598466753959656,"317":1.8002336025238037,"318":-0.13077905774116516,"319":-0.7156704664230347,"320":-0.7999305129051208,"321":3.7798330783843994,"322":0.9924460649490356,"323":1.3742187023162842,"324":-1.440821886062622,"325":2.478447198867798,"326":0.609778106212616,"327":0.8834704756736755,"328":1.8201860189437866,"329":-2.40230131149292,"330":-0.17564788460731506,"331":-4.6378493309021,"332":3.447950839996338,"333":-0.5258327126502991,"334":1.455930233001709,"335":0.34483620524406433,"336":-2.8897671699523926,"337":0.48954451084136963,"338":-0.033083293586969376,"339":-0.19028471410274506,"340":-0.7420132756233215,"341":0.1849367767572403,"342":1.086291790008545,"343":-0.0010009953984990716,"344":-0.7813165783882141,"345":-0.5178556442260742,"346":-0.716344952583313,"347":-0.27626320719718933,"348":0.9863954782485962,"349":-0.01998337358236313,"350":-0.744271993637085,"351":1.2587522268295288,"352":1.8514695167541504,"353":-0.8661925196647644,"354":-0.4382903277873993,"355":-1.6475266218185425,"356":-0.8294879794120789,"357":-0.12562482059001923,"358":-0.4329080879688263,"359":-1.4768996238708496,"360":0.4739398658275604,"361":-2.7423388957977295,"362":3.512265682220459,"363":-0.07977057993412018,"364":1.9470584392547607,"365":-0.05914764106273651,"366":-1.3849633932113647,"367":-0.518831729888916,"368":-1.1428459882736206,"369":1.2312276363372803,"370":-1.0478882789611816,"371":0.625686526298523,"372":-0.37010475993156433,"373":-3.071300506591797,"374":-4.19518518447876,"375":1.2020320892333984,"376":-3.083570957183838,"377":2.7753565311431885,"378":2.25380277633667,"379":1.0661789178848267,"380":1.7924643754959106,"381":0.892890214920044,"382":2.1375858783721924,"383":0.021984053775668144,"384":0.827580451965332,"385":1.7745201587677002,"386":-1.7309755086898804,"387":1.3763599395751953,"388":-0.6833970546722412,"389":-0.824059247970581,"390":0.8680135011672974,"391":-0.1257609724998474,"392":1.4420357942581177,"393":-2.6319901943206787,"394":-1.485249400138855,"395":-0.5629270076751709,"396":-0.21332599222660065,"397":1.2301937341690063,"398":-0.9363197088241577,"399":1.3580036163330078}},"inputBias":{"rows":20,"columns":1,"weights":{"0":2.8876349925994873,"1":0.16941207647323608,"2":-0.7663435339927673,"3":1.7515201568603516,"4":-0.24997681379318237,"5":0.29693636298179626,"6":0.6020983457565308,"7":1.1931339502334595,"8":-0.05564761161804199,"9":-0.04994969442486763,"10":-0.211078479886055,"11":0.37273693084716797,"12":0.07112009078264236,"13":-0.46114382147789,"14":1.8172190189361572,"15":0.14138558506965637,"16":-0.5900875926017761,"17":-0.08774762600660324,"18":-0.4985104501247406,"19":-0.19383905827999115}},"forgetMatrix":{"rows":20,"columns":30,"weights":{"0":-2.8063151836395264,"1":-0.397213339805603,"2":-1.6317909955978394,"3":0.06482473760843277,"4":0.6390020847320557,"5":1.466968059539795,"6":0.8735019564628601,"7":-0.7270802855491638,"8":3.419156551361084,"9":-1.2064276933670044,"10":-1.2105376720428467,"11":-1.5024888515472412,"12":2.148837089538574,"13":-0.5143389701843262,"14":1.653668999671936,"15":-1.8527706861495972,"16":-1.883096694946289,"17":-1.4481892585754395,"18":-0.8458490967750549,"19":0.4742061197757721,"20":1.9922727346420288,"21":-3.1980814933776855,"22":-1.292883038520813,"23":0.37094956636428833,"24":-1.2178730964660645,"25":0.7766711711883545,"26":0.4344865381717682,"27":1.7010478973388672,"28":2.127117156982422,"29":1.3609590530395508,"30":0.2888707220554352,"31":-0.9421451687812805,"32":-1.875120997428894,"33":2.199471950531006,"34":0.6058480143547058,"35":1.2288492918014526,"36":-2.6896238327026367,"37":-1.1218730211257935,"38":0.49428632855415344,"39":1.0621652603149414,"40":0.18473629653453827,"41":0.5062565803527832,"42":-1.4034457206726074,"43":0.6568856835365295,"44":3.440812110900879,"45":0.37844645977020264,"46":0.3532131314277649,"47":2.049056053161621,"48":1.2560924291610718,"49":2.0088870525360107,"50":-0.1761731207370758,"51":-3.0614075660705566,"52":-1.689841389656067,"53":0.8990210890769958,"54":-1.0268924236297607,"55":0.16112563014030457,"56":-0.4726463854312897,"57":0.9102923274040222,"58":1.6961350440979004,"59":-0.22228023409843445,"60":3.037842273712158,"61":-2.310729742050171,"62":1.8273954391479492,"63":1.9372419118881226,"64":-0.8006342053413391,"65":0.861271321773529,"66":0.3883279263973236,"67":2.226910352706909,"68":0.7054312825202942,"69":1.6097300052642822,"70":2.2721176147460938,"71":4.60539436340332,"72":-0.24115516245365143,"73":-0.6568767428398132,"74":-1.2601041793823242,"75":0.7200077176094055,"76":2.026249408721924,"77":1.4505369663238525,"78":1.0738215446472168,"79":-0.24307934939861298,"80":-2.108349323272705,"81":0.24129988253116608,"82":1.6583279371261597,"83":0.6828810572624207,"84":2.2658133506774902,"85":-1.3844366073608398,"86":-1.288568377494812,"87":1.5410977602005005,"88":0.9258247017860413,"89":1.730360984802246,"90":0.7870747447013855,"91":4.1737470626831055,"92":-2.470522880554199,"93":-1.690959095954895,"94":-0.1650555431842804,"95":1.3758552074432373,"96":1.3639875650405884,"97":-2.9283337593078613,"98":-0.54067063331604,"99":0.32592734694480896,"100":0.654630184173584,"101":0.5125468373298645,"102":-0.41872018575668335,"103":2.9816195964813232,"104":0.7941985130310059,"105":-0.8807300925254822,"106":-1.5512380599975586,"107":-2.0609118938446045,"108":-0.6548874974250793,"109":0.0382222943007946,"110":-1.2653311491012573,"111":-0.0884910523891449,"112":3.19442081451416,"113":0.5567464232444763,"114":-0.7468068599700928,"115":-1.8152483701705933,"116":2.061797618865967,"117":-2.015373468399048,"118":1.0521564483642578,"119":-1.4834344387054443,"120":0.5429336428642273,"121":-1.7160851955413818,"122":3.1359848976135254,"123":-0.7669811844825745,"124":0.7603124380111694,"125":-1.5352126359939575,"126":1.2062313556671143,"127":0.5707261562347412,"128":-0.15954717993736267,"129":1.451024055480957,"130":-1.3007221221923828,"131":1.9543488025665283,"132":-0.6134766936302185,"133":0.30356091260910034,"134":-3.0291271209716797,"135":1.8241426944732666,"136":-0.015274658799171448,"137":2.720857858657837,"138":0.38988029956817627,"139":-0.6538030505180359,"140":-0.8441413640975952,"141":1.36572265625,"142":-0.07522939890623093,"143":1.546886682510376,"144":-0.24076324701309204,"145":-0.3072723150253296,"146":1.255833387374878,"147":-0.6215974688529968,"148":0.09539119899272919,"149":-1.6704840660095215,"150":0.023339584469795227,"151":-2.0985214710235596,"152":-0.9804158210754395,"153":1.824021816253662,"154":-1.3771337270736694,"155":-0.5668575763702393,"156":-0.014653459191322327,"157":-0.11882970482110977,"158":-2.366985321044922,"159":-1.5593315362930298,"160":1.682132363319397,"161":1.1182806491851807,"162":-0.5254380106925964,"163":-1.2148399353027344,"164":1.529686450958252,"165":-0.05865941196680069,"166":1.8564566373825073,"167":2.054288387298584,"168":-0.3557557165622711,"169":-0.5427653193473816,"170":-0.2590292990207672,"171":-0.18982043862342834,"172":-0.06251563131809235,"173":-1.8305851221084595,"174":0.8277221918106079,"175":1.3348686695098877,"176":-2.6450693607330322,"177":1.9622403383255005,"178":-0.3571687340736389,"179":2.7106359004974365,"180":-3.235867977142334,"181":1.5223381519317627,"182":0.9353183507919312,"183":2.938400983810425,"184":1.6256839036941528,"185":-0.10436642915010452,"186":-1.1994348764419556,"187":-1.166172742843628,"188":1.474302887916565,"189":-0.3244030177593231,"190":-3.732412099838257,"191":-1.6514577865600586,"192":1.4863470792770386,"193":1.2784982919692993,"194":-0.7829824686050415,"195":-2.2818410396575928,"196":-1.5134785175323486,"197":-1.4353598356246948,"198":0.722615122795105,"199":2.442976951599121,"200":0.7930755019187927,"201":-1.0236655473709106,"202":-2.3616795539855957,"203":3.156615734100342,"204":-0.07560117542743683,"205":2.3360087871551514,"206":-0.5706418752670288,"207":0.6956844925880432,"208":-2.103008270263672,"209":1.859283447265625,"210":-0.9892920851707458,"211":0.25135940313339233,"212":1.889054536819458,"213":0.5575295686721802,"214":-0.08734368532896042,"215":-2.731710433959961,"216":-0.35801365971565247,"217":0.7959566712379456,"218":-1.9456197023391724,"219":-0.3378389775753021,"220":0.14259643852710724,"221":-0.4104548692703247,"222":1.610476016998291,"223":1.7694498300552368,"224":-3.3808724880218506,"225":-0.7561808824539185,"226":-0.3741508424282074,"227":2.732426643371582,"228":1.7272018194198608,"229":-0.2517952620983124,"230":-0.6803650259971619,"231":3.9684877395629883,"232":0.5262042284011841,"233":-2.165656089782715,"234":0.9281574487686157,"235":-0.020264366641640663,"236":0.9309355616569519,"237":1.9337681531906128,"238":0.45338311791419983,"239":0.23267166316509247,"240":-0.08041106164455414,"241":1.253304362297058,"242":0.12455320358276367,"243":-0.5441864132881165,"244":1.6446614265441895,"245":-0.5208929777145386,"246":-2.3925673961639404,"247":-0.03303776681423187,"248":-0.2479487955570221,"249":0.4287964105606079,"250":0.9319080114364624,"251":-1.2235161066055298,"252":2.6883013248443604,"253":2.8965368270874023,"254":0.981136679649353,"255":-1.7044540643692017,"256":-2.1951217651367188,"257":-0.3347238600254059,"258":2.0182101726531982,"259":2.0658509731292725,"260":-0.11066140979528427,"261":0.002548860153183341,"262":-0.371997594833374,"263":-0.20206663012504578,"264":-0.6906305551528931,"265":-0.9485558271408081,"266":-0.8424334526062012,"267":-0.7346398234367371,"268":1.8911726474761963,"269":-0.97393399477005,"270":1.7622536420822144,"271":0.330483615398407,"272":0.5010506510734558,"273":-0.2543458938598633,"274":-2.704287052154541,"275":1.89995539188385,"276":1.4590188264846802,"277":-0.34758010506629944,"278":0.9108225107192993,"279":-3.5640366077423096,"280":-2.2848002910614014,"281":0.7184308171272278,"282":0.7499895095825195,"283":-2.2925095558166504,"284":1.4962503910064697,"285":0.10756988078355789,"286":1.7843685150146484,"287":-1.8628990650177002,"288":1.3914775848388672,"289":0.3241312503814697,"290":-1.4203369617462158,"291":1.0804318189620972,"292":0.5186767578125,"293":0.43833276629447937,"294":-1.5296993255615234,"295":1.1947747468948364,"296":-2.272047996520996,"297":1.3428010940551758,"298":-0.19744955003261566,"299":-1.4235645532608032,"300":-1.686566710472107,"301":-0.12094313651323318,"302":-0.46185123920440674,"303":1.246415376663208,"304":-0.019410990178585052,"305":-5.091323375701904,"306":-1.1477088928222656,"307":1.5738226175308228,"308":-2.3732028007507324,"309":-1.667433500289917,"310":-0.3510023355484009,"311":-0.260964572429657,"312":-0.563077986240387,"313":0.7061038613319397,"314":-1.0613925457000732,"315":1.4630070924758911,"316":-0.5667628049850464,"317":0.448980450630188,"318":0.8948521018028259,"319":0.865212082862854,"320":0.5730804204940796,"321":1.3763892650604248,"322":-3.621860980987549,"323":-0.3497169613838196,"324":-1.0535051822662354,"325":1.0270805358886719,"326":-0.3370072841644287,"327":-1.9799516201019287,"328":-2.2971885204315186,"329":-1.095580816268921,"330":-0.2568550705909729,"331":1.3260091543197632,"332":-0.6423527598381042,"333":-0.7991921901702881,"334":1.1596897840499878,"335":0.8910766243934631,"336":-0.033003490418195724,"337":5.040085315704346,"338":2.5007832050323486,"339":4.311549186706543,"340":-0.005527185741811991,"341":0.19450564682483673,"342":2.164531707763672,"343":-0.7322177290916443,"344":-0.8061472773551941,"345":0.32551315426826477,"346":-2.0973780155181885,"347":-3.1322131156921387,"348":-4.599756240844727,"349":-0.5741167068481445,"350":2.1808931827545166,"351":0.8327857851982117,"352":-2.325463056564331,"353":1.292224407196045,"354":-1.7305221557617188,"355":0.16288328170776367,"356":1.0591641664505005,"357":1.7914637327194214,"358":0.6548359990119934,"359":-0.48711851239204407,"360":1.050754427909851,"361":0.13411511480808258,"362":2.3433096408843994,"363":-1.1038854122161865,"364":2.614964246749878,"365":-0.8468229174613953,"366":0.83854740858078,"367":0.1844363957643509,"368":1.4994683265686035,"369":-0.9310107231140137,"370":-0.5979731678962708,"371":-0.3660176396369934,"372":-0.7190022468566895,"373":0.2049122452735901,"374":-1.8643416166305542,"375":-1.0995540618896484,"376":-2.3724632263183594,"377":2.986724615097046,"378":2.086613178253174,"379":-0.5741077661514282,"380":-1.5753486156463623,"381":-0.15320922434329987,"382":-2.2550408840179443,"383":1.0012880563735962,"384":0.9456080794334412,"385":0.5121465921401978,"386":-0.29618096351623535,"387":-3.3678712844848633,"388":0.790899932384491,"389":-0.3917906880378723,"390":1.030216932296753,"391":-0.6307777762413025,"392":-1.3060102462768555,"393":1.9830296039581299,"394":-1.8386517763137817,"395":3.0126490592956543,"396":-1.2274593114852905,"397":0.409753680229187,"398":1.3350363969802856,"399":-3.0817365646362305,"400":1.1606390476226807,"401":0.23362155258655548,"402":-1.3115653991699219,"403":-0.4527658224105835,"404":0.6183358430862427,"405":-0.19832554459571838,"406":4.791204452514648,"407":0.014735898934304714,"408":2.115056276321411,"409":1.1173769235610962,"410":-1.8731037378311157,"411":1.0303521156311035,"412":-0.46172502636909485,"413":-0.8983436822891235,"414":0.15151554346084595,"415":-0.5824599862098694,"416":-1.7428392171859741,"417":1.306697964668274,"418":-1.2684102058410645,"419":2.057842493057251,"420":-1.0568268299102783,"421":-1.055975317955017,"422":-0.3960668742656708,"423":-1.3355685472488403,"424":1.1201550960540771,"425":-3.1199798583984375,"426":-0.17643232643604279,"427":-0.16499517858028412,"428":-0.5326532125473022,"429":1.1745766401290894,"430":2.3246257305145264,"431":-0.9042733907699585,"432":0.07273144274950027,"433":0.6309311389923096,"434":-1.35860276222229,"435":0.16519156098365784,"436":-3.717772960662842,"437":2.1478285789489746,"438":-0.736573338508606,"439":-0.5844542980194092,"440":-0.7392998933792114,"441":-0.24239929020404816,"442":1.2861765623092651,"443":0.10268987715244293,"444":-0.4736437201499939,"445":-0.23933756351470947,"446":2.3784515857696533,"447":0.7576531171798706,"448":2.3165957927703857,"449":-0.15264204144477844,"450":-1.0521023273468018,"451":0.6535746455192566,"452":0.1833755522966385,"453":0.5295371413230896,"454":-0.6154710054397583,"455":-0.23293724656105042,"456":-1.1338096857070923,"457":-0.7589343190193176,"458":0.7304853796958923,"459":0.9273405075073242,"460":-1.2593426704406738,"461":-1.7101036310195923,"462":1.3742928504943848,"463":0.5693988800048828,"464":-0.9232903122901917,"465":-2.7647650241851807,"466":0.03533945232629776,"467":-1.350862979888916,"468":0.8676173686981201,"469":0.20939284563064575,"470":-1.4155224561691284,"471":-0.7504201531410217,"472":1.568475604057312,"473":1.9307277202606201,"474":-1.4586812257766724,"475":0.8755665421485901,"476":0.8806576728820801,"477":0.9877603650093079,"478":-0.318768173456192,"479":-0.7160424590110779,"480":-1.7097933292388916,"481":1.8857005834579468,"482":0.8568016886711121,"483":-0.1700509488582611,"484":2.623326063156128,"485":2.6092984676361084,"486":0.9225268959999084,"487":-0.7258558869361877,"488":-1.9614769220352173,"489":-0.3382405638694763,"490":0.005704804323613644,"491":-0.1151772066950798,"492":1.6761975288391113,"493":-2.0356924533843994,"494":-1.1909878253936768,"495":0.2965114712715149,"496":1.224469542503357,"497":-0.055748987942934036,"498":-1.3066000938415527,"499":0.6904674172401428,"500":1.1076669692993164,"501":0.6001846790313721,"502":-1.3001708984375,"503":-2.8333964347839355,"504":-2.2869131565093994,"505":-0.4227791130542755,"506":-1.810961127281189,"507":2.3388280868530273,"508":-1.4172954559326172,"509":2.1181764602661133,"510":2.7990689277648926,"511":-1.5079673528671265,"512":-1.0474581718444824,"513":-1.201282262802124,"514":-1.5098891258239746,"515":0.6728796362876892,"516":2.2319304943084717,"517":-2.082554578781128,"518":0.802147626876831,"519":0.42137986421585083,"520":-1.2645361423492432,"521":-1.5857875347137451,"522":-1.4431748390197754,"523":-0.9932723641395569,"524":0.5322922468185425,"525":-1.1263303756713867,"526":-0.8904011845588684,"527":1.006008267402649,"528":0.49531280994415283,"529":-1.2320942878723145,"530":-0.9906864762306213,"531":0.8258509635925293,"532":2.5272140502929688,"533":0.5724976062774658,"534":0.5133284330368042,"535":-1.4828490018844604,"536":3.6328117847442627,"537":1.091478943824768,"538":-0.7593768239021301,"539":-0.7192027568817139,"540":-0.6311084032058716,"541":2.3098480701446533,"542":-1.8409874439239502,"543":-2.036149740219116,"544":-0.07511591911315918,"545":0.10088296979665756,"546":0.8371734023094177,"547":-2.0191078186035156,"548":1.4224539995193481,"549":-1.3791805505752563,"550":0.1546194851398468,"551":-1.0448139905929565,"552":-0.29095613956451416,"553":1.7038015127182007,"554":0.06199917942285538,"555":-1.7952041625976562,"556":-0.8220670223236084,"557":-3.1749093532562256,"558":0.6053910851478577,"559":1.3388646841049194,"560":-0.015005013905465603,"561":0.9235431551933289,"562":0.8913891911506653,"563":-0.13617940247058868,"564":-0.14884930849075317,"565":-2.4239819049835205,"566":0.011791756376624107,"567":-1.4836130142211914,"568":1.15647554397583,"569":0.7592141032218933,"570":0.3248036503791809,"571":0.33707308769226074,"572":0.563042402267456,"573":0.7139914631843567,"574":0.101939357817173,"575":-1.5302801132202148,"576":1.5270888805389404,"577":1.1342803239822388,"578":-1.504991888999939,"579":0.9109306931495667,"580":-2.1691691875457764,"581":-1.1540381908416748,"582":-1.3751276731491089,"583":-0.37879645824432373,"584":-0.8177138566970825,"585":-3.6044909954071045,"586":0.21466279029846191,"587":-0.3919190764427185,"588":-1.2181622982025146,"589":-0.2709106504917145,"590":0.36058640480041504,"591":-1.7208949327468872,"592":-2.217280149459839,"593":1.6200332641601562,"594":-0.15879052877426147,"595":0.20275592803955078,"596":2.2461047172546387,"597":-0.7953747510910034,"598":-1.6185296773910522,"599":0.3049652874469757}},"forgetHidden":{"rows":20,"columns":20,"weights":{"0":-1.5444988012313843,"1":0.33504536747932434,"2":1.4986191987991333,"3":-0.47399604320526123,"4":-0.6720061898231506,"5":1.6693811416625977,"6":0.11468871682882309,"7":2.672489881515503,"8":1.631260633468628,"9":1.1354924440383911,"10":-2.5118014812469482,"11":-1.5220426321029663,"12":-0.7803992033004761,"13":-3.0318045616149902,"14":-1.264764428138733,"15":-0.9145225882530212,"16":1.3409196138381958,"17":-0.04064488783478737,"18":-0.9950306415557861,"19":0.8485928773880005,"20":-0.21409548819065094,"21":-0.06369400769472122,"22":3.433042526245117,"23":-3.565159797668457,"24":1.0099133253097534,"25":-0.5141813158988953,"26":-1.1603525876998901,"27":-0.024687539786100388,"28":-0.3193698525428772,"29":-3.683356761932373,"30":-0.9357772469520569,"31":0.7052503824234009,"32":2.3624324798583984,"33":-2.4907352924346924,"34":0.2655287981033325,"35":-0.3925274610519409,"36":-3.1886978149414062,"37":3.2742722034454346,"38":-1.1198618412017822,"39":0.7980746030807495,"40":0.09926716238260269,"41":0.3514673411846161,"42":-2.665888547897339,"43":1.99906325340271,"44":1.7294481992721558,"45":-0.0336933434009552,"46":1.5148582458496094,"47":-1.2942719459533691,"48":0.6380525231361389,"49":0.7224096655845642,"50":0.051194947212934494,"51":-1.19178307056427,"52":0.3461422622203827,"53":3.104161262512207,"54":0.5002716183662415,"55":0.8577436804771423,"56":1.8132421970367432,"57":1.498287320137024,"58":2.982672691345215,"59":-0.027709830552339554,"60":1.5681068897247314,"61":-0.444927453994751,"62":-0.06853210926055908,"63":0.09293955564498901,"64":3.246626615524292,"65":0.4844836890697479,"66":-0.900371253490448,"67":-0.6057260036468506,"68":0.670734167098999,"69":-0.9054509997367859,"70":0.2562224864959717,"71":2.1126420497894287,"72":-3.7854256629943848,"73":-0.3374195694923401,"74":-1.836450457572937,"75":2.61491322517395,"76":1.5251015424728394,"77":-3.3655049800872803,"78":-1.032094120979309,"79":0.7835910320281982,"80":0.1228080466389656,"81":0.20700983703136444,"82":-0.35174646973609924,"83":1.939894437789917,"84":1.2971817255020142,"85":-1.7336467504501343,"86":-0.3507108986377716,"87":-0.4098431468009949,"88":-0.13489224016666412,"89":-0.623808741569519,"90":0.17903217673301697,"91":-0.6533337235450745,"92":-0.6524621844291687,"93":0.3104173541069031,"94":0.34464704990386963,"95":0.48243045806884766,"96":0.5107402801513672,"97":-0.03510032966732979,"98":0.41044357419013977,"99":-0.6565269827842712,"100":1.3996374607086182,"101":-0.27931100130081177,"102":-0.47118887305259705,"103":0.27797630429267883,"104":-0.23582257330417633,"105":-0.22790013253688812,"106":-1.7107192277908325,"107":-1.6627265214920044,"108":-0.12471888959407806,"109":-2.51601505279541,"110":0.9591643810272217,"111":-0.7356517314910889,"112":0.961884081363678,"113":-0.7076783180236816,"114":-0.8022988438606262,"115":1.1579906940460205,"116":-1.2918610572814941,"117":-0.3450295031070709,"118":0.7046061158180237,"119":-0.6764355301856995,"120":0.4103567898273468,"121":0.3450610935688019,"122":1.0086168050765991,"123":0.7490731477737427,"124":-1.321651577949524,"125":0.3088083863258362,"126":1.546388030052185,"127":0.2440810203552246,"128":-1.244674563407898,"129":1.257018804550171,"130":1.1410332918167114,"131":-1.1873779296875,"132":0.7410911917686462,"133":-1.9132425785064697,"134":-2.5128443241119385,"135":-0.9142115712165833,"136":1.1651111841201782,"137":-0.4952034056186676,"138":-1.59553861618042,"139":0.6649315357208252,"140":0.39438965916633606,"141":-0.9614838361740112,"142":-0.4141462445259094,"143":-1.4401462078094482,"144":0.2778880000114441,"145":0.4160498380661011,"146":-1.069126844406128,"147":0.6664666533470154,"148":0.3136911690235138,"149":0.885193943977356,"150":0.8439004421234131,"151":1.1341702938079834,"152":0.03205714002251625,"153":-2.2052180767059326,"154":-2.4672045707702637,"155":-0.04175850376486778,"156":-0.0138781713321805,"157":0.5416937470436096,"158":0.6262590885162354,"159":-0.21071350574493408,"160":-0.4513024389743805,"161":1.788682460784912,"162":-0.9081486463546753,"163":1.257913589477539,"164":1.6577351093292236,"165":-0.5397853851318359,"166":-0.7428256273269653,"167":-2.0407588481903076,"168":-1.1435174942016602,"169":-3.5487446784973145,"170":0.5218838453292847,"171":2.756190061569214,"172":-0.11919385194778442,"173":0.35504627227783203,"174":0.06119789183139801,"175":-3.79612135887146,"176":0.23183465003967285,"177":-2.518527030944824,"178":-0.043945521116256714,"179":-0.07763390988111496,"180":1.6202749013900757,"181":-1.5295019149780273,"182":2.054126024246216,"183":-0.15096764266490936,"184":-1.537313461303711,"185":2.0020267963409424,"186":-1.6943901777267456,"187":1.5907299518585205,"188":0.4776104688644409,"189":-0.6114314198493958,"190":-0.308965802192688,"191":2.2925214767456055,"192":-1.5641731023788452,"193":-3.273374557495117,"194":-0.16305527091026306,"195":-0.1782161444425583,"196":-0.4488227367401123,"197":1.7443960905075073,"198":-1.759432315826416,"199":0.8237625360488892,"200":-0.8048507571220398,"201":-0.8496010899543762,"202":-1.1998810768127441,"203":0.6221567988395691,"204":-0.18076926469802856,"205":2.25120210647583,"206":1.937070608139038,"207":-1.1905996799468994,"208":-0.12347527593374252,"209":0.4085543751716614,"210":-1.5879966020584106,"211":-0.8359172940254211,"212":1.6711996793746948,"213":-1.0365662574768066,"214":0.8761065602302551,"215":-0.9633497595787048,"216":0.5556002259254456,"217":2.6793971061706543,"218":0.10321518033742905,"219":-0.8468840718269348,"220":0.5024705529212952,"221":0.982980489730835,"222":1.9167994260787964,"223":-0.05423688888549805,"224":0.22180773317813873,"225":2.7815542221069336,"226":-1.6955702304840088,"227":-2.288325309753418,"228":-0.32117918133735657,"229":0.24705053865909576,"230":-0.10002195835113525,"231":5.249013423919678,"232":-0.0037406575866043568,"233":-5.135395050048828,"234":1.1562516689300537,"235":0.4670979678630829,"236":3.5397963523864746,"237":-2.2007558345794678,"238":-0.2739025056362152,"239":-2.1866371631622314,"240":1.797676682472229,"241":0.9998292922973633,"242":-0.20582444965839386,"243":1.873342752456665,"244":0.488180935382843,"245":-0.9923534989356995,"246":-1.4348396062850952,"247":1.8065106868743896,"248":-1.246596336364746,"249":-3.5819618701934814,"250":-2.9177207946777344,"251":-1.295021414756775,"252":-1.532408595085144,"253":-3.7136390209198,"254":3.18330717086792,"255":3.1781818866729736,"256":-2.8130605220794678,"257":-0.43842536211013794,"258":0.2938048541545868,"259":-1.4452093839645386,"260":-0.7431198954582214,"261":-0.6333566904067993,"262":-3.179114580154419,"263":1.6507638692855835,"264":0.8585893511772156,"265":0.45281943678855896,"266":0.31761518120765686,"267":0.5489000082015991,"268":-0.6315797567367554,"269":-0.8075231909751892,"270":-0.2529049515724182,"271":-1.88100004196167,"272":-1.4851443767547607,"273":0.7242181897163391,"274":0.004123559221625328,"275":-0.08887284249067307,"276":-0.21459543704986572,"277":2.777604818344116,"278":-0.6113683581352234,"279":-0.023817317560315132,"280":0.22422297298908234,"281":-0.6845871210098267,"282":-0.24349944293498993,"283":1.4190521240234375,"284":-0.11954924464225769,"285":-0.33868885040283203,"286":-0.09720421582460403,"287":-0.16166351735591888,"288":-0.7150157690048218,"289":0.48136281967163086,"290":0.35787320137023926,"291":-1.0234220027923584,"292":-0.9477040767669678,"293":0.9178971648216248,"294":0.5642287135124207,"295":0.047467127442359924,"296":-0.5561258792877197,"297":0.9900171160697937,"298":-0.640070378780365,"299":0.6023979187011719,"300":-0.9704737663269043,"301":3.30133318901062,"302":2.3253984451293945,"303":-1.9794737100601196,"304":5.306362152099609,"305":-0.8496649861335754,"306":-0.4799969792366028,"307":-0.6315625309944153,"308":0.5357290506362915,"309":0.19872556626796722,"310":1.1618212461471558,"311":-0.8225178718566895,"312":2.2110207080841064,"313":0.7005757689476013,"314":-2.2456798553466797,"315":-2.1591386795043945,"316":-2.3841893672943115,"317":0.9590623378753662,"318":1.284470796585083,"319":0.13144896924495697,"320":-0.8822832703590393,"321":0.10643618553876877,"322":-1.3800331354141235,"323":0.6070985198020935,"324":-1.473279595375061,"325":0.39829930663108826,"326":0.2562355101108551,"327":-1.2003405094146729,"328":-0.08452582359313965,"329":0.021658888086676598,"330":0.23547255992889404,"331":-1.6430082321166992,"332":0.9454934597015381,"333":0.0761270746588707,"334":0.9436647295951843,"335":0.2832663953304291,"336":-1.242488145828247,"337":1.2400782108306885,"338":-0.6398509740829468,"339":0.10690644383430481,"340":-0.2986200451850891,"341":-1.9597843885421753,"342":0.5291410088539124,"343":-1.5461485385894775,"344":-0.09687336534261703,"345":1.2352920770645142,"346":0.0010859285248443484,"347":0.9892462491989136,"348":-0.29211121797561646,"349":-0.304783433675766,"350":0.4833987355232239,"351":0.7395490407943726,"352":-0.0853242427110672,"353":-0.07777180522680283,"354":0.14806091785430908,"355":-0.2698626220226288,"356":-1.781610369682312,"357":2.699007272720337,"358":-1.01878821849823,"359":0.7679970860481262,"360":1.5334007740020752,"361":0.4645024836063385,"362":-0.25635603070259094,"363":2.4272239208221436,"364":0.5456998944282532,"365":0.9439293742179871,"366":-0.473778635263443,"367":-1.1449781656265259,"368":0.725509524345398,"369":0.5577957630157471,"370":-0.9328951835632324,"371":0.5378095507621765,"372":-0.0703665167093277,"373":1.2417430877685547,"374":1.0102722644805908,"375":0.28297632932662964,"376":1.4821372032165527,"377":-1.019270658493042,"378":-1.6998403072357178,"379":-2.14487624168396,"380":0.6716046333312988,"381":1.8991096019744873,"382":0.32610437273979187,"383":-3.2618703842163086,"384":-0.26056909561157227,"385":-1.5622377395629883,"386":-0.11534590274095535,"387":0.5196329951286316,"388":0.7487611174583435,"389":-0.2592124044895172,"390":-0.7288811802864075,"391":-5.246391296386719,"392":3.2203314304351807,"393":1.0305546522140503,"394":-4.451095104217529,"395":-3.401822090148926,"396":1.0518685579299927,"397":-2.6932930946350098,"398":3.898038148880005,"399":-1.8534554243087769}},"forgetBias":{"rows":20,"columns":1,"weights":{"0":0,"1":0,"2":0,"3":0,"4":0,"5":0,"6":0,"7":0,"8":0,"9":0,"10":0,"11":0,"12":0,"13":0,"14":0,"15":0,"16":0,"17":0,"18":0,"19":0}},"outputMatrix":{"rows":20,"columns":30,"weights":{"0":1.337691307067871,"1":-0.7038988471031189,"2":0.8374158143997192,"3":4.495087623596191,"4":1.1669325828552246,"5":0.5491182804107666,"6":1.384411096572876,"7":1.5883891582489014,"8":-2.716559410095215,"9":-1.1848442554473877,"10":-2.1670451164245605,"11":-1.5641167163848877,"12":1.6701383590698242,"13":-0.4616684913635254,"14":0.6077150702476501,"15":-0.5486331582069397,"16":1.3269439935684204,"17":-1.1792073249816895,"18":-0.373689740896225,"19":-0.46203717589378357,"20":-1.2798011302947998,"21":0.1133202612400055,"22":-4.936817646026611,"23":-0.43022531270980835,"24":0.05874720960855484,"25":3.888200044631958,"26":-1.830270767211914,"27":0.7609308362007141,"28":-4.161348342895508,"29":3.528420925140381,"30":-3.3719899654388428,"31":-0.3238779306411743,"32":0.39514756202697754,"33":-0.9507757425308228,"34":2.4003043174743652,"35":0.6480342745780945,"36":1.7328165769577026,"37":-4.530014514923096,"38":-2.4404940605163574,"39":1.2149860858917236,"40":0.7142541408538818,"41":0.7895740866661072,"42":-0.40509939193725586,"43":-0.33705851435661316,"44":0.3795067071914673,"45":-0.4404826760292053,"46":-4.4610066413879395,"47":2.604686737060547,"48":-0.676972508430481,"49":-4.386178016662598,"50":0.1528724879026413,"51":1.4184709787368774,"52":2.560865879058838,"53":2.0754826068878174,"54":-0.23566898703575134,"55":-3.942915678024292,"56":0.6646934151649475,"57":-2.631782293319702,"58":2.7427046298980713,"59":0.4451163709163666,"60":4.9067583084106445,"61":-3.579089879989624,"62":3.210583448410034,"63":-0.19024017453193665,"64":-2.151817798614502,"65":1.771804928779602,"66":1.6014879941940308,"67":-0.18876469135284424,"68":-3.8275420665740967,"69":0.8542940616607666,"70":2.418163776397705,"71":2.033862590789795,"72":-2.312761068344116,"73":-2.4456329345703125,"74":2.3268630504608154,"75":1.6730666160583496,"76":0.6772016882896423,"77":2.237200975418091,"78":-1.2273187637329102,"79":-4.095970630645752,"80":0.8287808299064636,"81":0.6249088048934937,"82":-0.34868699312210083,"83":1.4086018800735474,"84":1.9722182750701904,"85":2.704441785812378,"86":1.6206262111663818,"87":-0.522941529750824,"88":-1.4757986068725586,"89":3.2462267875671387,"90":2.289588212966919,"91":-0.14827822148799896,"92":1.378051519393921,"93":2.0659661293029785,"94":0.14159727096557617,"95":0.04338640347123146,"96":-5.062931537628174,"97":1.9166942834854126,"98":2.291816234588623,"99":-2.593473196029663,"100":0.8262172341346741,"101":4.622294902801514,"102":0.8722471594810486,"103":1.0494247674942017,"104":-0.35374075174331665,"105":-1.9683873653411865,"106":2.7476015090942383,"107":-2.02689266204834,"108":0.6149322986602783,"109":2.570136070251465,"110":-0.22763808071613312,"111":0.9763146042823792,"112":-2.728069543838501,"113":-1.5527489185333252,"114":-3.1499390602111816,"115":3.058502435684204,"116":-0.6958475112915039,"117":0.523332417011261,"118":-1.0064738988876343,"119":3.1333119869232178,"120":-3.3693010807037354,"121":-1.4204107522964478,"122":5.424715995788574,"123":1.94277822971344,"124":0.7343044877052307,"125":-0.8091139197349548,"126":-1.6996454000473022,"127":0.26934653520584106,"128":0.4865957200527191,"129":-1.7184269428253174,"130":-2.1301066875457764,"131":-1.2596617937088013,"132":-0.558183491230011,"133":0.30662015080451965,"134":-2.012882709503174,"135":-0.9645102024078369,"136":-1.4174624681472778,"137":3.1414453983306885,"138":2.133967161178589,"139":3.040382146835327,"140":-0.3317052721977234,"141":2.3579838275909424,"142":-1.0755336284637451,"143":-0.5229068994522095,"144":-0.06976626813411713,"145":3.78999662399292,"146":-0.778028666973114,"147":-1.5636448860168457,"148":1.6385310888290405,"149":-1.3789401054382324,"150":1.9280741214752197,"151":0.5241286754608154,"152":0.3012787997722626,"153":0.24429064989089966,"154":-0.5433480739593506,"155":1.8702757358551025,"156":0.7630314826965332,"157":-3.721055030822754,"158":0.9956383109092712,"159":-2.7373716831207275,"160":0.2456398904323578,"161":-3.0950205326080322,"162":0.48111048340797424,"163":0.6662416458129883,"164":2.5657896995544434,"165":0.37479013204574585,"166":-2.3573391437530518,"167":-1.0078891515731812,"168":2.715613842010498,"169":-0.9022402763366699,"170":1.701317310333252,"171":1.6039677858352661,"172":1.755568027496338,"173":0.050973981618881226,"174":0.24298056960105896,"175":0.9539410471916199,"176":-0.5574171543121338,"177":0.20828309655189514,"178":0.7125595808029175,"179":0.4880034923553467,"180":-1.7374166250228882,"181":1.469035267829895,"182":0.22787407040596008,"183":-3.7542619705200195,"184":-1.8756518363952637,"185":-2.893880844116211,"186":3.5315093994140625,"187":-2.102731466293335,"188":-4.537240982055664,"189":2.0558650493621826,"190":-2.9837586879730225,"191":-0.6077906489372253,"192":0.963715672492981,"193":-0.897473156452179,"194":-1.1213127374649048,"195":3.526240110397339,"196":-4.327441692352295,"197":-1.3951518535614014,"198":-1.1983671188354492,"199":-1.0282810926437378,"200":2.166740655899048,"201":0.1828427016735077,"202":2.0534839630126953,"203":-0.2318405658006668,"204":-0.48532575368881226,"205":-2.9453866481781006,"206":1.033717155456543,"207":5.926597595214844,"208":0.7186886072158813,"209":-1.0593584775924683,"210":-1.9475617408752441,"211":1.368532419204712,"212":-0.16364455223083496,"213":-0.2031722366809845,"214":1.5803886651992798,"215":3.454908609390259,"216":4.237249851226807,"217":-2.5557737350463867,"218":-2.571992874145508,"219":1.9893442392349243,"220":-1.2109417915344238,"221":0.9431334733963013,"222":2.6218488216400146,"223":-1.720266580581665,"224":0.5331714749336243,"225":-1.1211698055267334,"226":-0.25465497374534607,"227":2.207514524459839,"228":-3.6506807804107666,"229":-1.450397253036499,"230":1.5883156061172485,"231":-4.244340419769287,"232":0.28628212213516235,"233":1.500807285308838,"234":1.7092341184616089,"235":-3.4024786949157715,"236":1.0635796785354614,"237":0.28838562965393066,"238":-0.5222020149230957,"239":0.38495495915412903,"240":-7.756575584411621,"241":2.041325092315674,"242":0.6534837484359741,"243":2.824720859527588,"244":-2.3425233364105225,"245":1.6702111959457397,"246":0.9538750052452087,"247":-1.5426417589187622,"248":1.1252601146697998,"249":-0.5443252921104431,"250":-4.178531646728516,"251":-2.750701665878296,"252":2.0238072872161865,"253":-0.2578403353691101,"254":-1.3672478199005127,"255":-3.5598084926605225,"256":-4.278400421142578,"257":0.3515935242176056,"258":0.5377893447875977,"259":-1.683763027191162,"260":2.598018169403076,"261":0.2997405529022217,"262":-1.025112271308899,"263":1.2893415689468384,"264":-0.19858500361442566,"265":0.3373458981513977,"266":-1.6564059257507324,"267":2.965801239013672,"268":-0.31502577662467957,"269":1.0110918283462524,"270":2.651512861251831,"271":-1.3038458824157715,"272":2.8686492443084717,"273":-2.8349246978759766,"274":-2.7186174392700195,"275":-2.1810944080352783,"276":1.1462745666503906,"277":-0.4223293662071228,"278":-2.313422441482544,"279":-0.646606981754303,"280":-2.2954187393188477,"281":-0.08991605043411255,"282":-1.3640860319137573,"283":0.6853803396224976,"284":2.582803964614868,"285":2.0249738693237305,"286":-0.001381938811391592,"287":-0.15257512032985687,"288":2.6444900035858154,"289":-2.560546398162842,"290":-0.04313729330897331,"291":2.4668400287628174,"292":1.4492697715759277,"293":1.4601012468338013,"294":0.9395981431007385,"295":-4.695738315582275,"296":-2.253485679626465,"297":-2.207498788833618,"298":0.5130993723869324,"299":-5.889532566070557,"300":-0.35611778497695923,"301":-0.9917183518409729,"302":1.4901554584503174,"303":-1.4699052572250366,"304":-1.5556361675262451,"305":-2.5297024250030518,"306":1.511293649673462,"307":-0.09900327026844025,"308":-0.09173429757356644,"309":2.379629135131836,"310":-1.7765239477157593,"311":0.14289243519306183,"312":2.0867137908935547,"313":0.43400946259498596,"314":0.8613458275794983,"315":2.433302879333496,"316":-2.7252981662750244,"317":0.19806064665317535,"318":-0.31964311003685,"319":-0.021337607875466347,"320":2.7344672679901123,"321":-1.9315199851989746,"322":1.129658818244934,"323":0.04340493306517601,"324":0.2145703136920929,"325":-0.9259242415428162,"326":0.5745429992675781,"327":0.4735088348388672,"328":0.4844655394554138,"329":-0.06680507957935333,"330":-3.417983055114746,"331":0.888174831867218,"332":0.21264226734638214,"333":0.11041253805160522,"334":-4.480474948883057,"335":0.34854352474212646,"336":2.3898582458496094,"337":-1.2335796356201172,"338":2.258197784423828,"339":-3.8976080417633057,"340":0.2341686487197876,"341":-1.7900639772415161,"342":1.6202694177627563,"343":-0.18722830712795258,"344":4.5044145584106445,"345":0.627560555934906,"346":-0.19565299153327942,"347":-1.3443888425827026,"348":0.07314833253622055,"349":0.2500653862953186,"350":4.1114044189453125,"351":3.920041561126709,"352":0.8209872245788574,"353":-3.493502378463745,"354":-0.6478344798088074,"355":-2.570054054260254,"356":0.21442769467830658,"357":1.2011743783950806,"358":-1.7071473598480225,"359":0.2008257806301117,"360":-1.332019329071045,"361":6.085078716278076,"362":1.5405179262161255,"363":-2.415342092514038,"364":2.9466114044189453,"365":-0.3017464578151703,"366":2.0776124000549316,"367":-0.9606640934944153,"368":-1.017684817314148,"369":0.4435456693172455,"370":0.2297852337360382,"371":-0.20511335134506226,"372":4.092150688171387,"373":-0.42290636897087097,"374":-4.434264183044434,"375":-1.1686172485351562,"376":-2.371910810470581,"377":-0.38434961438179016,"378":0.36784377694129944,"379":-2.580381393432617,"380":-0.4255187511444092,"381":-0.6639113426208496,"382":2.54205322265625,"383":-1.4759763479232788,"384":1.2827037572860718,"385":0.9353294372558594,"386":-0.2529258728027344,"387":-0.55042964220047,"388":2.4244349002838135,"389":0.9290259480476379,"390":1.6243523359298706,"391":0.4350183308124542,"392":2.9866268634796143,"393":-0.46019303798675537,"394":-0.6102246046066284,"395":-1.0134483575820923,"396":3.364093542098999,"397":-0.0394752137362957,"398":-2.9183402061462402,"399":0.8431124687194824,"400":-1.2736787796020508,"401":0.7815772891044617,"402":-0.23747415840625763,"403":-1.067223072052002,"404":-1.6068753004074097,"405":0.7794497609138489,"406":5.690835952758789,"407":-0.7003766894340515,"408":-2.2268879413604736,"409":-1.1614137887954712,"410":-1.333132266998291,"411":3.2274580001831055,"412":0.5199365615844727,"413":0.7936322093009949,"414":-1.8479206562042236,"415":3.2179529666900635,"416":1.9064104557037354,"417":-2.4213876724243164,"418":-3.657526731491089,"419":-4.260436058044434,"420":1.4970779418945312,"421":0.6378738284111023,"422":0.6015982031822205,"423":-4.334314823150635,"424":-1.2017847299575806,"425":-0.8416429758071899,"426":4.468814373016357,"427":-3.473637104034424,"428":-0.2226105034351349,"429":1.8225958347320557,"430":2.1228907108306885,"431":-1.255662202835083,"432":-2.1277453899383545,"433":1.9425768852233887,"434":-0.22383522987365723,"435":-1.4593963623046875,"436":-2.0523743629455566,"437":1.7251108884811401,"438":-2.6971418857574463,"439":-6.138458251953125,"440":3.5592055320739746,"441":1.0125547647476196,"442":1.249617099761963,"443":0.6331794857978821,"444":1.3136804103851318,"445":-1.2028985023498535,"446":2.8036739826202393,"447":1.1608713865280151,"448":-2.57185959815979,"449":-3.122694492340088,"450":-0.12212233245372772,"451":-0.4545137882232666,"452":-0.23801057040691376,"453":-0.08967527747154236,"454":0.9321354627609253,"455":2.136662006378174,"456":-2.9818453788757324,"457":0.5281716585159302,"458":-0.21591489017009735,"459":1.295758843421936,"460":-2.717177152633667,"461":-1.3006469011306763,"462":-0.3964765667915344,"463":2.4167630672454834,"464":-2.146296739578247,"465":-2.3175957202911377,"466":-0.0200720876455307,"467":-2.6293766498565674,"468":-0.15450279414653778,"469":-0.3377779424190521,"470":-2.797765016555786,"471":-0.5176659822463989,"472":-0.23550009727478027,"473":0.34640926122665405,"474":3.685299873352051,"475":0.055231861770153046,"476":1.0552427768707275,"477":-0.5232146382331848,"478":0.7192191481590271,"479":-2.714308738708496,"480":1.609083652496338,"481":1.8597294092178345,"482":-0.8207800984382629,"483":0.8217416405677795,"484":-2.9788870811462402,"485":2.781243085861206,"486":-0.4210144281387329,"487":-0.6371832489967346,"488":-1.1149967908859253,"489":1.8142094612121582,"490":-0.26130837202072144,"491":1.5456063747406006,"492":-1.7516905069351196,"493":-2.980638027191162,"494":-1.874284267425537,"495":-3.2159228324890137,"496":1.5816086530685425,"497":-1.2166407108306885,"498":-1.0639286041259766,"499":0.3961080312728882,"500":2.279914140701294,"501":-2.041863441467285,"502":-1.2427922487258911,"503":0.9264019727706909,"504":0.045984406024217606,"505":-2.31339693069458,"506":2.6998186111450195,"507":0.683989405632019,"508":0.6105177998542786,"509":-2.9392871856689453,"510":-3.5379397869110107,"511":1.3917607069015503,"512":-1.2512329816818237,"513":1.0563876628875732,"514":-0.3503836393356323,"515":0.7235199213027954,"516":0.5530716776847839,"517":-0.12450311332941055,"518":0.3204039931297302,"519":-1.0825088024139404,"520":-1.1955550909042358,"521":0.6112512350082397,"522":2.183014392852783,"523":0.926077127456665,"524":1.9917606115341187,"525":-4.7176666259765625,"526":0.23772366344928741,"527":-5.558902740478516,"528":-0.4463755786418915,"529":2.9727466106414795,"530":0.24406322836875916,"531":-0.8214082717895508,"532":-1.2082785367965698,"533":1.880820870399475,"534":-3.7647719383239746,"535":-2.840282917022705,"536":0.6080982685089111,"537":-5.010395526885986,"538":0.7190287113189697,"539":-0.24075864255428314,"540":3.132000207901001,"541":-3.2654294967651367,"542":-0.5860546231269836,"543":-0.7509189248085022,"544":0.8383296728134155,"545":-1.2961677312850952,"546":-0.15414872765541077,"547":-1.407672643661499,"548":0.4704296886920929,"549":-3.2269654273986816,"550":1.441420316696167,"551":-0.9221145510673523,"552":-5.981174945831299,"553":0.14171715080738068,"554":4.75322961807251,"555":0.4196355938911438,"556":0.8658462166786194,"557":2.780268430709839,"558":4.180212020874023,"559":-0.315437912940979,"560":-1.1368199586868286,"561":2.9200594425201416,"562":0.5786187648773193,"563":-0.86259526014328,"564":-0.3859882056713104,"565":1.6053965091705322,"566":-0.0877535343170166,"567":0.28218400478363037,"568":-1.5644739866256714,"569":1.3213562965393066,"570":0.9164323210716248,"571":1.4011560678482056,"572":-0.010112780146300793,"573":0.4391690790653229,"574":0.3115180432796478,"575":-0.4121743142604828,"576":1.0518625974655151,"577":-0.024852851405739784,"578":2.6351208686828613,"579":-3.457735300064087,"580":3.3551228046417236,"581":-1.0792127847671509,"582":-1.406617283821106,"583":2.6999378204345703,"584":1.4160369634628296,"585":2.485835075378418,"586":2.5244123935699463,"587":-0.38478660583496094,"588":1.263081669807434,"589":-0.03302476555109024,"590":0.2806384861469269,"591":2.6776511669158936,"592":-2.1156020164489746,"593":-5.566675662994385,"594":2.3081114292144775,"595":2.1591756343841553,"596":-4.041194438934326,"597":-2.1640095710754395,"598":-4.501253604888916,"599":3.5682895183563232}},"outputHidden":{"rows":20,"columns":20,"weights":{"0":-0.08087393641471863,"1":-0.517324686050415,"2":3.0648937225341797,"3":1.3251360654830933,"4":1.2677093744277954,"5":-0.8329958915710449,"6":-0.7627148628234863,"7":0.046756528317928314,"8":0.15132279694080353,"9":1.2697861194610596,"10":0.29764607548713684,"11":-0.9873126149177551,"12":-0.31410279870033264,"13":-1.5615363121032715,"14":0.12976497411727905,"15":-1.6721230745315552,"16":-0.6292577981948853,"17":-1.7592854499816895,"18":-1.7268496751785278,"19":1.7645753622055054,"20":-2.0753350257873535,"21":1.018399715423584,"22":4.085759162902832,"23":-3.0382893085479736,"24":0.4182257056236267,"25":0.5370684266090393,"26":-1.6511245965957642,"27":2.909759998321533,"28":-0.39176008105278015,"29":0.7903435826301575,"30":-4.146472930908203,"31":0.7936874032020569,"32":-0.8232247233390808,"33":-0.010469560511410236,"34":-3.8874363899230957,"35":-1.2702090740203857,"36":-1.3021624088287354,"37":1.9577364921569824,"38":-0.06201871111989021,"39":-0.7609578967094421,"40":0.222041517496109,"41":-0.9293517470359802,"42":1.6161530017852783,"43":-1.509616732597351,"44":0.7960522770881653,"45":2.790400981903076,"46":0.8790839910507202,"47":-1.6822948455810547,"48":-1.155274510383606,"49":-2.3358941078186035,"50":-2.611550807952881,"51":0.23117776215076447,"52":1.5284645557403564,"53":-0.39485758543014526,"54":0.25925958156585693,"55":-0.35310620069503784,"56":-1.047633409500122,"57":3.3785152435302734,"58":0.46843233704566956,"59":0.09741158783435822,"60":-0.3236159682273865,"61":1.2652968168258667,"62":-1.303372859954834,"63":3.102423667907715,"64":0.5225775241851807,"65":-0.8728316426277161,"66":-0.18157844245433807,"67":0.8767794966697693,"68":1.0830119848251343,"69":-0.573428213596344,"70":2.159243583679199,"71":-0.1368696242570877,"72":-0.8673393130302429,"73":0.43390920758247375,"74":0.8986418843269348,"75":1.253993034362793,"76":-0.35398614406585693,"77":0.6198916435241699,"78":-1.7643630504608154,"79":0.817912220954895,"80":1.1011091470718384,"81":-0.28730887174606323,"82":0.8893133401870728,"83":-1.357723593711853,"84":2.787972927093506,"85":-2.4230074882507324,"86":3.4006259441375732,"87":4.348533630371094,"88":4.122348308563232,"89":-6.959549427032471,"90":1.1373473405838013,"91":0.5058004856109619,"92":-2.417670488357544,"93":-0.28359854221343994,"94":0.06948162615299225,"95":1.430925965309143,"96":-1.2540837526321411,"97":-2.5941574573516846,"98":2.007371187210083,"99":0.8597968220710754,"100":5.552340030670166,"101":-0.1222110465168953,"102":1.7266844511032104,"103":-1.977368712425232,"104":1.1769647598266602,"105":4.570116996765137,"106":0.029431622475385666,"107":-2.3977208137512207,"108":0.17906853556632996,"109":-5.806224346160889,"110":-0.20517270267009735,"111":-3.233123540878296,"112":2.412095069885254,"113":-2.8772778511047363,"114":-7.177350997924805,"115":-6.9165730476379395,"116":-5.032593727111816,"117":0.18455517292022705,"118":-1.8782870769500732,"119":-2.067225933074951,"120":0.28624120354652405,"121":-2.958775520324707,"122":5.160330295562744,"123":1.47962486743927,"124":-1.5634087324142456,"125":2.620652914047241,"126":1.0654191970825195,"127":3.287196636199951,"128":-1.57246994972229,"129":4.825599193572998,"130":-1.367169737815857,"131":-0.8232972621917725,"132":-4.606287479400635,"133":3.5725040435791016,"134":1.7751158475875854,"135":-1.5956075191497803,"136":-3.67836332321167,"137":-1.4603362083435059,"138":3.9089772701263428,"139":0.3084528148174286,"140":-3.1558310985565186,"141":-2.482426643371582,"142":-0.04645688831806183,"143":2.2726495265960693,"144":0.6370461583137512,"145":1.299564242362976,"146":2.7081778049468994,"147":1.0934809446334839,"148":-1.3509587049484253,"149":-1.3826773166656494,"150":1.0471137762069702,"151":-1.3978831768035889,"152":-4.103438377380371,"153":1.3262381553649902,"154":2.286541700363159,"155":-1.011156439781189,"156":-2.1645610332489014,"157":0.8751932978630066,"158":-1.5343209505081177,"159":-0.24160757660865784,"160":-3.1185402870178223,"161":0.6160832047462463,"162":3.0015342235565186,"163":1.6312675476074219,"164":1.9585752487182617,"165":0.054110318422317505,"166":-0.35352182388305664,"167":0.8642640709877014,"168":-3.71057391166687,"169":-0.3082881569862366,"170":0.230393648147583,"171":3.6258842945098877,"172":-1.2152689695358276,"173":-3.1099472045898438,"174":0.799254834651947,"175":-0.4715370833873749,"176":-3.20957612991333,"177":0.5548301935195923,"178":1.4610109329223633,"179":1.2076795101165771,"180":1.926338791847229,"181":0.249800905585289,"182":0.380914568901062,"183":0.7123304605484009,"184":-3.5279459953308105,"185":2.6172027587890625,"186":0.9318451881408691,"187":3.532656669616699,"188":4.3195481300354,"189":-0.2902466058731079,"190":0.18844729661941528,"191":0.1883181780576706,"192":0.44947361946105957,"193":-2.3942792415618896,"194":-0.12202626466751099,"195":0.22523556649684906,"196":1.1941909790039062,"197":0.21347102522850037,"198":-1.1746492385864258,"199":3.1732513904571533,"200":-2.4259769916534424,"201":4.162689208984375,"202":-2.363691806793213,"203":-1.4596507549285889,"204":-12.238323211669922,"205":3.700988531112671,"206":10.420540809631348,"207":-4.887392044067383,"208":8.310869216918945,"209":1.139679193496704,"210":4.8888044357299805,"211":1.404404878616333,"212":3.1778979301452637,"213":5.519667148590088,"214":2.2603557109832764,"215":1.0107181072235107,"216":0.589633047580719,"217":-0.11653612554073334,"218":-1.0211763381958008,"219":-2.688634157180786,"220":0.617327094078064,"221":4.96366548538208,"222":-1.3434685468673706,"223":0.6547894477844238,"224":1.5394123792648315,"225":-0.12068942189216614,"226":0.022738032042980194,"227":0.4608820378780365,"228":-0.3084785044193268,"229":2.468982219696045,"230":5.092992305755615,"231":0.8791610598564148,"232":4.334848880767822,"233":-1.9174010753631592,"234":2.8922338485717773,"235":-0.6269449591636658,"236":2.9192941188812256,"237":2.5177974700927734,"238":-4.041134834289551,"239":1.4781570434570312,"240":2.8608083724975586,"241":3.212752103805542,"242":-5.974489688873291,"243":6.10131311416626,"244":-1.5088787078857422,"245":3.199615240097046,"246":1.6115251779556274,"247":-2.869572877883911,"248":3.130178213119507,"249":2.0570321083068848,"250":3.28135085105896,"251":-1.1523312330245972,"252":3.0981218814849854,"253":-7.486811637878418,"254":6.04680871963501,"255":-2.084977626800537,"256":1.3168686628341675,"257":-2.9659674167633057,"258":3.1367480754852295,"259":1.6720396280288696,"260":-1.9878928661346436,"261":-0.7557312846183777,"262":-1.621911644935608,"263":-4.9096479415893555,"264":-2.493108034133911,"265":2.2711808681488037,"266":2.9609737396240234,"267":0.23108592629432678,"268":-0.5994096994400024,"269":-1.1198310852050781,"270":-0.6438657641410828,"271":-2.61706280708313,"272":2.9985790252685547,"273":3.0685362815856934,"274":0.7677924036979675,"275":-1.4267804622650146,