{"type":"LSTM","options":{"inputSize":37,"inputRange":37,"hiddenLayers":[20,20],"outputSize":37,"decayRate":0.999,"smoothEps":1e-8,"regc":0.000001,"clipval":5,"maxPredictionLength":100,"dataFormatter":{"values":["The pace is too slow","bad","Could be better","Needs more information and evidence","Does not seem to address the question","You went off-topic sometimes","Great presentation!","good","You addressed the topic really well","Good pace and tonality. Eloquent speech.","You have improved","Well written script."],"indexTable":{"T":0,"h":1,"e":2," ":3,"p":4,"a":5,"c":6,"i":7,"s":8,"t":9,"o":10,"l":11,"w":12,"b":13,"d":14,"C":15,"u":16,"r":17,"N":18,"m":19,"n":20,"f":21,"v":22,"D":23,"q":24,"Y":25,"-":26,"G":27,"!":28,"g":29,"y":30,".":31,"E":32,"W":33,"stop-input":34,"start-output":35,"unrecognized":36},"characterTable":{"0":"T","1":"h","2":"e","3":" ","4":"p","5":"a","6":"c","7":"i","8":"s","9":"t","10":"o","11":"l","12":"w","13":"b","14":"d","15":"C","16":"u","17":"r","18":"N","19":"m","20":"n","21":"f","22":"v","23":"D","24":"q","25":"Y","26":"-","27":"G","28":"!","29":"g","30":"y","31":".","32":"E","33":"W","34":null,"35":null,"36":null},"characters":["T","h","e"," ","p","a","c","i","s","t","o","l","w","b","d","C","u","r","N","m","n","f","v","D","q","Y","-","G","!","g","y",".","E","W","stop-input","start-output","unrecognized"],"specialIndexes":[34,35,36]}},"input":{"rows":38,"columns":37,"weights":{"0":3.0650713443756104,"1":1.5391696691513062,"2":0.3094526529312134,"3":-0.44203174114227295,"4":0.727751612663269,"5":-1.2250827550888062,"6":0.4578592777252197,"7":0.36695587635040283,"8":-1.4817801713943481,"9":-1.312220573425293,"10":0.7117243409156799,"11":-0.5280975699424744,"12":1.4861135482788086,"13":0.4822734594345093,"14":0.8917356133460999,"15":0.297885537147522,"16":1.0749988555908203,"17":0.6995775699615479,"18":-0.3382442593574524,"19":-2.9547853469848633,"20":-0.1559954136610031,"21":0.6754110455513,"22":-2.738246440887451,"23":-1.2204798460006714,"24":-0.30873316526412964,"25":-0.369266152381897,"26":-0.8766047954559326,"27":-0.2465810924768448,"28":1.3523921966552734,"29":0.7870845198631287,"30":0.591667652130127,"31":1.8700958490371704,"32":2.104100227355957,"33":3.170894145965576,"34":2.2888095378875732,"35":-1.1008038520812988,"36":-3.0127291679382324,"37":-4.739720821380615,"38":-6.383968353271484,"39":-5.684486389160156,"40":4.061988353729248,"41":-9.69137954711914,"42":7.96066427230835,"43":-0.7538191080093384,"44":-5.887609481811523,"45":-2.753965377807617,"46":-3.6152853965759277,"47":-1.3490930795669556,"48":4.876540660858154,"49":5.089933395385742,"50":0.08996208757162094,"51":0.32631489634513855,"52":-4.590780735015869,"53":-4.530171871185303,"54":6.088395118713379,"55":6.666598796844482,"56":-0.5286117196083069,"57":-4.360433578491211,"58":3.799985885620117,"59":1.0067466497421265,"60":-3.9186697006225586,"61":0.17054392397403717,"62":5.588582992553711,"63":-3.514824151992798,"64":0.7000163793563843,"65":-7.272026538848877,"66":-5.412387847900391,"67":-2.954099178314209,"68":-5.83729887008667,"69":3.015683650970459,"70":2.7558159828186035,"71":-3.7130260467529297,"72":3.410738945007324,"73":-4.492676734924316,"74":4.5033793449401855,"75":0.6153751611709595,"76":1.36593759059906,"77":0.2763526439666748,"78":2.3116791248321533,"79":-1.2175469398498535,"80":2.517998218536377,"81":2.9719882011413574,"82":0.2757053077220917,"83":3.599074363708496,"84":1.7309937477111816,"85":-0.1534242182970047,"86":3.4132258892059326,"87":2.6375033855438232,"88":-2.0600173473358154,"89":2.536597490310669,"90":0.6859440207481384,"91":-0.8194045424461365,"92":-1.9319497346878052,"93":-2.2517194747924805,"94":0.13143964111804962,"95":2.02846097946167,"96":-7.590239524841309,"97":3.0971016883850098,"98":3.593780279159546,"99":-0.6587436199188232,"100":2.330040693283081,"101":-1.0633984804153442,"102":0.2539328634738922,"103":-1.1042088270187378,"104":1.1135571002960205,"105":2.3218483924865723,"106":6.3065924644470215,"107":4.051723003387451,"108":0.6941686868667603,"109":-2.986851453781128,"110":-7.302090644836426,"111":-0.7959735989570618,"112":-3.5250957012176514,"113":-0.7275519967079163,"114":1.0421206951141357,"115":0.8752081394195557,"116":0.7748115658760071,"117":1.5945591926574707,"118":-1.3961999416351318,"119":0.8799474835395813,"120":2.382167100906372,"121":3.724691390991211,"122":-1.0110853910446167,"123":-0.03580646216869354,"124":0.2902349829673767,"125":-1.294358253479004,"126":2.9303672313690186,"127":1.5887726545333862,"128":1.6674822568893433,"129":0.801376461982727,"130":-1.954968810081482,"131":0.604693591594696,"132":-0.6757347583770752,"133":-0.9022442102432251,"134":2.9735610485076904,"135":-3.1765711307525635,"136":-1.9414578676223755,"137":0.16232149302959442,"138":-4.333749771118164,"139":-0.5127421021461487,"140":-3.207552433013916,"141":0.8848534226417542,"142":-0.7162618041038513,"143":4.831435680389404,"144":-0.13919629156589508,"145":-2.6073129177093506,"146":-0.7496424913406372,"147":-0.700534462928772,"148":0.4280538558959961,"149":-0.607365071773529,"150":1.9448559284210205,"151":-0.09935396164655685,"152":-0.6525145769119263,"153":0.2580614387989044,"154":-0.21696707606315613,"155":2.0171825885772705,"156":0.5784140229225159,"157":1.6031577587127686,"158":-1.0583980083465576,"159":1.6301391124725342,"160":0.5126328468322754,"161":1.8536218404769897,"162":0.556219220161438,"163":-1.2158154249191284,"164":0.4139016270637512,"165":1.653510332107544,"166":0.8600469827651978,"167":0.6700988411903381,"168":-0.0541984997689724,"169":0.20400060713291168,"170":0.787104606628418,"171":-0.4646152853965759,"172":0.504708468914032,"173":1.1764737367630005,"174":2.162872076034546,"175":0.13435183465480804,"176":1.1393026113510132,"177":-2.795524835586548,"178":-1.005866289138794,"179":-0.34248432517051697,"180":-1.3200162649154663,"181":1.647021770477295,"182":-0.5022002458572388,"183":0.5336589813232422,"184":0.11837206780910492,"185":0.6302531957626343,"186":3.5339696407318115,"187":2.0339295864105225,"188":-1.8989431858062744,"189":3.2156126499176025,"190":-4.420000076293945,"191":1.834000587463379,"192":3.055669069290161,"193":2.365795850753784,"194":1.364938497543335,"195":0.4635889530181885,"196":-1.1826171875,"197":-0.8220086097717285,"198":4.20807409286499,"199":-1.2447634935379028,"200":-1.654679536819458,"201":-1.4811967611312866,"202":0.5369721055030823,"203":-1.5686858892440796,"204":2.162163734436035,"205":0.9376216530799866,"206":0.16835901141166687,"207":0.7997848987579346,"208":-2.2407405376434326,"209":-3.554476737976074,"210":0.9167227745056152,"211":-1.8825030326843262,"212":1.2944902181625366,"213":0.16523107886314392,"214":-2.105910062789917,"215":-3.284069538116455,"216":2.131031036376953,"217":-0.6264151334762573,"218":-2.419417381286621,"219":-0.3608892560005188,"220":0.5255979895591736,"221":1.7662898302078247,"222":-1.0057117938995361,"223":0.16120770573616028,"224":2.834095001220703,"225":2.9077956676483154,"226":-0.5860796570777893,"227":0.4200765788555145,"228":-1.5138813257217407,"229":-0.6959841847419739,"230":0.47757261991500854,"231":-0.04298110678792,"232":0.32215404510498047,"233":1.0526522397994995,"234":-2.46209979057312,"235":-0.6406247615814209,"236":-0.3273078203201294,"237":-3.6285293102264404,"238":0.33190202713012695,"239":-2.6882107257843018,"240":0.8333408832550049,"241":0.7512480020523071,"242":-0.10172456502914429,"243":-1.061918020248413,"244":2.225379228591919,"245":-2.4646706581115723,"246":0.18066589534282684,"247":2.215216875076294,"248":-0.9390559792518616,"249":5.318115234375,"250":1.1877073049545288,"251":0.2829172611236572,"252":-1.2549329996109009,"253":-2.3436388969421387,"254":-0.2850854694843292,"255":-0.8201135396957397,"256":0.24216078221797943,"257":-3.1822822093963623,"258":0.5402227640151978,"259":-1.2206611633300781,"260":-1.1863266229629517,"261":-1.4892032146453857,"262":0.2028178870677948,"263":-2.384629249572754,"264":-1.9241482019424438,"265":3.7855849266052246,"266":-1.2904912233352661,"267":-0.656229555606842,"268":-4.049426078796387,"269":3.8146252632141113,"270":-0.9488914608955383,"271":-0.18373748660087585,"272":1.47883939743042,"273":1.401419758796692,"274":-0.6226145029067993,"275":-2.915114164352417,"276":2.845828056335449,"277":0.026097260415554047,"278":2.1007449626922607,"279":-1.8762511014938354,"280":0.06418753415346146,"281":3.925471067428589,"282":-2.0507001876831055,"283":-2.699918031692505,"284":1.7005828619003296,"285":-2.874574899673462,"286":-1.7350082397460938,"287":-3.5658743381500244,"288":-2.4479382038116455,"289":-3.344822406768799,"290":-0.9376770257949829,"291":-0.921728789806366,"292":-1.3872885704040527,"293":-3.0799429416656494,"294":0.017240365967154503,"295":1.4635387659072876,"296":0.05529473349452019,"297":0.46415385603904724,"298":1.0277246236801147,"299":-0.4325222671031952,"300":-0.13822807371616364,"301":-0.190505251288414,"302":2.531761884689331,"303":3.2325422763824463,"304":2.266923666000366,"305":3.5095455646514893,"306":0.27766498923301697,"307":0.09121788293123245,"308":1.9394919872283936,"309":1.8877986669540405,"310":-1.1591278314590454,"311":1.982980489730835,"312":-0.0902203917503357,"313":1.5263991355895996,"314":0.5805293917655945,"315":0.465436190366745,"316":0.7686957120895386,"317":0.24121682345867157,"318":-2.4376745223999023,"319":-0.21734127402305603,"320":0.7019277215003967,"321":-1.3375880718231201,"322":1.839050531387329,"323":-0.9549499750137329,"324":0.9352154731750488,"325":-1.604677677154541,"326":-1.1169558763504028,"327":0.34264498949050903,"328":1.7324974536895752,"329":2.054203510284424,"330":0.2988015413284302,"331":1.166190266609192,"332":-2.2573349475860596,"333":-0.1284918189048767,"334":-0.18663731217384338,"335":0.16637161374092102,"336":-0.1616774946451187,"337":-0.17228128015995026,"338":0.474114328622818,"339":0.30472561717033386,"340":-0.0858217179775238,"341":0.2961783707141876,"342":-0.14417842030525208,"343":-2.703486204147339,"344":-0.4785553216934204,"345":0.5626262426376343,"346":-2.323301076889038,"347":4.139584541320801,"348":0.1433902084827423,"349":0.18642710149288177,"350":0.07184383273124695,"351":0.526435136795044,"352":1.4427167177200317,"353":1.0372028350830078,"354":-0.7521948218345642,"355":-1.5133026838302612,"356":1.0863065719604492,"357":2.9325437545776367,"358":2.653097629547119,"359":-6.113702297210693,"360":0.15765102207660675,"361":1.3764622211456299,"362":-0.6846411228179932,"363":-1.402990460395813,"364":2.4550273418426514,"365":-1.9631156921386719,"366":1.7335692644119263,"367":1.0303503274917603,"368":-2.2829623222351074,"369":-4.385613441467285,"370":-0.31088295578956604,"371":-1.3112056255340576,"372":0.35765427350997925,"373":-1.1587085723876953,"374":-3.9611215591430664,"375":1.5153475999832153,"376":-0.13778196275234222,"377":-0.23952451348304749,"378":-1.8512380123138428,"379":-0.7314979434013367,"380":2.6446354389190674,"381":1.6527526378631592,"382":0.9091742634773254,"383":-2.1458375453948975,"384":-1.569808006286621,"385":0.7425891160964966,"386":1.065122127532959,"387":1.985922932624817,"388":-1.0256519317626953,"389":0.6436858177185059,"390":-2.607856035232544,"391":-1.9418840408325195,"392":-0.7550431489944458,"393":0.8693157434463501,"394":-0.3521728515625,"395":-0.9469015598297119,"396":-1.5933793783187866,"397":-2.8275833129882812,"398":-0.7960948348045349,"399":-0.27737241983413696,"400":-0.3985413610935211,"401":-5.484875202178955,"402":-0.13547201454639435,"403":1.4192774295806885,"404":0.16187670826911926,"405":1.0361301898956299,"406":0.7910299897193909,"407":1.8510375022888184,"408":1.0758895874023438,"409":-1.828174114227295,"410":-1.2530763149261475,"411":1.5690091848373413,"412":-0.4399554431438446,"413":-1.230737566947937,"414":-0.3750879764556885,"415":-3.7160041332244873,"416":-1.1421233415603638,"417":-1.2396948337554932,"418":-0.5305505394935608,"419":-2.0628011226654053,"420":-0.45222246646881104,"421":-1.433085322380066,"422":-0.35473617911338806,"423":-3.764052152633667,"424":-1.5587314367294312,"425":-1.207552433013916,"426":-1.5239546298980713,"427":-2.987027168273926,"428":-0.6519824266433716,"429":0.3472784161567688,"430":0.3833678662776947,"431":1.7699837684631348,"432":-0.09422293305397034,"433":-2.3614633083343506,"434":-0.5353730916976929,"435":-3.395689010620117,"436":1.9651013612747192,"437":1.705021858215332,"438":-0.6038695573806763,"439":-2.0816140174865723,"440":-1.64908766746521,"441":-0.1581437885761261,"442":-0.4899314045906067,"443":1.8211849927902222,"444":0.27797651290893555,"445":-1.4262808561325073,"446":2.6330039501190186,"447":-0.7809204459190369,"448":1.907791018486023,"449":0.8863282203674316,"450":0.7039657235145569,"451":1.2074822187423706,"452":8.806466102600098,"453":1.9407774209976196,"454":0.9238402843475342,"455":-3.089350938796997,"456":-1.2522902488708496,"457":2.264366865158081,"458":0.7901310920715332,"459":-0.016095565631985664,"460":7.275347709655762,"461":-0.25779440999031067,"462":2.263754367828369,"463":2.527987241744995,"464":5.061086654663086,"465":-2.3393309116363525,"466":0.9397713541984558,"467":-0.674608051776886,"468":-1.1031666994094849,"469":2.3204269409179688,"470":3.066906690597534,"471":1.0277010202407837,"472":2.6773841381073,"473":2.9486591815948486,"474":-1.4546284675598145,"475":5.219635486602783,"476":2.213728427886963,"477":1.949112057685852,"478":-0.09604386985301971,"479":0.771712601184845,"480":-0.5615882277488708,"481":0.5850216746330261,"482":-3.777026414871216,"483":-4.456501007080078,"484":-2.0008206367492676,"485":-1.921383261680603,"486":-1.4101841449737549,"487":0.5674697756767273,"488":-3.0220601558685303,"489":-9.56604290008545,"490":-1.5915107727050781,"491":1.6966440677642822,"492":-2.2195234298706055,"493":2.4201323986053467,"494":-2.6536622047424316,"495":-0.20935916900634766,"496":2.6124870777130127,"497":-0.1497805118560791,"498":-2.3566534519195557,"499":3.034607172012329,"500":-3.3684134483337402,"501":-3.5060229301452637,"502":1.718551754951477,"503":2.1150567531585693,"504":3.4361069202423096,"505":1.3516712188720703,"506":-2.6098392009735107,"507":-1.6730254888534546,"508":-2.9432597160339355,"509":-5.649339199066162,"510":4.035562515258789,"511":2.8675875663757324,"512":-0.37258774042129517,"513":-1.1193779706954956,"514":1.201977252960205,"515":3.274705648422241,"516":-2.5840024948120117,"517":1.9432798624038696,"518":2.955501079559326,"519":-1.2017877101898193,"520":3.7580525875091553,"521":0.40016108751296997,"522":-0.43716880679130554,"523":-0.8114249110221863,"524":-1.1294004917144775,"525":2.9701788425445557,"526":-3.1821045875549316,"527":1.0553971529006958,"528":0.2434772104024887,"529":-1.6232056617736816,"530":4.180792331695557,"531":2.7331738471984863,"532":-5.180525779724121,"533":4.361359119415283,"534":-3.3531529903411865,"535":-0.14857973158359528,"536":0.18408311903476715,"537":1.1796376705169678,"538":3.7778730392456055,"539":2.9448328018188477,"540":2.5490643978118896,"541":4.074728488922119,"542":2.5780177116394043,"543":-0.062357790768146515,"544":6.536361217498779,"545":-4.347750663757324,"546":0.42606768012046814,"547":0.5570793747901917,"548":-1.6213313341140747,"549":0.6132868528366089,"550":2.7897651195526123,"551":-0.050774265080690384,"552":-3.4149110317230225,"553":-4.997559070587158,"554":3.933656692504883,"555":-1.3120945692062378,"556":-1.411207914352417,"557":1.1460078954696655,"558":1.5940529108047485,"559":-3.1521706581115723,"560":-0.9444826245307922,"561":-4.523141384124756,"562":1.4219800233840942,"563":-2.975818634033203,"564":-0.857306718826294,"565":-0.810731053352356,"566":4.120060443878174,"567":-0.5483203530311584,"568":0.5091801285743713,"569":0.43374761939048767,"570":-2.562537670135498,"571":-1.6910508871078491,"572":-2.2114036083221436,"573":1.2826063632965088,"574":2.3453025817871094,"575":-1.334900975227356,"576":1.116383671760559,"577":1.1625040769577026,"578":-2.9141128063201904,"579":3.040125608444214,"580":0.9085012674331665,"581":-1.9941232204437256,"582":2.7167327404022217,"583":1.544899344444275,"584":0.13438977301120758,"585":-2.2256853580474854,"586":-1.5157033205032349,"587":-3.3025858402252197,"588":1.7820264101028442,"589":1.6591272354125977,"590":0.9615473747253418,"591":-0.21863675117492676,"592":-7.850733757019043,"593":-3.099484920501709,"594":-3.1524548530578613,"595":2.437211275100708,"596":-2.809983015060425,"597":0.8151838779449463,"598":4.883647441864014,"599":-4.730389595031738,"600":2.604736089706421,"601":0.6399313807487488,"602":14.05802059173584,"603":4.7305378913879395,"604":0.40994617342948914,"605":-0.9726748466491699,"606":0.5724225044250488,"607":1.5582993030548096,"608":2.539365530014038,"609":7.55850887298584,"610":-0.3035421669483185,"611":4.235958576202393,"612":6.672561168670654,"613":-2.7981116771698,"614":-9.199196815490723,"615":2.0943973064422607,"616":-10.683150291442871,"617":1.2715911865234375,"618":0.2415601909160614,"619":-2.277418613433838,"620":1.755171775817871,"621":-3.7808127403259277,"622":1.2106231451034546,"623":-5.992844104766846,"624":11.136807441711426,"625":3.473208427429199,"626":-2.766840696334839,"627":-1.8934117555618286,"628":-7.467151641845703,"629":2.7182457447052,"630":1.9092944860458374,"631":-0.2212059497833252,"632":-0.6081812977790833,"633":2.510363817214966,"634":1.1529202461242676,"635":-1.0944963693618774,"636":-0.4476465582847595,"637":0.6586320996284485,"638":-3.103527545928955,"639":-6.099961757659912,"640":1.6892175674438477,"641":3.217179775238037,"642":-3.6909213066101074,"643":3.1136412620544434,"644":1.782299280166626,"645":-2.811861515045166,"646":-0.06041146442294121,"647":-1.404727816581726,"648":-2.7970879077911377,"649":1.6754437685012817,"650":4.347283363342285,"651":-1.5581386089324951,"652":1.3144522905349731,"653":3.693552255630493,"654":-0.7875576019287109,"655":-0.9270026683807373,"656":-1.0434396266937256,"657":0.17984232306480408,"658":1.0855306386947632,"659":2.398813486099243,"660":1.4836090803146362,"661":-4.970091819763184,"662":1.4060758352279663,"663":-2.9958550930023193,"664":-1.2399297952651978,"665":-1.4301121234893799,"666":0.40999841690063477,"667":0.9572950601577759,"668":-2.2908174991607666,"669":2.0645925998687744,"670":3.6968445777893066,"671":-2.279022455215454,"672":5.137327194213867,"673":-1.7592815160751343,"674":1.2156187295913696,"675":-0.30269917845726013,"676":5.824233055114746,"677":-2.4707236289978027,"678":2.5451364517211914,"679":-0.5692321062088013,"680":-0.16449899971485138,"681":2.6960809230804443,"682":2.573835849761963,"683":1.9764974117279053,"684":-1.188926339149475,"685":-0.6057187914848328,"686":-4.0743231773376465,"687":-3.639098882675171,"688":-2.534008741378784,"689":1.05985689163208,"690":-0.9800946712493896,"691":-2.9952056407928467,"692":-1.3003846406936646,"693":-2.75663423538208,"694":-1.9608620405197144,"695":-1.2706608772277832,"696":1.157669186592102,"697":0.786302924156189,"698":4.092860221862793,"699":-1.9379087686538696,"700":1.2675584554672241,"701":-3.3237252235412598,"702":-3.1229209899902344,"703":-9.400982856750488,"704":-7.084217548370361,"705":4.400047779083252,"706":1.5312702655792236,"707":-7.111922740936279,"708":4.533505439758301,"709":7.570428848266602,"710":-8.650331497192383,"711":-8.405562400817871,"712":-1.2742832899093628,"713":9.195161819458008,"714":9.089218139648438,"715":-2.9210329055786133,"716":-12.009737968444824,"717":1.6461728811264038,"718":5.540222644805908,"719":5.492305755615234,"720":4.35156774520874,"721":5.809479713439941,"722":-4.778201580047607,"723":7.41760778427124,"724":-6.309106349945068,"725":-9.312793731689453,"726":-5.434697151184082,"727":-5.885924816131592,"728":-11.249897003173828,"729":-7.399129390716553,"730":3.0847980976104736,"731":-0.35836800932884216,"732":7.628591537475586,"733":-5.0860748291015625,"734":0.798740029335022,"735":3.3174679279327393,"736":8.182053565979004,"737":-6.0508623123168945,"738":6.373915672302246,"739":-7.342111110687256,"740":2.2237296104431152,"741":1.7334234714508057,"742":0.8093795776367188,"743":2.729822874069214,"744":2.438122034072876,"745":3.084864854812622,"746":1.405432105064392,"747":-5.401517391204834,"748":4.898189067840576,"749":-0.4944552481174469,"750":-4.635369777679443,"751":2.125051975250244,"752":1.1963260173797607,"753":-6.312800407409668,"754":2.777939796447754,"755":2.0817532539367676,"756":-0.26339420676231384,"757":3.067965507507324,"758":0.06514264643192291,"759":0.16537752747535706,"760":-1.0707515478134155,"761":-5.354913234710693,"762":-1.9187759160995483,"763":0.21859566867351532,"764":7.620388507843018,"765":4.247531890869141,"766":-8.517094612121582,"767":-1.4659814834594727,"768":5.548502445220947,"769":3.227067708969116,"770":1.1978120803833008,"771":2.4195361137390137,"772":-5.125235080718994,"773":-1.1413452625274658,"774":5.210453510284424,"775":-5.07241678237915,"776":-3.119025468826294,"777":0.44335925579071045,"778":1.4571733474731445,"779":1.5384052991867065,"780":-4.268219947814941,"781":1.4833265542984009,"782":-1.1317888498306274,"783":2.2088675498962402,"784":-2.4343888759613037,"785":4.595404624938965,"786":-0.6298820376396179,"787":-5.787728309631348,"788":-6.295301914215088,"789":2.9511680603027344,"790":-1.5163315534591675,"791":1.2262871265411377,"792":1.0588979721069336,"793":1.2781223058700562,"794":0.6598228216171265,"795":0.41848430037498474,"796":3.286440372467041,"797":0.6485042572021484,"798":-2.214202642440796,"799":0.2046508491039276,"800":1.6091749668121338,"801":0.8127306699752808,"802":2.7198688983917236,"803":-3.2551939487457275,"804":0.1108255535364151,"805":2.0834531784057617,"806":1.3021610975265503,"807":-0.8352285623550415,"808":3.195683240890503,"809":-2.1169989109039307,"810":1.5542113780975342,"811":0.9798821210861206,"812":-0.05224214494228363,"813":0.5593210458755493,"814":-2.898029088973999,"815":2.2717225551605225,"816":6.506525993347168,"817":-4.881972789764404,"818":7.368786334991455,"819":-0.017886951565742493,"820":5.240197658538818,"821":1.7237427234649658,"822":9.599061965942383,"823":0.7943412065505981,"824":0.4375699758529663,"825":-8.827942848205566,"826":0.8045216798782349,"827":3.064901828765869,"828":3.306032419204712,"829":2.3827669620513916,"830":3.5687077045440674,"831":0.3597632646560669,"832":4.4742231369018555,"833":7.854001522064209,"834":3.8948564529418945,"835":-2.4552924633026123,"836":-0.9024868011474609,"837":3.4391446113586426,"838":-4.444809913635254,"839":-0.612301766872406,"840":2.065399408340454,"841":-0.5996576547622681,"842":1.8693690299987793,"843":-0.7637935876846313,"844":-0.7576110363006592,"845":5.897737979888916,"846":4.06981086730957,"847":3.8952674865722656,"848":-1.5636097192764282,"849":2.8044350147247314,"850":-3.414000988006592,"851":-3.9155325889587402,"852":-1.1521350145339966,"853":0.4261080324649811,"854":2.769662618637085,"855":-0.9083120226860046,"856":-1.778464674949646,"857":1.926574945449829,"858":-1.0705697536468506,"859":6.401025295257568,"860":-1.027121663093567,"861":1.2283740043640137,"862":0.2885721027851105,"863":-1.0706735849380493,"864":0.9869202375411987,"865":-1.1302244663238525,"866":-1.9170124530792236,"867":1.2974082231521606,"868":3.3921477794647217,"869":4.333266735076904,"870":-0.8630004525184631,"871":7.756247043609619,"872":3.5483005046844482,"873":1.0315765142440796,"874":-1.4108830690383911,"875":-8.759176254272461,"876":-1.0328043699264526,"877":3.7897095680236816,"878":0.2107613980770111,"879":1.3008869886398315,"880":-6.693138599395752,"881":-0.22728298604488373,"882":2.077399969100952,"883":4.846681118011475,"884":-3.881686210632324,"885":-11.391036033630371,"886":7.775561809539795,"887":-2.45552134513855,"888":8.305159568786621,"889":2.8960766792297363,"890":-6.9466118812561035,"891":-3.6272130012512207,"892":12.348361015319824,"893":-7.843973636627197,"894":4.556360721588135,"895":-11.843053817749023,"896":-1.687819480895996,"897":0.7020789384841919,"898":-2.9175376892089844,"899":-5.035795211791992,"900":1.5918209552764893,"901":-6.6214470863342285,"902":0.09366239607334137,"903":5.660035610198975,"904":-4.383223056793213,"905":-4.858800411224365,"906":-6.099907875061035,"907":-7.121521949768066,"908":-1.6074259281158447,"909":9.870424270629883,"910":-3.540914535522461,"911":5.19905948638916,"912":1.4543015956878662,"913":-10.523039817810059,"914":3.7275192737579346,"915":-4.142342567443848,"916":-5.0542120933532715,"917":1.2739369869232178,"918":3.64520001411438,"919":13.0092191696167,"920":-4.401300430297852,"921":3.623873472213745,"922":5.819232940673828,"923":-1.8320162296295166,"924":-3.614499807357788,"925":5.3567633628845215,"926":5.261875152587891,"927":-1.9578170776367188,"928":-5.022768020629883,"929":1.2008593082427979,"930":2.6153948307037354,"931":1.5279098749160767,"932":-5.160306930541992,"933":-3.545407295227051,"934":-0.04754457622766495,"935":-2.2763311862945557,"936":-3.4224441051483154,"937":-12.87805461883545,"938":-0.8471065759658813,"939":0.9147290587425232,"940":-6.40455436706543,"941":-3.321528673171997,"942":-11.621282577514648,"943":-6.870595932006836,"944":-3.4460456371307373,"945":-0.8788145184516907,"946":5.916321277618408,"947":6.066586017608643,"948":-5.933289051055908,"949":3.407282829284668,"950":-2.958137035369873,"951":-5.8005757331848145,"952":5.1463704109191895,"953":-5.025320529937744,"954":7.316927433013916,"955":1.716886281967163,"956":-2.436230421066284,"957":-0.948441207408905,"958":-7.727633953094482,"959":1.5928955078125,"960":-6.488232135772705,"961":-0.22633874416351318,"962":-6.216061592102051,"963":-6.210163593292236,"964":2.41495943069458,"965":4.298525333404541,"966":1.5106782913208008,"967":4.719335556030273,"968":-2.954803943634033,"969":6.387444496154785,"970":3.078730821609497,"971":6.663774013519287,"972":0.2596971094608307,"973":-4.026629447937012,"974":-3.185694932937622,"975":4.79042911529541,"976":2.71698260307312,"977":-0.008175651542842388,"978":3.8954854011535645,"979":4.854953289031982,"980":4.717098712921143,"981":-0.7738637328147888,"982":3.6154704093933105,"983":-5.134449005126953,"984":-0.43181487917900085,"985":-1.7344845533370972,"986":-4.088735103607178,"987":5.313420295715332,"988":4.1112589836120605,"989":3.1962130069732666,"990":1.0649487972259521,"991":-2.646312713623047,"992":1.1116987466812134,"993":4.144850730895996,"994":3.991659641265869,"995":-1.3247325420379639,"996":-0.22997644543647766,"997":2.007498264312744,"998":-4.407893657684326,"999":1.4957231283187866,"1000":-5.381260871887207,"1001":-5.63161563873291,"1002":9.720454216003418,"1003":-2.1331918239593506,"1004":2.835195302963257,"1005":-7.943772792816162,"1006":-3.2661139965057373,"1007":1.132348895072937,"1008":-4.895145416259766,"1009":-13.828343391418457,"1010":12.737503051757812,"1011":-8.87636947631836,"1012":-11.280571937561035,"1013":9.310318946838379,"1014":-3.009122610092163,"1015":-3.8532209396362305,"1016":-6.4780683517456055,"1017":-1.8039038181304932,"1018":-6.392599105834961,"1019":-5.216667652130127,"1020":-0.7780175805091858,"1021":1.173028588294983,"1022":2.320154905319214,"1023":7.786185264587402,"1024":-3.762179374694824,"1025":-2.1379170417785645,"1026":2.376526355743408,"1027":-0.04358231648802757,"1028":9.792203903198242,"1029":0.18648689985275269,"1030":-7.047605514526367,"1031":-0.3489254117012024,"1032":3.4611408710479736,"1033":8.833451271057129,"1034":-9.934707641601562,"1035":-5.034787178039551,"1036":-0.7011159658432007,"1037":2.1853466033935547,"1038":2.9185266494750977,"1039":-1.2185264825820923,"1040":4.226004600524902,"1041":-4.707095146179199,"1042":3.96403169631958,"1043":-7.806751728057861,"1044":5.104869365692139,"1045":-4.87414026260376,"1046":-1.6127963066101074,"1047":-2.5809011459350586,"1048":3.7920889854431152,"1049":0.7168015837669373,"1050":0.5089532732963562,"1051":6.353459358215332,"1052":0.5333073139190674,"1053":3.042304039001465,"1054":1.2179793119430542,"1055":1.841198205947876,"1056":3.987187623977661,"1057":1.7688674926757812,"1058":-2.177861452102661,"1059":4.6073899269104,"1060":-5.499228477478027,"1061":2.636434316635132,"1062":2.1504971981048584,"1063":-4.124497413635254,"1064":-0.0888686254620552,"1065":-0.6951517462730408,"1066":-1.6054519414901733,"1067":4.1230788230896,"1068":0.7639804482460022,"1069":0.07502792775630951,"1070":-3.3146414756774902,"1071":-4.182941913604736,"1072":0.4462999999523163,"1073":-8.112698554992676,"1074":-4.665750026702881,"1075":6.258315563201904,"1076":2.2453417778015137,"1077":2.3995251655578613,"1078":-11.63897705078125,"1079":-2.080122947692871,"1080":12.843433380126953,"1081":12.623506546020508,"1082":5.878899097442627,"1083":2.8556606769561768,"1084":0.46571046113967896,"1085":-8.178619384765625,"1086":16.228418350219727,"1087":-13.373644828796387,"1088":-6.603498935699463,"1089":-0.10016240924596786,"1090":9.72735595703125,"1091":-3.8010170459747314,"1092":3.9458675384521484,"1093":-3.0399606227874756,"1094":4.706421375274658,"1095":0.5572872161865234,"1096":-13.887344360351562,"1097":-0.798463761806488,"1098":10.010536193847656,"1099":10.881735801696777,"1100":5.2516703605651855,"1101":2.507610559463501,"1102":2.7566211223602295,"1103":-0.8391474485397339,"1104":2.3332555294036865,"1105":4.159994125366211,"1106":-3.775592088699341,"1107":-4.516419410705566,"1108":7.767450332641602,"1109":4.694186687469482,"1110":-0.34932026267051697,"1111":-1.4019187688827515,"1112":-1.0091607570648193,"1113":1.773909091949463,"1114":-2.3500778675079346,"1115":-0.6126767992973328,"1116":-1.7116270065307617,"1117":-2.1190733909606934,"1118":0.020890166983008385,"1119":-4.398674488067627,"1120":-0.36145859956741333,"1121":0.6618936657905579,"1122":5.067575931549072,"1123":-2.105144739151001,"1124":2.0918185710906982,"1125":2.043076276779175,"1126":1.2812741994857788,"1127":1.7146679162979126,"1128":-2.210357666015625,"1129":0.6358627080917358,"1130":-3.2278571128845215,"1131":0.4792696535587311,"1132":-0.1564188003540039,"1133":0.5489277243614197,"1134":4.249288558959961,"1135":-0.17300711572170258,"1136":-2.480308771133423,"1137":-2.5100109577178955,"1138":1.1397478580474854,"1139":0.8968707323074341,"1140":-1.2462643384933472,"1141":-0.5972608327865601,"1142":-2.3327672481536865,"1143":1.6633867025375366,"1144":3.2337498664855957,"1145":-1.173156976699829,"1146":-0.6565812230110168,"1147":3.6294572353363037,"1148":1.7318991422653198,"1149":4.752777576446533,"1150":2.6823158264160156,"1151":-1.6380187273025513,"1152":0.424002468585968,"1153":9.704103469848633,"1154":2.9635841846466064,"1155":9.655417442321777,"1156":-1.710060715675354,"1157":1.2005603313446045,"1158":1.361646056175232,"1159":6.845666408538818,"1160":2.2607738971710205,"1161":0.6573308706283569,"1162":2.810905933380127,"1163":1.3744053840637207,"1164":11.50896167755127,"1165":1.7927625179290771,"1166":4.032376766204834,"1167":8.230890274047852,"1168":2.752173900604248,"1169":0.9306902289390564,"1170":-2.2268919944763184,"1171":-9.015884399414062,"1172":-0.20512667298316956,"1173":0.3746750056743622,"1174":-1.0830422639846802,"1175":-0.25361621379852295,"1176":-7.769634246826172,"1177":4.202240943908691,"1178":0.3529667854309082,"1179":7.425605297088623,"1180":7.448425769805908,"1181":0.0753864049911499,"1182":-1.3892650604248047,"1183":-5.598440170288086,"1184":-1.7933945655822754,"1185":-5.3630266189575195,"1186":-3.253065586090088,"1187":0.8889635801315308,"1188":-1.5365664958953857,"1189":2.789336681365967,"1190":0.2947623133659363,"1191":-1.2591547966003418,"1192":10.543974876403809,"1193":1.7473431825637817,"1194":-1.4031691551208496,"1195":-0.5905213952064514,"1196":-6.57960319519043,"1197":2.698272705078125,"1198":-0.52983158826828,"1199":0.0041329627856612206,"1200":3.2470197677612305,"1201":2.805572986602783,"1202":3.6878552436828613,"1203":-0.4043383002281189,"1204":2.3646128177642822,"1205":-7.235054016113281,"1206":-6.212170600891113,"1207":1.0018409490585327,"1208":-9.82105827331543,"1209":2.812194585800171,"1210":0.8285351395606995,"1211":2.400275945663452,"1212":2.1559901237487793,"1213":0.8694947361946106,"1214":1.8331308364868164,"1215":1.2737995386123657,"1216":5.729856014251709,"1217":1.2492003440856934,"1218":-1.1342486143112183,"1219":0.1803174465894699,"1220":-8.052021026611328,"1221":0.36079147458076477,"1222":-2.78073787689209,"1223":-11.563950538635254,"1224":-5.479873180389404,"1225":6.335134029388428,"1226":-2.4355154037475586,"1227":2.4734396934509277,"1228":5.429569721221924,"1229":-0.8825666308403015,"1230":-2.6544649600982666,"1231":-17.609420776367188,"1232":-4.239556312561035,"1233":-0.2785016596317291,"1234":4.263967037200928,"1235":-4.680240631103516,"1236":-2.2061526775360107,"1237":-6.680074691772461,"1238":-11.419739723205566,"1239":-0.7872074842453003,"1240":0.018037520349025726,"1241":-5.207704544067383,"1242":9.087016105651855,"1243":4.218341827392578,"1244":-2.8715670108795166,"1245":6.574970722198486,"1246":-13.120048522949219,"1247":1.669824481010437,"1248":2.1597278118133545,"1249":-7.3947319984436035,"1250":11.583731651306152,"1251":10.823012351989746,"1252":5.727603435516357,"1253":-8.232792854309082,"1254":-2.8617279529571533,"1255":0.05557310953736305,"1256":-0.04253510385751724,"1257":3.510934591293335,"1258":2.002720355987549,"1259":-1.382745623588562,"1260":6.838183879852295,"1261":-7.34446907043457,"1262":2.8939757347106934,"1263":1.012502670288086,"1264":-1.798060417175293,"1265":-3.4563815593719482,"1266":1.0938149690628052,"1267":6.085613250732422,"1268":6.982990741729736,"1269":-8.611159324645996,"1270":1.2374299764633179,"1271":-5.426646709442139,"1272":-0.32527998089790344,"1273":6.142820835113525,"1274":4.714468479156494,"1275":4.126516342163086,"1276":11.61363410949707,"1277":3.190424919128418,"1278":13.213545799255371,"1279":-0.2397853583097458,"1280":1.8668432235717773,"1281":6.38787317276001,"1282":-12.983474731445312,"1283":5.017313480377197,"1284":4.8314995765686035,"1285":-7.348175048828125,"1286":3.39874005317688,"1287":-6.673671245574951,"1288":-1.3364441394805908,"1289":7.791131496429443,"1290":9.765486717224121,"1291":-2.1922414302825928,"1292":0.0817587673664093,"1293":-5.045434474945068,"1294":0.9476251006126404,"1295":-0.7862359285354614,"1296":-1.2878506183624268,"1297":-1.745703935623169,"1298":-0.2571612000465393,"1299":-0.3879120349884033,"1300":-1.13742196559906,"1301":-2.08732271194458,"1302":3.6808199882507324,"1303":0.7700642347335815,"1304":1.7818491458892822,"1305":-4.975210189819336,"1306":0.8192548155784607,"1307":-0.0759832039475441,"1308":2.0574862957000732,"1309":-2.420046806335449,"1310":-0.5938463807106018,"1311":-3.354022979736328,"1312":-0.32722166180610657,"1313":1.4000210762023926,"1314":-1.3849072456359863,"1315":2.1914820671081543,"1316":2.515956401824951,"1317":0.7667850852012634,"1318":-1.1735148429870605,"1319":4.011264801025391,"1320":-0.8887938261032104,"1321":1.8910900354385376,"1322":0.7293747663497925,"1323":-3.3600194454193115,"1324":0.08477441221475601,"1325":2.173332691192627,"1326":1.1334346532821655,"1327":-2.903031587600708,"1328":-1.0959532260894775,"1329":-1.3755404949188232,"1330":4.383500576019287,"1331":0.7810853719711304,"1332":-0.7270699739456177,"1333":1.0429166555404663,"1334":0.4642753303050995,"1335":-0.6176117658615112,"1336":2.1560475826263428,"1337":0.8278501629829407,"1338":0.36907339096069336,"1339":-1.1722593307495117,"1340":0.5166845321655273,"1341":0.9383421540260315,"1342":-1.0867784023284912,"1343":-1.7141013145446777,"1344":-0.2477090209722519,"1345":-1.9892603158950806,"1346":3.025059461593628,"1347":0.39305028319358826,"1348":0.8645961284637451,"1349":-0.8486049771308899,"1350":0.3201213777065277,"1351":-0.666401743888855,"1352":2.2172160148620605,"1353":-1.7911871671676636,"1354":-1.5094516277313232,"1355":-0.5627812743186951,"1356":2.3036158084869385,"1357":1.3921931982040405,"1358":-1.3109800815582275,"1359":1.688489317893982,"1360":0.6681678295135498,"1361":0.16987891495227814,"1362":-1.942798376083374,"1363":3.0227363109588623,"1364":-0.9636762738227844,"1365":-0.5304275751113892,"1366":0.7704240679740906,"1367":-1.7960455417633057,"1368":-2.813589572906494,"1369":0.0532565601170063,"1370":-0.03567081317305565,"1371":-0.018543649464845657,"1372":-0.025245031341910362,"1373":0.047600459307432175,"1374":-0.05159894749522209,"1375":0.026220202445983887,"1376":-0.0335082970559597,"1377":-0.021963736042380333,"1378":0.049831561744213104,"1379":0.014393092133104801,"1380":-0.01923132687807083,"1381":-0.005825987551361322,"1382":-0.054095394909381866,"1383":-0.06853608042001724,"1384":0.04446291923522949,"1385":-0.06853091716766357,"1386":-0.03440499305725098,"1387":0.06120471656322479,"1388":-0.061914775520563126,"1389":0.03932489454746246,"1390":-0.04866551607847214,"1391":0.012803643941879272,"1392":0.011474059894680977,"1393":0.04553843289613724,"1394":0.04743527993559837,"1395":-0.038071129471063614,"1396":0.025341030210256577,"1397":-0.06514089554548264,"1398":0.009928341023623943,"1399":-0.04435931518673897,"1400":-0.04585418105125427,"1401":-0.01538575068116188,"1402":0.049292635172605515,"1403":0.028122572228312492,"1404":0.01737915724515915,"1405":0.003174155717715621}},"hiddenLayers":[{"inputMatrix":{"rows":20,"columns":37,"weights":{"0":0.13899049162864685,"1":-1.3046733140945435,"2":1.6019119024276733,"3":-0.5712723135948181,"4":0.30800729990005493,"5":-1.9637418985366821,"6":0.11744283139705658,"7":2.725196599960327,"8":2.9615232944488525,"9":0.4530315399169922,"10":-0.3878239691257477,"11":-2.2410855293273926,"12":0.7694817781448364,"13":2.465487003326416,"14":0.6311891674995422,"15":0.11458402872085571,"16":-0.17177201807498932,"17":4.021225929260254,"18":0.1775008887052536,"19":3.175323009490967,"20":0.8624798655509949,"21":-0.2390027940273285,"22":2.1780242919921875,"23":0.07211638242006302,"24":-0.8370080590248108,"25":1.4305927753448486,"26":3.009495735168457,"27":-1.083232045173645,"28":1.6541433334350586,"29":-2.0562994480133057,"30":-0.06299037486314774,"31":1.0332750082015991,"32":-0.48901399970054626,"33":-0.5389948487281799,"34":-0.9614372253417969,"35":1.0180811882019043,"36":1.6873695850372314,"37":1.1969904899597168,"38":0.7152325510978699,"39":-1.2595024108886719,"40":2.83469820022583,"41":0.016972478479146957,"42":-0.42121756076812744,"43":-1.621034860610962,"44":-0.7676501274108887,"45":-0.6094918251037598,"46":-2.1972804069519043,"47":-0.8993657827377319,"48":1.5032269954681396,"49":-1.8062642812728882,"50":0.8156314492225647,"51":-0.7879855036735535,"52":-0.34465304017066956,"53":-1.2003569602966309,"54":-2.517789125442505,"55":-3.7159650325775146,"56":-0.5862196087837219,"57":-2.3710176944732666,"58":2.3797831535339355,"59":0.18476144969463348,"60":-1.1030441522598267,"61":2.8133649826049805,"62":-1.3276546001434326,"63":0.553673505783081,"64":1.065250277519226,"65":0.29348015785217285,"66":4.052756309509277,"67":1.580419659614563,"68":-2.0549306869506836,"69":-0.8965768218040466,"70":-2.2057557106018066,"71":2.130194664001465,"72":-0.5840768814086914,"73":1.1162229776382446,"74":1.6382218599319458,"75":2.548997402191162,"76":-0.5077084898948669,"77":-2.112169027328491,"78":2.3373374938964844,"79":-0.16699661314487457,"80":2.2450764179229736,"81":-0.748710036277771,"82":-1.5006072521209717,"83":0.2214776873588562,"84":-2.4127845764160156,"85":-3.45939564704895,"86":-2.5334112644195557,"87":-1.0762510299682617,"88":1.2959433794021606,"89":1.408765435218811,"90":0.4294469952583313,"91":-1.1645492315292358,"92":-0.5235622525215149,"93":-2.690920829772949,"94":-0.021250136196613312,"95":-0.6489136219024658,"96":0.12298905849456787,"97":1.8437230587005615,"98":-0.13734425604343414,"99":-0.9690274000167847,"100":-1.0270602703094482,"101":-0.6898188591003418,"102":-0.6317024827003479,"103":1.4137208461761475,"104":2.6540331840515137,"105":1.4440338611602783,"106":-0.2930232584476471,"107":1.9594749212265015,"108":0.6566035747528076,"109":-1.1041746139526367,"110":-1.1735361814498901,"111":5.75806999206543,"112":-1.64100182056427,"113":1.0839698314666748,"114":-2.053496837615967,"115":-0.8390840888023376,"116":-0.704993724822998,"117":-0.9762731790542603,"118":-0.17408490180969238,"119":0.616804838180542,"120":0.1186092272400856,"121":-2.246068239212036,"122":-0.8846964836120605,"123":0.2201535850763321,"124":-0.2121746838092804,"125":-0.4955829083919525,"126":-2.3130605220794678,"127":-1.604292631149292,"128":-1.7849372625350952,"129":1.816999912261963,"130":0.5431374311447144,"131":0.4594942629337311,"132":3.57775616645813,"133":2.239593982696533,"134":-1.504390835762024,"135":2.1539807319641113,"136":1.4777820110321045,"137":-0.7099359631538391,"138":-0.1848088502883911,"139":0.7899485230445862,"140":0.598624587059021,"141":-1.64606511592865,"142":0.9939010739326477,"143":-2.2189743518829346,"144":0.8077607154846191,"145":-0.3879833519458771,"146":-0.9692863821983337,"147":3.67962908744812,"148":2.971000909805298,"149":4.862565994262695,"150":1.5365955829620361,"151":-1.8184453248977661,"152":3.9447505474090576,"153":-1.5623595714569092,"154":1.3149516582489014,"155":1.5176337957382202,"156":-0.8804003596305847,"157":0.8940401077270508,"158":-2.6297202110290527,"159":-3.682856321334839,"160":-0.4966193735599518,"161":1.0534332990646362,"162":-0.9271073341369629,"163":0.5436950922012329,"164":-2.303419351577759,"165":-2.2165884971618652,"166":-1.3299129009246826,"167":2.5306551456451416,"168":1.015804409980774,"169":0.5194075107574463,"170":-1.1829546689987183,"171":0.026745863258838654,"172":2.208559036254883,"173":0.28962084650993347,"174":1.5624521970748901,"175":0.9506189227104187,"176":2.437060832977295,"177":1.2997968196868896,"178":-3.1765780448913574,"179":3.401404857635498,"180":-0.3531753122806549,"181":1.028014898300171,"182":1.6527050733566284,"183":-0.7169449329376221,"184":0.38005122542381287,"185":-0.550822377204895,"186":0.8669900894165039,"187":-0.6245499849319458,"188":-2.6615958213806152,"189":-0.12899594008922577,"190":-0.13356167078018188,"191":0.2470182627439499,"192":-1.497444748878479,"193":-0.696832001209259,"194":-0.7815789580345154,"195":3.424158811569214,"196":-1.9199070930480957,"197":-3.722970485687256,"198":-2.068958282470703,"199":-2.2624411582946777,"200":-0.6585530042648315,"201":2.7652769088745117,"202":-1.4684052467346191,"203":-1.0143818855285645,"204":0.10177499800920486,"205":0.06377280503511429,"206":-3.3776967525482178,"207":0.13655991852283478,"208":1.563268780708313,"209":-1.9705920219421387,"210":-1.0717748403549194,"211":-1.971970558166504,"212":0.42101162672042847,"213":-0.9910511374473572,"214":0.721011757850647,"215":-1.0852789878845215,"216":-1.5897630453109741,"217":0.4757421910762787,"218":-0.20271021127700806,"219":0.21082369983196259,"220":-0.5979616045951843,"221":2.215949296951294,"222":-1.5505086183547974,"223":-0.10694430023431778,"224":-0.3553270399570465,"225":2.2899932861328125,"226":-0.3791295289993286,"227":0.9226888418197632,"228":-0.39822518825531006,"229":-1.2446138858795166,"230":-1.4227352142333984,"231":-0.6541916728019714,"232":-1.162251353263855,"233":0.21431203186511993,"234":0.022013720124959946,"235":-1.2573407888412476,"236":0.312589555978775,"237":-0.181265190243721,"238":-2.7538225650787354,"239":-0.9298111796379089,"240":-0.18613460659980774,"241":-1.2900313138961792,"242":-1.1242235898971558,"243":0.5875150561332703,"244":0.7629982829093933,"245":-0.12931318581104279,"246":3.271871328353882,"247":0.031149419024586678,"248":-3.6275906562805176,"249":1.4626086950302124,"250":-1.6505277156829834,"251":1.9433307647705078,"252":-0.44084954261779785,"253":-0.009295433759689331,"254":-3.1312332153320312,"255":-0.9187425374984741,"256":0.07814499735832214,"257":0.16698069870471954,"258":0.030217759311199188,"259":-0.5872041583061218,"260":-2.9422106742858887,"261":0.15339940786361694,"262":0.4638596475124359,"263":-2.1553430557250977,"264":1.437250018119812,"265":0.21493281424045563,"266":0.9384626150131226,"267":-1.499127984046936,"268":-0.9203700423240662,"269":-2.1621367931365967,"270":0.5385783314704895,"271":1.5952759981155396,"272":-0.8159846067428589,"273":1.8580964803695679,"274":-1.1148388385772705,"275":0.4861942231655121,"276":0.4263543486595154,"277":0.8142514228820801,"278":2.8265204429626465,"279":-4.977221488952637,"280":1.2022387981414795,"281":1.2669806480407715,"282":0.09722152352333069,"283":2.964926242828369,"284":1.9098308086395264,"285":-1.3660778999328613,"286":-2.1130337715148926,"287":-0.3178999125957489,"288":-1.1627408266067505,"289":-0.6702325344085693,"290":-1.5942330360412598,"291":-2.832368850708008,"292":1.864951252937317,"293":0.05586009472608566,"294":2.3644497394561768,"295":4.016948699951172,"296":-1.5247087478637695,"297":-0.6062287092208862,"298":-1.0672242641448975,"299":-2.252509117126465,"300":0.7693750858306885,"301":0.3753765821456909,"302":-0.2122575342655182,"303":-1.5770368576049805,"304":-1.5609222650527954,"305":1.2766941785812378,"306":-0.023071711882948875,"307":-2.443082571029663,"308":-0.21008475124835968,"309":-1.7572671175003052,"310":-5.116079330444336,"311":-1.1044026613235474,"312":-1.8054567575454712,"313":-0.4441663920879364,"314":1.6232863664627075,"315":-1.8314752578735352,"316":1.0481603145599365,"317":1.6576975584030151,"318":1.839902400970459,"319":-0.0016935676103457808,"320":-1.233945608139038,"321":-1.3866021633148193,"322":-0.8749953508377075,"323":0.486494243144989,"324":-1.58843994140625,"325":-0.6579994559288025,"326":1.3217875957489014,"327":-1.478967308998108,"328":-0.9114679098129272,"329":-2.933154821395874,"330":-3.2116997241973877,"331":-0.10961846262216568,"332":2.74806547164917,"333":2.786775827407837,"334":2.732909679412842,"335":-2.1240062713623047,"336":-0.8688204288482666,"337":2.7265422344207764,"338":-2.330754041671753,"339":1.56815767288208,"340":1.4235700368881226,"341":-0.1551201343536377,"342":0.16446928679943085,"343":1.814628005027771,"344":-1.7454619407653809,"345":0.0713491439819336,"346":3.0765466690063477,"347":-2.3525753021240234,"348":-0.5999364256858826,"349":-0.3929601013660431,"350":0.09090038388967514,"351":-0.7167987823486328,"352":-2.3309271335601807,"353":-1.7561372518539429,"354":2.2621562480926514,"355":1.0238690376281738,"356":-0.10594365000724792,"357":0.44724562764167786,"358":0.1229223683476448,"359":2.2003438472747803,"360":-0.24368245899677277,"361":-1.8345125913619995,"362":-0.4884655475616455,"363":1.9404170513153076,"364":1.6565614938735962,"365":0.18856097757816315,"366":-1.0902992486953735,"367":0.9049397706985474,"368":-1.8074283599853516,"369":2.889331579208374,"370":1.9353793859481812,"371":1.4578073024749756,"372":-2.199537992477417,"373":0.008216042071580887,"374":0.4302004277706146,"375":-0.9236430525779724,"376":-0.7787770628929138,"377":-1.4378001689910889,"378":0.530634343624115,"379":-0.4470621943473816,"380":-2.2100300788879395,"381":-0.8939128518104553,"382":-1.0789551734924316,"383":-1.8688651323318481,"384":-0.06603267043828964,"385":-1.8479396104812622,"386":-1.478551983833313,"387":-3.1381924152374268,"388":-2.826632499694824,"389":-1.0578231811523438,"390":-1.9394993782043457,"391":0.2832135260105133,"392":2.1748769283294678,"393":-0.04697712883353233,"394":3.3953168392181396,"395":0.8224477767944336,"396":-1.4761601686477661,"397":0.3654794991016388,"398":-0.33711862564086914,"399":4.6821064949035645,"400":2.633927583694458,"401":-0.09382515400648117,"402":-3.2129499912261963,"403":-1.3890461921691895,"404":2.7424967288970947,"405":-1.213054895401001,"406":-0.38530993461608887,"407":-1.7570184469223022,"408":-2.2777438163757324,"409":1.8293386697769165,"410":-0.6326568126678467,"411":-0.4567652642726898,"412":-2.162470817565918,"413":-0.17847859859466553,"414":1.1510711908340454,"415":1.5842864513397217,"416":1.2581621408462524,"417":0.11776593327522278,"418":0.7650541067123413,"419":-0.740600049495697,"420":1.8516093492507935,"421":-1.5187722444534302,"422":0.8241333365440369,"423":0.10955129563808441,"424":0.15946346521377563,"425":1.7334173917770386,"426":2.1306960582733154,"427":1.3547223806381226,"428":1.983259677886963,"429":0.04608047008514404,"430":1.4192752838134766,"431":0.371985524892807,"432":0.5445025563240051,"433":3.946195363998413,"434":-1.0814802646636963,"435":0.8786641955375671,"436":-1.8086614608764648,"437":-2.7701117992401123,"438":-0.11164325475692749,"439":2.244314670562744,"440":-0.734277606010437,"441":-1.696866750717163,"442":1.2811065912246704,"443":-0.2125692069530487,"444":-1.0384308099746704,"445":0.4581297039985657,"446":-0.4460718035697937,"447":0.10024915635585785,"448":-1.4310592412948608,"449":-1.580397605895996,"450":-1.1112369298934937,"451":-0.27871769666671753,"452":-0.609114944934845,"453":-1.043558955192566,"454":-2.0026772022247314,"455":0.07719497382640839,"456":-0.7996893525123596,"457":-0.11894206702709198,"458":-1.8410724401474,"459":-1.2244336605072021,"460":-1.3194507360458374,"461":-0.7284835577011108,"462":-1.6523537635803223,"463":-0.9988824129104614,"464":1.5978217124938965,"465":0.9072831869125366,"466":2.569842576980591,"467":-1.5968574285507202,"468":-0.32770633697509766,"469":0.5274274945259094,"470":0.8584750294685364,"471":1.672690987586975,"472":-0.17432433366775513,"473":-1.0207401514053345,"474":-0.5924834609031677,"475":-0.35124102234840393,"476":-0.01988733373582363,"477":-3.887941360473633,"478":-1.3459303379058838,"479":1.4148623943328857,"480":3.8035004138946533,"481":-2.8790299892425537,"482":-0.36735236644744873,"483":0.06509928405284882,"484":-1.0820156335830688,"485":1.96112859249115,"486":-0.1823778748512268,"487":0.27844488620758057,"488":2.25244402885437,"489":3.3165886402130127,"490":1.1204209327697754,"491":-3.4446418285369873,"492":-1.2997491359710693,"493":-3.342177629470825,"494":3.865554094314575,"495":-0.9539249539375305,"496":-2.0213241577148438,"497":0.30287978053092957,"498":-1.4112173318862915,"499":1.5702664852142334,"500":2.348966121673584,"501":0.4876435697078705,"502":-1.0959813594818115,"503":0.43410342931747437,"504":-2.068371534347534,"505":0.9862300753593445,"506":-0.5447067022323608,"507":0.5463606715202332,"508":1.7737559080123901,"509":0.976998507976532,"510":1.0340654850006104,"511":-0.7551690340042114,"512":1.630251407623291,"513":-1.180293321609497,"514":0.5879507660865784,"515":-0.385250449180603,"516":3.41300106048584,"517":-0.14059039950370789,"518":-0.311570942401886,"519":-0.6577003598213196,"520":0.33429068326950073,"521":0.053075000643730164,"522":-1.9458167552947998,"523":2.066702365875244,"524":-2.529350757598877,"525":-1.203576922416687,"526":-3.748814582824707,"527":-0.14298710227012634,"528":0.9976434707641602,"529":2.221078872680664,"530":1.3553123474121094,"531":-2.017040967941284,"532":-1.3026351928710938,"533":2.081749677658081,"534":-2.628326177597046,"535":-0.7233505845069885,"536":-0.24925664067268372,"537":-0.032145168632268906,"538":-2.523850679397583,"539":-0.7176242470741272,"540":0.04273083806037903,"541":3.212616443634033,"542":1.674161672592163,"543":-1.324491262435913,"544":0.01468932256102562,"545":-1.9847779273986816,"546":-1.1878894567489624,"547":-0.3886996805667877,"548":0.4939989149570465,"549":-0.5689315795898438,"550":-0.006264905910938978,"551":1.7535301446914673,"552":3.590594530105591,"553":-0.6852254271507263,"554":-1.01300048828125,"555":-0.8474618196487427,"556":-3.273653984069824,"557":2.669016122817993,"558":1.1052695512771606,"559":-0.7835454344749451,"560":-1.655498743057251,"561":-3.240326404571533,"562":1.3490155935287476,"563":-0.0191287100315094,"564":2.0986263751983643,"565":0.729033350944519,"566":0.7091241478919983,"567":-0.5488818883895874,"568":1.8839093446731567,"569":-0.46447673439979553,"570":0.2814784646034241,"571":2.447880983352661,"572":-0.8800188302993774,"573":1.690932035446167,"574":1.0682624578475952,"575":5.061859607696533,"576":-1.4732873439788818,"577":2.321658134460449,"578":-0.7370862364768982,"579":-1.2528566122055054,"580":0.15227700769901276,"581":4.497481822967529,"582":3.069305658340454,"583":1.6066648960113525,"584":1.0831468105316162,"585":-1.0194034576416016,"586":1.9904983043670654,"587":1.513051152229309,"588":-0.4363881051540375,"589":-1.0448575019836426,"590":0.5631905198097229,"591":0.5755109786987305,"592":-4.195418834686279,"593":-1.9672479629516602,"594":-0.864633321762085,"595":2.5563395023345947,"596":-1.5850023031234741,"597":0.6741974949836731,"598":-0.3311615288257599,"599":-0.2392265945672989,"600":-1.9587137699127197,"601":1.1932933330535889,"602":3.5460703372955322,"603":1.0039989948272705,"604":-2.720672845840454,"605":0.39207157492637634,"606":-1.3752045631408691,"607":-0.7795228958129883,"608":0.5221303701400757,"609":0.601111114025116,"610":1.0123052597045898,"611":0.5469120144844055,"612":-5.602621078491211,"613":-2.8355233669281006,"614":-0.6282326579093933,"615":-0.7597392201423645,"616":2.2792468070983887,"617":1.2109049558639526,"618":-2.663559913635254,"619":0.06525072455406189,"620":-0.9129977226257324,"621":0.5461833477020264,"622":-1.2823444604873657,"623":-2.7027575969696045,"624":1.5870237350463867,"625":-2.17525577545166,"626":0.1735154688358307,"627":-0.9395808577537537,"628":0.1724669486284256,"629":1.9673068523406982,"630":-0.9487044215202332,"631":-2.464539051055908,"632":-0.011303387582302094,"633":0.3195648491382599,"634":-0.38779985904693604,"635":-2.4702796936035156,"636":-3.9675750732421875,"637":-0.47650206089019775,"638":-0.5966155529022217,"639":-2.9506256580352783,"640":-0.4925878345966339,"641":0.04303135722875595,"642":-1.5119551420211792,"643":-3.496837854385376,"644":0.6788448095321655,"645":-0.3791833519935608,"646":-1.0409764051437378,"647":-1.4124987125396729,"648":-4.069315433502197,"649":1.680720329284668,"650":1.9081069231033325,"651":-1.4108754396438599,"652":0.6525862812995911,"653":2.6507179737091064,"654":-2.3529512882232666,"655":2.364871025085449,"656":-0.8294219970703125,"657":-2.0852537155151367,"658":2.030170440673828,"659":3.5313334465026855,"660":0.8399382829666138,"661":-1.1729792356491089,"662":-2.142396926879883,"663":1.4043314456939697,"664":-2.449380397796631,"665":0.894687294960022,"666":-1.0030429363250732,"667":-0.5584642291069031,"668":-0.6378382444381714,"669":-1.4419149160385132,"670":-1.581710696220398,"671":1.2936147451400757,"672":-0.7404122352600098,"673":-0.3284159004688263,"674":-2.7848401069641113,"675":-1.5269529819488525,"676":-0.9906792640686035,"677":1.1525025367736816,"678":-1.0180213451385498,"679":-0.8517373204231262,"680":-0.1896125078201294,"681":0.07931496948003769,"682":-2.1867897510528564,"683":-1.9183290004730225,"684":-0.5251104831695557,"685":-1.703384280204773,"686":-0.8822001218795776,"687":2.139713764190674,"688":-0.0763096958398819,"689":-1.2688504457473755,"690":0.9419019222259521,"691":-0.6601034998893738,"692":-3.293948173522949,"693":-0.3688206076622009,"694":-3.406839370727539,"695":1.7519960403442383,"696":0.17865009605884552,"697":-1.9354180097579956,"698":-1.4202215671539307,"699":-0.7009614109992981,"700":-0.7766336798667908,"701":1.079394817352295,"702":0.08391078561544418,"703":-2.0912363529205322,"704":0.40016844868659973,"705":0.6424469351768494,"706":-1.1426159143447876,"707":0.2687188684940338,"708":0.2504819929599762,"709":-0.5184943079948425,"710":-0.634274423122406,"711":1.4512979984283447,"712":0.822430431842804,"713":-0.9052643775939941,"714":1.0948206186294556,"715":2.7638487815856934,"716":-1.517738699913025,"717":-3.5974433422088623,"718":2.083725690841675,"719":0.7964029312133789,"720":1.0722161531448364,"721":1.5001568794250488,"722":-0.4331444799900055,"723":2.432781219482422,"724":1.1924712657928467,"725":-0.0509292297065258,"726":2.372878313064575,"727":-0.31945496797561646,"728":0.7624741196632385,"729":2.819323778152466,"730":-2.423617124557495,"731":1.3917526006698608,"732":-1.3141300678253174,"733":1.2804880142211914,"734":0.09391410648822784,"735":1.6568413972854614,"736":1.4149574041366577,"737":-3.4429409503936768,"738":2.0165915489196777,"739":-0.4099922776222229}},"inputHidden":{"rows":20,"columns":20,"weights":{"0":0.8612410426139832,"1":3.569542407989502,"2":1.6477471590042114,"3":2.518372058868408,"4":2.1690030097961426,"5":1.4689583778381348,"6":4.580150604248047,"7":2.229578733444214,"8":-1.7818255424499512,"9":-2.2989394664764404,"10":2.9585466384887695,"11":0.34991082549095154,"12":-1.011844515800476,"13":-0.14898842573165894,"14":-1.3935422897338867,"15":-0.7044210433959961,"16":2.0874452590942383,"17":1.0038498640060425,"18":0.4606732726097107,"19":-1.459600806236267,"20":-0.9131004214286804,"21":-0.7857193946838379,"22":-1.7659939527511597,"23":0.2171112298965454,"24":-0.2418462336063385,"25":-0.4442245662212372,"26":-0.13536466658115387,"27":-0.5107053518295288,"28":-0.7808982729911804,"29":-1.0982508659362793,"30":0.9393711090087891,"31":-2.264862298965454,"32":1.8845605850219727,"33":0.29473042488098145,"34":-1.7164784669876099,"35":-0.5307462215423584,"36":-0.6794990301132202,"37":-2.1019675731658936,"38":0.3874256908893585,"39":-0.014383514411747456,"40":-0.8271518349647522,"41":1.6067967414855957,"42":-2.506113290786743,"43":-0.4814748764038086,"44":2.249467134475708,"45":-0.6686409711837769,"46":-1.0087469816207886,"47":-0.6227890253067017,"48":0.7764193415641785,"49":-0.3947001099586487,"50":0.3426010310649872,"51":1.0878256559371948,"52":1.3681455850601196,"53":-0.037634991109371185,"54":1.2289310693740845,"55":0.3276500403881073,"56":-4.817730903625488,"57":-0.8249099254608154,"58":-1.1117216348648071,"59":0.11694349348545074,"60":4.8122124671936035,"61":-5.348703384399414,"62":1.8819555044174194,"63":1.3227059841156006,"64":1.619244933128357,"65":-0.10625391453504562,"66":-0.051640428602695465,"67":-0.9659344553947449,"68":3.297670364379883,"69":3.7342517375946045,"70":-1.4748197793960571,"71":0.10610329359769821,"72":0.016902774572372437,"73":-3.226996898651123,"74":1.6454102993011475,"75":1.9876708984375,"76":0.3340167999267578,"77":1.3326988220214844,"78":0.6463165283203125,"79":-2.3796634674072266,"80":1.125483751296997,"81":2.808053493499756,"82":-0.06809097528457642,"83":1.4520930051803589,"84":1.8038437366485596,"85":2.384582281112671,"86":-0.8390210270881653,"87":0.1720738261938095,"88":1.0009453296661377,"89":-3.3989102840423584,"90":1.578108787536621,"91":-2.4865472316741943,"92":-1.0676840543746948,"93":-1.4517567157745361,"94":0.49285954236984253,"95":-2.796123743057251,"96":-0.1696157604455948,"97":-2.94452166557312,"98":-0.8018949627876282,"99":-1.6379036903381348,"100":2.7114803791046143,"101":0.5147578120231628,"102":0.21478022634983063,"103":2.550053358078003,"104":0.1497100442647934,"105":2.110616683959961,"106":3.0064620971679688,"107":3.4946160316467285,"108":0.7533488869667053,"109":-0.18793347477912903,"110":2.8906805515289307,"111":-2.0049824714660645,"112":1.1388003826141357,"113":1.0865992307662964,"114":-1.1397380828857422,"115":0.6352837681770325,"116":-2.8895010948181152,"117":-0.6482720971107483,"118":1.9823665618896484,"119":-2.696016788482666,"120":0.02566978521645069,"121":-0.07090532779693604,"122":1.552042007446289,"123":0.7492220997810364,"124":-1.938144564628601,"125":2.1173958778381348,"126":-0.1834452599287033,"127":1.0279303789138794,"128":-2.382861375808716,"129":0.327303022146225,"130":-1.1599311828613281,"131":0.5251204967498779,"132":-1.4437055587768555,"133":-0.9823360443115234,"134":0.5339453220367432,"135":1.3347291946411133,"136":0.4896356165409088,"137":0.8168648481369019,"138":-1.514600157737732,"139":-0.6910234093666077,"140":1.0235629081726074,"141":-2.2138619422912598,"142":0.45370548963546753,"143":1.8298711776733398,"144":1.3970907926559448,"145":0.4803561568260193,"146":-1.0013805627822876,"147":-2.441451072692871,"148":-0.053076617419719696,"149":3.0117602348327637,"150":-1.8357595205307007,"151":0.5361321568489075,"152":4.1517157554626465,"153":-1.8084434270858765,"154":0.5080556869506836,"155":-0.5040780305862427,"156":2.8765172958374023,"157":-0.5683625936508179,"158":-0.2937288284301758,"159":0.8617887496948242,"160":-0.5608388781547546,"161":2.1570355892181396,"162":-1.1073336601257324,"163":-2.189532995223999,"164":0.19707269966602325,"165":1.0854077339172363,"166":5.451663970947266,"167":-2.980849504470825,"168":1.1084755659103394,"169":-1.3022702932357788,"170":4.813217639923096,"171":-1.2276477813720703,"172":0.5697416067123413,"173":0.5251268744468689,"174":-2.021308422088623,"175":-0.7769903540611267,"176":-5.532242298126221,"177":-2.0211498737335205,"178":2.482823610305786,"179":-2.238368511199951,"180":0.4905032217502594,"181":2.3814070224761963,"182":-0.9611280560493469,"183":1.3708518743515015,"184":-0.9699231386184692,"185":3.59924054145813,"186":3.222193717956543,"187":-1.3186099529266357,"188":1.8145123720169067,"189":0.7354065775871277,"190":1.4995875358581543,"191":0.1804267317056656,"192":1.991579532623291,"193":0.10965697467327118,"194":-3.3300704956054688,"195":-1.7335270643234253,"196":-0.8373922109603882,"197":-2.9238972663879395,"198":1.9732882976531982,"199":-1.8285967111587524,"200":2.9616096019744873,"201":0.9414933323860168,"202":-2.3115551471710205,"203":3.1169168949127197,"204":-0.017394358292222023,"205":2.045515775680542,"206":-1.3517370223999023,"207":2.771061420440674,"208":0.09836973249912262,"209":-0.14377260208129883,"210":-0.6836127638816833,"211":-2.594806432723999,"212":-3.0152363777160645,"213":-2.433479070663452,"214":1.0203593969345093,"215":-0.5212239027023315,"216":-1.1318449974060059,"217":1.8069335222244263,"218":0.3397720456123352,"219":0.9794086217880249,"220":0.47930628061294556,"221":1.5984808206558228,"222":-0.47022464871406555,"223":3.6927781105041504,"224":1.693957805633545,"225":5.836106300354004,"226":-1.5283681154251099,"227":-3.3599655628204346,"228":1.009331464767456,"229":-0.4900490939617157,"230":-1.0286527872085571,"231":-1.1522098779678345,"232":-0.862781286239624,"233":-0.22042216360569,"234":-4.429553508758545,"235":-1.363885760307312,"236":1.2783678770065308,"237":1.6488679647445679,"238":-4.218323230743408,"239":-0.9219772815704346,"240":-5.6093950271606445,"241":-1.4752402305603027,"242":-0.07657995074987411,"243":-1.1515967845916748,"244":-3.459639549255371,"245":-3.362299919128418,"246":-0.6446249485015869,"247":0.5121845602989197,"248":-0.9032559394836426,"249":-3.067044734954834,"250":-4.5339789390563965,"251":3.471601963043213,"252":-3.70987606048584,"253":4.279277324676514,"254":5.124650955200195,"255":-0.6736241579055786,"256":-0.48269394040107727,"257":4.520706653594971,"258":-5.162161827087402,"259":0.15947791934013367,"260":4.606787204742432,"261":-6.048694610595703,"262":0.42388150095939636,"263":0.26096469163894653,"264":-0.8621261715888977,"265":0.14336222410202026,"266":0.3320724666118622,"267":1.4806687831878662,"268":-0.23858286440372467,"269":1.0642318725585938,"270":-1.0268343687057495,"271":-1.8342736959457397,"272":1.0404573678970337,"273":2.611443519592285,"274":0.07445941120386124,"275":2.175133466720581,"276":-0.0761115700006485,"277":1.5431879758834839,"278":-0.08477132767438889,"279":0.9875912666320801,"280":-1.6154316663742065,"281":0.5870466828346252,"282":-1.90504789352417,"283":4.453674793243408,"284":0.982433021068573,"285":1.591919183731079,"286":1.5470201969146729,"287":2.0516464710235596,"288":1.70370352268219,"289":-0.4111170768737793,"290":0.03592789173126221,"291":2.1700825691223145,"292":-1.2968835830688477,"293":0.9263594746589661,"294":-1.9914225339889526,"295":-1.4115173816680908,"296":-4.92501974105835,"297":2.7403817176818848,"298":0.10008712857961655,"299":-0.8162857890129089,"300":-3.684192657470703,"301":0.23578356206417084,"302":-2.4596543312072754,"303":-0.15643221139907837,"304":-1.1448431015014648,"305":-1.2546415328979492,"306":-0.3008887469768524,"307":-1.4882601499557495,"308":-1.9523051977157593,"309":-0.640044093132019,"310":-1.072025179862976,"311":0.7234674692153931,"312":0.5562047362327576,"313":0.9315625429153442,"314":1.9358723163604736,"315":1.4525976181030273,"316":-0.26667284965515137,"317":-0.35548701882362366,"318":1.2390942573547363,"319":0.9605944752693176,"320":-1.3758583068847656,"321":-1.7743498086929321,"322":1.4885777235031128,"323":0.3572240173816681,"324":-0.2617493271827698,"325":0.7687597870826721,"326":0.17033512890338898,"327":2.663918972015381,"328":0.7218275666236877,"329":-0.33603435754776,"330":-0.6795269846916199,"331":0.4564027786254883,"332":-2.1357903480529785,"333":-3.861717700958252,"334":0.38475242257118225,"335":1.9565082788467407,"336":-2.2416937351226807,"337":-0.25246375799179077,"338":-0.6507986187934875,"339":2.280195713043213,"340":-5.0366082191467285,"341":3.098785638809204,"342":0.3449209928512573,"343":-2.2749173641204834,"344":-3.638695001602173,"345":0.9557961821556091,"346":2.797976493835449,"347":7.365448474884033,"348":-0.9350298047065735,"349":-0.45411208271980286,"350":1.4611998796463013,"351":0.029661502689123154,"352":1.6234238147735596,"353":-0.6258401870727539,"354":0.6806227564811707,"355":1.2128593921661377,"356":3.678734302520752,"357":-1.9032317399978638,"358":0.18344351649284363,"359":-1.5454438924789429,"360":-0.9623410105705261,"361":-0.1761399656534195,"362":1.3639687299728394,"363":1.5097506046295166,"364":-4.291054725646973,"365":-1.3940589427947998,"366":4.177165985107422,"367":6.113569736480713,"368":-0.1559835970401764,"369":-3.6636924743652344,"370":0.191639244556427,"371":0.8811740875244141,"372":-0.8495226502418518,"373":-3.9742980003356934,"374":-0.0807625874876976,"375":1.9805651903152466,"376":-1.279207706451416,"377":-2.179586172103882,"378":1.734087347984314,"379":0.9660038352012634,"380":-0.8130106925964355,"381":2.6391971111297607,"382":-0.43057918548583984,"383":-3.976073741912842,"384":-2.691741704940796,"385":-1.8325695991516113,"386":1.7007213830947876,"387":2.0388083457946777,"388":-0.575620710849762,"389":-0.41694122552871704,"390":2.9280807971954346,"391":-1.3056254386901855,"392":0.18094825744628906,"393":-0.25700271129608154,"394":-1.499334692955017,"395":-3.807831048965454,"396":0.7603073120117188,"397":-1.5081318616867065,"398":0.7340890169143677,"399":1.289122223854065}},"inputBias":{"rows":20,"columns":1,"weights":{"0":-1.705593228340149,"1":-0.20280742645263672,"2":0.016633542254567146,"3":-0.3204675614833832,"4":-0.07346644252538681,"5":-0.255414754152298,"6":-0.9798596501350403,"7":-0.6133719682693481,"8":1.5881677865982056,"9":0.7618971467018127,"10":-1.2298297882080078,"11":0.8075753450393677,"12":0.19386446475982666,"13":-1.3395253419876099,"14":-0.2731180787086487,"15":-0.17783325910568237,"16":-2.010138511657715,"17":-0.8453025221824646,"18":-0.41576796770095825,"19":-1.5063880681991577}},"forgetMatrix":{"rows":20,"columns":37,"weights":{"0":1.5571175813674927,"1":0.7804270386695862,"2":3.9265122413635254,"3":-1.5278751850128174,"4":2.157195806503296,"5":-0.214528888463974,"6":2.941951036453247,"7":0.6474713683128357,"8":1.5009841918945312,"9":0.04858587309718132,"10":0.46491625905036926,"11":-1.365065336227417,"12":1.4720145463943481,"13":-1.1314892768859863,"14":-1.6372880935668945,"15":1.4447879791259766,"16":2.3788084983825684,"17":2.5475306510925293,"18":0.5450572967529297,"19":0.5236055850982666,"20":1.2409451007843018,"21":-2.651653289794922,"22":0.5557233095169067,"23":0.5391975045204163,"24":0.7258902788162231,"25":2.8573620319366455,"26":1.150881290435791,"27":-1.6196666955947876,"28":3.142888069152832,"29":-0.4561671316623688,"30":-0.7257291674613953,"31":1.2651056051254272,"32":0.8676124215126038,"33":0.30863821506500244,"34":-0.6220486164093018,"35":0.8300529718399048,"36":0.29122576117515564,"37":2.5283541679382324,"38":-0.8552982807159424,"39":0.8544992804527283,"40":-0.2470402717590332,"41":-0.2858678996562958,"42":0.22477464377880096,"43":-0.6237726211547852,"44":1.0467338562011719,"45":0.8278234004974365,"46":0.2169426828622818,"47":-2.4231183528900146,"48":0.5661410093307495,"49":-1.220625400543213,"50":1.4373559951782227,"51":0.9351987242698669,"52":-3.8880867958068848,"53":-0.24159054458141327,"54":-2.1936841011047363,"55":0.36115849018096924,"56":-0.020743636414408684,"57":0.5283970236778259,"58":2.6210238933563232,"59":2.9887287616729736,"60":-2.6153767108917236,"61":0.08444865792989731,"62":-0.8049609065055847,"63":1.148180603981018,"64":1.6489325761795044,"65":0.018290655687451363,"66":1.1610314846038818,"67":0.09825651347637177,"68":-0.7117325663566589,"69":-0.7950822114944458,"70":-0.27949437499046326,"71":-1.1691045761108398,"72":1.246188759803772,"73":0.9119114875793457,"74":0.6335122585296631,"75":3.297551155090332,"76":-0.1747722029685974,"77":0.07029380649328232,"78":1.9486936330795288,"79":-1.9199738502502441,"80":-1.2740106582641602,"81":1.672858476638794,"82":0.006245948374271393,"83":-3.2813425064086914,"84":-2.1449062824249268,"85":-1.0685791969299316,"86":-1.6720609664916992,"87":0.9346868991851807,"88":1.579022765159607,"89":-1.6552833318710327,"90":-1.3514097929000854,"91":-1.9677408933639526,"92":-2.649596929550171,"93":2.421036958694458,"94":-1.1844674348831177,"95":-0.76112961769104,"96":0.9878300428390503,"97":-1.0896317958831787,"98":3.4838600158691406,"99":0.024329178035259247,"100":-1.1598668098449707,"101":1.067732572555542,"102":1.2831708192825317,"103":-0.0512152835726738,"104":-0.827801525592804,"105":-0.03920793905854225,"106":-1.2554550170898438,"107":-0.06963843107223511,"108":3.150522232055664,"109":-1.541128158569336,"110":0.02475193701684475,"111":1.3760523796081543,"112":2.45481276512146,"113":-1.2634270191192627,"114":2.0574357509613037,"115":2.332195997238159,"116":-1.889075517654419,"117":-0.4274674952030182,"118":-1.9693642854690552,"119":1.0049155950546265,"120":-1.8808248043060303,"121":1.23024320602417,"122":-0.9193373918533325,"123":-3.6696579456329346,"124":0.27147674560546875,"125":-1.7410091161727905,"126":0.08559107035398483,"127":-0.6173750758171082,"128":-2.532383918762207,"129":-1.920973539352417,"130":0.1928778886795044,"131":-1.1888151168823242,"132":-1.7915701866149902,"133":-0.10049154609441757,"134":0.6284472942352295,"135":0.13733765482902527,"136":-2.1195006370544434,"137":-0.019434504210948944,"138":1.1074475049972534,"139":-1.0217629671096802,"140":1.62724769115448,"141":0.5169580578804016,"142":-0.5270363688468933,"143":0.7382033467292786,"144":-4.1370038986206055,"145":-0.052168380469083786,"146":-2.2659809589385986,"147":0.49251896142959595,"148":1.1162691116333008,"149":1.9416112899780273,"150":0.8619615435600281,"151":-1.5666433572769165,"152":0.5861738920211792,"153":1.3264408111572266,"154":-0.20466327667236328,"155":1.5111560821533203,"156":0.8358992338180542,"157":2.709860324859619,"158":-1.2702977657318115,"159":-0.09658107906579971,"160":-0.4508393108844757,"161":0.827336847782135,"162":0.8757118582725525,"163":-1.8703043460845947,"164":1.0679476261138916,"165":-1.8458932638168335,"166":-0.6515055894851685,"167":2.5081636905670166,"168":0.19044095277786255,"169":-2.5019710063934326,"170":-0.01817174069583416,"171":-0.9540303945541382,"172":1.8005024194717407,"173":0.5584346055984497,"174":1.3552778959274292,"175":2.4086251258850098,"176":1.6849168539047241,"177":1.0838485956192017,"178":-1.4572418928146362,"179":1.5150227546691895,"180":-0.8579280376434326,"181":0.9343385100364685,"182":0.87088543176651,"183":3.7850723266601562,"184":0.19291383028030396,"185":0.34173592925071716,"186":0.3821740746498108,"187":0.8234757781028748,"188":2.5945472717285156,"189":-0.8810760974884033,"190":0.9808046221733093,"191":-1.3577535152435303,"192":0.6536864042282104,"193":2.018272876739502,"194":0.23012979328632355,"195":-2.0544562339782715,"196":0.90667724609375,"197":-1.7281806468963623,"198":-0.026924462988972664,"199":1.9466735124588013,"200":-1.5752438306808472,"201":-0.3725772202014923,"202":-0.00933719240128994,"203":0.9805114269256592,"204":1.4741311073303223,"205":0.22917991876602173,"206":-0.20816409587860107,"207":-0.8046941757202148,"208":-1.7672215700149536,"209":-0.7488736510276794,"210":1.9234848022460938,"211":1.0555812120437622,"212":2.6138715744018555,"213":2.7943661212921143,"214":-1.298237681388855,"215":-0.034813400357961655,"216":-1.8904105424880981,"217":1.7471129894256592,"218":1.7693265676498413,"219":-0.1986137479543686,"220":-0.7569223642349243,"221":-4.143903732299805,"222":-1.2963371276855469,"223":-0.7303665280342102,"224":1.0737330913543701,"225":-0.747456431388855,"226":0.4576082229614258,"227":-3.648160457611084,"228":0.32972410321235657,"229":1.9169895648956299,"230":-0.2954838275909424,"231":0.48987287282943726,"232":-1.2784397602081299,"233":-1.067955732345581,"234":-0.48966649174690247,"235":4.1023993492126465,"236":-0.033335115760564804,"237":-2.6642510890960693,"238":0.4846819043159485,"239":0.16042755544185638,"240":0.4123994708061218,"241":1.0644203424453735,"242":2.2710065841674805,"243":1.5758161544799805,"244":3.1510722637176514,"245":-3.785839319229126,"246":-1.245597243309021,"247":1.0044159889221191,"248":0.6378082036972046,"249":1.4663180112838745,"250":0.5690703988075256,"251":1.618666410446167,"252":-0.739407479763031,"253":0.9537002444267273,"254":0.37712547183036804,"255":-0.07194191217422485,"256":-1.2697930335998535,"257":2.581451892852783,"258":0.5714910626411438,"259":-3.776916980743408,"260":-0.8873386383056641,"261":2.016946315765381,"262":-0.6155394315719604,"263":-2.4258174896240234,"264":2.371138095855713,"265":1.0215611457824707,"266":-1.8351759910583496,"267":2.691546678543091,"268":-0.08332724124193192,"269":-0.9289630651473999,"270":1.6734669208526611,"271":0.8618664145469666,"272":-0.9230521321296692,"273":2.282620429992676,"274":2.299859046936035,"275":-1.1329985857009888,"276":1.7974724769592285,"277":2.4628427028656006,"278":2.2263071537017822,"279":0.1572226881980896,"280":-1.9885255098342896,"281":-1.1367939710617065,"282":2.009005308151245,"283":0.13909022510051727,"284":2.3644375801086426,"285":-1.042565941810608,"286":-2.9685721397399902,"287":1.8110032081604004,"288":-1.8150463104248047,"289":-2.055360794067383,"290":-0.706927478313446,"291":-0.8463413715362549,"292":0.7236505150794983,"293":-0.7619333863258362,"294":2.3792238235473633,"295":-1.0782015323638916,"296":0.6798321008682251,"297":-1.1914384365081787,"298":1.7603777647018433,"299":2.0005927085876465,"300":-1.9658727645874023,"301":0.09901228547096252,"302":-0.7800548672676086,"303":1.3208038806915283,"304":-0.04432440921664238,"305":1.2180631160736084,"306":-0.47680336236953735,"307":1.9237221479415894,"308":-0.4856266975402832,"309":1.5081464052200317,"310":0.8971845507621765,"311":-2.2165839672088623,"312":-0.06912123411893845,"313":-0.3453546166419983,"314":-0.8039312362670898,"315":0.6867032051086426,"316":1.6709067821502686,"317":2.3915181159973145,"318":1.1606714725494385,"319":-2.3381097316741943,"320":-0.6889926791191101,"321":1.591989517211914,"322":0.1867804080247879,"323":3.0711770057678223,"324":-0.1297127902507782,"325":-0.8617489337921143,"326":-0.5940731763839722,"327":-1.3125776052474976,"328":0.4168669581413269,"329":-1.187389612197876,"330":-0.4971107840538025,"331":0.4074793756008148,"332":1.8170629739761353,"333":-2.718482494354248,"334":-2.2956602573394775,"335":-0.14377634227275848,"336":0.7295756340026855,"337":-2.1498897075653076,"338":4.12027645111084,"339":-0.9204800128936768,"340":-0.3756558299064636,"341":-2.234957695007324,"342":-2.0035769939422607,"343":-0.48945650458335876,"344":3.4561760425567627,"345":1.4792988300323486,"346":-2.0465898513793945,"347":3.6912434101104736,"348":0.5694531798362732,"349":0.7315812706947327,"350":-0.08797813951969147,"351":2.3972723484039307,"352":-0.811394453048706,"353":-0.3648880422115326,"354":-1.141613483428955,"355":-1.360002875328064,"356":0.2750004827976227,"357":0.632871150970459,"358":-0.5892905592918396,"359":-2.3273048400878906,"360":-0.17475464940071106,"361":0.18834207952022552,"362":-0.5267630219459534,"363":-0.3562415540218353,"364":-1.5097309350967407,"365":0.2868945598602295,"366":2.9998605251312256,"367":1.5827717781066895,"368":0.08264550566673279,"369":-2.0179672241210938,"370":0.8140742778778076,"371":1.714712142944336,"372":-2.4195144176483154,"373":-4.149261951446533,"374":1.9406901597976685,"375":-2.732802152633667,"376":0.5099605321884155,"377":-0.6278858184814453,"378":-2.657287120819092,"379":-1.2061095237731934,"380":1.1279220581054688,"381":-2.4242188930511475,"382":-0.27795901894569397,"383":0.5659458041191101,"384":-1.245301365852356,"385":-0.4757486879825592,"386":-1.6995726823806763,"387":-1.4339828491210938,"388":0.22552672028541565,"389":-1.8262381553649902,"390":1.917863368988037,"391":2.3340890407562256,"392":1.8943110704421997,"393":0.31133416295051575,"394":0.7006731033325195,"395":-1.8960778713226318,"396":-0.9268172383308411,"397":-0.7257776856422424,"398":-3.0222818851470947,"399":1.3565343618392944,"400":1.99562406539917,"401":1.5484421253204346,"402":-0.2890617251396179,"403":-2.7395262718200684,"404":-0.42698371410369873,"405":0.28640931844711304,"406":0.5850412249565125,"407":-0.515052080154419,"408":1.5437101125717163,"409":-0.22208157181739807,"410":-0.5831152200698853,"411":2.8971810340881348,"412":-0.7347031831741333,"413":4.048023700714111,"414":-1.601616382598877,"415":1.3367927074432373,"416":-0.9820069670677185,"417":1.648917555809021,"418":-2.8314828872680664,"419":-0.6046958565711975,"420":-1.0317758321762085,"421":-0.018442025408148766,"422":-0.2262861430644989,"423":0.22690311074256897,"424":1.7990423440933228,"425":-1.067695140838623,"426":-0.617009699344635,"427":1.4666097164154053,"428":-0.816136360168457,"429":-1.9885517358779907,"430":0.17091839015483856,"431":-2.9687347412109375,"432":0.3399519622325897,"433":-0.44046661257743835,"434":-0.03292255848646164,"435":-0.6213690638542175,"436":-0.9065576195716858,"437":0.04700769856572151,"438":2.1121671199798584,"439":0.983252227306366,"440":0.10325586795806885,"441":-0.3578941226005554,"442":1.2259578704833984,"443":-2.63867449760437,"444":-3.00885272026062,"445":-3.117185354232788,"446":-1.051775574684143,"447":1.6046563386917114,"448":-1.997053861618042,"449":1.8470940589904785,"450":1.2499521970748901,"451":-1.8066346645355225,"452":-1.5724791288375854,"453":-0.7396161556243896,"454":1.0705472230911255,"455":0.8955410718917847,"456":-0.22014307975769043,"457":-1.5048009157180786,"458":1.9490731954574585,"459":0.20316363871097565,"460":-0.08400578051805496,"461":0.4186614453792572,"462":3.060696601867676,"463":-0.06847359985113144,"464":-0.04308214411139488,"465":0.2086963802576065,"466":-0.7402851581573486,"467":-0.6033912897109985,"468":-2.5892317295074463,"469":-1.092880368232727,"470":-3.6495449542999268,"471":-1.0020698308944702,"472":-1.0285749435424805,"473":-0.1120004877448082,"474":-0.6102444529533386,"475":-0.5550522804260254,"476":1.4560776948928833,"477":0.5812016725540161,"478":-2.1352925300598145,"479":0.7841294407844543,"480":-1.7282098531723022,"481":-0.6522306203842163,"482":-1.430242896080017,"483":-1.0483825206756592,"484":-1.1206612586975098,"485":-0.04122151806950569,"486":2.321547031402588,"487":0.2396114021539688,"488":1.424625277519226,"489":0.6016883254051208,"490":1.8660857677459717,"491":-2.946859836578369,"492":-0.329087495803833,"493":3.5848944187164307,"494":-0.28043246269226074,"495":0.11831910908222198,"496":0.9502649307250977,"497":1.1771118640899658,"498":0.68503338098526,"499":1.285887598991394,"500":-1.4623675346374512,"501":3.0580928325653076,"502":-0.9395287036895752,"503":-2.404020309448242,"504":0.2561379075050354,"505":1.0016419887542725,"506":-0.6852074861526489,"507":0.9819946885108948,"508":-0.9400835037231445,"509":0.5809865593910217,"510":-1.2541484832763672,"511":0.12892070412635803,"512":1.519994854927063,"513":-1.1746230125427246,"514":1.2977657318115234,"515":-2.467207670211792,"516":1.9002448320388794,"517":-1.4648040533065796,"518":0.3566405773162842,"519":2.8427441120147705,"520":1.7486531734466553,"521":-2.190150260925293,"522":0.6056990027427673,"523":0.8400662541389465,"524":1.7694556713104248,"525":1.0925593376159668,"526":-2.0685722827911377,"527":-1.2788517475128174,"528":-1.0572068691253662,"529":-0.7770906090736389,"530":2.597611665725708,"531":0.3056342899799347,"532":1.7947007417678833,"533":-0.9126630425453186,"534":-1.2377959489822388,"535":1.8168152570724487,"536":-1.7031567096710205,"537":2.165769100189209,"538":-3.9187722206115723,"539":-1.4099290370941162,"540":0.5860934257507324,"541":-0.7086508274078369,"542":1.1975176334381104,"543":1.6979520320892334,"544":-3.5892117023468018,"545":-1.7306159734725952,"546":0.13008971512317657,"547":-1.9662376642227173,"548":-1.4878536462783813,"549":-0.8074517250061035,"550":-2.471104145050049,"551":3.522780656814575,"552":3.098249912261963,"553":0.8084690570831299,"554":0.3962714672088623,"555":-1.3226420879364014,"556":1.337842345237732,"557":0.961606502532959,"558":-0.6583639979362488,"559":1.337467908859253,"560":-1.4801666736602783,"561":1.346521258354187,"562":0.41362878680229187,"563":1.6255381107330322,"564":1.0869839191436768,"565":0.672322154045105,"566":-2.1909072399139404,"567":0.21082629263401031,"568":0.6413499116897583,"569":-0.2295028567314148,"570":1.4329004287719727,"571":0.32672494649887085,"572":-1.4120848178863525,"573":1.46925687789917,"574":1.004919409751892,"575":1.5613055229187012,"576":-0.874853253364563,"577":-0.4909747540950775,"578":2.26296329498291,"579":-0.7262266278266907,"580":1.7847422361373901,"581":1.177962303161621,"582":0.5347153544425964,"583":1.9735766649246216,"584":-1.6408511400222778,"585":-0.30638232827186584,"586":2.2331573963165283,"587":-0.238376647233963,"588":-0.5875009894371033,"589":0.44332805275917053,"590":0.36629608273506165,"591":-1.4868367910385132,"592":3.1181459426879883,"593":-0.8669885396957397,"594":-0.06341280788183212,"595":-0.6847177743911743,"596":-1.0273958444595337,"597":1.7238190174102783,"598":-1.514715552330017,"599":1.341855764389038,"600":-3.3615713119506836,"601":1.3600679636001587,"602":-1.3849085569381714,"603":2.1181890964508057,"604":0.09034445881843567,"605":-0.4806079566478729,"606":-0.14196792244911194,"607":-1.7221989631652832,"608":-1.6475828886032104,"609":0.10756733268499374,"610":-0.852521538734436,"611":-1.890619158744812,"612":-0.9503811597824097,"613":2.0517122745513916,"614":1.282788634300232,"615":-1.0217907428741455,"616":1.0918363332748413,"617":-0.9947308301925659,"618":0.9289711117744446,"619":-0.7816327810287476,"620":-1.644856572151184,"621":0.33113449811935425,"622":0.18315066397190094,"623":-1.3800922632217407,"624":-1.7648817300796509,"625":1.3394465446472168,"626":-3.174402952194214,"627":-0.3130011558532715,"628":0.9598594307899475,"629":-1.418274998664856,"630":0.5336246490478516,"631":-1.3807612657546997,"632":2.6908159255981445,"633":-2.2430315017700195,"634":0.5693102478981018,"635":-0.4627566933631897,"636":-0.26427146792411804,"637":-2.782193422317505,"638":-2.0618770122528076,"639":2.0340750217437744,"640":2.382042407989502,"641":-2.097217082977295,"642":0.4737597703933716,"643":-0.29015040397644043,"644":0.490844190120697,"645":-0.7234082818031311,"646":-0.9597660303115845,"647":-0.8769574165344238,"648":0.5319032073020935,"649":-2.064349412918091,"650":-1.396642804145813,"651":-1.6726025342941284,"652":0.020085573196411133,"653":1.4733418226242065,"654":-1.0419691801071167,"655":-1.060160756111145,"656":0.3914985656738281,"657":-0.36181026697158813,"658":1.1611987352371216,"659":-0.2163766771554947,"660":-3.2491390705108643,"661":-0.1993567943572998,"662":-1.5566294193267822,"663":-0.04097864031791687,"664":0.5734255313873291,"665":-0.23160116374492645,"666":2.0543930530548096,"667":2.5319809913635254,"668":-2.0237810611724854,"669":-0.8669275641441345,"670":1.5138877630233765,"671":-0.2309402972459793,"672":-0.7101442217826843,"673":0.9298007488250732,"674":0.23666635155677795,"675":-0.870648980140686,"676":-1.9126145839691162,"677":-0.8716573119163513,"678":-2.168461322784424,"679":0.5411792397499084,"680":-2.7348296642303467,"681":-4.319325923919678,"682":-1.0329948663711548,"683":0.7560716271400452,"684":-2.1207175254821777,"685":1.3824095726013184,"686":1.5981584787368774,"687":0.7219446301460266,"688":3.5282344818115234,"689":-2.6520838737487793,"690":-0.3951592743396759,"691":0.2589218020439148,"692":-0.9775384068489075,"693":2.651461124420166,"694":-1.3916913270950317,"695":-0.9144839644432068,"696":-0.2111072838306427,"697":-0.8191162347793579,"698":-0.7659626007080078,"699":-3.8570854663848877,"700":-0.8694244623184204,"701":0.37235647439956665,"702":3.7937803268432617,"703":-0.4406030774116516,"704":3.0007026195526123,"705":-1.917354702949524,"706":-0.2976478934288025,"707":1.4044431447982788,"708":-1.5072884559631348,"709":0.6758449077606201,"710":3.3089230060577393,"711":-0.22585614025592804,"712":-1.5057566165924072,"713":-0.5786400437355042,"714":0.5305395126342773,"715":-0.3768560290336609,"716":1.1160335540771484,"717":-5.576546669006348,"718":0.5218707323074341,"719":-0.5079517364501953,"720":0.10764222592115402,"721":-1.258575677871704,"722":-1.6672849655151367,"723":-1.7364920377731323,"724":-2.802832841873169,"725":0.11192377656698227,"726":0.7333777546882629,"727":1.0575830936431885,"728":0.7659955620765686,"729":1.8197768926620483,"730":-2.171344757080078,"731":-0.18151023983955383,"732":-3.1704680919647217,"733":0.34375235438346863,"734":-0.03812694177031517,"735":-0.586342453956604,"736":-3.1928822994232178,"737":-1.5544136762619019,"738":1.702042818069458,"739":2.6184632778167725}},"forgetHidden":{"rows":20,"columns":20,"weights":{"0":0.09596405923366547,"1":-0.780373752117157,"2":1.3144488334655762,"3":-1.965789794921875,"4":-1.9098793268203735,"5":-1.1385546922683716,"6":-1.373111367225647,"7":-1.8855103254318237,"8":-2.807467222213745,"9":0.580041229724884,"10":-1.2188470363616943,"11":-0.0471033975481987,"12":-0.9709030985832214,"13":-1.6650325059890747,"14":1.3441407680511475,"15":1.1322420835494995,"16":0.4634523391723633,"17":1.0577561855316162,"18":-0.5998255610466003,"19":0.7573444247245789,"20":1.0616003274917603,"21":0.9888151288032532,"22":-0.16825127601623535,"23":1.4299932718276978,"24":1.3138597011566162,"25":-0.7442128658294678,"26":-0.22017645835876465,"27":-0.2788592576980591,"28":0.5876986980438232,"29":-0.06497911363840103,"30":0.3132575750350952,"31":-1.0656826496124268,"32":0.6050513386726379,"33":-0.6935783624649048,"34":0.3792048990726471,"35":-1.1280795335769653,"36":0.9344830513000488,"37":-5.751480579376221,"38":-0.3254287838935852,"39":-1.4737346172332764,"40":-1.7005325555801392,"41":-0.18265800178050995,"42":2.5570385456085205,"43":-0.59199458360672,"44":-0.561307430267334,"45":0.3465636670589447,"46":-0.9141131043434143,"47":1.4845770597457886,"48":3.3423588275909424,"49":-2.172308921813965,"50":-4.213902473449707,"51":0.7052334547042847,"52":-2.137686252593994,"53":-2.3932409286499023,"54":-0.2437005341053009,"55":2.023979663848877,"56":3.4553799629211426,"57":0.4537113606929779,"58":0.5533097386360168,"59":-4.9892449378967285,"60":-1.0196493864059448,"61":0.23295894265174866,"62":0.18152521550655365,"63":-4.104238033294678,"64":-1.6928118467330933,"65":-2.2209489345550537,"66":-2.0930607318878174,"67":0.1282838135957718,"68":-0.8188065886497498,"69":-2.3647115230560303,"70":-1.2165820598602295,"71":-0.18341048061847687,"72":0.24942678213119507,"73":3.297273635864258,"74":2.3470373153686523,"75":0.6383389830589294,"76":-0.9807487726211548,"77":0.6065123677253723,"78":2.2787351608276367,"79":4.630155086517334,"80":-0.08585579693317413,"81":-1.589317798614502,"82":0.42805343866348267,"83":0.36077091097831726,"84":-0.18579374253749847,"85":-2.8173043727874756,"86":3.360264301300049,"87":2.41963267326355,"88":0.8329952359199524,"89":0.9028111100196838,"90":1.1368261575698853,"91":-2.1379568576812744,"92":0.9555335640907288,"93":-1.704772710800171,"94":0.8850322961807251,"95":-0.0838201716542244,"96":-0.7058401107788086,"97":3.4577436447143555,"98":1.033504843711853,"99":-0.3690386712551117,"100":-0.2623000741004944,"101":-0.4022039473056793,"102":-0.555064857006073,"103":0.7588355541229248,"104":1.5404787063598633,"105":0.6397876739501953,"106":-1.7813737392425537,"107":-0.8141021728515625,"108":0.4154030680656433,"109":-3.203073263168335,"110":0.25329264998435974,"111":0.050521399825811386,"112":1.2022120952606201,"113":0.6282349824905396,"114":-0.8616698384284973,"115":0.6234822273254395,"116":-2.2197999954223633,"117":-0.30475860834121704,"118":-0.25878074765205383,"119":-2.142740488052368,"120":0.47621700167655945,"121":-0.2245565950870514,"122":-0.003885601181536913,"123":3.7955873012542725,"124":-2.7143938541412354,"125":5.629412651062012,"126":0.49446940422058105,"127":3.049717903137207,"128":-0.9642214179039001,"129":1.4238463640213013,"130":-2.136359453201294,"131":-0.9068918824195862,"132":-1.6032154560089111,"133":1.2269731760025024,"134":-2.950260877609253,"135":-1.995017647743225,"136":-2.3548266887664795,"137":-0.2614816725254059,"138":1.336647868156433,"139":-2.944270372390747,"140":0.10717318207025528,"141":-1.533900260925293,"142":2.9275619983673096,"143":-0.15326690673828125,"144":-1.5849921703338623,"145":-2.05155873298645,"146":1.094616413116455,"147":1.549945592880249,"148":-0.6302562952041626,"149":-1.0874462127685547,"150":-1.5837396383285522,"151":0.31378263235092163,"152":0.725994884967804,"153":-2.851970911026001,"154":0.7336592674255371,"155":1.837084412574768,"156":-1.55219566822052,"157":1.1947684288024902,"158":0.3519456684589386,"159":-1.6027380228042603,"160":-1.7496148347854614,"161":1.200569987297058,"162":-2.3201823234558105,"163":0.31305745244026184,"164":2.629119873046875,"165":0.8747556805610657,"166":-1.4555329084396362,"167":-2.7322921752929688,"168":-0.23528514802455902,"169":0.4802514910697937,"170":0.278931587934494,"171":2.4935033321380615,"172":-1.2922005653381348,"173":2.6280410289764404,"174":-0.9445045590400696,"175":-0.22684727609157562,"176":0.38672927021980286,"177":1.1350035667419434,"178":-0.5134078860282898,"179":1.4664839506149292,"180":1.4321465492248535,"181":-1.8129407167434692,"182":-1.1723524332046509,"183":0.6273781657218933,"184":-6.958639621734619,"185":2.8884530067443848,"186":-4.840289115905762,"187":0.20546557009220123,"188":2.7208237648010254,"189":-1.366920828819275,"190":0.22863225638866425,"191":-3.1232516765594482,"192":1.3003658056259155,"193":0.4544217586517334,"194":-1.810456395149231,"195":2.149315357208252,"196":-3.184002161026001,"197":-0.22249792516231537,"198":3.9988784790039062,"199":3.195697784423828,"200":0.03456299379467964,"201":0.26165321469306946,"202":0.9002203941345215,"203":2.529303550720215,"204":-2.5967206954956055,"205":-1.9973506927490234,"206":3.307452917098999,"207":3.1075961589813232,"208":1.7558575868606567,"209":-1.2490801811218262,"210":-1.175539493560791,"211":-0.38703805208206177,"212":-0.45059847831726074,"213":-1.4327808618545532,"214":-0.2621098756790161,"215":-1.6805890798568726,"216":0.7410862445831299,"217":-2.307173252105713,"218":0.7763777375221252,"219":0.29398688673973083,"220":0.8040255904197693,"221":1.2021688222885132,"222":-0.49869292974472046,"223":0.5254208445549011,"224":0.44309791922569275,"225":1.8076249361038208,"226":3.042323589324951,"227":2.6932079792022705,"228":2.3329694271087646,"229":-1.110731601715088,"230":2.415226459503174,"231":-1.7522809505462646,"232":-0.7225786447525024,"233":-0.048594992607831955,"234":-1.9649962186813354,"235":-2.6173079013824463,"236":-2.502258062362671,"237":-2.4539036750793457,"238":2.401843547821045,"239":-0.14379088580608368,"240":2.125102996826172,"241":2.190840005874634,"242":-2.1871707439422607,"243":1.5316362380981445,"244":0.08113762736320496,"245":-1.9109859466552734,"246":-0.740736186504364,"247":2.1325154304504395,"248":4.125110626220703,"249":-0.8293809294700623,"250":1.1259478330612183,"251":3.845449686050415,"252":-0.6531679034233093,"253":4.745934963226318,"254":-6.556612491607666,"255":-0.3747938275337219,"256":-4.058748722076416,"257":-4.576061248779297,"258":0.5257483124732971,"259":0.6954817175865173,"260":1.9430142641067505,"261":1.56809401512146,"262":-3.073042392730713,"263":0.14070910215377808,"264":1.5193440914154053,"265":2.2899961471557617,"266":-0.8116283416748047,"267":-2.425431728363037,"268":1.5454963445663452,"269":-0.49776342511177063,"270":0.5444523096084595,"271":-1.1163731813430786,"272":-1.2318865060806274,"273":-0.10015089809894562,"274":-3.860259532928467,"275":-0.8097386360168457,"276":-1.2692756652832031,"277":0.24180063605308533,"278":1.504469394683838,"279":-0.12235842645168304,"280":1.9605313539505005,"281":-2.153172254562378,"282":4.514588832855225,"283":-2.0983846187591553,"284":-2.177893877029419,"285":-3.016845464706421,"286":-0.09443219006061554,"287":-2.3241095542907715,"288":0.1454484611749649,"289":-5.13433313369751,"290":-1.8508226871490479,"291":0.0941782295703888,"292":-2.1807425022125244,"293":-0.2761232256889343,"294":2.4280612468719482,"295":1.214637041091919,"296":-0.11365562677383423,"297":-2.573908567428589,"298":-1.334693193435669,"299":1.7080070972442627,"300":-0.9794595241546631,"301":1.055580973625183,"302":-2.543219566345215,"303":-1.2622687816619873,"304":2.151766538619995,"305":-0.2542853057384491,"306":-0.3883518576622009,"307":-1.5686321258544922,"308":2.5710160732269287,"309":-0.8560378551483154,"310":-0.44146355986595154,"311":-1.3354284763336182,"312":1.1018069982528687,"313":2.1579997539520264,"314":0.2667948603630066,"315":-1.1510610580444336,"316":-2.5420920848846436,"317":3.878378391265869,"318":0.11141956597566605,"319":-0.15697966516017914,"320":4.452033996582031,"321":-0.9482084512710571,"322":2.950347423553467,"323":-1.1982097625732422,"324":-0.2731567919254303,"325":-1.834356427192688,"326":3.541459321975708,"327":-0.3830931484699249,"328":-3.460714817047119,"329":1.067892074584961,"330":0.2825711965560913,"331":-2.4318761825561523,"332":2.1149563789367676,"333":-1.179837703704834,"334":0.31790831685066223,"335":-2.3326871395111084,"336":2.703484296798706,"337":-4.555887222290039,"338":-1.5904755592346191,"339":-4.885096073150635,"340":-1.6961722373962402,"341":0.2931201756000519,"342":-1.130648136138916,"343":0.10374646633863449,"344":1.5812973976135254,"345":-1.0025619268417358,"346":-0.7491137385368347,"347":-0.2852233946323395,"348":1.2188355922698975,"349":-1.3312489986419678,"350":0.4681885838508606,"351":-0.7431800365447998,"352":0.5916391611099243,"353":0.09895843267440796,"354":0.21052031219005585,"355":-0.5778675675392151,"356":-1.3444088697433472,"357":1.5953295230865479,"358":0.11641093343496323,"359":2.150031805038452,"360":1.8173612356185913,"361":-0.021526437252759933,"362":-1.0639703273773193,"363":-0.13026659190654755,"364":3.3075897693634033,"365":0.491182416677475,"366":-3.3266329765319824,"367":-0.7534769773483276,"368":-1.411010503768921,"369":-2.673798084259033,"370":2.9648208618164062,"371":-3.119905948638916,"372":-2.6892900466918945,"373":-2.0709474086761475,"374":-0.6440069675445557,"375":-0.8951152563095093,"376":1.720371127128601,"377":-0.992415726184845,"378":1.4879271984100342,"379":-2.1632955074310303,"380":1.3609644174575806,"381":-0.7275660037994385,"382":-0.09478528052568436,"383":-1.7711938619613647,"384":-1.9516226053237915,"385":-1.9410496950149536,"386":1.3263577222824097,"387":0.17476171255111694,"388":-1.1106129884719849,"389":-1.214480996131897,"390":1.5076369047164917,"391":1.7910494804382324,"392":-1.920903205871582,"393":-1.748734951019287,"394":0.5663042068481445,"395":0.21978747844696045,"396":-1.119150161743164,"397":0.08048463612794876,"398":0.0402669832110405,"399":1.104680061340332}},"forgetBias":{"rows":20,"columns":1,"weights":{"0":0,"1":0,"2":0,"3":0,"4":0,"5":0,"6":0,"7":0,"8":0,"9":0,"10":0,"11":0,"12":0,"13":0,"14":0,"15":0,"16":0,"17":0,"18":0,"19":0}},"outputMatrix":{"rows":20,"columns":37,"weights":{"0":2.464688777923584,"1":-0.3632328510284424,"2":2.600541353225708,"3":-1.5709435939788818,"4":0.9988012909889221,"5":0.07070265710353851,"6":-0.4193170964717865,"7":0.7756146192550659,"8":3.481647253036499,"9":1.6637147665023804,"10":-2.5885894298553467,"11":-1.4031504392623901,"12":1.3623751401901245,"13":0.24563327431678772,"14":0.5053756237030029,"15":-0.05960015207529068,"16":1.0108462572097778,"17":-1.28370201587677,"18":1.3293095827102661,"19":1.2260509729385376,"20":4.266378879547119,"21":0.30282607674598694,"22":1.01275634765625,"23":-0.3149734139442444,"24":2.018747091293335,"25":1.4160032272338867,"26":1.0157548189163208,"27":1.739471673965454,"28":2.3097262382507324,"29":-0.7181576490402222,"30":-1.2709636688232422,"31":3.0729823112487793,"32":-0.9478713870048523,"33":-0.0017558787949383259,"34":0.19305819272994995,"35":-0.42448312044143677,"36":0.22449733316898346,"37":-0.9863764047622681,"38":-1.0919796228408813,"39":1.2066447734832764,"40":3.742666721343994,"41":-1.4603214263916016,"42":0.9406408667564392,"43":-2.425150156021118,"44":1.283668875694275,"45":0.3114449679851532,"46":0.8345526456832886,"47":-1.320397138595581,"48":1.704672932624817,"49":-2.1846251487731934,"50":0.5236623287200928,"51":0.08338713645935059,"52":-1.4021345376968384,"53":-0.7143338322639465,"54":-2.1438302993774414,"55":4.084009170532227,"56":2.3221681118011475,"57":1.5152944326400757,"58":-0.25309035181999207,"59":-1.0157614946365356,"60":-1.2354017496109009,"61":-0.02615848183631897,"62":0.450799822807312,"63":1.8555138111114502,"64":2.53485107421875,"65":1.5407795906066895,"66":0.029581045731902122,"67":-1.7755630016326904,"68":0.784731924533844,"69":-0.12153223901987076,"70":1.750831961631775,"71":-2.0610909461975098,"72":1.2663096189498901,"73":-2.4961366653442383,"74":1.0513768196105957,"75":2.4945433139801025,"76":-2.264741897583008,"77":-0.3093445301055908,"78":1.196707844734192,"79":-1.0216540098190308,"80":-1.1187033653259277,"81":-1.667119026184082,"82":-1.7577344179153442,"83":-3.4618024826049805,"84":-1.7844337224960327,"85":-0.4259287118911743,"86":0.938615620136261,"87":-2.4249579906463623,"88":0.15416677296161652,"89":0.045754969120025635,"90":-0.9056198596954346,"91":-1.022546410560608,"92":-1.069326400756836,"93":-1.5673829317092896,"94":-1.9640703201293945,"95":0.16356393694877625,"96":-1.4789913892745972,"97":1.4322335720062256,"98":3.48519229888916,"99":-1.397184133529663,"100":-1.9370042085647583,"101":0.607093334197998,"102":-1.8948848247528076,"103":1.6005991697311401,"104":0.12285979092121124,"105":-0.039312753826379776,"106":-1.977552890777588,"107":1.2874964475631714,"108":5.063867568969727,"109":-1.6850817203521729,"110":-2.096987724304199,"111":3.869774103164673,"112":1.836773157119751,"113":1.1872724294662476,"114":0.6002145409584045,"115":0.35144543647766113,"116":-0.32657402753829956,"117":-2.921853542327881,"118":1.4573384523391724,"119":-0.25411656498908997,"120":0.8891565203666687,"121":-0.5338132977485657,"122":0.5665246844291687,"123":-1.9087718725204468,"124":0.6119002103805542,"125":-0.083230160176754,"126":-1.1231305599212646,"127":-2.323711395263672,"128":0.7050182223320007,"129":-1.3306169509887695,"130":-0.8704415559768677,"131":0.9384409189224243,"132":3.8989291191101074,"133":1.6754618883132935,"134":-0.43052300810813904,"135":1.382500410079956,"136":1.3828184604644775,"137":1.3219964504241943,"138":1.016936182975769,"139":0.9159265160560608,"140":0.35619187355041504,"141":0.6975020170211792,"142":-1.3570096492767334,"143":-0.2285725474357605,"144":-2.6554973125457764,"145":-1.2910926342010498,"146":-0.8634434342384338,"147":4.052723407745361,"148":-0.20782624185085297,"149":1.9618316888809204,"150":-2.8000786304473877,"151":-1.5565370321273804,"152":2.097614288330078,"153":1.0493429899215698,"154":0.8206702470779419,"155":-1.6199771165847778,"156":3.418219804763794,"157":-2.6910903453826904,"158":-1.5553805828094482,"159":-2.6704447269439697,"160":-0.3688358962535858,"161":-0.9737852811813354,"162":0.9094482660293579,"163":-0.21164657175540924,"164":-0.3733886778354645,"165":-1.1658121347427368,"166":-1.242008090019226,"167":1.0547008514404297,"168":0.5025911927223206,"169":-1.2850600481033325,"170":0.1161002665758133,"171":2.4150819778442383,"172":-2.1244962215423584,"173":2.3649160861968994,