{"type":"LSTM","options":{"inputSize":51,"inputRange":51,"hiddenLayers":[20,20],"outputSize":51,"decayRate":0.999,"smoothEps":1e-8,"regc":0.000001,"clipval":5,"maxPredictionLength":100,"dataFormatter":{"values":["The pace is too slow","bad","Could be better","Needs more information and evidence","Does not seem to address the question","You went off-topic sometimes","Great presentation!","good","You addressed the topic really well","Good pace and tonality. Eloquent speech.","You have improved","Well written script.","I really enjoyed the topic you presented","I like the way you used pictures in the slides","You really know how to effectively captivate your audience. Well Done","You are an effective presenter, the pace was clear and content was concise","Good Job keep it up","You lack confidence","You fail to understand your target audience","You should try to understand your audience","You need more practice","You speak too fast","it is difficult to understand you","the slides are too wordy","Slides are not concised","I learnt something from your presentation","The presentation was engaging","The points were clearly conveyed","The presentation lack focus","the presentation was boring","the slides were too plain","the slides are clean and simple","the flow of the presentation was good","it is obvious you are reading from a script","the tone used was too monotonous","you should improve the tone used","you could try to sound more interested","work on varying your tone","the fonts used were too small to see clearly","I liked the colour used in the slides","the slides were colourful","the presentation is concise","you should be more formal","a more formal tone would be more suitable","in slide 3, there were too many words","you could use a diagram in slide 7 instead","you could vary your tone more","get to the point","be more enthusiastic ","the humour was not appropriate","the second section of your slides could be conveyed clearer","the topic was fun","the presentation is interesting","it is obvious that you are well prepared","well prepared","the presentation is well rehearsed","perfectly presented","no comments","Overall the presentation was well prepared, the tone used was good too","The eye contact use was effective","good use of eye contact and the slides were clear","The flow of the presentation was good and the points were logical","There was an awkward pause at the 1 minute mark","there was too long of a pause in the middle, could use more practice","should be more prepared, the slides are poorly organised","it was refreshing, the ideas were interesting too","you have a good sense of the target audience, the tone used was good and the presentation is engaging","wow that was really good","impressive and interesting","i am impressed by how well prepared you are, the flow of the contents were clear and engaging","wah that was really good, i liked the part where you referred to points in your slides","you should put more effort into the presentation","the eye contact is lacking","that was the best","the slides were too small, it was hard to see","at slide 8, the slide was shown for too short of a duration.","badly presented, you need to improve on your delivery","refer to your notes from IS2101, you need to keep in mind the 5Cs","the presentation was too dragged out","the presentation is not clear","work on enunciation, the presentation is badly delivered","I did not like it","you put alot of work into the slides, the animation were effective","you understand how to give an effective presentation, the points were brought across well and the slides were great"],"indexTable":{"0":46,"1":43,"2":45,"3":40,"5":47,"7":41,"8":44,"T":0,"h":1,"e":2," ":3,"p":4,"a":5,"c":6,"i":7,"s":8,"t":9,"o":10,"l":11,"w":12,"b":13,"d":14,"C":15,"u":16,"r":17,"N":18,"m":19,"n":20,"f":21,"v":22,"D":23,"q":24,"Y":25,"-":26,"G":27,"!":28,"g":29,"y":30,".":31,"E":32,"W":33,"I":34,"j":35,"k":36,",":37,"J":38,"S":39,"O":42,"stop-input":48,"start-output":49,"unrecognized":50},"characterTable":{"0":"T","1":"h","2":"e","3":" ","4":"p","5":"a","6":"c","7":"i","8":"s","9":"t","10":"o","11":"l","12":"w","13":"b","14":"d","15":"C","16":"u","17":"r","18":"N","19":"m","20":"n","21":"f","22":"v","23":"D","24":"q","25":"Y","26":"-","27":"G","28":"!","29":"g","30":"y","31":".","32":"E","33":"W","34":"I","35":"j","36":"k","37":",","38":"J","39":"S","40":"3","41":"7","42":"O","43":"1","44":"8","45":"2","46":"0","47":"5","48":null,"49":null,"50":null},"characters":["T","h","e"," ","p","a","c","i","s","t","o","l","w","b","d","C","u","r","N","m","n","f","v","D","q","Y","-","G","!","g","y",".","E","W","I","j","k",",","J","S","3","7","O","1","8","2","0","5","stop-input","start-output","unrecognized"],"specialIndexes":[48,49,50]}},"input":{"rows":52,"columns":51,"weights":{"0":0.692966878414154,"1":0.737959623336792,"2":-1.6286526918411255,"3":-0.6784287691116333,"4":-1.0023229122161865,"5":-1.436548113822937,"6":-0.8665626049041748,"7":-0.8982771635055542,"8":-0.955517590045929,"9":1.065191626548767,"10":-0.8747054934501648,"11":0.8676406741142273,"12":1.3430910110473633,"13":-1.4976329803466797,"14":-0.946824312210083,"15":0.33060628175735474,"16":3.6258726119995117,"17":-0.2630101442337036,"18":0.8793272376060486,"19":1.0686991214752197,"20":0.897471010684967,"21":-0.686750590801239,"22":1.2812024354934692,"23":1.1800642013549805,"24":-1.6732749938964844,"25":0.0012375530786812305,"26":2.322237491607666,"27":-1.5149338245391846,"28":0.932600736618042,"29":1.2018835544586182,"30":-2.2196707725524902,"31":-0.6652178168296814,"32":-0.33928313851356506,"33":1.695662498474121,"34":1.0961374044418335,"35":0.07048413157463074,"36":-1.2367557287216187,"37":2.23789644241333,"38":-1.977164387702942,"39":0.7637873888015747,"40":-2.858642578125,"41":0.741072416305542,"42":-1.708282232284546,"43":1.1905608177185059,"44":-0.18218772113323212,"45":-1.3553807735443115,"46":-0.6858896017074585,"47":0.6584104895591736,"48":0.5061596632003784,"49":-0.591522216796875,"50":0.3216424882411957,"51":-10.006767272949219,"52":-2.8868305683135986,"53":-0.0682455524802208,"54":-9.807907104492188,"55":0.11520200967788696,"56":-3.7489943504333496,"57":-7.993999004364014,"58":-2.261345386505127,"59":3.500537633895874,"60":-0.8099148273468018,"61":0.006045490503311157,"62":1.747125267982483,"63":-0.5638616681098938,"64":5.0844550132751465,"65":-0.24066846072673798,"66":0.024752270430326462,"67":0.5057246088981628,"68":-6.422680854797363,"69":-5.579771041870117,"70":5.07834005355835,"71":5.178101062774658,"72":2.4172604084014893,"73":1.6944671869277954,"74":-12.003992080688477,"75":11.259917259216309,"76":9.585248947143555,"77":-1.6274380683898926,"78":9.015936851501465,"79":0.9652993679046631,"80":12.650469779968262,"81":-5.281590938568115,"82":-7.0441436767578125,"83":6.663922309875488,"84":2.1941077709198,"85":0.5616917610168457,"86":-0.5831411480903625,"87":5.8929548263549805,"88":9.328925132751465,"89":-2.2125961780548096,"90":12.297959327697754,"91":-3.6495676040649414,"92":5.556975841522217,"93":-5.148900985717773,"94":-6.902730941772461,"95":2.8341689109802246,"96":-12.079998016357422,"97":0.709984540939331,"98":-8.355735778808594,"99":-3.3681514263153076,"100":-1.9816241264343262,"101":-5.932142734527588,"102":-2.036802053451538,"103":-8.609917640686035,"104":-0.14423370361328125,"105":-1.1495862007141113,"106":-0.7555170059204102,"107":-3.040571451187134,"108":-2.5963330268859863,"109":0.3495924770832062,"110":-1.4982807636260986,"111":5.278408527374268,"112":1.1544169187545776,"113":0.2050618976354599,"114":0.9970589876174927,"115":1.2741881608963013,"116":0.51606285572052,"117":3.1203808784484863,"118":0.29553353786468506,"119":-5.200827121734619,"120":0.7285826206207275,"121":2.9571642875671387,"122":-0.36497098207473755,"123":0.9015548825263977,"124":0.6057649254798889,"125":-4.56268835067749,"126":0.3947073221206665,"127":3.199274778366089,"128":-0.1694144904613495,"129":0.9236602187156677,"130":0.5143340826034546,"131":3.4924943447113037,"132":2.141307830810547,"133":-1.2361910343170166,"134":-1.8949580192565918,"135":-1.949299693107605,"136":0.9870790243148804,"137":2.447216272354126,"138":-1.118162751197815,"139":1.6455148458480835,"140":0.16915977001190186,"141":1.2132349014282227,"142":-1.9720618724822998,"143":1.526498556137085,"144":0.6638416051864624,"145":2.050403118133545,"146":1.602069616317749,"147":-3.443521499633789,"148":-3.1567773818969727,"149":-0.706423819065094,"150":-1.3632882833480835,"151":-0.08541926741600037,"152":0.39114245772361755,"153":-1.5839256048202515,"154":2.5240814685821533,"155":0.7159723043441772,"156":-0.11163339763879776,"157":3.7150137424468994,"158":1.067823052406311,"159":-0.6147354245185852,"160":1.3722440004348755,"161":2.2954649925231934,"162":2.2053534984588623,"163":0.21622751653194427,"164":0.5119302272796631,"165":-2.6199936866760254,"166":1.5136518478393555,"167":3.0757176876068115,"168":-0.6891882419586182,"169":-0.7045565843582153,"170":-0.6003773212432861,"171":-0.5789344906806946,"172":3.7157018184661865,"173":1.8770983219146729,"174":-2.897033929824829,"175":3.1960909366607666,"176":-3.2819132804870605,"177":-2.579730272293091,"178":-2.675734519958496,"179":-0.019425760954618454,"180":-0.1615208089351654,"181":-2.8302464485168457,"182":-0.35291561484336853,"183":1.2564338445663452,"184":4.208357810974121,"185":0.6449950337409973,"186":1.2792930603027344,"187":-0.2500913143157959,"188":-0.01422074157744646,"189":-5.327951431274414,"190":-0.4364957809448242,"191":-2.6627020835876465,"192":2.2744202613830566,"193":1.5832035541534424,"194":-1.9044785499572754,"195":0.501495361328125,"196":0.7886378765106201,"197":2.8448269367218018,"198":2.7466697692871094,"199":2.7227790355682373,"200":0.4221884608268738,"201":2.11895489692688,"202":2.027513027191162,"203":-1.803115725517273,"204":1.0097358226776123,"205":1.3601629734039307,"206":-0.19976626336574554,"207":0.3292432129383087,"208":2.903599739074707,"209":1.218539834022522,"210":-2.494877338409424,"211":-3.682419538497925,"212":-0.26278191804885864,"213":-2.2632360458374023,"214":1.8463010787963867,"215":1.5615712404251099,"216":-0.546832799911499,"217":3.9987151622772217,"218":-1.824710726737976,"219":-0.3811948895454407,"220":0.9222204685211182,"221":1.4787259101867676,"222":-0.054689835757017136,"223":-0.34449461102485657,"224":-0.22028492391109467,"225":0.12270789593458176,"226":0.854366660118103,"227":0.8310174345970154,"228":-0.25379589200019836,"229":-0.3029634654521942,"230":0.36046263575553894,"231":-2.3960623741149902,"232":0.3884982466697693,"233":0.6032953858375549,"234":0.049801167100667953,"235":-0.712471067905426,"236":2.1942572593688965,"237":1.1985764503479004,"238":-1.5381150245666504,"239":-2.4931271076202393,"240":2.298781394958496,"241":-0.04594607278704643,"242":0.0030945399776101112,"243":1.246372938156128,"244":-1.138189435005188,"245":-1.2614331245422363,"246":-0.5289728045463562,"247":1.6213761568069458,"248":0.06154673919081688,"249":-4.031924247741699,"250":-2.471709728240967,"251":2.525151252746582,"252":1.1726455688476562,"253":-0.8856809139251709,"254":1.7337017059326172,"255":-0.3530735969543457,"256":-3.2415008544921875,"257":1.0532374382019043,"258":-6.609028339385986,"259":-3.6980111598968506,"260":-4.392302989959717,"261":-4.038403034210205,"262":-2.864370584487915,"263":2.491626739501953,"264":-2.7824392318725586,"265":0.8289816379547119,"266":-1.5936331748962402,"267":2.002371072769165,"268":0.3227875828742981,"269":1.6082230806350708,"270":-3.151890754699707,"271":2.8705055713653564,"272":-3.263286828994751,"273":2.462362289428711,"274":3.4525012969970703,"275":-1.6959325075149536,"276":-3.255653142929077,"277":3.971388816833496,"278":-1.506537914276123,"279":0.00920706707984209,"280":-0.645871102809906,"281":2.105071544647217,"282":-1.2194933891296387,"283":2.2393977642059326,"284":-0.7028986215591431,"285":-4.600606918334961,"286":-0.5542805194854736,"287":-4.028270721435547,"288":-3.6585235595703125,"289":1.1964380741119385,"290":-2.0670037269592285,"291":1.761724591255188,"292":1.3080981969833374,"293":-1.647290825843811,"294":2.6636650562286377,"295":-3.4414784908294678,"296":0.5673713684082031,"297":-5.02126407623291,"298":0.8373799324035645,"299":-1.1674628257751465,"300":-7.81361198425293,"301":-4.378900527954102,"302":-0.7660624384880066,"303":-0.4897925853729248,"304":0.5188868045806885,"305":1.1493438482284546,"306":-5.93048095703125,"307":0.17459778487682343,"308":1.1195769309997559,"309":-3.352095603942871,"310":-0.5877353549003601,"311":0.27020689845085144,"312":-1.0584059953689575,"313":4.266475677490234,"314":4.196718692779541,"315":-0.34767359495162964,"316":4.4639129638671875,"317":-1.2055156230926514,"318":-0.06565850228071213,"319":2.789294719696045,"320":-1.4393075704574585,"321":-2.5264077186584473,"322":3.859893321990967,"323":2.004249334335327,"324":2.19834303855896,"325":1.823233723640442,"326":0.9266011714935303,"327":0.7279120683670044,"328":2.6754343509674072,"329":-0.9224029779434204,"330":0.6468179225921631,"331":-2.416745662689209,"332":-2.8207573890686035,"333":-1.035451889038086,"334":-0.8389537930488586,"335":-2.140899896621704,"336":-4.2244110107421875,"337":1.1368870735168457,"338":-1.9198623895645142,"339":0.6607568860054016,"340":-4.713990688323975,"341":1.9456809759140015,"342":-2.8405325412750244,"343":-4.587143898010254,"344":-2.673727512359619,"345":0.112166628241539,"346":-0.03029603138566017,"347":0.40148141980171204,"348":1.7095634937286377,"349":4.926888465881348,"350":3.289884328842163,"351":-2.3218464851379395,"352":-2.0756475925445557,"353":-1.0200024843215942,"354":1.9953432083129883,"355":0.23841479420661926,"356":1.3729777336120605,"357":4.493312835693359,"358":-0.5907609462738037,"359":2.380976915359497,"360":0.21247418224811554,"361":1.6859005689620972,"362":-3.2495765686035156,"363":-2.51784086227417,"364":2.7400426864624023,"365":-3.713087320327759,"366":0.29329586029052734,"367":-0.0049945879727602005,"368":-0.08231911808252335,"369":0.8056710362434387,"370":1.2701390981674194,"371":1.181875467300415,"372":4.180468559265137,"373":-0.6552367806434631,"374":-1.3531209230422974,"375":0.36090561747550964,"376":-5.25131368637085,"377":3.1962387561798096,"378":-1.5592416524887085,"379":2.586674451828003,"380":0.8823501467704773,"381":3.4878649711608887,"382":3.706127166748047,"383":-2.547621488571167,"384":-1.7821242809295654,"385":6.328846454620361,"386":-1.3351835012435913,"387":2.599938154220581,"388":1.3060802221298218,"389":1.2240140438079834,"390":0.5637946724891663,"391":2.251896381378174,"392":3.9361753463745117,"393":-1.131816029548645,"394":0.1606706827878952,"395":5.250077724456787,"396":-1.0753365755081177,"397":-3.797379970550537,"398":-1.338220477104187,"399":-1.7245515584945679,"400":-3.150663137435913,"401":-3.177314519882202,"402":-1.2167521715164185,"403":-3.605168104171753,"404":2.6376709938049316,"405":1.5334875583648682,"406":1.868890404701233,"407":-3.716607093811035,"408":-1.1376020908355713,"409":1.8886977434158325,"410":0.8153481483459473,"411":-2.8040382862091064,"412":3.4933183193206787,"413":-0.34997087717056274,"414":-0.26601076126098633,"415":1.893562912940979,"416":1.7671971321105957,"417":0.808670699596405,"418":2.8674514293670654,"419":4.0178022384643555,"420":0.9059988260269165,"421":-1.2757668495178223,"422":-0.3663771152496338,"423":-3.778581142425537,"424":-1.0391056537628174,"425":1.369800329208374,"426":-1.4495937824249268,"427":-1.1274806261062622,"428":2.5340795516967773,"429":-0.04107704758644104,"430":2.5393946170806885,"431":2.291254758834839,"432":-0.8464878797531128,"433":-2.531765937805176,"434":-2.36411190032959,"435":0.44352954626083374,"436":-2.1766369342803955,"437":-1.7902109622955322,"438":-2.5511467456817627,"439":0.06430094689130783,"440":0.32266026735305786,"441":1.9061717987060547,"442":-0.7557083368301392,"443":-5.071681976318359,"444":0.4540916979312897,"445":-0.16999451816082,"446":-1.5328738689422607,"447":2.557858467102051,"448":-0.2523699998855591,"449":-1.796363115310669,"450":0.5780694484710693,"451":-0.6234374046325684,"452":0.48917916417121887,"453":1.6055020093917847,"454":2.6590945720672607,"455":-3.4409031867980957,"456":0.11999639868736267,"457":0.633337140083313,"458":-0.31306320428848267,"459":1.9881792068481445,"460":-2.4595532417297363,"461":0.6032009124755859,"462":-2.224534511566162,"463":-2.069899559020996,"464":0.2119349092245102,"465":4.25156307220459,"466":-1.1015257835388184,"467":-4.19774866104126,"468":0.8165639638900757,"469":0.3194890022277832,"470":0.8145821690559387,"471":2.9379642009735107,"472":0.24890746176242828,"473":3.020256280899048,"474":-3.2180569171905518,"475":1.987962245941162,"476":3.585441827774048,"477":1.1061971187591553,"478":-0.628847062587738,"479":2.801861047744751,"480":3.2497718334198,"481":-2.3446340560913086,"482":-3.1224937438964844,"483":-1.882472276687622,"484":-3.7186620235443115,"485":-1.0811452865600586,"486":-1.1155622005462646,"487":-1.294655442237854,"488":4.780698299407959,"489":-0.07519922405481339,"490":2.3982715606689453,"491":3.4313364028930664,"492":0.5176005959510803,"493":-1.2303364276885986,"494":-2.6806399822235107,"495":0.15776969492435455,"496":-3.715402364730835,"497":-3.0746707916259766,"498":-0.06760361790657043,"499":-2.4512035846710205,"500":-0.09512252360582352,"501":-4.212273120880127,"502":-2.6836748123168945,"503":1.2926199436187744,"504":0.011915097013115883,"505":0.9992805123329163,"506":4.207359790802002,"507":-1.1785776615142822,"508":1.9255694150924683,"509":-2.5746278762817383,"510":-0.4924428164958954,"511":-2.7226150035858154,"512":-0.5995980501174927,"513":-1.2741072177886963,"514":0.42885005474090576,"515":-2.5749731063842773,"516":-4.454463481903076,"517":0.5682759284973145,"518":-3.8068559169769287,"519":-0.5236262679100037,"520":0.9759578108787537,"521":0.5499064326286316,"522":-3.362173318862915,"523":3.3178956508636475,"524":-2.6409189701080322,"525":1.6978436708450317,"526":-0.5424277186393738,"527":0.832893967628479,"528":3.5164966583251953,"529":2.2283570766448975,"530":-2.2153337001800537,"531":2.675845146179199,"532":0.785889744758606,"533":2.177258014678955,"534":-0.6947615146636963,"535":1.2390718460083008,"536":1.0751898288726807,"537":2.137214422225952,"538":0.2542136609554291,"539":-0.34593361616134644,"540":0.3784855008125305,"541":-1.0614451169967651,"542":1.78013277053833,"543":1.0699951648712158,"544":0.8388618230819702,"545":-0.7550362944602966,"546":-1.1535159349441528,"547":-2.2853198051452637,"548":3.9828743934631348,"549":-0.10702424496412277,"550":1.3059561252593994,"551":2.7189061641693115,"552":-0.740285336971283,"553":-1.2145992517471313,"554":-1.1834895610809326,"555":-1.9600979089736938,"556":-2.2934844493865967,"557":-0.14984646439552307,"558":2.2208452224731445,"559":-1.9726191759109497,"560":-0.6745132207870483,"561":1.1612377166748047,"562":3.6058385372161865,"563":-1.634905457496643,"564":1.4929108619689941,"565":0.5806902647018433,"566":-2.430645704269409,"567":-1.6892675161361694,"568":0.9335823059082031,"569":-2.8581225872039795,"570":2.7581982612609863,"571":-0.5642560124397278,"572":0.3115367889404297,"573":0.714982271194458,"574":1.410691499710083,"575":0.14185459911823273,"576":-0.37592095136642456,"577":-0.21921345591545105,"578":-0.9470146298408508,"579":-2.372713565826416,"580":-2.5200247764587402,"581":2.530655860900879,"582":-0.7656152248382568,"583":1.6631263494491577,"584":-0.6770651936531067,"585":1.5837031602859497,"586":2.384766101837158,"587":-1.3080381155014038,"588":-2.265371084213257,"589":2.26764178276062,"590":1.3312113285064697,"591":2.2084782123565674,"592":-0.13738957047462463,"593":2.5332729816436768,"594":-1.2203824520111084,"595":-1.8569259643554688,"596":4.307714939117432,"597":-0.4824354350566864,"598":-0.4988216161727905,"599":2.3684239387512207,"600":-1.3481136560440063,"601":-0.38516107201576233,"602":-1.5309427976608276,"603":-1.5014865398406982,"604":-0.07641096413135529,"605":0.4898965656757355,"606":0.999775230884552,"607":0.25686773657798767,"608":1.4657076597213745,"609":1.2963110208511353,"610":2.0761067867279053,"611":-0.7297676801681519,"612":0.24707572162151337,"613":3.607778549194336,"614":2.644200325012207,"615":-1.790340781211853,"616":-0.221925750374794,"617":-1.1439265012741089,"618":1.8397300243377686,"619":-3.429689407348633,"620":5.8456501960754395,"621":-3.4554622173309326,"622":1.3126771450042725,"623":1.4832862615585327,"624":-1.1538662910461426,"625":-1.2383455038070679,"626":-3.594460964202881,"627":0.03970829024910927,"628":-2.0689823627471924,"629":5.458223819732666,"630":0.32945770025253296,"631":-3.852452278137207,"632":-0.8006656765937805,"633":0.6575968265533447,"634":-2.0242083072662354,"635":-1.3322420120239258,"636":-3.4156999588012695,"637":-2.563075065612793,"638":-2.672236204147339,"639":-5.3569865226745605,"640":-4.324690818786621,"641":-0.6525101065635681,"642":-0.16471970081329346,"643":2.8294875621795654,"644":1.4835153818130493,"645":4.332042694091797,"646":4.755566596984863,"647":-3.0246987342834473,"648":3.157676935195923,"649":-1.1381944417953491,"650":-3.231138229370117,"651":2.5373950004577637,"652":3.7382330894470215,"653":0.5152159929275513,"654":0.45147594809532166,"655":-2.9410879611968994,"656":2.472999095916748,"657":1.0320674180984497,"658":4.558363437652588,"659":2.9461681842803955,"660":-1.3079506158828735,"661":3.7074549198150635,"662":4.513618469238281,"663":-1.74613618850708,"664":-3.8772802352905273,"665":2.9070112705230713,"666":-3.6850900650024414,"667":-1.5952122211456299,"668":-3.8525710105895996,"669":-0.5226584076881409,"670":1.4606903791427612,"671":0.05596039816737175,"672":3.3666727542877197,"673":2.9029250144958496,"674":-1.1927917003631592,"675":1.191219449043274,"676":0.023815711960196495,"677":-1.4850937128067017,"678":2.888766288757324,"679":2.8576645851135254,"680":-0.8957040905952454,"681":-0.42619413137435913,"682":1.84797203540802,"683":0.09464302659034729,"684":2.5206892490386963,"685":0.9429893493652344,"686":-3.602294445037842,"687":1.0919125080108643,"688":2.7860944271087646,"689":2.143050193786621,"690":-1.8502037525177002,"691":3.016796112060547,"692":1.3587783575057983,"693":-1.4549310207366943,"694":-2.6502015590667725,"695":0.14911776781082153,"696":-0.18367956578731537,"697":0.9353007078170776,"698":-3.5536961555480957,"699":-2.9120354652404785,"700":4.000305652618408,"701":-1.2997997999191284,"702":2.7587156295776367,"703":-1.8564255237579346,"704":1.079958438873291,"705":-2.1053059101104736,"706":-2.6066863536834717,"707":0.23516401648521423,"708":-5.91811466217041,"709":-2.597024440765381,"710":0.3470448851585388,"711":2.8363394737243652,"712":-0.3115612864494324,"713":-1.1579530239105225,"714":-6.152370929718018,"715":-1.2953649759292603,"716":2.352638006210327,"717":-3.4806015491485596,"718":0.14883314073085785,"719":-1.3355505466461182,"720":-5.202850818634033,"721":-1.966537594795227,"722":0.5109710097312927,"723":0.016771160066127777,"724":2.788555860519409,"725":-0.1536393016576767,"726":0.838580846786499,"727":-1.2420711517333984,"728":0.8506518602371216,"729":0.5589633584022522,"730":0.8019452691078186,"731":-2.6840689182281494,"732":-4.329342365264893,"733":0.8177584409713745,"734":-0.8133288025856018,"735":-1.44992995262146,"736":2.147624969482422,"737":-0.7646716833114624,"738":3.578246593475342,"739":-2.23205304145813,"740":-0.6083885431289673,"741":-2.197783946990967,"742":1.7167609930038452,"743":2.1385231018066406,"744":-0.8465506434440613,"745":-0.11812283843755722,"746":-0.38198402523994446,"747":-0.5728921890258789,"748":-2.969146728515625,"749":-3.5244860649108887,"750":0.28620460629463196,"751":-1.1565146446228027,"752":-1.1023668050765991,"753":0.20295600593090057,"754":-0.8944525718688965,"755":-0.3971707820892334,"756":-0.13847413659095764,"757":1.0478699207305908,"758":-0.11230859160423279,"759":-3.1082663536071777,"760":-4.700392246246338,"761":-1.9049791097640991,"762":0.1378559023141861,"763":0.6139557957649231,"764":-0.28915050625801086,"765":-3.2182869911193848,"766":-3.18159556388855,"767":1.2934949398040771,"768":-0.6123729348182678,"769":0.11789658665657043,"770":-1.2590967416763306,"771":4.841053485870361,"772":-3.0576980113983154,"773":0.8666790723800659,"774":0.888938307762146,"775":-0.8036147952079773,"776":2.2612318992614746,"777":1.0808340311050415,"778":1.3082869052886963,"779":4.389533042907715,"780":2.0879712104797363,"781":-1.3291691541671753,"782":-2.1188488006591797,"783":0.4531612992286682,"784":-0.2853058874607086,"785":-0.5393612384796143,"786":2.076713800430298,"787":0.5054339170455933,"788":1.071593165397644,"789":5.164821624755859,"790":-1.8323063850402832,"791":-0.5113698244094849,"792":1.621176838874817,"793":-0.5823772549629211,"794":0.1126309335231781,"795":1.393892526626587,"796":-1.4161895513534546,"797":-2.8641791343688965,"798":-1.3108444213867188,"799":-2.52698016166687,"800":-1.969653844833374,"801":1.7101500034332275,"802":-3.0513603687286377,"803":-0.8600391745567322,"804":-2.4585607051849365,"805":0.5792284607887268,"806":0.14454232156276703,"807":3.8471827507019043,"808":1.1074097156524658,"809":-4.1298346519470215,"810":-0.796787440776825,"811":0.642240047454834,"812":-0.44624197483062744,"813":-2.104069232940674,"814":1.1366914510726929,"815":0.450480192899704,"816":-5.281148433685303,"817":-37.687477111816406,"818":-11.09219741821289,"819":1.3153929710388184,"820":-15.074514389038086,"821":14.094269752502441,"822":-8.899003028869629,"823":-2.563230037689209,"824":-16.44541358947754,"825":-9.644171714782715,"826":14.355301856994629,"827":4.591297626495361,"828":1.192266821861267,"829":-2.781291961669922,"830":-6.390957355499268,"831":-6.010555744171143,"832":14.625588417053223,"833":11.96506118774414,"834":0.8725980520248413,"835":7.336859226226807,"836":-20.129884719848633,"837":22.137645721435547,"838":15.137845039367676,"839":9.52719783782959,"840":22.565122604370117,"841":-0.869873046875,"842":2.4124221801757812,"843":1.714855670928955,"844":-5.958359241485596,"845":-5.439427852630615,"846":5.517018795013428,"847":3.271183490753174,"848":10.268159866333008,"849":-5.7113213539123535,"850":13.577667236328125,"851":-2.6045734882354736,"852":4.480839252471924,"853":-3.111182928085327,"854":13.694893836975098,"855":10.89262866973877,"856":-13.706747055053711,"857":3.8602373600006104,"858":4.002058982849121,"859":1.9982011318206787,"860":6.717543601989746,"861":-22.02470588684082,"862":-10.094374656677246,"863":8.875665664672852,"864":-7.9878644943237305,"865":-3.4855799674987793,"866":-1.5635333061218262,"867":-0.21128587424755096,"868":4.753647804260254,"869":-0.17476537823677063,"870":-2.211472272872925,"871":5.352895259857178,"872":-1.8116071224212646,"873":-1.218908667564392,"874":-2.314068078994751,"875":-3.283581495285034,"876":-5.509106636047363,"877":3.040330171585083,"878":-0.3807070851325989,"879":0.18906395137310028,"880":2.9395503997802734,"881":-1.7418162822723389,"882":-1.2903484106063843,"883":3.8678786754608154,"884":-2.9097273349761963,"885":-0.9015855193138123,"886":0.41824641823768616,"887":-3.201003074645996,"888":-4.833471775054932,"889":0.6394879817962646,"890":0.6233862638473511,"891":-4.146302700042725,"892":-2.854299545288086,"893":-2.6284375190734863,"894":2.589749336242676,"895":-1.6510008573532104,"896":2.448568105697632,"897":-3.13364315032959,"898":-4.285588264465332,"899":-5.112630844116211,"900":4.010519027709961,"901":3.0114688873291016,"902":-0.6933859586715698,"903":-0.803604245185852,"904":-0.0020392220467329025,"905":-0.6416159868240356,"906":-1.3534427881240845,"907":-2.3027141094207764,"908":0.4903308153152466,"909":-3.1811153888702393,"910":-2.3115274906158447,"911":1.8893852233886719,"912":-2.98595929145813,"913":-0.48611679673194885,"914":-1.9711445569992065,"915":-4.222972869873047,"916":-2.2190704345703125,"917":1.0300915241241455,"918":2.111623764038086,"919":-4.0664849281311035,"920":1.1044775247573853,"921":-1.3902130126953125,"922":-2.7127678394317627,"923":1.6783993244171143,"924":-2.500906467437744,"925":-2.517641305923462,"926":-4.453943729400635,"927":-0.521064043045044,"928":1.3109040260314941,"929":4.3260817527771,"930":3.5159082412719727,"931":-0.19562655687332153,"932":0.13350415229797363,"933":-2.5955774784088135,"934":-0.8483169674873352,"935":0.6390500664710999,"936":-0.5796716213226318,"937":-0.8474079966545105,"938":1.0291011333465576,"939":4.896352291107178,"940":2.306520938873291,"941":4.051347732543945,"942":-2.0734071731567383,"943":-5.218850135803223,"944":-0.1387629508972168,"945":-2.756356716156006,"946":2.470357656478882,"947":-0.07366716861724854,"948":-2.915382146835327,"949":1.9386647939682007,"950":-0.655059814453125,"951":-1.3060946464538574,"952":3.43046236038208,"953":-3.670715570449829,"954":3.3776137828826904,"955":2.5100157260894775,"956":2.2193503379821777,"957":0.6493926048278809,"958":-3.8562138080596924,"959":-0.806657612323761,"960":-2.107182502746582,"961":-1.544232726097107,"962":-2.3400492668151855,"963":-1.3250880241394043,"964":0.08652380108833313,"965":-1.958055853843689,"966":0.614806592464447,"967":0.8396164178848267,"968":1.1887882947921753,"969":1.3710087537765503,"970":-11.291913032531738,"971":-22.42608642578125,"972":16.137388229370117,"973":-0.35150182247161865,"974":-14.594940185546875,"975":-10.912598609924316,"976":-21.45948028564453,"977":2.5555572509765625,"978":32.33049392700195,"979":-20.26621437072754,"980":8.39537525177002,"981":-0.2316783219575882,"982":-25.163856506347656,"983":-2.9632515907287598,"984":27.06236457824707,"985":-20.322185516357422,"986":-4.857206344604492,"987":-9.29916763305664,"988":-27.297971725463867,"989":-1.584143877029419,"990":-21.388797760009766,"991":10.939306259155273,"992":-13.761924743652344,"993":-16.63998794555664,"994":1.301795244216919,"995":15.676530838012695,"996":-25.82365608215332,"997":-15.392993927001953,"998":-27.23455238342285,"999":-19.86026382446289,"1000":-6.955066680908203,"1001":-8.417901992797852,"1002":21.68325424194336,"1003":-16.441837310791016,"1004":-16.7646541595459,"1005":-26.925777435302734,"1006":27.273609161376953,"1007":-11.028573989868164,"1008":16.723453521728516,"1009":2.634023666381836,"1010":2.653582811355591,"1011":-23.985898971557617,"1012":-20.14082908630371,"1013":37.73392868041992,"1014":-7.078029632568359,"1015":-9.578134536743164,"1016":-19.14689064025879,"1017":-9.928180694580078,"1018":-27.504241943359375,"1019":-17.366989135742188,"1020":1.7687983512878418,"1021":2.025601863861084,"1022":-1.5861029624938965,"1023":4.736357688903809,"1024":-2.7878146171569824,"1025":3.577941656112671,"1026":7.560682773590088,"1027":-5.534459114074707,"1028":-5.078312397003174,"1029":2.7492570877075195,"1030":-4.956007957458496,"1031":1.452420711517334,"1032":1.4443186521530151,"1033":10.932743072509766,"1034":0.19798679649829865,"1035":4.703892707824707,"1036":-2.1917312145233154,"1037":-7.811641216278076,"1038":-4.091362953186035,"1039":4.069039344787598,"1040":-1.804184079170227,"1041":2.5870487689971924,"1042":1.6056233644485474,"1043":-0.12688048183918,"1044":3.018259048461914,"1045":-1.870745301246643,"1046":0.02360084094107151,"1047":-2.888402223587036,"1048":0.19827871024608612,"1049":0.3266746699810028,"1050":-0.0745142325758934,"1051":2.660322904586792,"1052":-0.5036359429359436,"1053":-3.0382754802703857,"1054":-0.7461206912994385,"1055":0.385739266872406,"1056":4.129273414611816,"1057":-1.9012715816497803,"1058":-3.512824535369873,"1059":-2.6437010765075684,"1060":-1.8701655864715576,"1061":-5.594118595123291,"1062":4.139736652374268,"1063":-1.1265854835510254,"1064":0.4798761308193207,"1065":0.9979801177978516,"1066":3.5552332401275635,"1067":-0.25880008935928345,"1068":-7.759922504425049,"1069":-2.9372634887695312,"1070":2.375164270401001,"1071":-1.430121898651123,"1072":-1.3272686004638672,"1073":0.1510128527879715,"1074":1.4492952823638916,"1075":4.394294738769531,"1076":2.773379325866699,"1077":2.340815782546997,"1078":2.9544074535369873,"1079":3.2179362773895264,"1080":0.26892444491386414,"1081":0.23304302990436554,"1082":0.9811108112335205,"1083":-3.421977996826172,"1084":0.4853224754333496,"1085":0.7254539728164673,"1086":-2.0798842906951904,"1087":-1.2469087839126587,"1088":-3.217637300491333,"1089":-0.8999326825141907,"1090":4.426982879638672,"1091":1.3528317213058472,"1092":-1.5690034627914429,"1093":-2.2748777866363525,"1094":-2.4149904251098633,"1095":0.8113229870796204,"1096":2.7197227478027344,"1097":-0.5885714888572693,"1098":-1.1851719617843628,"1099":-1.568057894706726,"1100":2.291949987411499,"1101":3.451434373855591,"1102":-3.4580397605895996,"1103":0.9436695575714111,"1104":0.31901872158050537,"1105":0.9933974146842957,"1106":-0.19256167113780975,"1107":-6.1103997230529785,"1108":-0.8836691975593567,"1109":0.4217657148838043,"1110":2.3817529678344727,"1111":-0.18746644258499146,"1112":5.446528911590576,"1113":2.3291015625,"1114":-0.13020460307598114,"1115":2.124516010284424,"1116":-0.22529743611812592,"1117":4.547407627105713,"1118":-0.46515440940856934,"1119":-0.9294881224632263,"1120":-3.0996904373168945,"1121":-2.935171365737915,"1122":-5.583751201629639,"1123":-3.6159298419952393,"1124":3.4165425300598145,"1125":-0.38982734084129333,"1126":-6.2182159423828125,"1127":2.6802570819854736,"1128":-4.684852600097656,"1129":-2.0471303462982178,"1130":-4.8717851638793945,"1131":-0.8290072083473206,"1132":0.8137393593788147,"1133":7.522468566894531,"1134":4.502481937408447,"1135":6.719549179077148,"1136":-6.415925979614258,"1137":0.42982017993927,"1138":-1.5862560272216797,"1139":-1.3344862461090088,"1140":1.9347800016403198,"1141":3.0606226921081543,"1142":-2.370182514190674,"1143":6.4725565910339355,"1144":2.243072748184204,"1145":1.0806372165679932,"1146":-0.6317449808120728,"1147":-3.6827707290649414,"1148":6.189485549926758,"1149":-6.520419597625732,"1150":2.58039927482605,"1151":-5.308461666107178,"1152":4.05132532119751,"1153":-0.7717306613922119,"1154":-6.221620082855225,"1155":-0.23014524579048157,"1156":0.5295332670211792,"1157":-4.204642295837402,"1158":-0.6591475009918213,"1159":4.53292989730835,"1160":-0.021898219361901283,"1161":3.130347967147827,"1162":1.8198481798171997,"1163":-0.12307196855545044,"1164":-2.64581036567688,"1165":0.9139198660850525,"1166":-2.134368896484375,"1167":2.2439472675323486,"1168":-0.9224094748497009,"1169":1.9455795288085938,"1170":-2.8498525619506836,"1171":-2.8677031993865967,"1172":1.0651096105575562,"1173":-4.7834858894348145,"1174":-9.111486434936523,"1175":1.6666632890701294,"1176":-4.810581684112549,"1177":-2.0999627113342285,"1178":-4.784910202026367,"1179":-2.925194025039673,"1180":2.5751326084136963,"1181":-6.8751115798950195,"1182":-5.754642486572266,"1183":5.0577073097229,"1184":2.7315335273742676,"1185":1.1259897947311401,"1186":-0.8488621711730957,"1187":-2.486795663833618,"1188":5.980579853057861,"1189":-0.46198081970214844,"1190":-5.16414213180542,"1191":5.583275318145752,"1192":-4.335232734680176,"1193":-1.5488001108169556,"1194":2.949153184890747,"1195":-3.3804523944854736,"1196":3.5490424633026123,"1197":6.03587532043457,"1198":8.428099632263184,"1199":-2.7106518745422363,"1200":3.6766483783721924,"1201":-2.3687713146209717,"1202":2.911963701248169,"1203":9.032951354980469,"1204":1.7127573490142822,"1205":1.3847990036010742,"1206":6.386320114135742,"1207":0.515673041343689,"1208":4.273903846740723,"1209":3.4682252407073975,"1210":6.616108417510986,"1211":-1.1283375024795532,"1212":-10.434463500976562,"1213":3.8452415466308594,"1214":-1.004852056503296,"1215":7.8676557540893555,"1216":-2.232193946838379,"1217":-0.2915525436401367,"1218":-1.8599486351013184,"1219":-6.297905921936035,"1220":-2.8735857009887695,"1221":2.447390556335449,"1222":0.27011820673942566,"1223":-3.474277973175049,"1224":-15.072157859802246,"1225":-1.7894160747528076,"1226":18.870105743408203,"1227":-3.5170702934265137,"1228":9.246556282043457,"1229":8.53476333618164,"1230":1.7065330743789673,"1231":3.890585422515869,"1232":7.802404880523682,"1233":-1.3136698007583618,"1234":4.696750640869141,"1235":-1.3950625658035278,"1236":-6.470620155334473,"1237":9.892395973205566,"1238":7.980641841888428,"1239":1.9743744134902954,"1240":-0.5718255043029785,"1241":17.130361557006836,"1242":-15.385403633117676,"1243":12.426708221435547,"1244":-7.924468040466309,"1245":12.220444679260254,"1246":-8.133092880249023,"1247":-1.6117609739303589,"1248":14.28246784210205,"1249":1.4515379667282104,"1250":-32.43600082397461,"1251":9.843393325805664,"1252":-16.31931495666504,"1253":17.24174690246582,"1254":7.227489471435547,"1255":-4.2903218269348145,"1256":13.483612060546875,"1257":12.808290481567383,"1258":-5.7232513427734375,"1259":-2.3702526092529297,"1260":-16.222646713256836,"1261":-5.479734897613525,"1262":3.6643800735473633,"1263":-2.7041661739349365,"1264":27.152862548828125,"1265":14.543781280517578,"1266":21.027503967285156,"1267":-8.715181350708008,"1268":5.306257724761963,"1269":-0.696255624294281,"1270":6.151269912719727,"1271":6.135321617126465,"1272":10.856310844421387,"1273":-1.4836769104003906,"1274":2.932767868041992,"1275":-7.510141372680664,"1276":-13.736699104309082,"1277":10.70390796661377,"1278":19.645910263061523,"1279":-13.818624496459961,"1280":13.35801887512207,"1281":1.812463402748108,"1282":0.6529110670089722,"1283":2.98309326171875,"1284":33.061954498291016,"1285":6.94371223449707,"1286":9.470458030700684,"1287":14.79397201538086,"1288":-20.541330337524414,"1289":1.3414629697799683,"1290":-14.763957023620605,"1291":15.863120079040527,"1292":-26.862476348876953,"1293":-8.533117294311523,"1294":-19.300907135009766,"1295":-17.476699829101562,"1296":1.6341499090194702,"1297":-0.029738077893853188,"1298":-0.8748633861541748,"1299":11.832880973815918,"1300":-15.087766647338867,"1301":-9.10377025604248,"1302":21.196792602539062,"1303":6.714953422546387,"1304":17.743595123291016,"1305":5.413904190063477,"1306":-6.23261022567749,"1307":1.7242342233657837,"1308":-10.56530475616455,"1309":-4.730155944824219,"1310":-3.6455399990081787,"1311":6.9088053703308105,"1312":-8.592034339904785,"1313":25.480173110961914,"1314":15.65715503692627,"1315":-3.199573516845703,"1316":-3.3984360694885254,"1317":25.553529739379883,"1318":-27.311676025390625,"1319":14.002594947814941,"1320":-16.714584350585938,"1321":0.7249498963356018,"1322":10.243523597717285,"1323":-14.060476303100586,"1324":-6.641728401184082,"1325":29.386812210083008,"1326":2.2884976863861084,"1327":-0.0028501565102487803,"1328":-5.218755722045898,"1329":-0.047895003110170364,"1330":4.667541980743408,"1331":0.24043436348438263,"1332":-3.306264877319336,"1333":-0.5580826997756958,"1334":2.354750156402588,"1335":-0.17041122913360596,"1336":-2.769155740737915,"1337":0.5487884283065796,"1338":-2.418797731399536,"1339":-1.5506144762039185,"1340":-1.767166256904602,"1341":-3.2514350414276123,"1342":1.0930070877075195,"1343":-3.071380376815796,"1344":0.0858648493885994,"1345":0.7088357210159302,"1346":3.3162641525268555,"1347":-7.721930027008057,"1348":2.8880934715270996,"1349":-1.9837695360183716,"1350":-3.3444278240203857,"1351":-1.4012947082519531,"1352":0.3413557708263397,"1353":-0.4429054260253906,"1354":-0.28405264019966125,"1355":-0.6549421548843384,"1356":-0.16086992621421814,"1357":1.4133564233779907,"1358":0.17627446353435516,"1359":2.4157629013061523,"1360":-4.423116207122803,"1361":-0.522620677947998,"1362":-0.43547242879867554,"1363":4.338872909545898,"1364":0.9367746114730835,"1365":0.7673609256744385,"1366":-3.7673611640930176,"1367":-1.690208077430725,"1368":1.5793639421463013,"1369":-1.492350697517395,"1370":2.440122604370117,"1371":-3.029721975326538,"1372":-1.5435484647750854,"1373":4.611457824707031,"1374":4.0112223625183105,"1375":-0.12175731360912323,"1376":0.36020439863204956,"1377":8.835186958312988,"1378":27.110464096069336,"1379":-18.210269927978516,"1380":-1.766547441482544,"1381":-11.892989158630371,"1382":-5.401264190673828,"1383":-31.929325103759766,"1384":-5.2965898513793945,"1385":2.238114595413208,"1386":11.182764053344727,"1387":-4.031182765960693,"1388":-18.80398178100586,"1389":-13.059008598327637,"1390":-2.609271764755249,"1391":-5.581361770629883,"1392":-12.757438659667969,"1393":-3.8433492183685303,"1394":8.784368515014648,"1395":12.902029037475586,"1396":26.76546859741211,"1397":-11.141375541687012,"1398":-16.98499870300293,"1399":6.250854015350342,"1400":-13.962568283081055,"1401":25.592294692993164,"1402":16.08570098876953,"1403":-12.323158264160156,"1404":32.49203872680664,"1405":-4.241940498352051,"1406":6.797177314758301,"1407":0.5822684168815613,"1408":-2.3311331272125244,"1409":1.471961498260498,"1410":10.361403465270996,"1411":-18.04839515686035,"1412":18.787078857421875,"1413":3.435206413269043,"1414":-11.143229484558105,"1415":9.03968334197998,"1416":19.20755958557129,"1417":21.93602180480957,"1418":22.331401824951172,"1419":-15.032733917236328,"1420":-9.79426097869873,"1421":-9.384177207946777,"1422":1.4790490865707397,"1423":5.988497257232666,"1424":-20.190778732299805,"1425":16.333267211914062,"1426":11.425837516784668,"1427":10.881149291992188,"1428":9.128227233886719,"1429":8.262307167053223,"1430":-11.447691917419434,"1431":-3.522012233734131,"1432":18.826183319091797,"1433":-11.522642135620117,"1434":-11.331856727600098,"1435":-8.595727920532227,"1436":-8.522372245788574,"1437":0.5487368702888489,"1438":-0.5888144969940186,"1439":9.060654640197754,"1440":-4.33281135559082,"1441":8.796710968017578,"1442":-6.369893550872803,"1443":-3.7831265926361084,"1444":-6.003788471221924,"1445":-10.61433219909668,"1446":2.2406563758850098,"1447":-1.0503231287002563,"1448":10.31834602355957,"1449":-9.30790901184082,"1450":3.1725385189056396,"1451":6.079691410064697,"1452":6.201387882232666,"1453":-0.31133708357810974,"1454":-0.8975459337234497,"1455":8.492084503173828,"1456":-3.2790873050689697,"1457":4.239110946655273,"1458":-19.342166900634766,"1459":2.6269052028656006,"1460":6.21890115737915,"1461":1.1558597087860107,"1462":1.6431193351745605,"1463":-13.533075332641602,"1464":-0.2146623134613037,"1465":10.88914680480957,"1466":-7.075039863586426,"1467":14.56313419342041,"1468":2.7696828842163086,"1469":-8.119173049926758,"1470":-2.690685510635376,"1471":-9.51306438446045,"1472":11.345415115356445,"1473":-9.977431297302246,"1474":-0.5692339539527893,"1475":-10.09493350982666,"1476":1.5819381475448608,"1477":-4.140237331390381,"1478":-0.9765740633010864,"1479":-11.7491455078125,"1480":7.967390537261963,"1481":-4.352931499481201,"1482":-17.552165985107422,"1483":-0.6724086999893188,"1484":-6.34409236907959,"1485":-22.857933044433594,"1486":3.6399588584899902,"1487":-9.627881050109863,"1488":7.737011909484863,"1489":22.524648666381836,"1490":-14.642467498779297,"1491":8.933313369750977,"1492":13.108402252197266,"1493":-3.9589428901672363,"1494":-1.6519209146499634,"1495":19.38042640686035,"1496":-6.406610488891602,"1497":6.076502799987793,"1498":-11.168522834777832,"1499":-4.778976917266846,"1500":-11.877188682556152,"1501":27.74525260925293,"1502":-28.47900390625,"1503":17.789426803588867,"1504":-4.913744926452637,"1505":2.3180017471313477,"1506":10.185711860656738,"1507":3.407813549041748,"1508":3.7922749519348145,"1509":-0.920021653175354,"1510":7.178471565246582,"1511":8.335923194885254,"1512":9.632702827453613,"1513":-37.18235397338867,"1514":-15.91579818725586,"1515":-8.655119895935059,"1516":-25.612091064453125,"1517":4.069367408752441,"1518":0.6497833728790283,"1519":-3.700735569000244,"1520":5.833176612854004,"1521":17.934022903442383,"1522":10.786968231201172,"1523":-7.632610321044922,"1524":-5.593453407287598,"1525":-12.84968376159668,"1526":31.678197860717773,"1527":30.246723175048828,"1528":-0.6414791941642761,"1529":-0.3480396568775177,"1530":5.198279857635498,"1531":-2.1129813194274902,"1532":-1.961472988128662,"1533":5.82847785949707,"1534":2.163501024246216,"1535":2.745044231414795,"1536":8.516168594360352,"1537":-1.692772388458252,"1538":-0.9233724474906921,"1539":-0.33367663621902466,"1540":-3.1658873558044434,"1541":3.9170315265655518,"1542":-1.1239745616912842,"1543":2.546534776687622,"1544":4.216004848480225,"1545":0.5679253339767456,"1546":-2.0970053672790527,"1547":-3.716235399246216,"1548":-2.372840642929077,"1549":-2.711663007736206,"1550":1.9930278062820435,"1551":-2.5375916957855225,"1552":-2.795067310333252,"1553":4.6328654289245605,"1554":-4.232625484466553,"1555":-5.625458240509033,"1556":-3.424670457839966,"1557":2.369562864303589,"1558":-7.98099946975708,"1559":-3.0101609230041504,"1560":7.29921817779541,"1561":8.601512908935547,"1562":-1.6668058633804321,"1563":-0.2924205958843231,"1564":3.219484806060791,"1565":-2.837462902069092,"1566":5.110902786254883,"1567":-3.0144741535186768,"1568":1.368040919303894,"1569":-2.0158286094665527,"1570":2.161303758621216,"1571":-1.8715577125549316,"1572":5.066977500915527,"1573":-1.5501726865768433,"1574":-2.3360373973846436,"1575":4.2271342277526855,"1576":0.46087804436683655,"1577":1.331496238708496,"1578":-3.2314670085906982,"1579":0.34708645939826965,"1580":5.431618690490723,"1581":-0.5518187880516052,"1582":0.9544548392295837,"1583":-1.9305415153503418,"1584":3.2571213245391846,"1585":-0.9365464448928833,"1586":-1.1045961380004883,"1587":-4.373431205749512,"1588":1.946743369102478,"1589":-1.1894406080245972,"1590":6.47808313369751,"1591":-5.238286018371582,"1592":2.4599289894104004,"1593":-2.734924554824829,"1594":2.2733154296875,"1595":-1.355110764503479,"1596":2.1127498149871826,"1597":0.15584999322891235,"1598":-0.38472315669059753,"1599":2.0237045288085938,"1600":-4.104589939117432,"1601":-3.3561644554138184,"1602":2.6861679553985596,"1603":-3.603631019592285,"1604":-4.028725624084473,"1605":-1.7191847562789917,"1606":6.244822025299072,"1607":8.718953132629395,"1608":-4.912776947021484,"1609":-1.8378719091415405,"1610":-2.165705442428589,"1611":-0.8155159950256348,"1612":5.126374244689941,"1613":2.30741286277771,"1614":5.077272415161133,"1615":6.331465244293213,"1616":-2.1999728679656982,"1617":-6.36470890045166,"1618":5.476423263549805,"1619":3.2470076084136963,"1620":5.570601940155029,"1621":1.7848989963531494,"1622":1.3010607957839966,"1623":1.2662866115570068,"1624":0.6826363205909729,"1625":2.8658578395843506,"1626":-3.2040019035339355,"1627":4.038037300109863,"1628":4.075747489929199,"1629":4.195061206817627,"1630":5.1005024909973145,"1631":-2.282240152359009,"1632":-11.005057334899902,"1633":-10.816998481750488,"1634":1.6820569038391113,"1635":-7.413049221038818,"1636":0.6704100370407104,"1637":11.489495277404785,"1638":-9.749567985534668,"1639":15.8745698928833,"1640":-3.934323787689209,"1641":-6.746662139892578,"1642":9.97283935546875,"1643":11.441926002502441,"1644":5.790248394012451,"1645":-1.8998515605926514,"1646":-10.591328620910645,"1647":-21.834014892578125,"1648":5.592907428741455,"1649":-5.362209320068359,"1650":12.33576774597168,"1651":1.4046260118484497,"1652":5.20927619934082,"1653":-0.2517735958099365,"1654":4.228001117706299,"1655":-1.8099697828292847,"1656":4.421146392822266,"1657":8.828959465026855,"1658":-9.27232837677002,"1659":12.579383850097656,"1660":11.900951385498047,"1661":-15.307523727416992,"1662":10.18404483795166,"1663":2.7970528602600098,"1664":-7.0078043937683105,"1665":0.24929474294185638,"1666":3.047495126724243,"1667":3.5819413661956787,"1668":-11.009688377380371,"1669":-8.924345970153809,"1670":-1.363319993019104,"1671":-0.6452165246009827,"1672":-1.5297448635101318,"1673":-0.49678200483322144,"1674":16.91715431213379,"1675":-10.293452262878418,"1676":-7.2513203620910645,"1677":4.8309102058410645,"1678":11.845754623413086,"1679":6.7060418128967285,"1680":-5.954297065734863,"1681":10.490561485290527,"1682":-0.8168879151344299,"1683":-20.97614288330078,"1684":-16.42145347595215,"1685":-2.778083086013794,"1686":8.314957618713379,"1687":-14.242916107177734,"1688":42.10345458984375,"1689":-4.178043365478516,"1690":16.854772567749023,"1691":-6.00213098526001,"1692":-9.377341270446777,"1693":11.128615379333496,"1694":39.33113098144531,"1695":12.514078140258789,"1696":8.183338165283203,"1697":18.590810775756836,"1698":-20.824405670166016,"1699":-6.7857985496521,"1700":-12.690135955810547,"1701":-16.460573196411133,"1702":-20.21876335144043,"1703":6.706360816955566,"1704":6.420657157897949,"1705":-13.011466026306152,"1706":-10.513659477233887,"1707":-9.353355407714844,"1708":0.5622017979621887,"1709":-2.170440435409546,"1710":-20.717792510986328,"1711":5.067079544067383,"1712":3.8033089637756348,"1713":8.166360855102539,"1714":8.518872261047363,"1715":3.793231964111328,"1716":0.48081010580062866,"1717":18.51476287841797,"1718":-32.87114334106445,"1719":0.7573655247688293,"1720":-6.956077575683594,"1721":18.805572509765625,"1722":-28.548141479492188,"1723":-6.5971245765686035,"1724":-7.927664756774902,"1725":6.0598626136779785,"1726":-20.78458023071289,"1727":-3.8777928352355957,"1728":-6.60608434677124,"1729":-5.489972114562988,"1730":22.31090545654297,"1731":12.699419975280762,"1732":14.08055591583252,"1733":9.195589065551758,"1734":3.7632391452789307,"1735":7.235208034515381,"1736":-16.302141189575195,"1737":-5.1399664878845215,"1738":-4.6159491539001465,"1739":6.317301273345947,"1740":-15.8763427734375,"1741":-15.43624496459961,"1742":-0.08891744911670685,"1743":-5.649816036224365,"1744":12.243687629699707,"1745":6.165345191955566,"1746":-17.19308853149414,"1747":12.053145408630371,"1748":-14.14599895477295,"1749":-23.282155990600586,"1750":-2.412736415863037,"1751":-3.9512858390808105,"1752":-13.658609390258789,"1753":9.374568939208984,"1754":5.944482803344727,"1755":-6.204901695251465,"1756":23.126157760620117,"1757":10.589032173156738,"1758":-1.2688534259796143,"1759":13.20736026763916,"1760":-2.3848938941955566,"1761":0.5291133522987366,"1762":-8.750167846679688,"1763":5.1315741539001465,"1764":-6.170535087585449,"1765":9.695648193359375,"1766":-4.211389541625977,"1767":8.19069766998291,"1768":-2.7707436084747314,"1769":-10.501477241516113,"1770":10.602243423461914,"1771":10.200655937194824,"1772":-8.249334335327148,"1773":6.981231212615967,"1774":-21.181568145751953,"1775":-1.9674707651138306,"1776":-0.2791391909122467,"1777":2.0802109241485596,"1778":-0.36329346895217896,"1779":-13.982515335083008,"1780":-9.043455123901367,"1781":5.915664196014404,"1782":15.941001892089844,"1783":0.3736434578895569,"1784":1.148571252822876,"1785":3.324357271194458,"1786":8.936151504516602,"1787":11.841303825378418,"1788":-1.2464563846588135,"1789":-5.6848225593566895,"1790":-4.664853572845459,"1791":10.075852394104004,"1792":-7.403275489807129,"1793":21.51136016845703,"1794":-0.968987762928009,"1795":6.205235481262207,"1796":2.551692485809326,"1797":-5.0047173500061035,"1798":-3.142711639404297,"1799":2.797419786453247,"1800":-2.9654042720794678,"1801":-0.9622107148170471,"1802":-0.18256062269210815,"1803":6.495036602020264,"1804":-0.2592634856700897,"1805":-4.87434196472168,"1806":-5.490994453430176,"1807":-7.6023736000061035,"1808":12.560439109802246,"1809":11.615324974060059,"1810":-2.1675097942352295,"1811":4.2908735275268555,"1812":3.4104201793670654,"1813":-1.1601308584213257,"1814":4.799476146697998,"1815":-0.2108817994594574,"1816":-12.883429527282715,"1817":-4.145069122314453,"1818":1.6312257051467896,"1819":7.736396312713623,"1820":3.223325729370117,"1821":2.4782514572143555,"1822":-2.9538533687591553,"1823":-3.8194870948791504,"1824":8.251519203186035,"1825":5.632555961608887,"1826":9.38359546661377,"1827":-1.194756269454956,"1828":-5.759378433227539,"1829":1.650567650794983,"1830":-0.8072353601455688,"1831":-3.4074771404266357,"1832":-7.121483325958252,"1833":-5.613472938537598,"1834":-4.378346920013428,"1835":5.893002033233643,"1836":30.952350616455078,"1837":14.514976501464844,"1838":1.6536463499069214,"1839":-3.4652488231658936,"1840":14.936519622802734,"1841":-9.261459350585938,"1842":5.34660530090332,"1843":1.7323074340820312,"1844":-3.6137497425079346,"1845":-22.145532608032227,"1846":-7.524478912353516,"1847":-20.91139793395996,"1848":-0.21912729740142822,"1849":9.450108528137207,"1850":5.79899263381958,"1851":0.2713828980922699,"1852":14.001474380493164,"1853":-3.1171958446502686,"1854":16.364591598510742,"1855":5.159697532653809,"1856":11.566961288452148,"1857":-4.84476900100708,"1858":10.902786254882812,"1859":12.528013229370117,"1860":-10.344706535339355,"1861":-17.779537200927734,"1862":-7.117734432220459,"1863":0.8552611470222473,"1864":-11.34274959564209,"1865":5.210797309875488,"1866":-28.020750045776367,"1867":-4.493188381195068,"1868":3.5485000610351562,"1869":10.6225004196167,"1870":-24.10211944580078,"1871":10.491401672363281,"1872":20.436918258666992,"1873":0.6185286641120911,"1874":10.095254898071289,"1875":-55.149898529052734,"1876":4.276919841766357,"1877":-22.39619255065918,"1878":-8.458747863769531,"1879":16.355009078979492,"1880":28.646596908569336,"1881":12.157045364379883,"1882":19.604074478149414,"1883":-0.07281094044446945,"1884":-11.407218933105469,"1885":-19.12541961669922,"1886":-8.501420021057129,"1887":3.8268446922302246,"1888":4.112565517425537,"1889":-1.2099100351333618,"1890":-7.311370372772217,"1891":3.8290328979492188,"1892":-0.11050663888454437,"1893":15.819899559020996,"1894":-5.763500213623047,"1895":1.0738883018493652,"1896":-0.7839139699935913,"1897":0.7731274366378784,"1898":12.293542861938477,"1899":-4.038188457489014,"1900":-11.833573341369629,"1901":0.3627323508262634,"1902":5.995949745178223,"1903":-2.1770737171173096,"1904":-2.645204782485962,"1905":6.418395042419434,"1906":-6.0026373863220215,"1907":-7.019365310668945,"1908":1.4202795028686523,"1909":6.173799991607666,"1910":6.405746936798096,"1911":4.892021656036377,"1912":-3.184760332107544,"1913":-0.5303161144256592,"1914":-0.9309933185577393,"1915":-0.30045878887176514,"1916":1.2434303760528564,"1917":-3.6344897747039795,"1918":-0.43173089623451233,"1919":8.637117385864258,"1920":0.8450577259063721,"1921":-2.2946043014526367,"1922":-9.784543991088867,"1923":9.507513999938965,"1924":-5.341458797454834,"1925":-0.8460646271705627,"1926":1.9992473125457764,"1927":8.058119773864746,"1928":4.488992214202881,"1929":-3.1675050258636475,"1930":-6.2114667892456055,"1931":-5.724097728729248,"1932":-5.64646053314209,"1933":0.381125807762146,"1934":6.127227306365967,"1935":-2.3199222087860107,"1936":-2.7823872566223145,"1937":-2.1107168197631836,"1938":-1.3650450706481934,"1939":4.011465549468994,"1940":-7.245096683502197,"1941":-7.456770420074463,"1942":-5.6320295333862305,"1943":-3.387192487716675,"1944":-12.923563003540039,"1945":6.300020217895508,"1946":-5.639224529266357,"1947":0.28115835785865784,"1948":1.0277804136276245,"1949":-2.069995880126953,"1950":4.045636177062988,"1951":-0.6378518342971802,"1952":-5.36189603805542,"1953":-0.4449583888053894,"1954":-0.7352364659309387,"1955":0.42824509739875793,"1956":-6.3290791511535645,"1957":0.672406017780304,"1958":3.777344226837158,"1959":2.724539041519165,"1960":1.0098857879638672,"1961":-16.081926345825195,"1962":8.151349067687988,"1963":5.600996971130371,"1964":-4.264664173126221,"1965":5.646092414855957,"1966":7.1181230545043945,"1967":6.206354141235352,"1968":-8.983565330505371,"1969":-5.649082183837891,"1970":5.553298473358154,"1971":2.8587968349456787,"1972":-6.558680534362793,"1973":-10.446393966674805,"1974":-2.758615255355835,"1975":12.814339637756348,"1976":-3.646639823913574,"1977":-1.5941550731658936,"1978":-13.414876937866211,"1979":-2.451231002807617,"1980":-15.218302726745605,"1981":-9.635631561279297,"1982":7.949268817901611,"1983":-9.551290512084961,"1984":-4.997067451477051,"1985":7.959828853607178,"1986":11.818675994873047,"1987":-0.16318398714065552,"1988":-2.8947043418884277,"1989":-9.577198028564453,"1990":33.64704132080078,"1991":-18.446022033691406,"1992":17.235790252685547,"1993":-26.245452880859375,"1994":8.998167037963867,"1995":-10.924979209899902,"1996":-6.844775676727295,"1997":27.142621994018555,"1998":19.732913970947266,"1999":-42.60044860839844,"2000":4.077940940856934,"2001":-9.981081008911133,"2002":14.434974670410156,"2003":10.891216278076172,"2004":-13.472127914428711,"2005":-16.30091667175293,"2006":-8.640098571777344,"2007":-25.976520538330078,"2008":-27.306373596191406,"2009":3.6627423763275146,"2010":-14.543742179870605,"2011":-20.756845474243164,"2012":26.230915069580078,"2013":-10.783945083618164,"2014":-7.580963134765625,"2015":14.44852066040039,"2016":-7.8443756103515625,"2017":-3.2520687580108643,"2018":-14.776487350463867,"2019":30.126371383666992,"2020":4.000061511993408,"2021":-9.054183006286621,"2022":9.652918815612793,"2023":-7.108597278594971,"2024":4.088680744171143,"2025":26.024553298950195,"2026":4.607111930847168,"2027":24.300870895385742,"2028":-2.4776651859283447,"2029":16.289403915405273,"2030":29.145671844482422,"2031":-6.19261360168457,"2032":25.91526222229004,"2033":-30.84429931640625,"2034":6.9218316078186035,"2035":39.44670867919922,"2036":-45.8015251159668,"2037":-0.8383857607841492,"2038":-15.800293922424316,"2039":25.024648666381836,"2040":6.839191913604736,"2041":11.506754875183105,"2042":-8.280409812927246,"2043":-17.8693904876709,"2044":-4.501962184906006,"2045":-1.696173071861267,"2046":-7.679583549499512,"2047":-0.47209805250167847,"2048":-4.304670333862305,"2049":-9.279420852661133,"2050":-2.8141367435455322,"2051":8.205962181091309,"2052":-1.794295072555542,"2053":7.831312656402588,"2054":10.8818998336792,"2055":-2.0290448665618896,"2056":5.240203380584717,"2057":23.269643783569336,"2058":20.752513885498047,"2059":5.902202606201172,"2060":4.95933723449707,"2061":-10.431727409362793,"2062":-2.1426076889038086,"2063":6.7026190757751465,"2064":-12.80958366394043,"2065":-5.035609245300293,"2066":4.828911781311035,"2067":-16.113601684570312,"2068":-9.951327323913574,"2069":-11.078974723815918,"2070":7.472661972045898,"2071":8.898645401000977,"2072":2.0938479900360107,"2073":29.4064998626709,"2074":-23.70531463623047,"2075":4.796695232391357,"2076":10.314766883850098,"2077":1.1501282453536987,"2078":-0.02237078733742237,"2079":-14.04136848449707,"2080":13.90109634399414,"2081":6.053470611572266,"2082":-1.327630639076233,"2083":12.435957908630371,"2084":-0.896179735660553,"2085":2.829347848892212,"2086":3.1383843421936035,"2087":0.7952805757522583,"2088":13.116598129272461,"2089":12.33106517791748,"2090":2.032553195953369,"2091":-14.896347045898438,"2092":-29.851245880126953,"2093":6.546346664428711,"2094":36.7655029296875,"2095":38.20283889770508,"2096":1.9115138053894043,"2097":-8.169146537780762,"2098":7.471881866455078,"2099":16.354007720947266,"2100":29.139204025268555,"2101":-18.509376525878906,"2102":17.37320899963379,"2103":10.48768138885498,"2104":-11.213521957397461,"2105":30.905941009521484,"2106":11.688409805297852,"2107":-11.081204414367676,"2108":-1.9962825775146484,"2109":42.74946975708008,"2110":-30.176502227783203,"2111":-3.1396992206573486,"2112":13.254731178283691,"2113":-7.330303192138672,"2114":-4.662187099456787,"2115":5.9126996994018555,"2116":18.73859977722168,"2117":-23.555137634277344,"2118":8.524666786193848,"2119":-5.650580406188965,"2120":2.4723381996154785,"2121":62.95246505737305,"2122":18.070404052734375,"2123":3.95706844329834,"2124":-32.59522247314453,"2125":-16.691247940063477,"2126":17.21040916442871,"2127":-0.7331260442733765,"2128":-30.27867889404297,"2129":37.76799774169922,"2130":1.971415638923645,"2131":33.46369171142578,"2132":17.653289794921875,"2133":31.011409759521484,"2134":-1.1379494667053223,"2135":-16.294179916381836,"2136":7.293103218078613,"2137":-6.4743194580078125,"2138":3.6493146419525146,"2139":-5.342913627624512,"2140":-0.2632271349430084,"2141":-9.335335731506348,"2142":-16.588356018066406,"2143":-20.5101375579834,"2144":7.485998630523682,"2145":36.986122131347656,"2146":-11.519800186157227,"2147":9.493282318115234,"2148":-11.704452514648438,"2149":-18.251317977905273,"2150":-19.270374298095703,"2151":28.276981353759766,"2152":-28.22557830810547,"2153":-0.7499628663063049,"2154":-0.5017600059509277,"2155":34.735206604003906,"2156":-16.759675979614258,"2157":0.8674300312995911,"2158":7.09197473526001,"2159":7.307431697845459,"2160":9.42864990234375,"2161":22.953088760375977,"2162":12.52946949005127,"2163":40.645198822021484,"2164":-10.546154022216797,"2165":6.01870059967041,"2166":8.637955665588379,"2167":-10.789542198181152,"2168":-18.643413543701172,"2169":3.5324368476867676,"2170":22.071165084838867,"2171":-1.5840083360671997,"2172":-0.0037871398963034153,"2173":5.478875637054443,"2174":-0.2560984492301941,"2175":-15.23823356628418,"2176":-36.58324432373047,"2177":23.44108772277832,"2178":-7.963016033172607,"2179":-2.8036160469055176,"2180":39.55263900756836,"2181":3.6826066970825195,"2182":28.055456161499023,"2183":27.837581634521484,"2184":8.460455894470215,"2185":10.176643371582031,"2186":-30.162580490112305,"2187":-1.4157909154891968,"2188":-11.777326583862305,"2189":15.383926391601562,"2190":2.0653083324432373,"2191":-47.05099105834961,"2192":-1.782957911491394,"2193":16.22321128845215,"2194":38.82564926147461,"2195":14.205360412597656,"2196":-23.642793655395508,"2197":-39.12691116333008,"2198":-14.759964942932129,"2199":13.465706825256348,"2200":9.058934211730957,"2201":7.203601360321045,"2202":18.4289608001709,"2203":-15.435030937194824,"2204":-2.071075916290283,"2205":-28.082962036132812,"2206":-10.156045913696289,"2207":48.96895217895508,"2208":12.056446075439453,"2209":14.703839302062988,"2210":14.567137718200684,"2211":1.45769464969635,"2212":18.120800018310547,"2213":3.3121883869171143,"2214":-15.553451538085938,"2215":9.905099868774414,"2216":5.512924671173096,"2217":-29.811952590942383,"2218":-24.949161529541016,"2219":-11.399056434631348,"2220":-16.25764274597168,"2221":3.180328369140625,"2222":-14.778421401977539,"2223":0.5245960354804993,"2224":2.5089051723480225,"2225":11.577181816101074,"2226":-2.492434024810791,"2227":-14.163780212402344,"2228":-12.25332260131836,"2229":-1.733927607536316,"2230":-17.017248153686523,"2231":13.70185661315918,"2232":-21.80094337463379,"2233":-0.6961274147033691,"2234":21.90663719177246,"2235":14.172297477722168,"2236":35.35143280029297,"2237":16.992694854736328,"2238":-2.5530762672424316,"2239":-19.495075225830078,"2240":-47.01302719116211,"2241":18.91204071044922,"2242":2.9195315837860107,"2243":-5.4742536544799805,"2244":-1.3995721340179443,"2245":-3.6536948680877686,"2246":-4.685477256774902,"2247":34.094970703125,"2248":22.191207885742188,"2249":0.798607349395752,"2250":17.922622680664062,"2251":-12.781672477722168,"2252":-1.8505343198776245,"2253":2.8119328022003174,"2254":8.93844985961914,"2255":-0.19036121666431427,"2256":10.538576126098633,"2257":-8.34681510925293,"2258":-4.622194290161133,"2259":3.4110357761383057,"2260":-8.236355781555176,"2261":-12.810359001159668,"2262":-0.11552734673023224,"2263":-5.221654891967773,"2264":3.8065812587738037,"2265":-15.50403118133545,"2266":-3.585308074951172,"2267":15.6654634475708,"2268":10.034024238586426,"2269":-2.600447416305542,"2270":-10.725137710571289,"2271":-3.5117239952087402,"2272":4.787197589874268,"2273":3.913386821746826,"2274":8.458104133605957,"2275":12.292438507080078,"2276":-18.00155258178711,"2277":-15.430005073547363,"2278":1.703944206237793,"2279":9.193384170532227,"2280":14.661940574645996,"2281":-8.280486106872559,"2282":3.965031385421753,"2283":-17.136730194091797,"2284":8.611677169799805,"2285":1.5891170501708984,"2286":6.877324104309082,"2287":-1.8007025718688965,"2288":11.478350639343262,"2289":12.859073638916016,"2290":7.50142765045166,"2291":10.361836433410645,"2292":-18.208389282226562,"2293":-6.434399127960205,"2294":0.17190799117088318,"2295":-11.921833038330078,"2296":-30.001724243164062,"2297":-15.598079681396484,"2298":3.571467876434326,"2299":-23.239633560180664,"2300":21.589529037475586,"2301":-24.799650192260742,"2302":9.736672401428223,"2303":-5.2838826179504395,"2304":-11.934473991394043,"2305":4.741424560546875,"2306":-37.483787536621094,"2307":41.66801834106445,"2308":-21.11742401123047,"2309":3.358187198638916,"2310":-9.362955093383789,"2311":14.661370277404785,"2312":3.562013864517212,"2313":-13.815455436706543,"2314":-29.61009979248047,"2315":8.435993194580078,"2316":16.042184829711914,"2317":-22.12275505065918,"2318":-25.776073455810547,"2319":-10.46351432800293,"2320":20.78458595275879,"2321":-1.5584853887557983,"2322":-13.794821739196777,"2323":15.427011489868164,"2324":1.5101726055145264,"2325":5.392988204956055,"2326":6.506296157836914,"2327":10.784709930419922,"2328":-5.278717041015625,"2329":14.382763862609863,"2330":7.253594875335693,"2331":-6.478431701660156,"2332":5.09078311920166,"2333":3.0340323448181152,"2334":-20.345928192138672,"2335":-27.293882369995117,"2336":-24.920230865478516,"2337":12.69870662689209,"2338":-4.496489524841309,"2339":6.296159744262695,"2340":-0.6282864212989807,"2341":-8.595191955566406,"2342":14.129402160644531,"2343":15.160598754882812,"2344":-0.30435410141944885,"2345":6.548538684844971,"2346":-20.750722885131836,"2347":-28.811540603637695,"2348":-28.058242797851562,"2349":-35.37106704711914,"2350":-8.61532211303711,"2351":-13.359232902526855,"2352":16.46942710876465,"2353":0.6608650088310242,"2354":-18.565603256225586,"2355":10.024230003356934,"2356":46.93824768066406,"2357":1.35466730594635,"2358":-13.136266708374023,"2359":-5.466463565826416,"2360":-22.74355125427246,"2361":1.3334522247314453,"2362":-18.399503707885742,"2363":5.6838507652282715,"2364":6.988210678100586,"2365":-27.875022888183594,"2366":-5.492790222167969,"2367":1.3194854259490967,"2368":13.555173873901367,"2369":6.036009788513184,"2370":24.58478546142578,"2371":-34.94204330444336,"2372":-31.6422061920166,"2373":24.344181060791016,"2374":-10.308146476745605,"2375":-30.73555564880371,"2376":18.358186721801758,"2377":-38.37713623046875,"2378":3.050075054168701,"2379":38.4166145324707,"2380":-24.078739166259766,"2381":6.530919551849365,"2382":3.7380566596984863,"2383":-8.855957984924316,"2384":17.67251205444336,"2385":17.00444984436035,"2386":21.01043701171875,"2387":2.3059399127960205,"2388":33.473018646240234,"2389":-23.554536819458008,"2390":2.676697254180908,"2391":8.218687057495117,"2392":0.1582794338464737,"2393":-7.942734241485596,"2394":4.418914794921875,"2395":-25.157182693481445,"2396":10.587931632995605,"2397":11.727877616882324,"2398":0.08279292285442352,"2399":12.626042366027832,"2400":7.630752086639404,"2401":-10.95317554473877,"2402":-5.107058525085449,"2403":12.950075149536133,"2404":-11.142573356628418,"2405":-20.04243278503418,"2406":13.684452056884766,"2407":6.627999305725098,"2408":-6.930241584777832,"2409":4.43646240234375,"2410":15.619638442993164,"2411":-40.370826721191406,"2412":-2.2317276000976562,"2413":4.757154941558838,"2414":25.144119262695312,"2415":-2.5409908294677734,"2416":-14.974138259887695,"2417":26.0441837310791,"2418":20.035743713378906,"2419":-19.694351196289062,"2420":0.2786540389060974,"2421":-7.917940139770508,"2422":3.9524881839752197,"2423":0.9819201827049255,"2424":9.949409484863281,"2425":-0.8273744583129883,"2426":15.029623031616211,"2427":-11.525699615478516,"2428":3.770620346069336,"2429":7.4423418045043945,"2430":16.276931762695312,"2431":8.440664291381836,"2432":-5.174348831176758,"2433":-2.8753061294555664,"2434":27.16787338256836,"2435":-4.731502532958984,"2436":14.254387855529785,"2437":0.9514119625091553,"2438":2.394868850708008,"2439":-21.348045349121094,"2440":-13.90385913848877,"2441":30.494199752807617,"2442":6.1180620193481445,"2443":6.529178142547607,"2444":18.358089447021484,"2445":-5.532161712646484,"2446":-25.692991256713867,"2447":-1.1930389404296875,"2448":-30.42685317993164,"2449":-16.835865020751953,"2450":-4.310970783233643,"2451":-2.936609983444214,"2452":-4.120048522949219,"2453":0.01464102417230606,"2454":-7.433172225952148,"2455":-5.172418117523193,"2456":-14.098596572875977,"2457":18.803863525390625,"2458":24.73145866394043,"2459":19.99581527709961,"2460":29.383569717407227,"2461":-13.079719543457031,"2462":-23.06886100769043,"2463":-15.446945190429688,"2464":-1.2821574211120605,"2465":-22.14337158203125,"2466":10.559700012207031,"2467":-15.206567764282227,"2468":34.852752685546875,"2469":9.216310501098633,"2470":5.0511064529418945,"2471":-23.37195587158203,"2472":-4.557519435882568,"2473":-9.341851234436035,"2474":-5.007870674133301,"2475":-10.815020561218262,"2476":35.76715850830078,"2477":-7.978655815124512,"2478":15.282405853271484,"2479":22.094362258911133,"2480":-25.699861526489258,"2481":-12.194873809814453,"2482":-8.057044982910156,"2483":-9.769693374633789,"2484":-16.482662200927734,"2485":2.907965898513794,"2486":5.724903583526611,"2487":28.479398727416992,"2488":1.3471426963806152,"2489":1.0928815603256226,"2490":2.205052614212036,"2491":8.073854446411133,"2492":4.946272850036621,"2493":16.99213409423828,"2494":-26.434085845947266,"2495":36.20293426513672,"2496":12.155754089355469,"2497":-0.5486083626747131,"2498":16.50779151916504,"2499":-3.3261332511901855,"2500":0.2564193308353424,"2501":0.0596265010535717,"2502":-2.626973867416382,"2503":0.1861179620027542,"2504":1.047385334968567,"2505":-0.6469284296035767,"2506":1.2186170816421509,"2507":0.46659111976623535,"2508":-0.09172157198190689,"2509":1.5421221256256104,"2510":-4.088574409484863,"2511":-1.8498984575271606,"2512":1.5418072938919067,"2513":1.0234674215316772,"2514":-1.7241569757461548,"2515":1.9720653295516968,"2516":2.7102057933807373,"2517":1.6031174659729004,"2518":2.6052677631378174,"2519":-1.1833012104034424,"2520":-0.4211384654045105,"2521":2.0062038898468018,"2522":0.41432470083236694,"2523":2.9429783821105957,"2524":-0.5227213501930237,"2525":-2.7769572734832764,"2526":3.935107946395874,"2527":-0.3965934216976166,"2528":1.1754302978515625,"2529":-1.3235440254211426,"2530":1.1941362619400024,"2531":0.924016535282135,"2532":0.3713109493255615,"2533":-4.8703789710998535,"2534":2.2224647998809814,"2535":0.8739200830459595,"2536":-4.1701741218566895,"2537":2.053239107131958,"2538":-1.6103501319885254,"2539":0.8016077280044556,"2540":2.165442943572998,"2541":2.2999746799468994,"2542":2.383408784866333,"2543":-2.491741180419922,"2544":-0.21031953394412994,"2545":-2.045543909072876,"2546":1.8224631547927856,"2547":1.1478267908096313,"2548":-1.3351894617080688,"2549":-2.3119821548461914,"2550":1.964043378829956,"2551":-0.08211011439561844,"2552":-0.8404632210731506,"2553":2.183570384979248,"2554":-4.216104984283447,"2555":-2.461474895477295,"2556":-0.060723211616277695,"2557":-2.654711961746216,"2558":-2.3265349864959717,"2559":1.252905011177063,"2560":0.6414879560470581,"2561":-1.9910632371902466,"2562":1.1624600887298584,"2563":3.3852152824401855,"2564":-0.5235019326210022,"2565":0.5842638611793518,"2566":-1.6126655340194702,"2567":0.7271403670310974,"2568":-2.3789334297180176,"2569":-1.3635766506195068,"2570":-0.6234191656112671,"2571":1.99848473072052,"2572":1.8016328811645508,"2573":2.439235210418701,"2574":1.282041311264038,"2575":0.5114766359329224,"2576":1.9079170227050781,"2577":-2.2288551330566406,"2578":1.088812232017517,"2579":0.27340391278266907,"2580":-2.1156601905822754,"2581":0.4973360598087311,"2582":-2.289405345916748,"2583":-1.5544415712356567,"2584":0.6919695734977722,"2585":2.211843490600586,"2586":-0.49748656153678894,"2587":-0.6553994417190552,"2588":1.199446678161621,"2589":-0.8339451551437378,"2590":-3.5594685077667236,"2591":-0.5206694006919861,"2592":-2.5523431301116943,"2593":-0.5565589666366577,"2594":-0.26704034209251404,"2595":-1.2363375425338745,"2596":-1.4222067594528198,"2597":-1.082396388053894,"2598":-3.031414270401001,"2599":-0.926426351070404,"2600":1.040162444114685,"2601":0.00029461810481734574,"2602":0.007407708093523979,"2603":-0.01983475312590599,"2604":0.017546404153108597,"2605":0.02663744054734707,"2606":0.028643552213907242,"2607":0.027941305190324783,"2608":0.011234428733587265,"2609":0.012611526064574718,"2610":-0.02352723479270935,"2611":0.02347833290696144,"2612":-0.030406683683395386,"2613":0.021356355398893356,"2614":0.028990034013986588,"2615":0.030303720384836197,"2616":-0.026323867961764336,"2617":-0.020373372361063957,"2618":-0.01342540793120861,"2619":-0.02031555026769638,"2620":0.006949285045266151,"2621":-0.010636230930685997,"2622":0.024181632325053215,"2623":0.030824244022369385,"2624":-0.014963429421186447,"2625":0.00556650385260582,"2626":0.0037874658592045307,"2627":-0.024707302451133728,"2628":-0.007208073977380991,"2629":0.03372129425406456,"2630":0.01618250086903572,"2631":0.014628754928708076,"2632":-0.022958628833293915,"2633":0.014130343683063984,"2634":-0.015740809962153435,"2635":0.02484271302819252,"2636":0.01897359825670719,"2637":-0.00011328965774737298,"2638":-0.022329097613692284,"2639":-0.004870148375630379,"2640":0.010074968449771404,"2641":-0.009577975608408451,"2642":-0.027775542810559273,"2643":0.01960022747516632,"2644":0.00871405377984047,"2645":-0.011225152760744095,"2646":0.02616887167096138,"2647":-0.0067201415076851845,"2648":-0.0024635076988488436,"2649":0.0016844567144289613,"2650":-0.0075738439336419106,"2651":-0.004385720938444138}},"hiddenLayers":[{"inputMatrix":{"rows":20,"columns":51,"weights":{"0":2.4716315269470215,"1":0.6884525418281555,"2":0.40686482191085815,"3":-2.9062905311584473,"4":-0.5780085921287537,"5":-2.6670358180999756,"6":0.038922470062971115,"7":-1.2622249126434326,"8":0.5340420007705688,"9":-2.4149227142333984,"10":-1.8228548765182495,"11":-0.9402965903282166,"12":-0.3024824261665344,"13":-0.7207556366920471,"14":1.5436246395111084,"15":2.4569249153137207,"16":0.654350757598877,"17":-1.5766974687576294,"18":-0.3230281174182892,"19":0.018074704334139824,"20":-1.533534049987793,"21":0.05435445159673691,"22":-2.072976589202881,"23":0.8606752753257751,"24":1.9704227447509766,"25":1.1574832201004028,"26":2.9584248065948486,"27":1.4179461002349854,"28":0.9925211668014526,"29":3.5727128982543945,"30":-1.784206748008728,"31":-1.94890296459198,"32":-2.3978934288024902,"33":-2.667949676513672,"34":3.6120846271514893,"35":-1.4767227172851562,"36":1.0207467079162598,"37":2.6965315341949463,"38":-1.0666800737380981,"39":-1.8482625484466553,"40":-2.0787792205810547,"41":-2.0791800022125244,"42":-0.23832689225673676,"43":-0.3860246539115906,"44":-1.1346750259399414,"45":-1.6143180131912231,"46":-2.2932097911834717,"47":-3.3994905948638916,"48":-1.3742536306381226,"49":-1.4877119064331055,"50":-0.5869019031524658,"51":0.9983938932418823,"52":0.7151494026184082,"53":-0.5861721634864807,"54":0.7534736394882202,"55":1.4668391942977905,"56":-1.2865183353424072,"57":0.9688729643821716,"58":-0.08837026357650757,"59":1.339190125465393,"60":-0.6328670978546143,"61":2.421633005142212,"62":-2.9188296794891357,"63":2.1146538257598877,"64":-2.4374496936798096,"65":-1.6517901420593262,"66":0.035154346376657486,"67":0.312678724527359,"68":1.0726237297058105,"69":-0.39351341128349304,"70":-0.6703630685806274,"71":-1.5450271368026733,"72":-0.2840075194835663,"73":0.16715694963932037,"74":0.8810221552848816,"75":0.4626803398132324,"76":-3.0573596954345703,"77":2.9586267471313477,"78":-3.2778661251068115,"79":0.7905094027519226,"80":-0.03193704038858414,"81":-0.9276674389839172,"82":0.5251078009605408,"83":-1.8734902143478394,"84":-0.042139846831560135,"85":2.4942216873168945,"86":-1.5473339557647705,"87":0.07188356667757034,"88":0.6606431603431702,"89":-0.41806963086128235,"90":-1.250969648361206,"91":-3.133084535598755,"92":-0.9315730333328247,"93":-2.3140392303466797,"94":-0.695257842540741,"95":1.960456371307373,"96":1.7865318059921265,"97":-1.3914697170257568,"98":-0.5609542727470398,"99":-0.45969489216804504,"100":-0.9816506505012512,"101":-0.3948075771331787,"102":-0.4556121528148651,"103":0.9821478724479675,"104":-0.06945786625146866,"105":5.267787456512451,"106":0.689992368221283,"107":-0.9626611471176147,"108":0.13456284999847412,"109":-0.7990911602973938,"110":2.096369743347168,"111":0.8699856996536255,"112":-1.2190155982971191,"113":-0.5023789405822754,"114":-0.8199467658996582,"115":1.5519307851791382,"116":1.772930383682251,"117":2.154177188873291,"118":-2.2659759521484375,"119":-5.310925483703613,"120":-2.750880241394043,"121":1.0660980939865112,"122":-1.3161633014678955,"123":-0.8139218091964722,"124":-0.38084354996681213,"125":0.3334196209907532,"126":1.2076544761657715,"127":2.6555328369140625,"128":-1.1751121282577515,"129":0.6792736053466797,"130":0.04600953310728073,"131":1.2909424304962158,"132":2.8094191551208496,"133":-0.376471608877182,"134":-1.836681842803955,"135":0.8944990038871765,"136":-0.9261932969093323,"137":3.138021469116211,"138":-1.2168493270874023,"139":2.5055673122406006,"140":1.221153736114502,"141":0.04759426414966583,"142":2.074578046798706,"143":0.031598467379808426,"144":0.7203817367553711,"145":-0.40684521198272705,"146":0.4131162166595459,"147":1.3381143808364868,"148":1.2965980768203735,"149":-1.9419879913330078,"150":-0.18980513513088226,"151":-0.03957189619541168,"152":0.5650730729103088,"153":0.6397109627723694,"154":5.097006320953369,"155":1.4672229290008545,"156":-1.510309100151062,"157":0.18860134482383728,"158":-2.6267948150634766,"159":2.9011809825897217,"160":-1.7613956928253174,"161":-0.7948052883148193,"162":1.0413893461227417,"163":0.38782957196235657,"164":0.4556957185268402,"165":2.6159920692443848,"166":0.26157575845718384,"167":2.8181538581848145,"168":0.07083511352539062,"169":-0.3402082026004791,"170":1.3421717882156372,"171":-1.1678626537322998,"172":-1.8783128261566162,"173":0.27662232518196106,"174":0.8921064734458923,"175":-0.17777013778686523,"176":2.5227749347686768,"177":-0.1744295358657837,"178":-2.2491564750671387,"179":-1.9673627614974976,"180":-0.8006744980812073,"181":-0.7962702512741089,"182":1.4377456903457642,"183":-1.674041748046875,"184":0.6151003241539001,"185":-0.14362473785877228,"186":-0.7355336546897888,"187":-0.9300415515899658,"188":-1.3072941303253174,"189":3.6730971336364746,"190":-0.8787727952003479,"191":-0.3871815502643585,"192":-1.4279356002807617,"193":-0.9878934025764465,"194":-1.6073540449142456,"195":-1.735892415046692,"196":3.1245782375335693,"197":-0.4452187716960907,"198":-2.895063877105713,"199":0.3568574786186218,"200":-1.2748210430145264,"201":-1.215916395187378,"202":1.769506812095642,"203":0.846562922000885,"204":0.13052654266357422,"205":-1.4508229494094849,"206":-1.4149161577224731,"207":-0.8520727753639221,"208":3.2000722885131836,"209":-0.15755395591259003,"210":-0.4280502200126648,"211":1.0619697570800781,"212":4.078975200653076,"213":1.24574613571167,"214":-1.9193183183670044,"215":2.221994161605835,"216":-5.5357537269592285,"217":-2.116243600845337,"218":0.445543497800827,"219":0.399149626493454,"220":-2.4023849964141846,"221":-2.1236751079559326,"222":-0.4351600110530853,"223":0.05553269386291504,"224":-0.2337954044342041,"225":0.23341004550457,"226":-1.4032396078109741,"227":-0.47307896614074707,"228":-2.1327970027923584,"229":1.0910965204238892,"230":0.5986470580101013,"231":2.1351490020751953,"232":-4.599070072174072,"233":-0.8528132438659668,"234":0.7819958329200745,"235":-0.4059791564941406,"236":0.7598168253898621,"237":2.4449236392974854,"238":-0.8655661344528198,"239":-0.8837611675262451,"240":0.8919535279273987,"241":0.7072744965553284,"242":0.5604221224784851,"243":2.152836322784424,"244":0.1613796204328537,"245":1.0746957063674927,"246":1.4357366561889648,"247":-0.5671507120132446,"248":-0.8854177594184875,"249":-0.45293521881103516,"250":0.8250342011451721,"251":-2.418100118637085,"252":-0.9991247057914734,"253":-1.8485691547393799,"254":0.376608282327652,"255":1.328222393989563,"256":-3.112170934677124,"257":-2.4502718448638916,"258":-1.554958701133728,"259":-1.5094085931777954,"260":-0.6906539797782898,"261":-3.503587007522583,"262":-1.8770655393600464,"263":0.8547835946083069,"264":-0.6377814412117004,"265":0.1947336494922638,"266":-0.9034743309020996,"267":0.6254870891571045,"268":1.2535240650177002,"269":-0.9114876985549927,"270":-2.4224698543548584,"271":1.1003594398498535,"272":2.16051983833313,"273":1.488417625427246,"274":1.5406908988952637,"275":0.8069421648979187,"276":-0.5747957229614258,"277":1.9598274230957031,"278":-1.58491849899292,"279":0.451216459274292,"280":1.059517502784729,"281":0.7727559208869934,"282":-2.459991455078125,"283":1.9627246856689453,"284":-1.8726588487625122,"285":-1.1898915767669678,"286":0.7164313793182373,"287":-0.41017431020736694,"288":-2.012819528579712,"289":-1.0018283128738403,"290":2.8423259258270264,"291":-0.8454033136367798,"292":-0.06953009963035583,"293":1.2505451440811157,"294":2.828981399536133,"295":-0.7037983536720276,"296":0.587175190448761,"297":-0.42115360498428345,"298":2.21553635597229,"299":-2.2263219356536865,"300":-1.3377765417099,"301":-4.651638507843018,"302":1.465326189994812,"303":1.501891016960144,"304":0.535240888595581,"305":4.154290199279785,"306":1.0295244455337524,"307":4.788363456726074,"308":0.15498808026313782,"309":-0.7668669819831848,"310":0.4110580384731293,"311":-1.5831356048583984,"312":0.1348091959953308,"313":0.5871260762214661,"314":3.7251029014587402,"315":1.0040236711502075,"316":1.0030971765518188,"317":-1.4812301397323608,"318":-0.11595121771097183,"319":-1.3904920816421509,"320":1.2624629735946655,"321":-1.8637357950210571,"322":-2.298313617706299,"323":0.16421353816986084,"324":-2.9509732723236084,"325":-0.7029486298561096,"326":1.798871636390686,"327":-4.833320617675781,"328":-2.55853271484375,"329":-1.1331202983856201,"330":1.4692082405090332,"331":1.2736971378326416,"332":-4.546041965484619,"333":1.047558069229126,"334":-1.7555021047592163,"335":0.8403162956237793,"336":-0.901962161064148,"337":-2.3122427463531494,"338":-0.22345666587352753,"339":2.169666290283203,"340":-1.7490696907043457,"341":1.4182385206222534,"342":-1.224808931350708,"343":2.3842265605926514,"344":-0.2542611360549927,"345":-0.8031900525093079,"346":2.279102087020874,"347":-1.2152338027954102,"348":-0.4646866023540497,"349":-1.2836610078811646,"350":2.515507698059082,"351":-0.019711416214704514,"352":3.037334680557251,"353":-1.3645579814910889,"354":2.924715757369995,"355":0.6361094117164612,"356":1.47686767578125,"357":-1.4004627466201782,"358":-1.9280143976211548,"359":0.7566607594490051,"360":1.994527816772461,"361":1.775115966796875,"362":1.4707087278366089,"363":1.7020527124404907,"364":0.40201881527900696,"365":2.619758367538452,"366":-2.8669285774230957,"367":2.1095805168151855,"368":1.068900227546692,"369":-0.08768516033887863,"370":-1.3280465602874756,"371":-0.8511231541633606,"372":-0.6222952008247375,"373":-1.085583209991455,"374":-1.843577265739441,"375":-0.03077482245862484,"376":-0.7880116105079651,"377":-0.19502493739128113,"378":-0.38769784569740295,"379":0.43338149785995483,"380":0.3940722942352295,"381":0.5358703136444092,"382":-1.1812081336975098,"383":0.3850114941596985,"384":-0.20981311798095703,"385":-0.5855221152305603,"386":0.22621318697929382,"387":2.8212223052978516,"388":0.7379743456840515,"389":-0.5150526165962219,"390":0.14424100518226624,"391":1.8855502605438232,"392":-1.6486560106277466,"393":0.9864130616188049,"394":-1.4974112510681152,"395":-3.0555474758148193,"396":-0.6458683609962463,"397":0.5287533402442932,"398":-1.6585485935211182,"399":-0.4853399097919464,"400":-0.9532569050788879,"401":-0.6648377180099487,"402":3.489949941635132,"403":2.241760730743408,"404":0.8746782541275024,"405":-2.2562785148620605,"406":1.2468725442886353,"407":0.49581006169319153,"408":-0.4998832046985626,"409":-0.8186898231506348,"410":1.0316826105117798,"411":-0.1878463625907898,"412":0.6780319809913635,"413":1.5337327718734741,"414":2.556540012359619,"415":0.6271826028823853,"416":0.781229555606842,"417":0.9806928038597107,"418":1.9281548261642456,"419":1.8895186185836792,"420":-0.7212163209915161,"421":0.03147823363542557,"422":0.816531240940094,"423":-0.5271068811416626,"424":1.0032621622085571,"425":-1.5237910747528076,"426":-0.6258071064949036,"427":3.026881694793701,"428":-0.18168728053569794,"429":-1.7487943172454834,"430":1.9013973474502563,"431":0.799723207950592,"432":0.9179426431655884,"433":-2.489311695098877,"434":0.7113898992538452,"435":-0.36901119351387024,"436":-0.37995025515556335,"437":-0.6087126135826111,"438":1.2609912157058716,"439":1.202933430671692,"440":0.2522076964378357,"441":-2.0365631580352783,"442":-1.2400716543197632,"443":-2.1199986934661865,"444":0.23618674278259277,"445":-2.4365034103393555,"446":-1.8772664070129395,"447":-1.2897971868515015,"448":-1.5431079864501953,"449":-0.37015780806541443,"450":1.7555700540542603,"451":0.48857370018959045,"452":1.3156919479370117,"453":-1.3269344568252563,"454":0.3745400607585907,"455":-1.4878062009811401,"456":0.6314215660095215,"457":-2.088101863861084,"458":-0.27616187930107117,"459":-1.9934957027435303,"460":-3.1385598182678223,"461":1.3926523923873901,"462":2.5426807403564453,"463":-1.3970829248428345,"464":2.8748433589935303,"465":0.36761170625686646,"466":2.697462797164917,"467":-0.25433549284935,"468":1.264054298400879,"469":-0.1307489424943924,"470":0.6013013124465942,"471":-2.067796468734741,"472":0.1730732023715973,"473":-1.9526798725128174,"474":-0.49520939588546753,"475":0.08664362132549286,"476":-0.5668635368347168,"477":0.1197686642408371,"478":0.9405390024185181,"479":-0.45504388213157654,"480":0.789760947227478,"481":-1.5849320888519287,"482":-1.154554009437561,"483":-0.966346263885498,"484":0.9199098348617554,"485":2.6652159690856934,"486":1.687647819519043,"487":-0.7812052369117737,"488":-1.292437195777893,"489":1.3674489259719849,"490":1.671261191368103,"491":-0.6267016530036926,"492":0.4579714834690094,"493":-0.11456120014190674,"494":0.9737639427185059,"495":-0.8341602683067322,"496":0.8718813061714172,"497":0.12342853844165802,"498":1.3212765455245972,"499":0.8347800374031067,"500":0.6585550308227539,"501":1.8475735187530518,"502":0.2536974847316742,"503":0.9296603202819824,"504":1.752912163734436,"505":1.0041431188583374,"506":-0.793721616268158,"507":-2.5001614093780518,"508":-1.4680218696594238,"509":-1.1039034128189087,"510":-0.8756834864616394,"511":0.9465468525886536,"512":-3.8613600730895996,"513":2.908278703689575,"514":2.527129650115967,"515":1.8959686756134033,"516":-1.846567153930664,"517":0.9051412343978882,"518":0.5731334686279297,"519":-1.1343097686767578,"520":-3.0671138763427734,"521":-0.3129177391529083,"522":-0.4998553693294525,"523":0.2536960244178772,"524":-0.6917515993118286,"525":-0.9739168286323547,"526":-1.3499131202697754,"527":-3.0032598972320557,"528":-1.7622849941253662,"529":-0.9391171932220459,"530":2.15854811668396,"531":-3.215204954147339,"532":0.5210019946098328,"533":-1.5845459699630737,"534":-1.0925472974777222,"535":1.2077337503433228,"536":1.387216329574585,"537":0.5094329118728638,"538":1.6666311025619507,"539":-1.1444751024246216,"540":2.665632963180542,"541":1.4234660863876343,"542":-0.4913400411605835,"543":1.0027116537094116,"544":0.39420926570892334,"545":0.8909180760383606,"546":-2.2427566051483154,"547":-0.07341886311769485,"548":0.4403347671031952,"549":-0.4176120460033417,"550":-1.2459139823913574,"551":-1.04209566116333,"552":-0.8875244855880737,"553":-1.2546559572219849,"554":0.8827269673347473,"555":4.878211498260498,"556":-0.15071319043636322,"557":0.7650204300880432,"558":0.10649248212575912,"559":0.25391238927841187,"560":-0.08859576284885406,"561":0.22402912378311157,"562":-0.7241424322128296,"563":-0.6132025122642517,"564":-1.9100335836410522,"565":-2.082634210586548,"566":-3.3256375789642334,"567":-0.5820680260658264,"568":-1.673556923866272,"569":-0.01551948394626379,"570":0.2733542323112488,"571":0.08281493932008743,"572":-0.925800085067749,"573":1.1130975484848022,"574":2.1820125579833984,"575":-1.4163047075271606,"576":0.9688336849212646,"577":-0.9760643839836121,"578":0.16021311283111572,"579":0.6806125044822693,"580":0.7733078598976135,"581":-1.4795559644699097,"582":0.661562979221344,"583":-2.1765942573547363,"584":1.9233005046844482,"585":-0.9878227114677429,"586":0.8318648338317871,"587":1.7606583833694458,"588":2.242950916290283,"589":-2.2964279651641846,"590":-2.2750778198242188,"591":-2.716413736343384,"592":1.0822848081588745,"593":-1.2639243602752686,"594":1.4212441444396973,"595":1.878769040107727,"596":1.164312720298767,"597":0.18317492306232452,"598":3.323983669281006,"599":-1.6379778385162354,"600":1.7536325454711914,"601":0.6456555128097534,"602":1.0105518102645874,"603":-0.07620035111904144,"604":-0.7963531613349915,"605":-0.5625749230384827,"606":0.24280211329460144,"607":1.0697308778762817,"608":-3.802795886993408,"609":-0.6733055710792542,"610":-1.2325880527496338,"611":1.5022326707839966,"612":0.20854319632053375,"613":-1.261059045791626,"614":-2.0055906772613525,"615":-3.2580461502075195,"616":-0.9459091424942017,"617":-2.328472852706909,"618":-3.8434133529663086,"619":-0.29463309049606323,"620":-2.5065112113952637,"621":-2.584519386291504,"622":0.5321193933486938,"623":-2.84689998626709,"624":1.0908737182617188,"625":2.236567497253418,"626":-1.5012460947036743,"627":1.1881537437438965,"628":0.6082601547241211,"629":-0.08487311005592346,"630":0.809021532535553,"631":-0.37451815605163574,"632":0.07707912474870682,"633":-4.025873184204102,"634":2.437131404876709,"635":1.5342602729797363,"636":0.9818286299705505,"637":2.7551751136779785,"638":-0.5197729468345642,"639":0.45535778999328613,"640":2.467097759246826,"641":0.5199486613273621,"642":1.9312286376953125,"643":-1.0588570833206177,"644":0.22311928868293762,"645":0.7834336161613464,"646":-0.9419457912445068,"647":3.093996047973633,"648":0.7616503238677979,"649":2.0153653621673584,"650":-0.3353845179080963,"651":-1.3746933937072754,"652":-1.508409023284912,"653":-1.253306269645691,"654":-0.7492170929908752,"655":-0.06822458654642105,"656":-2.037752151489258,"657":-2.664733409881592,"658":-3.921445846557617,"659":-0.27810290455818176,"660":1.4670976400375366,"661":0.1760687530040741,"662":2.665525436401367,"663":0.45959770679473877,"664":-0.5553876757621765,"665":-0.7443335652351379,"666":0.29050490260124207,"667":-2.8261868953704834,"668":0.6463677287101746,"669":0.5319673418998718,"670":3.6780319213867188,"671":0.0816688984632492,"672":-0.002559560351073742,"673":1.0233768224716187,"674":-0.483018696308136,"675":-0.24721141159534454,"676":0.06490805745124817,"677":0.5908610224723816,"678":-1.5698840618133545,"679":2.0857958793640137,"680":0.5388780236244202,"681":-1.577515959739685,"682":2.592531681060791,"683":0.07730717211961746,"684":-0.6132214665412903,"685":2.5204315185546875,"686":-4.11122465133667,"687":0.4963350296020508,"688":0.6011481285095215,"689":1.2497719526290894,"690":-0.30540719628334045,"691":-0.5037803053855896,"692":1.001279592514038,"693":-0.3574412167072296,"694":-0.778174102306366,"695":0.5662465691566467,"696":-0.22764334082603455,"697":0.4131883978843689,"698":-0.358846515417099,"699":-3.123255729675293,"700":-2.305682420730591,"701":-0.1362159550189972,"702":-0.3133981227874756,"703":-2.401245355606079,"704":-0.1690148264169693,"705":-0.7320260405540466,"706":-0.8093311190605164,"707":0.6857694983482361,"708":-3.3274736404418945,"709":0.24730606377124786,"710":1.7149436473846436,"711":1.4544464349746704,"712":0.6595891714096069,"713":-3.147451162338257,"714":0.009733223356306553,"715":-2.4142658710479736,"716":-0.14520950615406036,"717":1.027037501335144,"718":-0.2960375249385834,"719":-2.849560022354126,"720":-2.2186787128448486,"721":-0.11915940791368484,"722":-3.2815489768981934,"723":0.8145995140075684,"724":1.3555971384048462,"725":-0.8641263842582703,"726":1.1810699701309204,"727":-2.608419418334961,"728":-1.8221793174743652,"729":-0.9243624210357666,"730":0.2693915069103241,"731":-0.6127787232398987,"732":1.8727233409881592,"733":0.25018981099128723,"734":-2.375028610229492,"735":1.5730345249176025,"736":-0.694692850112915,"737":1.172985315322876,"738":-2.868720531463623,"739":1.7303376197814941,"740":0.3704804480075836,"741":1.915635347366333,"742":2.987391710281372,"743":-1.4430519342422485,"744":0.08663945645093918,"745":-0.854006826877594,"746":-2.6673107147216797,"747":0.9121642708778381,"748":1.5947213172912598,"749":2.735671281814575,"750":-1.585400104522705,"751":0.7974491715431213,"752":1.8552932739257812,"753":2.7429580688476562,"754":0.5782862901687622,"755":0.8896183371543884,"756":-2.028273820877075,"757":-1.963916540145874,"758":-2.2363154888153076,"759":1.5938054323196411,"760":-1.5739330053329468,"761":-1.0022618770599365,"762":0.5816996693611145,"763":-0.40446504950523376,"764":2.12538743019104,"765":1.7123993635177612,"766":-0.012932075187563896,"767":-0.8039094805717468,"768":1.3392465114593506,"769":-2.6661481857299805,"770":-0.4488864839076996,"771":-1.2459497451782227,"772":-1.1638737916946411,"773":-2.69097900390625,"774":1.6549264192581177,"775":-1.975777506828308,"776":2.3878684043884277,"777":3.2995736598968506,"778":2.736030101776123,"779":0.3063155710697174,"780":1.894024133682251,"781":-0.3930220901966095,"782":-1.453507423400879,"783":1.2144466638565063,"784":-1.6951903104782104,"785":-0.19631974399089813,"786":2.6479532718658447,"787":-2.2762908935546875,"788":1.3815412521362305,"789":-0.14231081306934357,"790":0.28643539547920227,"791":0.9622230529785156,"792":-1.0540014505386353,"793":0.5317883491516113,"794":0.8327590227127075,"795":3.520655393600464,"796":0.256668359041214,"797":-0.429165780544281,"798":-2.4671785831451416,"799":0.3512750267982483,"800":-0.7494841814041138,"801":1.708356499671936,"802":-0.21577024459838867,"803":2.435688018798828,"804":-0.7080078125,"805":1.4484409093856812,"806":0.2394234538078308,"807":-1.3099817037582397,"808":0.5554082989692688,"809":-1.5841418504714966,"810":-1.7394572496414185,"811":0.5883099436759949,"812":1.5225797891616821,"813":0.13818396627902985,"814":0.6008877754211426,"815":0.30871784687042236,"816":-1.9477386474609375,"817":0.265352725982666,"818":0.51047283411026,"819":1.1433181762695312,"820":2.1672017574310303,"821":3.2699127197265625,"822":2.4069533348083496,"823":0.5828058123588562,"824":2.328852415084839,"825":-1.8287250995635986,"826":0.8357471227645874,"827":2.647972345352173,"828":-1.0550031661987305,"829":-1.7861524820327759,"830":0.6769976615905762,"831":0.12439586222171783,"832":-1.6467163562774658,"833":-0.9191863536834717,"834":-0.05869417265057564,"835":0.704494833946228,"836":-1.2069905996322632,"837":-0.5286349654197693,"838":-0.2818792760372162,"839":-0.08170060813426971,"840":3.5281357765197754,"841":-0.9054009914398193,"842":-1.7184319496154785,"843":0.2919725179672241,"844":-2.456796169281006,"845":-0.3945777714252472,"846":0.48138847947120667,"847":1.094689130783081,"848":0.9319064021110535,"849":-1.3531773090362549,"850":-0.13597708940505981,"851":-0.13816022872924805,"852":2.3188090324401855,"853":-1.870239019393921,"854":0.19125524163246155,"855":0.09496424347162247,"856":0.3663528263568878,"857":-0.3236892521381378,"858":3.713880777359009,"859":-0.8778470754623413,"860":-0.24660450220108032,"861":0.8094469308853149,"862":1.89645516872406,"863":-1.4361810684204102,"864":-1.830504059791565,"865":1.8553296327590942,"866":-1.1085405349731445,"867":-0.587073564529419,"868":2.3815813064575195,"869":0.7563227415084839,"870":-1.1896300315856934,"871":-1.266080379486084,"872":-0.09434553980827332,"873":0.4004341959953308,"874":0.0005514863296411932,"875":2.7837066650390625,"876":0.0844840407371521,"877":-0.5852566957473755,"878":-1.0186188220977783,"879":-1.0270533561706543,"880":-0.07202998548746109,"881":-0.4393005669116974,"882":-1.2908767461776733,"883":2.6218154430389404,"884":0.6088973879814148,"885":2.2323977947235107,"886":1.5409554243087769,"887":0.017216656357049942,"888":-2.3587515354156494,"889":-0.11816644668579102,"890":-1.3624333143234253,"891":-0.9545365571975708,"892":-2.0072598457336426,"893":-0.8871703147888184,"894":0.3083426356315613,"895":-1.870687484741211,"896":0.0602426640689373,"897":-1.6978216171264648,"898":0.7737868428230286,"899":-1.1155943870544434,"900":1.1416257619857788,"901":-2.077493906021118,"902":0.01808786764740944,"903":-0.0011341437930241227,"904":0.3725036680698395,"905":-2.0559921264648438,"906":0.30215227603912354,"907":-0.28066062927246094,"908":1.9704620838165283,"909":1.228344202041626,"910":1.846305012702942,"911":0.6272125244140625,"912":0.3323631286621094,"913":-0.18992727994918823,"914":-0.2153368592262268,"915":0.5982264876365662,"916":1.099653720855713,"917":-0.023517470806837082,"918":-1.6970351934432983,"919":-2.9431192874908447,"920":3.98038911819458,"921":2.4385428428649902,"922":0.6327884197235107,"923":3.9131360054016113,"924":1.2823272943496704,"925":1.7244776487350464,"926":0.8982341885566711,"927":-1.5553101301193237,"928":3.5595855712890625,"929":1.661576747894287,"930":1.639412522315979,"931":-1.525648593902588,"932":-0.2907264232635498,"933":-2.8798744678497314,"934":0.16036005318164825,"935":1.9176303148269653,"936":-0.536094605922699,"937":-0.038620807230472565,"938":0.3494243323802948,"939":1.8528971672058105,"940":-1.2512354850769043,"941":-0.6530528664588928,"942":-1.1770594120025635,"943":0.10559456795454025,"944":0.6052744388580322,"945":-2.132639169692993,"946":0.42951643466949463,"947":-0.5458390712738037,"948":-2.512580156326294,"949":0.25436753034591675,"950":0.38345369696617126,"951":0.37786656618118286,"952":2.833828926086426,"953":-1.5368417501449585,"954":-2.2966442108154297,"955":0.6275211572647095,"956":-1.1860637664794922,"957":2.771341562271118,"958":-0.45050621032714844,"959":-1.0984264612197876,"960":-0.6036109328269958,"961":-0.26774388551712036,"962":2.5689823627471924,"963":0.0036937417462468147,"964":3.2103497982025146,"965":-1.3085908889770508,"966":-0.7223718762397766,"967":1.2160329818725586,"968":-0.4116036593914032,"969":-3.0306432247161865,"970":-2.801799774169922,"971":1.7970325946807861,"972":0.9944585561752319,"973":0.12252501398324966,"974":1.7107025384902954,"975":-0.7605381608009338,"976":0.7878404855728149,"977":1.5394930839538574,"978":-0.2033122479915619,"979":2.010457992553711,"980":-1.0693471431732178,"981":0.4631192088127136,"982":3.1658241748809814,"983":0.44663065671920776,"984":0.6851629614830017,"985":-1.3778910636901855,"986":-0.8573712110519409,"987":-1.0145267248153687,"988":-1.3943676948547363,"989":-1.478987216949463,"990":1.9090176820755005,"991":1.4609920978546143,"992":3.340623378753662,"993":0.8119500875473022,"994":0.9315279722213745,"995":-1.984278917312622,"996":0.13414667546749115,"997":0.435789555311203,"998":-1.3411377668380737,"999":-1.3764817714691162,"1000":-0.6435032486915588,"1001":1.6167563199996948,"1002":-2.593921661376953,"1003":0.06787611544132233,"1004":-1.944455623626709,"1005":0.7426166534423828,"1006":0.5573158860206604,"1007":0.3116999864578247,"1008":-0.30353793501853943,"1009":-2.388774871826172,"1010":-3.6540610790252686,"1011":0.683241605758667,"1012":0.8953197002410889,"1013":-0.8952422142028809,"1014":-2.400055408477783,"1015":0.4239721894264221,"1016":-1.3275699615478516,"1017":1.2738128900527954,"1018":0.3207874298095703,"1019":0.8113147020339966}},"inputHidden":{"rows":20,"columns":20,"weights":{"0":-1.185868263244629,"1":1.3864552974700928,"2":-1.2279725074768066,"3":-2.1378417015075684,"4":3.758237600326538,"5":-0.742314338684082,"6":1.1846972703933716,"7":-1.5013184547424316,"8":1.3469754457473755,"9":0.580484926700592,"10":-0.9029606580734253,"11":-0.7330703735351562,"12":-2.456796407699585,"13":0.9014957547187805,"14":2.3688511848449707,"15":-0.6418716907501221,"16":0.4414933919906616,"17":-0.6494024395942688,"18":-0.925874650478363,"19":-5.389589309692383,"20":2.963221311569214,"21":2.48502254486084,"22":-0.6365706324577332,"23":-2.0822980403900146,"24":0.8764025568962097,"25":-2.5098907947540283,"26":0.1717115342617035,"27":1.5653008222579956,"28":1.6195650100708008,"29":-3.611309051513672,"30":1.264298915863037,"31":2.298060178756714,"32":-0.8136164546012878,"33":-1.6471959352493286,"34":0.09765054285526276,"35":2.0510964393615723,"36":3.0837793350219727,"37":0.35849469900131226,