{"type":"LSTM","options":{"inputSize":30,"inputRange":30,"hiddenLayers":[20,20],"outputSize":30,"decayRate":0.999,"smoothEps":1e-8,"regc":0.000001,"clipval":5,"maxPredictionLength":100,"dataFormatter":{"values":["well done","good","raised good","well backed","cool presentation","cool ideas","impressive job","is good","well written","wow","best scripts","have read","good use","much technical jargon","impressive speech","have improved","last script","good effort","good signposting","is present","overarching ideas","well thought","well organised","clear","concise","professional","is much","latest revision","high quality","fine execution","is satisfactory","superior quality","is adequate","good content","good flow","sound","clear effort","good intonation","solid grasp","good job","fine delivery","flawless execution","is perfect","excellent","exceptional quality","superb delivery","ideas substantiated","robust evidence","wonderful presentation","have great","potential","very engaging script","content shows","good understanding","interesting topic","impeccable script","immaculate delivery","is supporting","evidence shown","logically presented","easily follow","appropriate tone","well developed","well selected","completely addressed","very nuanced","meets requirements","good time","just nice","used natural","conversational","was coherent","appropriately changed","maintain interest","avoided filler","well adapted","demonstrated command","formal","English","when appropriate","best vocabulary","technical words","well defined","easy","interesting ideas","interesting concept","were incoherent","bad","is bad","was abrupt","should improve","presentation needs","was difficult","more varied","too long","should work","too much information","consistent colour","is difficult","better focus","is disappointing","better quality","could use","more hand","should try","should smile","when talking","would help","more friendly","presentation lacks","are unsupported","more reliable sources","need better","not convincing","be feasible","too tense","not consistent","could improve","more consistent pace","other parts","too slow","general audience","should use","less technical jargon","should replace","technical jargon","are easy","more concise","not professional","more formal words","more professional","pictures used","not appropriate","more formal","when speaking","be more","to rehearse more","have poor","was hard","to look more","font used","too small","were distracting","too distracting","overly use","should rehearse","badly prepared","is obvious","are reading","more confident","convincing","is more","too many","awkward","should look","maintain eye"],"indexTable":{"w":0,"e":1,"l":2," ":3,"d":4,"o":5,"n":6,"g":7,"r":8,"a":9,"i":10,"s":11,"b":12,"c":13,"k":14,"p":15,"t":16,"m":17,"v":18,"j":19,"h":20,"u":21,"f":22,"q":23,"y":24,"x":25,"E":26,"stop-input":27,"start-output":28,"unrecognized":29},"characterTable":{"0":"w","1":"e","2":"l","3":" ","4":"d","5":"o","6":"n","7":"g","8":"r","9":"a","10":"i","11":"s","12":"b","13":"c","14":"k","15":"p","16":"t","17":"m","18":"v","19":"j","20":"h","21":"u","22":"f","23":"q","24":"y","25":"x","26":"E","27":null,"28":null,"29":null},"characters":["w","e","l"," ","d","o","n","g","r","a","i","s","b","c","k","p","t","m","v","j","h","u","f","q","y","x","E","stop-input","start-output","unrecognized"],"specialIndexes":[27,28,29]}},"input":{"rows":31,"columns":30,"weights":{"0":1.482377290725708,"1":3.1462621688842773,"2":0.9551605582237244,"3":-2.811601400375366,"4":-0.46163609623908997,"5":0.5166398286819458,"6":-2.5999350547790527,"7":-2.190107822418213,"8":1.2906157970428467,"9":-0.7653894424438477,"10":-0.8897561430931091,"11":1.278943419456482,"12":-3.509218454360962,"13":-0.2867145836353302,"14":1.4558658599853516,"15":0.5838060975074768,"16":4.586399555206299,"17":-1.4850107431411743,"18":-4.497048854827881,"19":-2.686659336090088,"20":-1.5874125957489014,"21":1.4123470783233643,"22":-3.5294134616851807,"23":-0.4645211100578308,"24":-1.2950433492660522,"25":-1.4554823637008667,"26":2.493163585662842,"27":-0.8451628088951111,"28":2.5713179111480713,"29":6.466583728790283,"30":15.62108325958252,"31":0.2763872742652893,"32":-1.9975935220718384,"33":2.2790205478668213,"34":-3.8845231533050537,"35":4.072560787200928,"36":12.289908409118652,"37":-13.387604713439941,"38":-9.327814102172852,"39":5.992121696472168,"40":-5.115547180175781,"41":3.367486000061035,"42":-14.248305320739746,"43":-0.9342631697654724,"44":3.9154787063598633,"45":3.6773934364318848,"46":7.38620138168335,"47":-10.605727195739746,"48":-3.006962299346924,"49":2.494436264038086,"50":3.5173182487487793,"51":-7.507309913635254,"52":5.939844131469727,"53":12.712282180786133,"54":1.801308035850525,"55":1.9245585203170776,"56":-14.375988960266113,"57":0.8848524689674377,"58":-0.6627623438835144,"59":-6.663308143615723,"60":-5.8755412101745605,"61":3.347707986831665,"62":4.956701755523682,"63":-5.782630443572998,"64":2.6758947372436523,"65":-12.685358047485352,"66":-2.3335530757904053,"67":4.605224132537842,"68":-2.835693597793579,"69":-4.698572635650635,"70":-5.301149368286133,"71":-0.5163068175315857,"72":1.706493616104126,"73":-2.9213364124298096,"74":-1.6735074520111084,"75":-1.8239374160766602,"76":0.6990567445755005,"77":2.6572608947753906,"78":-8.295171737670898,"79":7.17111349105835,"80":-0.3992787003517151,"81":-5.073375225067139,"82":-5.4910054206848145,"83":-2.7140860557556152,"84":-4.019567966461182,"85":-6.650603294372559,"86":0.30720484256744385,"87":-4.176616191864014,"88":-1.6134158372879028,"89":-5.256354808807373,"90":-0.6606690287590027,"91":-0.5952209234237671,"92":9.090704917907715,"93":-2.529622793197632,"94":10.78369140625,"95":-7.313277244567871,"96":-4.560889720916748,"97":6.7900214195251465,"98":-3.171020746231079,"99":-6.946991920471191,"100":2.875993013381958,"101":0.034022945910692215,"102":0.7717559337615967,"103":-7.889543056488037,"104":-10.91411018371582,"105":-0.5525121092796326,"106":-2.9658291339874268,"107":-0.5845093727111816,"108":-8.128826141357422,"109":9.752349853515625,"110":-2.7437469959259033,"111":-0.4367537796497345,"112":-7.3169660568237305,"113":-10.36186695098877,"114":-10.984493255615234,"115":-3.197031021118164,"116":3.7146756649017334,"117":1.7813371419906616,"118":-8.675698280334473,"119":2.0454418659210205,"120":-2.2658469676971436,"121":1.9558006525039673,"122":4.165940284729004,"123":-0.7362504005432129,"124":-4.675249099731445,"125":-4.796177864074707,"126":-1.8303860425949097,"127":2.0108726024627686,"128":6.870853424072266,"129":-0.949881374835968,"130":-0.7006105184555054,"131":1.9999089241027832,"132":4.75280237197876,"133":-6.457993984222412,"134":2.6712288856506348,"135":-0.7350557446479797,"136":1.3343528509140015,"137":2.401907444000244,"138":-3.0961220264434814,"139":-1.3441940546035767,"140":2.57759165763855,"141":-4.018726348876953,"142":5.580970287322998,"143":-0.7649081945419312,"144":1.82439124584198,"145":-3.5669727325439453,"146":2.280557155609131,"147":0.3645869791507721,"148":3.9737279415130615,"149":-2.934767246246338,"150":-0.3847668468952179,"151":0.39684510231018066,"152":0.0690862312912941,"153":0.15096794068813324,"154":0.08936163783073425,"155":-0.16773225367069244,"156":0.01603780686855316,"157":0.2932049036026001,"158":-2.280513048171997,"159":-0.3333127200603485,"160":0.05547218397259712,"161":0.06957261264324188,"162":0.37201786041259766,"163":-0.0845218151807785,"164":0.08177364617586136,"165":0.06834998726844788,"166":0.011560572311282158,"167":0.028765074908733368,"168":0.1321055293083191,"169":0.004110048990696669,"170":-0.16317534446716309,"171":-0.4587154984474182,"172":-0.15843546390533447,"173":0.0025481004267930984,"174":-1.1572362184524536,"175":-0.09590849280357361,"176":0.1787795126438141,"177":-0.39436018466949463,"178":0.3544042706489563,"179":-0.3218066096305847,"180":4.571357250213623,"181":3.4668242931365967,"182":-0.24893416464328766,"183":-2.3685121536254883,"184":3.878357172012329,"185":3.723463296890259,"186":4.709096908569336,"187":-1.0802549123764038,"188":-0.2828276455402374,"189":2.4348032474517822,"190":-0.7932810187339783,"191":-3.8469619750976562,"192":-4.215852737426758,"193":3.8989052772521973,"194":1.7081124782562256,"195":3.104196548461914,"196":1.6888023614883423,"197":-2.738555908203125,"198":2.7149007320404053,"199":4.293140888214111,"200":-0.81953364610672,"201":4.840462684631348,"202":2.976214647293091,"203":0.8727064728736877,"204":-3.7139618396759033,"205":-0.8255887627601624,"206":-1.192444920539856,"207":2.530186176300049,"208":2.3353090286254883,"209":1.2385435104370117,"210":2.7304255962371826,"211":-0.29434534907341003,"212":7.4528303146362305,"213":7.111476898193359,"214":7.79779577255249,"215":-13.6083984375,"216":2.987487316131592,"217":-0.5367147922515869,"218":4.223499298095703,"219":8.714329719543457,"220":-4.693902969360352,"221":8.829276084899902,"222":0.7456157803535461,"223":1.2914499044418335,"224":-1.953852891921997,"225":-1.298468828201294,"226":6.5834503173828125,"227":-0.8959685564041138,"228":-2.504676103591919,"229":3.5966594219207764,"230":-3.7315597534179688,"231":-6.106171607971191,"232":-16.551836013793945,"233":-7.25111722946167,"234":-5.246944427490234,"235":-6.086079120635986,"236":5.789355754852295,"237":-5.217092990875244,"238":-2.653883934020996,"239":-0.607899010181427,"240":0.8763692378997803,"241":-1.9384180307388306,"242":2.671332359313965,"243":2.095503091812134,"244":-0.9322426319122314,"245":-2.487443447113037,"246":11.597811698913574,"247":0.05673670023679733,"248":2.4352641105651855,"249":5.531825065612793,"250":-7.645316123962402,"251":-1.4987412691116333,"252":-10.508400917053223,"253":-0.3780820667743683,"254":8.90403938293457,"255":3.1683032512664795,"256":4.201251029968262,"257":-0.836155354976654,"258":-0.8962554335594177,"259":-4.625976085662842,"260":4.258657932281494,"261":4.18433141708374,"262":0.9428562521934509,"263":-0.8953054547309875,"264":2.7884154319763184,"265":2.4310271739959717,"266":5.092157363891602,"267":0.8202656507492065,"268":2.0925190448760986,"269":2.365147113800049,"270":-0.9064276814460754,"271":0.9187639951705933,"272":1.9735907316207886,"273":0.14464978873729706,"274":0.8871704339981079,"275":-1.0323739051818848,"276":-1.6752537488937378,"277":0.3027208149433136,"278":0.28259405493736267,"279":0.06272412091493607,"280":-0.25458618998527527,"281":1.1536401510238647,"282":0.9025558233261108,"283":-3.490719795227051,"284":-1.3548433780670166,"285":-1.0011367797851562,"286":-0.09598658978939056,"287":-1.2183371782302856,"288":-0.3152366876602173,"289":-0.6841538548469543,"290":-0.024274960160255432,"291":0.038817185908555984,"292":0.921069324016571,"293":-0.7378228306770325,"294":-3.0521116256713867,"295":-2.446516275405884,"296":-0.6518319249153137,"297":-0.4694191515445709,"298":-0.25997278094291687,"299":0.1784563511610031,"300":-4.229218006134033,"301":8.30113410949707,"302":-7.383904457092285,"303":2.5157055854797363,"304":3.001110076904297,"305":-2.823387861251831,"306":-0.8066961169242859,"307":8.6183500289917,"308":-1.069672703742981,"309":-3.0378665924072266,"310":0.6695861220359802,"311":2.4789347648620605,"312":8.929339408874512,"313":-7.875465393066406,"314":-1.0623016357421875,"315":-8.058250427246094,"316":2.8926849365234375,"317":-9.598068237304688,"318":2.8846566677093506,"319":-2.14827036857605,"320":-0.5104839205741882,"321":0.5212311744689941,"322":-0.07348539680242538,"323":-3.8485865592956543,"324":1.1145133972167969,"325":4.097246170043945,"326":-0.34329378604888916,"327":-3.341353416442871,"328":0.9052913784980774,"329":-4.345980644226074,"330":-0.14961157739162445,"331":-0.053011149168014526,"332":-1.0484527349472046,"333":0.04120079055428505,"334":1.634003758430481,"335":-0.24937693774700165,"336":-1.1121623516082764,"337":-0.3622509837150574,"338":-1.1898339986801147,"339":2.3205924034118652,"340":-0.20262618362903595,"341":0.013949163258075714,"342":-0.9622027277946472,"343":0.562265157699585,"344":-0.03886076807975769,"345":0.7324329018592834,"346":-1.0293232202529907,"347":-2.9246013164520264,"348":-0.4722687005996704,"349":2.3179876804351807,"350":0.5364359021186829,"351":0.6207007765769958,"352":1.4459062814712524,"353":-0.6755250692367554,"354":-0.27092087268829346,"355":-0.015889830887317657,"356":-1.5582188367843628,"357":3.026611566543579,"358":-0.47001129388809204,"359":0.6940335035324097,"360":-5.752770900726318,"361":-3.8113760948181152,"362":3.929276466369629,"363":5.850983619689941,"364":-1.79642653465271,"365":-2.8806982040405273,"366":-5.042097091674805,"367":5.379566669464111,"368":-5.981035232543945,"369":-4.780650615692139,"370":0.5317951440811157,"371":4.795548439025879,"372":9.734280586242676,"373":-9.77907943725586,"374":-8.194052696228027,"375":-6.063582420349121,"376":-5.227235317230225,"377":-2.23199462890625,"378":-0.3303546607494354,"379":-2.434962511062622,"380":-1.4559741020202637,"381":-1.4555021524429321,"382":2.688361883163452,"383":-4.013827800750732,"384":-0.08184906095266342,"385":-3.8774168491363525,"386":-5.672786712646484,"387":1.463950514793396,"388":-8.984206199645996,"389":-4.811107158660889,"390":2.1052405834198,"391":0.19050925970077515,"392":9.087504386901855,"393":-4.591067790985107,"394":-3.5823240280151367,"395":-1.7511683702468872,"396":-8.865254402160645,"397":1.245907187461853,"398":8.712441444396973,"399":3.5904293060302734,"400":2.978816509246826,"401":15.071279525756836,"402":1.1235535144805908,"403":-2.414710760116577,"404":10.114736557006836,"405":14.15363883972168,"406":9.425549507141113,"407":0.4283391833305359,"408":7.232394695281982,"409":16.248302459716797,"410":2.588116407394409,"411":15.51464557647705,"412":8.690338134765625,"413":-3.6464014053344727,"414":2.0966310501098633,"415":-2.859171152114868,"416":-11.697200775146484,"417":-16.36028289794922,"418":-12.035065650939941,"419":-3.3290815353393555,"420":-5.98670768737793,"421":-4.40256929397583,"422":1.2978618144989014,"423":2.540675163269043,"424":-7.872880935668945,"425":-4.715554237365723,"426":-10.260016441345215,"427":4.642256736755371,"428":5.014371395111084,"429":-5.155251502990723,"430":11.595569610595703,"431":15.951383590698242,"432":6.191901206970215,"433":3.145285129547119,"434":-3.9144983291625977,"435":-4.319090366363525,"436":3.511650323867798,"437":8.089016914367676,"438":-12.264246940612793,"439":-6.210517883300781,"440":-0.4236861765384674,"441":11.227083206176758,"442":-1.705312967300415,"443":2.6071159839630127,"444":-7.739962577819824,"445":-11.047476768493652,"446":6.5206403732299805,"447":1.4994205236434937,"448":-9.548678398132324,"449":10.036060333251953,"450":-8.102726936340332,"451":17.95087432861328,"452":-5.256299018859863,"453":14.034279823303223,"454":6.71121072769165,"455":-4.410834789276123,"456":-4.937158107757568,"457":-12.249127388000488,"458":7.593107223510742,"459":-34.58683395385742,"460":4.040079116821289,"461":26.72176170349121,"462":-17.77007484436035,"463":15.863557815551758,"464":6.600510597229004,"465":19.761133193969727,"466":29.20111083984375,"467":-13.005535125732422,"468":-1.6883147954940796,"469":-4.751152038574219,"470":6.568400859832764,"471":-16.471179962158203,"472":39.8596076965332,"473":14.147854804992676,"474":13.346161842346191,"475":6.139254570007324,"476":-27.89423179626465,"477":-6.934550762176514,"478":19.598209381103516,"479":-12.024458885192871,"480":11.002572059631348,"481":-9.132397651672363,"482":-1.5588617324829102,"483":7.325437068939209,"484":-6.462479591369629,"485":2.707008123397827,"486":5.031436443328857,"487":-7.482930660247803,"488":-8.3345308303833,"489":9.782675743103027,"490":-4.363324165344238,"491":0.2990108132362366,"492":-10.518548011779785,"493":-2.973598003387451,"494":9.721765518188477,"495":12.19266128540039,"496":-4.651608943939209,"497":-6.1106791496276855,"498":12.485429763793945,"499":-4.1179633140563965,"500":-4.4501447677612305,"501":-5.727839469909668,"502":-4.417659759521484,"503":2.90720534324646,"504":-4.9394917488098145,"505":-0.7849586009979248,"506":-1.9152376651763916,"507":-0.5873133540153503,"508":12.27678394317627,"509":-8.245283126831055,"510":1.2386118173599243,"511":4.142185211181641,"512":-5.561303615570068,"513":4.974472522735596,"514":4.534079074859619,"515":1.914452314376831,"516":-6.669495105743408,"517":-0.6852911710739136,"518":-5.441590309143066,"519":12.80627155303955,"520":-0.3777974843978882,"521":3.1420743465423584,"522":-3.837129831314087,"523":3.1091463565826416,"524":-6.428676605224609,"525":-2.395291566848755,"526":-9.286595344543457,"527":-9.172830581665039,"528":3.4432759284973145,"529":0.26992812752723694,"530":3.3685688972473145,"531":-2.265310525894165,"532":3.332897424697876,"533":2.188913583755493,"534":4.768431186676025,"535":3.50242280960083,"536":-9.608637809753418,"537":1.693224310874939,"538":-5.510550022125244,"539":-2.6749112606048584,"540":4.131932735443115,"541":-8.84066390991211,"542":-5.594363212585449,"543":-8.882445335388184,"544":1.4557771682739258,"545":1.485277533531189,"546":0.4079265594482422,"547":-0.32717886567115784,"548":10.522598266601562,"549":3.507765293121338,"550":-2.10880970954895,"551":-10.047992706298828,"552":1.9680699110031128,"553":12.857026100158691,"554":1.0702139139175415,"555":12.660123825073242,"556":-2.8533666133880615,"557":8.556201934814453,"558":11.228280067443848,"559":2.552804470062256,"560":7.852591037750244,"561":7.662241458892822,"562":1.156309723854065,"563":-4.244106769561768,"564":0.9867625832557678,"565":6.787289142608643,"566":7.4132585525512695,"567":13.422266006469727,"568":-0.5589684247970581,"569":14.676563262939453,"570":1.4267206192016602,"571":-13.21285629272461,"572":22.889020919799805,"573":-10.53190803527832,"574":6.1987714767456055,"575":4.141378402709961,"576":-5.3214006423950195,"577":1.5565370321273804,"578":0.2740149199962616,"579":4.4104695320129395,"580":-9.435657501220703,"581":-10.464363098144531,"582":-10.238164901733398,"583":-13.816967964172363,"584":-12.700745582580566,"585":-6.079413414001465,"586":-11.784470558166504,"587":4.2746710777282715,"588":-0.17410407960414886,"589":1.7301172018051147,"590":4.417966365814209,"591":-5.934727191925049,"592":-2.0493719577789307,"593":-26.845043182373047,"594":-16.51436424255371,"595":-6.364733695983887,"596":1.526879072189331,"597":-1.0675687789916992,"598":8.422609329223633,"599":-2.501913070678711,"600":-0.17200517654418945,"601":16.941017150878906,"602":-18.36971092224121,"603":4.203305721282959,"604":3.6801583766937256,"605":-24.65433692932129,"606":0.8696328401565552,"607":24.457162857055664,"608":19.1982364654541,"609":26.432249069213867,"610":2.4160149097442627,"611":22.231157302856445,"612":17.902591705322266,"613":20.055030822753906,"614":-15.623214721679688,"615":-22.273637771606445,"616":21.305072784423828,"617":-1.0573513507843018,"618":7.898097515106201,"619":-11.184113502502441,"620":-9.742025375366211,"621":8.521117210388184,"622":-12.485505104064941,"623":-10.473722457885742,"624":20.59283447265625,"625":17.256189346313477,"626":25.3387393951416,"627":24.41143226623535,"628":16.769556045532227,"629":-2.7232534885406494,"630":4.644509315490723,"631":-3.8627235889434814,"632":-5.57478666305542,"633":-3.377916097640991,"634":-10.941802978515625,"635":3.8820247650146484,"636":-3.0710136890411377,"637":0.22170202434062958,"638":9.099027633666992,"639":10.476373672485352,"640":-1.3571332693099976,"641":-3.9444031715393066,"642":5.4802045822143555,"643":3.3537187576293945,"644":3.905688762664795,"645":0.22758141160011292,"646":-6.060612201690674,"647":-3.8518693447113037,"648":10.936620712280273,"649":9.192047119140625,"650":4.250644207000732,"651":2.7779135704040527,"652":9.355875015258789,"653":-3.619483709335327,"654":2.9959702491760254,"655":1.3479419946670532,"656":-3.918114423751831,"657":6.510908126831055,"658":0.5032883286476135,"659":-6.945274353027344,"660":1.020779013633728,"661":3.0552492141723633,"662":-7.989044189453125,"663":-4.173960208892822,"664":2.784332513809204,"665":-18.596515655517578,"666":-7.719557762145996,"667":3.263584613800049,"668":2.7913341522216797,"669":-0.520346999168396,"670":-6.248242378234863,"671":6.625601291656494,"672":9.605270385742188,"673":-14.738020896911621,"674":-3.9405288696289062,"675":2.4791033267974854,"676":3.2858386039733887,"677":-4.955990314483643,"678":-4.798697471618652,"679":-11.872213363647461,"680":6.276120662689209,"681":-12.867359161376953,"682":-5.391669750213623,"683":-4.733181953430176,"684":10.09040641784668,"685":-0.9127867817878723,"686":4.603825092315674,"687":-2.412594795227051,"688":-2.462998151779175,"689":0.6752628087997437,"690":7.760697841644287,"691":6.338871479034424,"692":-0.21259111166000366,"693":3.5050573348999023,"694":-9.348332405090332,"695":4.479358196258545,"696":4.509926795959473,"697":-12.146793365478516,"698":4.25560188293457,"699":6.391795635223389,"700":-2.45886492729187,"701":-9.058453559875488,"702":-12.532513618469238,"703":7.651326656341553,"704":9.571385383605957,"705":22.94581413269043,"706":16.324535369873047,"707":-5.177739143371582,"708":4.977529048919678,"709":-8.942749977111816,"710":7.903709888458252,"711":7.510981559753418,"712":8.237923622131348,"713":13.763567924499512,"714":0.9272377490997314,"715":-9.260987281799316,"716":0.5772356986999512,"717":-3.606316089630127,"718":1.0005377531051636,"719":3.1513373851776123,"720":7.043467044830322,"721":22.609933853149414,"722":-23.76634979248047,"723":8.021095275878906,"724":-13.525018692016602,"725":-18.396833419799805,"726":4.66843318939209,"727":4.533003807067871,"728":-7.227912902832031,"729":-33.641807556152344,"730":21.847408294677734,"731":37.00360870361328,"732":22.32988739013672,"733":-8.158895492553711,"734":-12.55062198638916,"735":-29.77069091796875,"736":12.828489303588867,"737":-3.5535545349121094,"738":-14.136073112487793,"739":-11.043386459350586,"740":-18.30320930480957,"741":11.03361701965332,"742":1.3638051748275757,"743":2.334496259689331,"744":-12.885690689086914,"745":19.89301300048828,"746":55.39773178100586,"747":-29.47848129272461,"748":-9.523344993591309,"749":-16.50002670288086,"750":-0.05451376736164093,"751":-14.891873359680176,"752":14.096619606018066,"753":-13.937546730041504,"754":-0.09475124627351761,"755":6.469592094421387,"756":-13.891654968261719,"757":6.973451137542725,"758":-0.7441256642341614,"759":-11.467906951904297,"760":11.290816307067871,"761":-0.6855430006980896,"762":-1.330847978591919,"763":-4.931772708892822,"764":-2.1735363006591797,"765":5.211487770080566,"766":-4.281412124633789,"767":5.267045021057129,"768":7.759608745574951,"769":-7.358678817749023,"770":4.536973476409912,"771":2.2042737007141113,"772":17.313785552978516,"773":0.2156374752521515,"774":-3.3011913299560547,"775":-20.241777420043945,"776":1.9310619831085205,"777":-0.3484334945678711,"778":-14.132756233215332,"779":7.771641731262207,"780":14.145886421203613,"781":9.816479682922363,"782":6.992526054382324,"783":30.93787956237793,"784":-13.495722770690918,"785":-6.6305251121521,"786":11.93448543548584,"787":34.83441925048828,"788":5.397720813751221,"789":-7.038585186004639,"790":-35.5539665222168,"791":-1.716296911239624,"792":31.80352210998535,"793":-12.676907539367676,"794":-0.35752665996551514,"795":-33.98068618774414,"796":22.448833465576172,"797":-25.424524307250977,"798":-20.801956176757812,"799":-30.69062042236328,"800":-37.513572692871094,"801":5.914692401885986,"802":-10.10665512084961,"803":-17.708789825439453,"804":-3.028917074203491,"805":-2.6932005882263184,"806":-6.974267482757568,"807":-28.01059913635254,"808":0.3845456838607788,"809":-24.68906021118164,"810":-22.47965431213379,"811":-42.87253189086914,"812":29.886890411376953,"813":56.22163772583008,"814":-91.75553894042969,"815":50.504817962646484,"816":70.19467163085938,"817":2.3522119522094727,"818":-11.732794761657715,"819":35.739017486572266,"820":-12.017786979675293,"821":-20.766176223754883,"822":-32.82279586791992,"823":29.60444450378418,"824":13.979423522949219,"825":-6.019809246063232,"826":17.76067352294922,"827":-26.346824645996094,"828":-8.615768432617188,"829":29.689937591552734,"830":13.531644821166992,"831":57.89781951904297,"832":31.446619033813477,"833":25.102031707763672,"834":-41.75138854980469,"835":121.72418212890625,"836":33.46671676635742,"837":11.871114730834961,"838":-3.9476559162139893,"839":16.178295135498047,"840":0.3681415319442749,"841":1.4869970083236694,"842":-7.493115425109863,"843":-5.446242332458496,"844":-3.739926815032959,"845":3.8029167652130127,"846":6.880640506744385,"847":-2.2837164402008057,"848":3.604992151260376,"849":-2.2274158000946045,"850":2.489182472229004,"851":-1.860884428024292,"852":-4.823974132537842,"853":1.9371343851089478,"854":1.6421419382095337,"855":3.3392550945281982,"856":0.709170937538147,"857":14.893107414245605,"858":0.7621188759803772,"859":-5.319443225860596,"860":0.19157230854034424,"861":-2.8799705505371094,"862":-0.5882925987243652,"863":2.925957202911377,"864":-1.9442180395126343,"865":2.866753578186035,"866":3.2403998374938965,"867":0.8262022137641907,"868":9.229721069335938,"869":-0.2856180965900421,"870":-4.984927177429199,"871":-1.7956597805023193,"872":2.2113895416259766,"873":-4.340551853179932,"874":-3.5788607597351074,"875":-0.2929967939853668,"876":-4.0826263427734375,"877":4.185809135437012,"878":-4.083879470825195,"879":-0.8637753129005432,"880":-2.4286396503448486,"881":-2.9778029918670654,"882":1.3883154392242432,"883":-5.098467826843262,"884":-0.1790667027235031,"885":3.69291615486145,"886":-0.94451904296875,"887":-1.126096248626709,"888":-2.4455463886260986,"889":1.2516143321990967,"890":2.51167631149292,"891":-1.086991548538208,"892":1.539522409439087,"893":0.014554302208125591,"894":1.6616941690444946,"895":-0.10251806676387787,"896":-2.239586114883423,"897":-0.8234845399856567,"898":-0.3541308343410492,"899":-1.5644488334655762,"900":0.0014791110297665,"901":-0.057155221700668335,"902":-0.04000592604279518,"903":-0.004423720296472311,"904":-0.014533719047904015,"905":0.018260441720485687,"906":-0.011541073210537434,"907":-0.03933315351605415,"908":0.02387506142258644,"909":0.011185435578227043,"910":-0.03852279111742973,"911":0.04231936112046242,"912":0.032425638288259506,"913":-0.016803007572889328,"914":-0.022582994773983955,"915":0.02288898266851902,"916":0.051225755363702774,"917":0.05173446610569954,"918":-0.04786777123808861,"919":0.0038128821179270744,"920":0.0071790460497140884,"921":0.0569215752184391,"922":0.02454451285302639,"923":0.00556325726211071,"924":0.05680374056100845,"925":0.027264712378382683,"926":-0.013759526424109936,"927":0.004066029563546181,"928":0.020430071279406548,"929":0.026888340711593628}},"hiddenLayers":[{"inputMatrix":{"rows":20,"columns":30,"weights":{"0":-0.862627387046814,"1":-0.7963119745254517,"2":0.15337052941322327,"3":-2.52284574508667,"4":0.762150764465332,"5":1.8293089866638184,"6":-0.5882735252380371,"7":-2.155339002609253,"8":-2.984009265899658,"9":-0.5569360256195068,"10":-1.5095475912094116,"11":-1.445394515991211,"12":-2.8314669132232666,"13":1.892096757888794,"14":1.0258253812789917,"15":1.0758121013641357,"16":-2.7058191299438477,"17":0.7402864694595337,"18":2.6841514110565186,"19":0.44920727610588074,"20":0.6695513129234314,"21":0.9915947318077087,"22":1.5266114473342896,"23":-0.2733413875102997,"24":1.8159550428390503,"25":-0.7474653124809265,"26":-1.5937424898147583,"27":1.856624960899353,"28":2.032325506210327,"29":-0.23423214256763458,"30":-0.8826819658279419,"31":-1.8950623273849487,"32":-2.812103509902954,"33":1.3916947841644287,"34":-3.3820252418518066,"35":3.239161491394043,"36":0.2201225608587265,"37":-0.7216058969497681,"38":2.32060170173645,"39":2.1034514904022217,"40":-0.5314725041389465,"41":-2.0094292163848877,"42":-1.1789034605026245,"43":2.4473917484283447,"44":1.5784152746200562,"45":-1.2181631326675415,"46":-3.0172696113586426,"47":0.5927309393882751,"48":0.5107207298278809,"49":-0.8822970986366272,"50":3.0120739936828613,"51":0.28544995188713074,"52":1.5489717721939087,"53":1.0735386610031128,"54":3.23896861076355,"55":0.9723904132843018,"56":1.3111475706100464,"57":1.2486711740493774,"58":0.8482346534729004,"59":1.6135319471359253,"60":2.106962203979492,"61":2.9099817276000977,"62":-0.6905713677406311,"63":2.88277268409729,"64":-0.44515228271484375,"65":0.28194987773895264,"66":-2.4237749576568604,"67":0.5530951619148254,"68":3.015444040298462,"69":0.5755628943443298,"70":1.4877490997314453,"71":0.6101592183113098,"72":1.458030104637146,"73":2.3935766220092773,"74":-1.5578745603561401,"75":-0.07081754505634308,"76":0.597290575504303,"77":0.17289255559444427,"78":-0.1358972042798996,"79":-1.0524007081985474,"80":-0.2712177336215973,"81":0.11721450090408325,"82":0.3670884668827057,"83":0.17621122300624847,"84":-1.335361123085022,"85":-3.0550055503845215,"86":1.347200870513916,"87":-1.1489742994308472,"88":-1.830354928970337,"89":1.2787843942642212,"90":4.774490833282471,"91":1.3192286491394043,"92":-0.3872954547405243,"93":2.9072022438049316,"94":-1.3759082555770874,"95":0.6473132371902466,"96":-2.116022825241089,"97":1.322479486465454,"98":3.0600545406341553,"99":2.8072187900543213,"100":-1.8744275569915771,"101":-1.9369548559188843,"102":-0.5148364305496216,"103":0.5478304028511047,"104":0.9063208699226379,"105":-1.8964755535125732,"106":1.721224069595337,"107":-0.7924723029136658,"108":-0.007429151330143213,"109":-1.4061955213546753,"110":3.1119399070739746,"111":0.16175153851509094,"112":-4.478682041168213,"113":-1.0734901428222656,"114":5.398884296417236,"115":-0.7739614844322205,"116":3.3350002765655518,"117":-3.3598639965057373,"118":-2.178668260574341,"119":1.5011403560638428,"120":-4.15967321395874,"121":0.153654083609581,"122":-0.8252602815628052,"123":2.611940860748291,"124":-1.2196290493011475,"125":2.3187923431396484,"126":0.3046847879886627,"127":4.211673736572266,"128":-5.21036958694458,"129":-0.7296655774116516,"130":-0.9015801548957825,"131":0.5394880771636963,"132":-1.4400917291641235,"133":-1.587735652923584,"134":-2.45027494430542,"135":-2.7251436710357666,"136":-3.413297176361084,"137":-2.0978658199310303,"138":0.9389892220497131,"139":1.4558205604553223,"140":-2.2258074283599854,"141":-0.5091021060943604,"142":-0.6021697521209717,"143":-1.2775185108184814,"144":-1.2431695461273193,"145":0.8503698706626892,"146":-2.2278997898101807,"147":-3.8657596111297607,"148":0.9235089421272278,"149":-1.807252287864685,"150":0.7415140867233276,"151":1.1722946166992188,"152":-1.3105175495147705,"153":1.091019868850708,"154":3.279025077819824,"155":0.3061225116252899,"156":0.053340472280979156,"157":0.18877069652080536,"158":-1.9506521224975586,"159":1.1203727722167969,"160":1.6401035785675049,"161":0.021614136174321175,"162":-2.642516851425171,"163":2.174528121948242,"164":-4.50049352645874,"165":0.10815096646547318,"166":1.5753858089447021,"167":-1.8759523630142212,"168":0.3700082302093506,"169":1.9859760999679565,"170":0.3128640055656433,"171":2.475982666015625,"172":0.4165843427181244,"173":-2.387890577316284,"174":1.8334429264068604,"175":2.8141520023345947,"176":0.31796640157699585,"177":-1.1929190158843994,"178":-0.1524421125650406,"179":0.5321398377418518,"180":-1.265679955482483,"181":-0.7602407336235046,"182":-0.43180611729621887,"183":0.14779792726039886,"184":0.0943848043680191,"185":1.2815004587173462,"186":-3.2669074535369873,"187":2.1273727416992188,"188":-5.064676284790039,"189":-1.1070435047149658,"190":0.8911476731300354,"191":-1.2880059480667114,"192":1.9440406560897827,"193":0.06480646133422852,"194":-0.4293234348297119,"195":-2.2682816982269287,"196":-2.4795708656311035,"197":0.3308674991130829,"198":2.1503610610961914,"199":0.39117079973220825,"200":-1.9648733139038086,"201":1.6221078634262085,"202":0.7907325625419617,"203":-0.24190780520439148,"204":-4.42231559753418,"205":-0.7839276194572449,"206":-2.4855706691741943,"207":-4.704030513763428,"208":-3.4407358169555664,"209":-0.14719459414482117,"210":-1.491700530052185,"211":0.28004392981529236,"212":-2.26761794090271,"213":-0.1729629635810852,"214":0.2693287432193756,"215":-0.1689448207616806,"216":1.006508231163025,"217":0.09147462248802185,"218":-1.9314476251602173,"219":-0.44455164670944214,"220":-0.5856671929359436,"221":-1.0150679349899292,"222":1.253234624862671,"223":0.6366687417030334,"224":0.7338383793830872,"225":0.7401825189590454,"226":0.9597083330154419,"227":0.12386978417634964,"228":1.4660667181015015,"229":-1.2594759464263916,"230":-0.9419661164283752,"231":-0.04748786985874176,"232":-2.577547311782837,"233":-0.16743984818458557,"234":-1.0187153816223145,"235":1.3093507289886475,"236":0.7313361167907715,"237":-8.098671913146973,"238":0.5737776160240173,"239":-0.8342262506484985,"240":1.5138596296310425,"241":3.6413075923919678,"242":0.16223853826522827,"243":0.035495445132255554,"244":-1.2559852600097656,"245":2.5728073120117188,"246":1.9913499355316162,"247":0.45817750692367554,"248":-2.003028631210327,"249":-1.1418923139572144,"250":0.5156343579292297,"251":-1.4422110319137573,"252":0.009567009285092354,"253":0.6456699967384338,"254":1.799196481704712,"255":0.07210687547922134,"256":2.9153337478637695,"257":-0.097565658390522,"258":1.9118218421936035,"259":-1.394163966178894,"260":0.2450343370437622,"261":-1.2232322692871094,"262":-0.07305292785167694,"263":3.851158380508423,"264":-1.9277149438858032,"265":0.1483701914548874,"266":1.4397997856140137,"267":-3.3139567375183105,"268":2.077819347381592,"269":-0.8933863639831543,"270":2.78069806098938,"271":1.6883751153945923,"272":-1.0675002336502075,"273":4.160962104797363,"274":-2.093301773071289,"275":0.9986087679862976,"276":-2.0876002311706543,"277":-0.2617342472076416,"278":-1.6785321235656738,"279":3.6196696758270264,"280":1.921410083770752,"281":0.986860990524292,"282":4.340265274047852,"283":-3.628636598587036,"284":-2.367021322250366,"285":-3.2024834156036377,"286":-2.2039783000946045,"287":0.51553875207901,"288":-0.6452053785324097,"289":1.0166263580322266,"290":-0.21414923667907715,"291":-2.233215808868408,"292":-1.9121328592300415,"293":3.155050277709961,"294":-0.42854607105255127,"295":-0.07855779677629471,"296":1.0026475191116333,"297":-2.5736708641052246,"298":-1.161615252494812,"299":-4.115114688873291,"300":-0.6549413204193115,"301":2.161595106124878,"302":-1.5085320472717285,"303":-6.237365245819092,"304":2.280240535736084,"305":0.6328840851783752,"306":1.3674306869506836,"307":0.7740208506584167,"308":-5.760880947113037,"309":-1.3967851400375366,"310":0.7654389142990112,"311":0.7788808345794678,"312":-4.0248613357543945,"313":3.8722803592681885,"314":-0.6362476348876953,"315":0.7860199213027954,"316":0.45534247159957886,"317":0.6227775812149048,"318":-0.9935677647590637,"319":0.07760613411664963,"320":-0.11457623541355133,"321":0.520192563533783,"322":1.962800145149231,"323":1.4060331583023071,"324":0.1318487524986267,"325":3.35245943069458,"326":1.0346479415893555,"327":-0.4940328299999237,"328":-0.8960539102554321,"329":-0.2646309733390808,"330":-0.37032297253608704,"331":1.0041849613189697,"332":0.7085577845573425,"333":0.8298453688621521,"334":0.41283729672431946,"335":1.3418508768081665,"336":1.3518116474151611,"337":-1.5452017784118652,"338":-3.615795135498047,"339":-0.21302063763141632,"340":0.521203875541687,"341":-0.4367324411869049,"342":-2.6415493488311768,"343":0.924294114112854,"344":2.120798349380493,"345":0.06076180562376976,"346":1.5201326608657837,"347":-0.30342456698417664,"348":0.6297457218170166,"349":-0.5346218347549438,"350":0.0956524983048439,"351":-1.7144865989685059,"352":-0.2602139711380005,"353":1.5025861263275146,"354":-1.4187562465667725,"355":0.979912519454956,"356":-0.24661527574062347,"357":-0.8546454906463623,"358":3.299139976501465,"359":-0.3869447708129883,"360":-1.7519989013671875,"361":0.1184321865439415,"362":1.5595924854278564,"363":-4.31967830657959,"364":-0.19145983457565308,"365":1.0566884279251099,"366":0.3060953915119171,"367":0.3924027979373932,"368":-1.6662431955337524,"369":-3.5840699672698975,"370":-3.995223045349121,"371":-1.125028371810913,"372":-4.835333824157715,"373":5.1485090255737305,"374":0.6273791193962097,"375":2.192338228225708,"376":1.2714263200759888,"377":-0.5401372313499451,"378":-1.1450202465057373,"379":1.5784912109375,"380":1.3516064882278442,"381":2.884993314743042,"382":-0.12572871148586273,"383":-1.7432589530944824,"384":1.0725456476211548,"385":2.488637924194336,"386":-0.030597679316997528,"387":2.8620076179504395,"388":-0.7455823421478271,"389":1.5440633296966553,"390":-2.2565367221832275,"391":-2.2997004985809326,"392":4.029501914978027,"393":-0.37992098927497864,"394":-1.8981391191482544,"395":-0.018698617815971375,"396":1.0198521614074707,"397":-1.4221513271331787,"398":-2.30527663230896,"399":2.6605165004730225,"400":-0.7120002508163452,"401":-2.9589645862579346,"402":-0.4015082120895386,"403":3.2368004322052,"404":3.250894784927368,"405":3.8998284339904785,"406":-0.8274642825126648,"407":1.2474058866500854,"408":1.8769415616989136,"409":2.3519999980926514,"410":3.065509080886841,"411":0.1601489931344986,"412":1.3260083198547363,"413":0.6159858703613281,"414":-1.4883623123168945,"415":0.2640606164932251,"416":-0.5471945405006409,"417":2.895232677459717,"418":0.19579415023326874,"419":2.921719551086426,"420":-0.5644967555999756,"421":-6.048763751983643,"422":-2.0905203819274902,"423":0.026246890425682068,"424":0.21915562450885773,"425":0.11721205711364746,"426":1.0322613716125488,"427":2.614165782928467,"428":-2.9676027297973633,"429":0.34804201126098633,"430":-0.034595295786857605,"431":1.2596250772476196,"432":-2.5607450008392334,"433":-0.5123085379600525,"434":-0.6120754480361938,"435":-0.25922489166259766,"436":0.6945328712463379,"437":-1.0320100784301758,"438":1.5083825588226318,"439":-1.188352108001709,"440":-0.4491669833660126,"441":-0.5000972151756287,"442":2.169916868209839,"443":-0.4565278887748718,"444":1.395654320716858,"445":2.855350971221924,"446":-1.196913480758667,"447":-5.202230453491211,"448":0.2381630837917328,"449":-0.32490482926368713,"450":-1.3563748598098755,"451":0.34120234847068787,"452":0.9598608613014221,"453":-0.050738655030727386,"454":-0.4597780108451843,"455":-0.7037758827209473,"456":0.059169284999370575,"457":2.6813364028930664,"458":-1.6275179386138916,"459":-0.6303805112838745,"460":-0.18340662121772766,"461":0.21271167695522308,"462":-0.20630811154842377,"463":-0.9736115336418152,"464":0.1438324749469757,"465":-0.8126587867736816,"466":0.6575882434844971,"467":-0.14894689619541168,"468":-0.7206268310546875,"469":-0.42744821310043335,"470":0.19232629239559174,"471":-0.5396623611450195,"472":-0.3618178963661194,"473":-1.252959966659546,"474":0.4125312566757202,"475":-1.0510554313659668,"476":1.2473037242889404,"477":0.28895303606987,"478":-0.09549962729215622,"479":0.45457029342651367,"480":1.4421169757843018,"481":-2.673938035964966,"482":-3.655303478240967,"483":0.14156851172447205,"484":-3.0347743034362793,"485":1.6366597414016724,"486":-1.786462426185608,"487":0.5056381225585938,"488":5.424466609954834,"489":-1.807562232017517,"490":-1.0292143821716309,"491":-1.072615385055542,"492":1.748133897781372,"493":0.812990665435791,"494":-0.5519358515739441,"495":2.9561450481414795,"496":1.0815657377243042,"497":1.6291824579238892,"498":-3.7941906452178955,"499":-4.193330764770508,"500":1.8641575574874878,"501":1.355855941772461,"502":2.5494792461395264,"503":1.0271128416061401,"504":3.1877918243408203,"505":1.4312764406204224,"506":5.217857360839844,"507":5.101736545562744,"508":0.13160789012908936,"509":1.3161700963974,"510":0.039994560182094574,"511":-2.5510642528533936,"512":-1.2454100847244263,"513":0.7646470665931702,"514":2.3365488052368164,"515":-0.27124032378196716,"516":-2.424417018890381,"517":-1.0488073825836182,"518":3.4494779109954834,"519":2.3509938716888428,"520":-0.049295537173748016,"521":-1.292883276939392,"522":2.99621319770813,"523":-1.5892524719238281,"524":0.06102621927857399,"525":1.0858392715454102,"526":-2.692408561706543,"527":-1.1019493341445923,"528":3.489339590072632,"529":-0.17208892107009888,"530":3.5755927562713623,"531":-0.223495751619339,"532":0.6805717349052429,"533":-0.174299955368042,"534":3.242081642150879,"535":1.2503465414047241,"536":-0.8536127805709839,"537":2.3852360248565674,"538":-1.0451995134353638,"539":-0.27844709157943726,"540":-0.678974449634552,"541":2.0404117107391357,"542":-0.695179283618927,"543":2.362128496170044,"544":0.20457257330417633,"545":0.5476061105728149,"546":0.40935003757476807,"547":-0.5723719596862793,"548":-0.15154816210269928,"549":-3.047816514968872,"550":1.3354932069778442,"551":1.8132193088531494,"552":1.3466798067092896,"553":-2.4395358562469482,"554":1.8084617853164673,"555":-2.654388427734375,"556":-0.5802171230316162,"557":0.42784419655799866,"558":1.876065969467163,"559":-2.3610780239105225,"560":-0.42335203289985657,"561":-4.077332019805908,"562":-1.541605830192566,"563":-1.728990912437439,"564":1.8619667291641235,"565":0.25860732793807983,"566":0.9369032979011536,"567":-0.8835249543190002,"568":1.7929080724716187,"569":-2.841179847717285,"570":1.0279722213745117,"571":0.4203510284423828,"572":-0.4489423334598541,"573":-2.007167100906372,"574":0.017498845234513283,"575":-0.1814013421535492,"576":-1.2708433866500854,"577":-1.0619821548461914,"578":5.821799278259277,"579":0.8237518668174744,"580":0.8142189979553223,"581":0.30368906259536743,"582":1.8317722082138062,"583":-1.8603850603103638,"584":-0.29944926500320435,"585":0.9232388734817505,"586":-2.393751382827759,"587":1.3074090480804443,"588":-0.6266563534736633,"589":-0.21034032106399536,"590":0.9356302618980408,"591":0.7985668778419495,"592":0.14446304738521576,"593":1.9071580171585083,"594":0.22698301076889038,"595":0.52357017993927,"596":-0.07828013598918915,"597":0.3924037218093872,"598":-0.34615111351013184,"599":1.8547523021697998}},"inputHidden":{"rows":20,"columns":20,"weights":{"0":-7.200265884399414,"1":0.061403658241033554,"2":-5.167868614196777,"3":6.877442836761475,"4":-2.3436851501464844,"5":-0.9786434769630432,"6":-1.3858325481414795,"7":-8.39149284362793,"8":0.8689481019973755,"9":-5.4882354736328125,"10":-3.4313929080963135,"11":-5.895132541656494,"12":2.430385112762451,"13":4.083688735961914,"14":3.6264796257019043,"15":-0.3909187912940979,"16":2.8903467655181885,"17":-5.976230144500732,"18":2.228785753250122,"19":-0.5432854294776917,"20":-2.9388177394866943,"21":1.1867188215255737,"22":-4.803160667419434,"23":3.812501907348633,"24":-0.8334055542945862,"25":7.0516204833984375,"26":-5.941658020019531,"27":14.322680473327637,"28":-6.365052700042725,"29":5.2492170333862305,"30":-1.4393848180770874,"31":2.952427864074707,"32":6.936995029449463,"33":6.750581741333008,"34":0.7335689067840576,"35":-4.129072666168213,"36":4.726176738739014,"37":-10.485634803771973,"38":-0.8247294425964355,"39":-10.45368766784668,"40":-2.0911338329315186,"41":-0.8696609735488892,"42":-8.801983833312988,"43":-1.7326573133468628,"44":-2.7153711318969727,"45":-5.049912929534912,"46":6.6170759201049805,"47":1.3354017734527588,"48":10.159113883972168,"49":-0.937170684337616,"50":-4.248569011688232,"51":-0.344525545835495,"52":6.279189109802246,"53":0.5427964925765991,"54":-1.7351518869400024,"55":4.036567687988281,"56":-6.98111629486084,"57":3.2099268436431885,"58":-0.27054643630981445,"59":1.6898188591003418,"60":-0.6056973338127136,"61":5.413517475128174,"62":-0.7907106876373291,"63":1.9008997678756714,"64":-0.132354274392128,"65":-2.3484184741973877,"66":0.0697898119688034,"67":0.9062055945396423,"68":4.728318214416504,"69":-3.6288836002349854,"70":-5.835371494293213,"71":9.510258674621582,"72":-2.952406883239746,"73":-1.7692252397537231,"74":1.5124449729919434,"75":-0.2656358480453491,"76":2.3463215827941895,"77":0.08347176015377045,"78":-1.4844437837600708,"79":-3.3299381732940674,"80":-0.8754384517669678,"81":-2.1883656978607178,"82":0.6558523178100586,"83":1.947264313697815,"84":0.8527573347091675,"85":-6.385801792144775,"86":1.7155147790908813,"87":1.6668733358383179,"88":1.174005150794983,"89":-1.6173441410064697,"90":-2.6300837993621826,"91":1.2316491603851318,"92":-3.473344087600708,"93":-0.32418403029441833,"94":2.1760220527648926,"95":1.2401844263076782,"96":1.8947153091430664,"97":1.5166234970092773,"98":-0.14408205449581146,"99":-2.952300786972046,"100":2.227654218673706,"101":-4.582418918609619,"102":-3.194742441177368,"103":3.051170587539673,"104":1.4183887243270874,"105":-5.280471324920654,"106":-1.104415774345398,"107":-4.056598663330078,"108":8.021734237670898,"109":0.4698803424835205,"110":-9.754947662353516,"111":-5.5257792472839355,"112":-0.8865697979927063,"113":-5.227352142333984,"114":10.871248245239258,"115":-3.6950764656066895,"116":-1.8653218746185303,"117":-4.260161876678467,"118":0.3883702754974365,"119":-3.212507963180542,"120":1.8063685894012451,"121":-1.4895933866500854,"122":-1.6250935792922974,"123":-10.795525550842285,"124":-4.3366875648498535,"125":5.849626541137695,"126":1.0121042728424072,"127":-1.834606647491455,"128":4.82076358795166,"129":-2.537720203399658,"130":-3.545766830444336,"131":2.82206654548645,"132":-0.816198468208313,"133":-0.48922279477119446,"134":0.7349619269371033,"135":-3.138824939727783,"136":-2.352451801300049,"137":1.0187959671020508,"138":2.4861366748809814,"139":-2.5420596599578857,"140":-6.807914733886719,"141":-0.5677812099456787,"142":2.200554609298706,"143":-5.407534599304199,"144":-1.1532748937606812,"145":1.8364485502243042,"146":-2.0952847003936768,"147":0.9098473191261292,"148":-4.7045793533325195,"149":5.999729633331299,"150":-6.3022637367248535,"151":0.24142643809318542,"152":5.104968547821045,"153":6.321099758148193,"154":-0.668745756149292,"155":8.139994621276855,"156":3.169996738433838,"157":-0.5958940386772156,"158":-0.48427048325538635,"159":-3.2405314445495605,"160":-2.289320230484009,"161":2.7520978450775146,"162":-2.9602720737457275,"163":-1.155653953552246,"164":4.351142406463623,"165":-2.6364965438842773,"166":1.700726866722107,"167":9.522724151611328,"168":-5.1185712814331055,"169":-4.576590538024902,"170":-4.036582946777344,"171":9.436394691467285,"172":-2.871212959289551,"173":-0.7739059925079346,"174":-8.537149429321289,"175":-2.937816858291626,"176":4.78966760635376,"177":-7.197393417358398,"178":-6.154069900512695,"179":-10.482048988342285,"180":3.546020746231079,"181":6.598446846008301,"182":5.296313285827637,"183":10.703471183776855,"184":3.692603349685669,"185":-4.802979469299316,"186":-1.6806304454803467,"187":-10.613639831542969,"188":0.5840888619422913,"189":-3.224318265914917,"190":-4.667139053344727,"191":2.450141668319702,"192":1.4979757070541382,"193":1.5133944749832153,"194":-0.11582417786121368,"195":2.4590940475463867,"196":2.3898353576660156,"197":3.6683011054992676,"198":-1.0475318431854248,"199":4.649921417236328,"200":-0.3549894392490387,"201":-5.7437849044799805,"202":-2.2095961570739746,"203":-0.15109410881996155,"204":-0.4638788104057312,"205":-1.7267546653747559,"206":-0.6062133312225342,"207":-2.0794942378997803,"208":-4.656427383422852,"209":4.464215278625488,"210":5.952639579772949,"211":0.9823029637336731,"212":-0.17244093120098114,"213":-1.0690010786056519,"214":-2.745736837387085,"215":-0.39015868306159973,"216":-1.9817479848861694,"217":1.8900506496429443,"218":-3.785933017730713,"219":3.0341708660125732,"220":1.2227874994277954,"221":3.328922748565674,"222":-3.8113484382629395,"223":-0.13195066154003143,"224":-1.4060055017471313,"225":4.261141777038574,"226":2.018340587615967,"227":1.4753334522247314,"228":5.138509273529053,"229":1.61605703830719,"230":-1.5881887674331665,"231":5.7948079109191895,"232":-1.483126163482666,"233":-2.902498245239258,"234":3.0069427490234375,"235":-5.185210704803467,"236":-0.5062140226364136,"237":0.10937261581420898,"238":0.5987109541893005,"239":1.4997671842575073,"240":-1.2148232460021973,"241":-0.7228050827980042,"242":-0.06413198262453079,"243":-1.5139445066452026,"244":-2.2687435150146484,"245":3.7113234996795654,"246":-4.046794414520264,"247":0.8555540442466736,"248":-1.4999454021453857,"249":1.1904898881912231,"250":2.1356613636016846,"251":1.3153800964355469,"252":-0.3789852559566498,"253":2.0280635356903076,"254":-2.6549651622772217,"255":-3.525136709213257,"256":-5.578982353210449,"257":-2.3769371509552,"258":1.9615740776062012,"259":-4.715891361236572,"260":-0.10154247283935547,"261":-0.03838286176323891,"262":-2.632244348526001,"263":0.9298863410949707,"264":-0.6452184319496155,"265":-0.5986409783363342,"266":-3.6525752544403076,"267":-5.953586101531982,"268":0.460519403219223,"269":-1.293944001197815,"270":3.8139755725860596,"271":-0.49956104159355164,"272":1.9577895402908325,"273":-3.3904850482940674,"274":1.2121549844741821,"275":-3.981031894683838,"276":-3.42954421043396,"277":-0.061931975185871124,"278":-1.2415757179260254,"279":-1.696467638015747,"280":-4.1987104415893555,"281":-4.736804485321045,"282":2.4038217067718506,"283":9.806316375732422,"284":-1.920455813407898,"285":-8.842570304870605,"286":2.5382330417633057,"287":2.1792259216308594,"288":3.6780295372009277,"289":-1.5496728420257568,"290":-0.5210208296775818,"291":-3.5227599143981934,"292":6.879757881164551,"293":-6.726673603057861,"294":-10.835715293884277,"295":-2.7209293842315674,"296":-13.949052810668945,"297":-0.12140358984470367,"298":2.4706881046295166,"299":-6.6129961013793945,"300":-1.4172924757003784,"301":-1.5152459144592285,"302":-5.304698944091797,"303":-12.847070693969727,"304":11.596293449401855,"305":-1.873575210571289,"306":2.8496687412261963,"307":2.303626775741577,"308":-8.859444618225098,"309":5.70841646194458,"310":-1.3790092468261719,"311":6.576082229614258,"312":0.5586869120597839,"313":-0.4840352535247803,"314":14.546185493469238,"315":3.0359442234039307,"316":0.19916704297065735,"317":-1.1193550825119019,"318":18.747608184814453,"319":-11.092580795288086,"320":-3.3990190029144287,"321":1.1535730361938477,"322":-2.1702189445495605,"323":0.03246051073074341,"324":-3.53383207321167,"325":2.0304830074310303,"326":7.021669864654541,"327":-0.8427073359489441,"328":-0.15418992936611176,"329":0.6977428793907166,"330":0.48953813314437866,"331":-5.6186113357543945,"332":2.4272079467773438,"333":0.9965225458145142,"334":-1.7547839879989624,"335":5.221251010894775,"336":3.3900952339172363,"337":3.6874802112579346,"338":-3.620986223220825,"339":4.303499698638916,"340":1.1105871200561523,"341":2.000037908554077,"342":-4.20104455947876,"343":-1.9950226545333862,"344":-0.5906797647476196,"345":-1.6001297235488892,"346":0.5410656929016113,"347":2.6241793632507324,"348":-8.406142234802246,"349":6.0084228515625,"350":-2.6807541847229004,"351":2.682485342025757,"352":-0.59386146068573,"353":3.2120754718780518,"354":-2.7802047729492188,"355":-4.6397504806518555,"356":4.688371658325195,"357":3.2277896404266357,"358":4.0875420570373535,"359":-3.8758316040039062,"360":2.082399606704712,"361":8.223793029785156,"362":-2.0882186889648438,"363":7.647480010986328,"364":2.058997869491577,"365":-14.159704208374023,"366":9.741384506225586,"367":-2.1790664196014404,"368":1.1677478551864624,"369":3.5333893299102783,"370":-4.2364115715026855,"371":13.863389015197754,"372":-6.016098976135254,"373":-2.815277099609375,"374":1.3333526849746704,"375":14.028929710388184,"376":0.07062472403049469,"377":12.64834976196289,"378":-0.9154278635978699,"379":3.8919193744659424,"380":-0.022205060347914696,"381":-5.065825462341309,"382":4.792962551116943,"383":0.5700270533561707,"384":3.750708818435669,"385":-5.783488750457764,"386":10.067153930664062,"387":-2.855978012084961,"388":-5.08117151260376,"389":-2.9953300952911377,"390":-1.0041500329971313,"391":-10.863762855529785,"392":-1.702592134475708,"393":4.715449810028076,"394":5.008183479309082,"395":14.313760757446289,"396":10.917935371398926,"397":-9.053099632263184,"398":0.9759855270385742,"399":-0.585520327091217}},"inputBias":{"rows":20,"columns":1,"weights":{"0":-5.149018287658691,"1":-4.963840484619141,"2":-0.9265958070755005,"3":-1.0401263236999512,"4":-0.488303542137146,"5":-2.497978448867798,"6":-0.7238643169403076,"7":-0.6265328526496887,"8":-1.598503828048706,"9":-0.7285111546516418,"10":-0.4797113537788391,"11":0.15096800029277802,"12":-1.921724557876587,"13":-3.790375232696533,"14":-0.896461546421051,"15":2.119417667388916,"16":0.6125814318656921,"17":-1.2446057796478271,"18":-0.4239464998245239,"19":-0.8291915655136108}},"forgetMatrix":{"rows":20,"columns":30,"weights":{"0":-3.0062084197998047,"1":-1.1205862760543823,"2":-1.3942362070083618,"3":0.88624107837677,"4":-1.5016871690750122,"5":0.9845056533813477,"6":0.708240270614624,"7":1.5639342069625854,"8":-0.6413517594337463,"9":-6.633944511413574,"10":-1.187949299812317,"11":0.4725942313671112,"12":-0.751277506351471,"13":-0.06933341920375824,"14":-0.26392820477485657,"15":-0.379413366317749,"16":1.341796636581421,"17":2.1139252185821533,"18":-0.49031680822372437,"19":-1.5386011600494385,"20":1.8160218000411987,"21":-0.2708565890789032,"22":-1.2793327569961548,"23":-0.6191601157188416,"24":1.3029260635375977,"25":-1.9028974771499634,"26":2.7625720500946045,"27":-1.6313753128051758,"28":-2.269911766052246,"29":-2.2034692764282227,"30":-0.7308232188224792,"31":-0.30888426303863525,"32":-2.012462615966797,"33":-1.7624082565307617,"34":-1.1347639560699463,"35":1.6576334238052368,"36":-0.5328885912895203,"37":1.531955361366272,"38":2.3971071243286133,"39":0.8229857087135315,"40":-1.5962287187576294,"41":-2.728618860244751,"42":2.0288448333740234,"43":-2.9132134914398193,"44":2.4987874031066895,"45":-0.060656096786260605,"46":-1.6869089603424072,"47":0.2972868084907532,"48":3.135777473449707,"49":-1.3434998989105225,"50":0.17383182048797607,"51":-1.7453820705413818,"52":-1.0187060832977295,"53":-1.630833625793457,"54":3.6890687942504883,"55":3.9432520866394043,"56":2.9949395656585693,"57":2.3479409217834473,"58":-0.0024687862023711205,"59":2.111440658569336,"60":1.5463930368423462,"61":-2.703625440597534,"62":-2.7659847736358643,"63":2.587434768676758,"64":-3.152214765548706,"65":2.2022616863250732,"66":1.6293519735336304,"67":-0.9050251245498657,"68":-5.37994384765625,"69":-2.240178108215332,"70":2.135807514190674,"71":0.45113494992256165,"72":0.5737349390983582,"73":-1.9832922220230103,"74":-1.7439121007919312,"75":-2.019777774810791,"76":-0.3187180161476135,"77":0.5621195435523987,"78":0.41894927620887756,"79":-0.86537104845047,"80":-0.698366105556488,"81":-1.533829689025879,"82":-0.19490139186382294,"83":2.4268882274627686,"84":0.33380821347236633,"85":2.1689560413360596,"86":0.4938957393169403,"87":-4.703586578369141,"88":0.02936127595603466,"89":-3.1336019039154053,"90":0.1346692442893982,"91":0.6665278077125549,"92":-1.6813801527023315,"93":0.9428554773330688,"94":2.584047555923462,"95":-1.8119553327560425,"96":-1.2300254106521606,"97":1.1092422008514404,"98":-1.5276200771331787,"99":-0.07571295648813248,"100":-1.9468543529510498,"101":1.2305124998092651,"102":-0.14282731711864471,"103":-1.435131311416626,"104":-1.2340269088745117,"105":-1.15897536277771,"106":0.45695868134498596,"107":-0.42092669010162354,"108":-2.180370807647705,"109":2.1516289710998535,"110":0.8694829940795898,"111":-1.1707537174224854,"112":0.6061224937438965,"113":-0.3986324965953827,"114":-1.345774531364441,"115":0.3606410324573517,"116":-2.8214077949523926,"117":-3.3064804077148438,"118":-1.1321392059326172,"119":-1.7948567867279053,"120":-0.1291455626487732,"121":3.274944305419922,"122":-0.005705961957573891,"123":0.6555727124214172,"124":-0.012025386095046997,"125":3.2289481163024902,"126":0.9528483152389526,"127":0.3210686445236206,"128":-1.796541452407837,"129":1.7337095737457275,"130":-1.3130122423171997,"131":-4.3491411209106445,"132":0.01971159502863884,"133":2.5660946369171143,"134":1.9577877521514893,"135":-0.9225954413414001,"136":-0.6901379227638245,"137":-2.981733560562134,"138":-4.940128326416016,"139":2.800525188446045,"140":-1.9675158262252808,"141":-2.0196197032928467,"142":-0.9924484491348267,"143":-0.17873665690422058,"144":0.22592836618423462,"145":3.8571889400482178,"146":1.9267101287841797,"147":-1.496685266494751,"148":-0.6677826642990112,"149":0.37034764885902405,"150":0.510525107383728,"151":1.5561864376068115,"152":-0.9559665322303772,"153":-2.087193489074707,"154":-1.0283876657485962,"155":-0.7567281126976013,"156":0.2829717695713043,"157":-1.7862842082977295,"158":0.921576976776123,"159":-0.8666919469833374,"160":-2.898324728012085,"161":1.017242670059204,"162":-1.4265056848526,"163":1.138723373413086,"164":-1.7611671686172485,"165":0.8002358078956604,"166":2.631870746612549,"167":1.824891448020935,"168":-3.209798574447632,"169":1.2011958360671997,"170":0.26910078525543213,"171":-4.635355472564697,"172":-0.8337768912315369,"173":1.5053908824920654,"174":5.384002685546875,"175":2.298611879348755,"176":-1.9715498685836792,"177":-0.55849689245224,"178":-0.5529451966285706,"179":-0.41288450360298157,"180":-0.29659467935562134,"181":-1.9409899711608887,"182":2.227409839630127,"183":3.2746505737304688,"184":0.06248883530497551,"185":-2.003918409347534,"186":0.5040875673294067,"187":-0.4718955457210541,"188":2.05415415763855,"189":1.339134693145752,"190":0.5197054743766785,"191":-0.022682026028633118,"192":1.4411615133285522,"193":0.11088602989912033,"194":0.7858786582946777,"195":-4.0308403968811035,"196":1.8287194967269897,"197":-0.09076631814241409,"198":-1.3440698385238647,"199":1.8979438543319702,"200":-3.8462483882904053,"201":2.9942522048950195,"202":-1.1990034580230713,"203":0.8734261393547058,"204":2.217823028564453,"205":-0.893378496170044,"206":-0.28632399439811707,"207":-0.2285628318786621,"208":-0.7874611616134644,"209":-0.9450622797012329,"210":-0.48872220516204834,"211":-3.7362942695617676,"212":-1.5182929039001465,"213":-0.9022458791732788,"214":-0.95840984582901,"215":1.9516851902008057,"216":-0.6951436400413513,"217":2.309821844100952,"218":0.0058698710054159164,"219":3.1826789379119873,"220":0.2880666255950928,"221":-3.806633234024048,"222":0.2921622097492218,"223":1.3698530197143555,"224":1.0238853693008423,"225":2.640465021133423,"226":2.3060102462768555,"227":0.35433679819107056,"228":-1.0964387655258179,"229":0.8353524804115295,"230":0.6275609135627747,"231":2.5645666122436523,"232":1.8166489601135254,"233":0.017887575551867485,"234":3.0661303997039795,"235":2.06893253326416,"236":4.600615978240967,"237":4.625757694244385,"238":0.09220641851425171,"239":4.769778728485107,"240":0.25940611958503723,"241":3.5359303951263428,"242":-2.670786142349243,"243":0.9327117204666138,"244":0.5339182019233704,"245":-2.1610071659088135,"246":-2.916361093521118,"247":2.956089496612549,"248":2.695692539215088,"249":-5.007802963256836,"250":0.3387833535671234,"251":0.12137723714113235,"252":6.511492729187012,"253":-2.06103777885437,"254":-0.2456955462694168,"255":-2.784834623336792,"256":-1.1134215593338013,"257":-1.9938911199569702,"258":0.6064335703849792,"259":1.2644580602645874,"260":-1.8528426885604858,"261":-5.733517646789551,"262":-1.2491090297698975,"263":-1.6746820211410522,"264":-1.2830078601837158,"265":2.519491672515869,"266":-1.5170999765396118,"267":-3.489999294281006,"268":-3.045346736907959,"269":-7.196694374084473,"270":-0.29914429783821106,"271":-0.6391843557357788,"272":0.9703951478004456,"273":-1.3817132711410522,"274":3.4764819145202637,"275":0.2866482734680176,"276":-4.634438514709473,"277":2.349231481552124,"278":-0.6498350501060486,"279":-2.1714365482330322,"280":5.948527812957764,"281":-0.9732109904289246,"282":2.1202328205108643,"283":-2.5911526679992676,"284":-1.6944658756256104,"285":-0.5313657522201538,"286":1.2001011371612549,"287":0.14671245217323303,"288":-1.952654480934143,"289":1.4776942729949951,"290":-5.9167985916137695,"291":1.4957996606826782,"292":-0.9958546757698059,"293":0.6351027488708496,"294":-2.6211180686950684,"295":0.5666251182556152,"296":2.988676071166992,"297":-3.9551961421966553,"298":-4.384327411651611,"299":1.6680326461791992,"300":-1.8914673328399658,"301":2.877401351928711,"302":-1.2077161073684692,"303":-0.382340669631958,"304":-1.9193434715270996,"305":2.9527595043182373,"306":1.2015715837478638,"307":-0.9067608118057251,"308":-0.4005872309207916,"309":-0.020062031224370003,"310":0.7375457882881165,"311":-0.7167131304740906,"312":-1.645074725151062,"313":1.2808504104614258,"314":0.8773156404495239,"315":0.6080307364463806,"316":0.9298567771911621,"317":0.42832237482070923,"318":0.3400458097457886,"319":0.2335285097360611,"320":1.24932062625885,"321":-1.4228445291519165,"322":0.9654252529144287,"323":3.5770323276519775,"324":-0.42273589968681335,"325":2.7470803260803223,"326":1.1000044345855713,"327":3.353549003601074,"328":0.016816679388284683,"329":0.5952490568161011,"330":4.329819202423096,"331":-0.7309920191764832,"332":-1.9314218759536743,"333":0.09732407331466675,"334":0.9621894359588623,"335":-2.1335721015930176,"336":-1.7684229612350464,"337":0.471311092376709,"338":0.6465253233909607,"339":-1.1789404153823853,"340":1.5161361694335938,"341":2.7987635135650635,"342":3.6073756217956543,"343":-1.1005269289016724,"344":-1.4959726333618164,"345":-1.6917834281921387,"346":2.6797962188720703,"347":-0.0016540137585252523,"348":0.5368930697441101,"349":-1.2874796390533447,"350":-0.4682522416114807,"351":-0.3552578091621399,"352":-1.0218712091445923,"353":-1.6206270456314087,"354":-1.4205670356750488,"355":-2.094928026199341,"356":0.7921785712242126,"357":-0.6480687260627747,"358":-3.0086684226989746,"359":1.4981197118759155,"360":-0.7927772998809814,"361":-1.0413744449615479,"362":-2.429701328277588,"363":4.897317409515381,"364":2.8522167205810547,"365":0.0355568528175354,"366":-2.0276601314544678,"367":-0.14934676885604858,"368":-4.533463001251221,"369":-1.6459743976593018,"370":-1.4839155673980713,"371":-4.8210930824279785,"372":-2.060103416442871,"373":2.531416654586792,"374":-1.4371541738510132,"375":1.3767871856689453,"376":-3.649141550064087,"377":-4.613765716552734,"378":-2.644881248474121,"379":2.9276273250579834,"380":-2.846802234649658,"381":0.8346864581108093,"382":-2.350736379623413,"383":-3.240304946899414,"384":-1.6201508045196533,"385":2.7363781929016113,"386":-0.7251201272010803,"387":1.8194576501846313,"388":0.13136689364910126,"389":0.4572427272796631,"390":0.11593624204397202,"391":-0.6401757001876831,"392":-0.9479818344116211,"393":1.4910876750946045,"394":-0.9366893768310547,"395":-0.1454731673002243,"396":0.5157301425933838,"397":-1.580610990524292,"398":-0.18179792165756226,"399":0.835839033126831,"400":-3.2049455642700195,"401":-2.8437178134918213,"402":-5.19767427444458,"403":-0.2199242115020752,"404":2.9956915378570557,"405":2.8058056831359863,"406":-1.2439754009246826,"407":-1.8301081657409668,"408":2.305063009262085,"409":-0.2855055630207062,"410":3.50943922996521,"411":-0.44984158873558044,"412":0.4777013063430786,"413":-1.2357674837112427,"414":2.219059467315674,"415":0.4178282618522644,"416":0.11226456612348557,"417":2.7227489948272705,"418":2.7426862716674805,"419":-0.42797499895095825,"420":0.665347158908844,"421":-2.9106993675231934,"422":0.9760023951530457,"423":1.19956374168396,"424":-1.9539402723312378,"425":0.7043014764785767,"426":3.6872739791870117,"427":0.8212773203849792,"428":-0.22118091583251953,"429":0.48160114884376526,"430":0.6465467214584351,"431":-0.9033069014549255,"432":-1.1537387371063232,"433":2.722477674484253,"434":1.904641032218933,"435":0.3894754648208618,"436":2.3697969913482666,"437":-1.0970654487609863,"438":3.6844217777252197,"439":-3.026766538619995,"440":1.318095088005066,"441":1.3193259239196777,"442":-0.005883845034986734,"443":-2.3503146171569824,"444":2.807399034500122,"445":0.3457830250263214,"446":0.5270073413848877,"447":3.4637882709503174,"448":-0.7780718803405762,"449":2.749403476715088,"450":1.619587779045105,"451":-1.183356523513794,"452":0.038382768630981445,"453":1.2183328866958618,"454":-0.7138327360153198,"455":2.9819259643554688,"456":1.919014811515808,"457":-7.752551078796387,"458":5.3472089767456055,"459":0.3772318661212921,"460":-0.10250049829483032,"461":-2.50663685798645,"462":-0.24432894587516785,"463":0.2925969958305359,"464":2.9096157550811768,"465":4.5432353019714355,"466":-1.2305845022201538,"467":2.432620048522949,"468":-0.17031370103359222,"469":-0.6618046164512634,"470":0.5870623588562012,"471":-1.4050395488739014,"472":1.2208850383758545,"473":2.867389440536499,"474":1.4346120357513428,"475":0.6306282877922058,"476":-0.033997680991888046,"477":4.066799640655518,"478":2.430149793624878,"479":-0.36028221249580383,"480":-2.1257104873657227,"481":2.5021934509277344,"482":-3.682072877883911,"483":-1.420742392539978,"484":1.8335314989089966,"485":1.4091531038284302,"486":-1.8053580522537231,"487":0.22549958527088165,"488":-0.8330548405647278,"489":0.4127616584300995,"490":0.6297206878662109,"491":-0.32125699520111084,"492":-1.7205644845962524,"493":-1.7808842658996582,"494":-3.3889853954315186,"495":0.03754774481058121,"496":-5.374752998352051,"497":1.7236284017562866,"498":1.5163211822509766,"499":0.7493963837623596,"500":1.162610650062561,"501":-3.326486587524414,"502":0.32285016775131226,"503":2.5262162685394287,"504":-2.9984583854675293,"505":-0.23814912140369415,"506":0.5102748274803162,"507":-6.044207572937012,"508":-1.4964674711227417,"509":0.050227414816617966,"510":1.12909734249115,"511":-0.5975087285041809,"512":-3.4162981510162354,"513":-2.6114742755889893,"514":1.6596611738204956,"515":0.6850726008415222,"516":-0.6498355269432068,"517":-3.7454075813293457,"518":-0.7461485862731934,"519":1.8315962553024292,"520":-2.147671699523926,"521":2.2627832889556885,"522":-1.4377284049987793,"523":3.0948262214660645,"524":1.9716824293136597,"525":2.587982177734375,"526":-0.8806973695755005,"527":1.13631272315979,"528":0.021288637071847916,"529":0.9542907476425171,"530":1.130588412284851,"531":-2.4784860610961914,"532":4.30670690536499,"533":4.584278583526611,"534":-0.5317623615264893,"535":0.982783317565918,"536":-1.1277709007263184,"537":0.02034771628677845,"538":4.471583843231201,"539":-4.094650745391846,"540":0.2551302909851074,"541":-1.0083140134811401,"542":-2.2803351879119873,"543":1.2121338844299316,"544":-3.651700258255005,"545":0.43935272097587585,"546":1.6312988996505737,"547":2.103872060775757,"548":0.24126291275024414,"549":-0.9780104160308838,"550":-0.1898145228624344,"551":-0.6471493244171143,"552":-0.4191773533821106,"553":-1.20829439163208,"554":-0.5427709817886353,"555":-4.004765510559082,"556":-1.2810139656066895,"557":1.389441728591919,"558":2.6995556354522705,"559":-1.0043649673461914,"560":-1.005521535873413,"561":-0.13134907186031342,"562":-2.037243366241455,"563":-0.6353840827941895,"564":-1.1898193359375,"565":-0.49217402935028076,"566":1.602797508239746,"567":-0.7300618290901184,"568":0.6098418831825256,"569":-0.5178237557411194,"570":0.24164584279060364,"571":-1.7381776571273804,"572":2.0528886318206787,"573":0.010812166146934032,"574":0.4834938943386078,"575":4.093547821044922,"576":0.6004772186279297,"577":-0.03134792298078537,"578":0.36588945984840393,"579":2.001420497894287,"580":0.5738800168037415,"581":-2.49255633354187,"582":-3.771023988723755,"583":1.114327311515808,"584":3.040111780166626,"585":3.2358367443084717,"586":-0.08117818832397461,"587":-0.474963903427124,"588":-0.728128969669342,"589":0.9015108346939087,"590":2.7943146228790283,"591":0.10202405601739883,"592":2.224038600921631,"593":-0.9295988082885742,"594":2.7581028938293457,"595":0.3630853593349457,"596":-0.14243818819522858,"597":4.472785472869873,"598":-0.9853317737579346,"599":3.0206098556518555}},"forgetHidden":{"rows":20,"columns":20,"weights":{"0":1.6656852960586548,"1":-3.452524423599243,"2":0.05576372146606445,"3":-8.34156322479248,"4":8.16650390625,"5":0.6447569131851196,"6":1.1855275630950928,"7":-5.779386520385742,"8":3.1093897819519043,"9":1.1086760759353638,"10":-4.177790641784668,"11":-7.527596950531006,"12":-6.497958183288574,"13":-7.117023944854736,"14":3.676535129547119,"15":-0.23318150639533997,"16":-0.42128482460975647,"17":-0.781225323677063,"18":0.1356503665447235,"19":-7.302479267120361,"20":0.3886253237724304,"21":-9.568111419677734,"22":-5.9882049560546875,"23":4.182651519775391,"24":-4.6236796379089355,"25":-1.2201013565063477,"26":-4.704153060913086,"27":-5.106229305267334,"28":0.8675900101661682,"29":-3.3163511753082275,"30":2.737858295440674,"31":-4.5495100021362305,"32":-1.5146119594573975,"33":1.925208330154419,"34":5.634615421295166,"35":3.9780116081237793,"36":7.621272563934326,"37":-3.2141811847686768,"38":0.7001708745956421,"39":-2.7204649448394775,"40":0.8932895660400391,"41":-1.9541693925857544,"42":-1.0393716096878052,"43":-5.804362773895264,"44":4.5744452476501465,"45":-1.8200417757034302,"46":-5.594323635101318,"47":-5.7265777587890625,"48":1.8310401439666748,"49":-2.035163402557373,"50":-1.0560050010681152,"51":-0.8473019599914551,"52":-3.15346622467041,"53":-0.06442967802286148,"54":1.44818913936615,"55":-1.1825143098831177,"56":1.1459572315216064,"57":0.851242184638977,"58":0.6589258909225464,"59":1.1464990377426147,"60":2.924485683441162,"61":-1.2797067165374756,"62":0.34608644247055054,"63":4.579311847686768,"64":-0.10921735316514969,"65":-1.574411392211914,"66":-4.969789505004883,"67":-0.30172327160835266,"68":3.4331562519073486,"69":0.7297643423080444,"70":-1.2200242280960083,"71":-0.5835773348808289,"72":-3.4441587924957275,"73":0.35880884528160095,"74":1.9620610475540161,"75":-2.725966215133667,"76":3.399198293685913,"77":3.698298215866089,"78":1.9629297256469727,"79":-0.5948706865310669,"80":-2.3966753482818604,"81":3.41111421585083,"82":2.5722222328186035,"83":0.06514672189950943,"84":6.4213948249816895,"85":2.2931830883026123,"86":-0.24536164104938507,"87":6.292415142059326,"88":2.9628238677978516,"89":3.1137657165527344,"90":-6.218399524688721,"91":3.725569486618042,"92":-0.801868736743927,"93":1.5567686557769775,"94":-7.9787373542785645,"95":-2.156920909881592,"96":-3.1725642681121826,"97":-1.4535117149353027,"98":-2.601720094680786,"99":2.662778854370117,"100":-0.8378576040267944,"101":1.630203366279602,"102":2.4416921138763428,"103":-0.21627351641654968,"104":0.255718469619751,"105":0.34574204683303833,"106":2.081183910369873,"107":-1.2394012212753296,"108":-1.0794764757156372,"109":2.0956225395202637,"110":2.2512426376342773,"111":-0.4949711859226227,"112":-0.9048328399658203,"113":-1.0665171146392822,"114":-0.24257859587669373,"115":0.5494856238365173,"116":2.2521517276763916,"117":2.1200857162475586,"118":-0.9156690835952759,"119":-2.5332534313201904,"120":-2.119110345840454,"121":9.124201774597168,"122":-6.724179744720459,"123":-2.025252342224121,"124":-1.225780725479126,"125":-7.856501579284668,"126":1.4401180744171143,"127":-12.998678207397461,"128":-1.999683141708374,"129":-4.678784370422363,"130":0.655154287815094,"131":7.408889293670654,"132":-1.77244234085083,"133":-1.2098007202148438,"134":7.349512577056885,"135":-1.4247201681137085,"136":-12.316947937011719,"137":-7.49247932434082,"138":-2.1180527210235596,"139":-11.41714096069336,"140":7.959582805633545,"141":5.46983003616333,"142":-2.8157451152801514,"143":-0.1717221438884735,"144":5.002729892730713,"145":1.4959754943847656,"146":-1.1008611917495728,"147":-2.370762348175049,"148":4.129125118255615,"149":-2.1667370796203613,"150":-3.554764747619629,"151":3.5455315113067627,"152":-1.8345370292663574,"153":-4.329978942871094,"154":1.4134342670440674,"155":3.6234443187713623,"156":1.8964567184448242,"157":-1.8543754816055298,"158":-1.602540373802185,"159":-5.0450215339660645,"160":-2.4669010639190674,"161":-7.261373043060303,"162":5.023188591003418,"163":-1.363500714302063,"164":-3.1765432357788086,"165":-0.6106562614440918,"166":-2.5061442852020264,"167":2.343172788619995,"168":-3.3622636795043945,"169":4.196574687957764,"170":1.8355597257614136,"171":1.6503174304962158,"172":2.857147216796875,"173":6.493713855743408,"174":-3.2690277099609375,"175":-3.582888603210449,"176":5.944019317626953,"177":1.5875979661941528,"178":1.1420822143554688,"179":-1.7488110065460205,"180":-2.4028518199920654,"181":-1.860733985900879,"182":-0.8681952953338623,"183":4.140558242797852,"184":-0.40157562494277954,"185":-2.5804688930511475,"186":-1.24109947681427,"187":3.123124599456787,"188":-2.4071168899536133,"189":0.25221681594848633,"190":-4.281189918518066,"191":-0.2081098109483719,"192":0.7632154822349548,"193":-0.09255267679691315,"194":2.895663261413574,"195":3.6123671531677246,"196":8.25204086303711,"197":-0.1405903548002243,"198":-3.602651357650757,"199":3.1603307723999023,"200":0.5346540808677673,"201":1.959946870803833,"202":1.5636823177337646,"203":-1.239839792251587,"204":-1.0428366661071777,"205":0.14318910241127014,"206":-1.9197897911071777,"207":1.378077507019043,"208":2.0447685718536377,"209":-1.6268620491027832,"210":2.689507246017456,"211":0.04422396793961525,"212":-1.549981951713562,"213":-1.8004727363586426,"214":-3.025141716003418,"215":-4.0170745849609375,"216":-0.4652234613895416,"217":2.240277051925659,"218":0.833500325679779,"219":0.47502365708351135,"220":0.686129093170166,"221":-1.8480678796768188,"222":-1.3652034997940063,"223":-0.4167623519897461,"224":-3.534989356994629,"225":1.0877528190612793,"226":-1.8569329977035522,"227":-1.5858938694000244,"228":-2.1170175075531006,"229":0.38175851106643677,"230":1.6102612018585205,"231":-3.979637384414673,"232":-1.4911969900131226,"233":-0.3191584348678589,"234":3.5333662033081055,"235":3.1418418884277344,"236":0.012976275756955147,"237":2.422370433807373,"238":3.0577304363250732,"239":-1.8563501834869385,"240":5.406798839569092,"241":-1.0423429012298584,"242":-6.938849449157715,"243":0.23482012748718262,"244":2.363973379135132,"245":2.835667371749878,"246":0.9618290662765503,"247":2.074571371078491,"248":2.188516616821289,"249":-6.104013442993164,"250":-4.181651592254639,"251":2.577432870864868,"252":-0.5742912292480469,"253":-3.8701467514038086,"254":-9.482998847961426,"255":-7.766268730163574,"256":-1.351834774017334,"257":7.619513034820557,"258":-1.1978014707565308,"259":9.475606918334961,"260":-0.6708052754402161,"261":-1.1994991302490234,"262":-4.153451919555664,"263":-6.9019856452941895,"264":0.977658212184906,"265":-0.09330402314662933,"266":-1.0572410821914673,"267":-7.187540531158447,"268":-2.972369432449341,"269":2.368577241897583,"270":-1.1771528720855713,"271":1.2784852981567383,"272":0.2703254222869873,"273":0.08365681022405624,"274":0.6367273330688477,"275":-0.5691479444503784,"276":-4.366758823394775,"277":-4.5843400955200195,"278":2.0144119262695312,"279":-1.8913049697875977,"280":2.362837553024292,"281":-5.860032558441162,"282":2.4212405681610107,"283":-3.7194435596466064,"284":8.682879447937012,"285":-10.525874137878418,"286":13.366989135742188,"287":3.3217625617980957,"288":-2.127592086791992,"289":-4.910472869873047,"290":-4.393030166625977,"291":-8.763009071350098,"292":-5.369447231292725,"293":-5.381217956542969,"294":1.073984146118164,"295":1.5846272706985474,"296":-23.717464447021484,"297":6.63557243347168,"298":-0.07066142559051514,"299":-0.2741912603378296,"300":-4.672780990600586,"301":-0.15581607818603516,"302":-10.139420509338379,"303":-7.436068534851074,"304":-16.53011703491211,"305":1.0288304090499878,"306":-7.472039699554443,"307":-13.88879108428955,"308":-3.5266473293304443,"309":-1.8364923000335693,"310":4.522453784942627,"311":2.0476765632629395,"312":-6.4878644943237305,"313":-4.2252116203308105,"314":6.990482330322266,"315":-2.9735617637634277,"316":-0.9953896999359131,"317":-4.722191333770752,"318":3.9648454189300537,"319":-4.401238441467285,"320":0.5108267068862915,"321":-5.83353853225708,"322":3.6916871070861816,"323":-0.36646661162376404,"324":-0.6825711131095886,"325":-5.383134365081787,"326":2.699552059173584,"327":2.1147384643554688,"328":8.452077865600586,"329":-5.957447052001953,"330":-3.3455963134765625,"331":-1.6585098505020142,"332":-3.8476970195770264,"333":-8.561545372009277,"334":1.4650119543075562,"335":-0.799072265625,"336":-2.375342845916748,"337":7.31651496887207,"338":-1.6501986980438232,"339":-7.777608871459961,"340":-4.961179256439209,"341":-2.7123665809631348,"342":2.6701698303222656,"343":-3.809227228164673,"344":-3.231264114379883,"345":9.831546783447266,"346":-4.607664108276367,"347":0.40457984805107117,"348":5.443285942077637,"349":8.767706871032715,"350":-3.615149736404419,"351":1.521628975868225,"352":3.004092216491699,"353":-0.5741450786590576,"354":-9.659550666809082,"355":-4.118561267852783,"356":1.4601030349731445,"357":-3.51462984085083,"358":-5.872053623199463,"359":8.548352241516113,"360":1.4035078287124634,"361":-0.2896611988544464,"362":1.2511659860610962,"363":-0.961037278175354,"364":-0.28344500064849854,"365":0.054111361503601074,"366":-0.07912559062242508,"367":-0.642697274684906,"368":-0.16738827526569366,"369":1.6368314027786255,"370":1.0845463275909424,"371":-0.9878152012825012,"372":-1.013582468032837,"373":-0.7955902218818665,"374":-0.6367513537406921,"375":-0.26641857624053955,"376":-0.1068408414721489,"377":-1.6487058401107788,"378":-1.5598633289337158,"379":-1.0114554166793823,"380":-1.9421392679214478,"381":1.4714823961257935,"382":1.7718346118927002,"383":-0.3071220815181732,"384":-1.0063047409057617,"385":-2.7591018676757812,"386":0.022376729175448418,"387":-0.31138309836387634,"388":-0.326895534992218,"389":-2.109402656555176,"390":-2.47990083694458,"391":-1.90654456615448,"392":0.7678834795951843,"393":1.8996191024780273,"394":2.785270929336548,"395":3.046630382537842,"396":5.508623123168945,"397":5.524002552032471,"398":2.2527544498443604,"399":-6.1027021408081055}},"forgetBias":{"rows":20,"columns":1,"weights":{"0":0,"1":0,"2":0,"3":0,"4":0,"5":0,"6":0,"7":0,"8":0,"9":0,"10":0,"11":0,"12":0,"13":0,"14":0,"15":0,"16":0,"17":0,"18":0,"19":0}},"outputMatrix":{"rows":20,"columns":30,"weights":{"0":-1.7633073329925537,"1":-0.8042535185813904,"2":-1.6387289762496948,"3":-2.5132126808166504,"4":-0.6382459402084351,"5":1.8247004747390747,"6":0.62164705991745,"7":-1.3082730770111084,"8":-0.21595627069473267,"9":-0.46502479910850525,"10":3.264799118041992,"11":-5.173541069030762,"12":-3.0951879024505615,"13":2.620481014251709,"14":3.5203440189361572,"15":3.161665439605713,"16":-1.1431783437728882,"17":0.07399842143058777,"18":2.5074031352996826,"19":-0.4569900333881378,"20":-0.8861954212188721,"21":1.8042858839035034,"22":0.37052249908447266,"23":-0.9163652658462524,"24":1.1531020402908325,"25":1.216720461845398,"26":1.6838469505310059,"27":5.091915130615234,"28":0.7740885615348816,"29":2.087538003921509,"30":1.9296327829360962,"31":0.09298169612884521,"32":-0.7601310014724731,"33":1.8317569494247437,"34":-1.2128535509109497,"35":0.5239717960357666,"36":1.4712789058685303,"37":1.3004872798919678,"38":0.7828105688095093,"39":-0.834791898727417,"40":0.5352776646614075,"41":-0.42746251821517944,"42":0.2989979684352875,"43":2.702758550643921,"44":-1.3048157691955566,"45":-1.4727882146835327,"46":2.2476446628570557,"47":3.1417455673217773,"48":-0.08944583684206009,"49":-1.7328310012817383,"50":1.1546919345855713,"51":0.8505406975746155,"52":-3.8846583366394043,"53":-0.3167763948440552,"54":-0.33061379194259644,"55":-0.3396833539009094,"56":4.589463710784912,"57":-1.4262391328811646,"58":-1.5136277675628662,"59":1.551121473312378,"60":0.321865051984787,"61":-0.2832030951976776,"62":1.0123497247695923,"63":-1.0734784603118896,"64":-0.8159339427947998,"65":-0.029827827587723732,"66":4.142865180969238,"67":0.16552242636680603,"68":-0.8045415878295898,"69":0.2890474200248718,"70":-1.1568717956542969,"71":-1.2655448913574219,"72":-2.03852915763855,"73":0.9034789800643921,"74":1.1363716125488281,"75":0.43345630168914795,"76":2.4753165245056152,"77":0.6435104608535767,"78":-0.9368598461151123,"79":0.3728999197483063,"80":-0.34900182485580444,"81":-1.613707184791565,"82":-3.274872303009033,"83":1.1743323802947998,"84":0.028883710503578186,"85":1.7451701164245605,"86":1.4020565748214722,"87":0.981496274471283,"88":1.5550436973571777,"89":0.6706303954124451,"90":1.1585530042648315,"91":-1.1098464727401733,"92":2.2065138816833496,"93":2.7412502765655518,"94":-0.020558467134833336,"95":0.4678017199039459,"96":1.517951250076294,"97":-4.01447868347168,"98":-0.32388943433761597,"99":1.8763242959976196,"100":-2.3652632236480713,"101":1.7856701612472534,"102":-0.3598088026046753,"103":-1.9585357904434204,"104":-0.7241283059120178,"105":1.0233750343322754,"106":-2.2450132369995117,"107":-4.521690368652344,"108":2.3040976524353027,"109":2.83870792388916,"110":-0.9566012024879456,"111":5.344139099121094,"112":5.10873556137085,"113":3.3813414573669434,"114":-0.6684966683387756,"115":0.044156718999147415,"116":-1.2259951829910278,"117":-0.4434411823749542,"118":-0.1910816729068756,"119":-0.29939135909080505,"120":0.8408300280570984,"121":-0.9453600645065308,"122":0.18546846508979797,"123":1.7221620082855225,"124":-0.5871194005012512,"125":0.1290929913520813,"126":0.36852532625198364,"127":-2.6721420288085938,"128":-3.8873112201690674,"129":-1.4783235788345337,"130":2.588719129562378,"131":0.7522860765457153,"132":-0.2922854423522949,"133":1.648173451423645,"134":1.0936686992645264,"135":-0.46728581190109253,"136":0.39105263352394104,"137":3.392677068710327,"138":-0.3460944592952728,"139":0.03650280460715294,"140":-1.7560540437698364,"141":-0.14643342792987823,"142":-0.43429040908813477,"143":3.1701478958129883,"144":0.3197118639945984,"145":1.707643747329712,"146":2.4012451171875,"147":-0.7021660208702087,"148":0.9274130463600159,"149":0.36100301146507263,"150":0.8325036764144897,"151":0.12619981169700623,"152":-2.474266529083252,"153":0.3223927319049835,"154":-0.7214882969856262,"155":0.8323677778244019,"156":0.15400134027004242,"157":3.3214850425720215,"158":-0.2812049984931946,"159":0.7391455769538879,"160":1.0034435987472534,"161":-0.04224530607461929,"162":2.1234166622161865,"163":0.5582358241081238,"164":-1.8984570503234863,"165":-2.6949679851531982,"166":0.37759509682655334,"167":-0.9158915281295776,"168":0.6697342991828918,"169":-1.4024159908294678,"170":-0.6305388808250427,"171":-0.05469776690006256,"172":0.39735156297683716,"173":1.105727195739746,"174":2.514528274536133,"175":1.544687271118164,"176":0.7811717391014099,"177":1.0536210536956787,"178":-0.9747705459594727,"179":1.3326271772384644,"180":-1.1136417388916016,"181":2.400869607925415,"182":-2.744563341140747,"183":2.849358320236206,"184":-1.086573600769043,"185":-0.3168145716190338,"186":1.8204340934753418,"187":2.101209878921509,"188":-7.790163040161133,"189":-3.8143746852874756,"190":0.672251284122467,"191":0.20031537115573883,"192":0.5466082096099854,"193":1.178106665611267,"194":-1.465050458908081,"195":0.6448892951011658,"196":-0.6831933856010437,"197":0.027605190873146057,"198":-0.07927870005369186,"199":-2.0167577266693115,"200":0.7337064743041992,"201":-2.884291887283325,"202":0.21983174979686737,"203":0.9224947094917297,"204":0.9517017602920532,"205":1.2568928003311157,"206":0.8822335600852966,"207":-4.008734226226807,"208":-0.5824358463287354,"209":-2.0690972805023193,"210":1.3428725004196167,"211":0.28894948959350586,"212":-0.08375419676303864,"213":2.335435628890991,"214":0.44537094235420227,"215":-0.13955597579479218,"216":-2.6804630756378174,"217":-3.1158792972564697,"218":-1.3907123804092407,"219":0.28940147161483765,"220":1.2121902704238892,"221":1.3612161874771118,"222":1.299306869506836,"223":-0.9519107937812805,"224":-2.871593475341797,"225":-1.1478322744369507,"226":-5.0301103591918945,"227":0.8751620650291443,"228":-0.15187938511371613,"229":-0.6562531590461731,"230":-0.1197601929306984,"231":0.7058542966842651,"232":0.6977850198745728,"233":1.3693037033081055,"234":-4.53234338760376,"235":-0.035751376301050186,"236":-2.102963924407959,"237":1.1624847650527954,"238":-1.0119138956069946,"239":-0.8148114085197449,"240":2.9961161613464355,"241":-0.2876909673213959,"242":-0.12620487809181213,"243":0.8857811689376831,"244":0.423427015542984,"245":0.25187504291534424,"246":-0.2186102420091629,"247":-1.742696762084961,"248":1.3914611339569092,"249":4.645318031311035,"250":-0.22683608531951904,"251":1.362781047821045,"252":-0.8224843740463257,"253":1.3911999464035034,"254":-1.0998259782791138,"255":0.04165700823068619,"256":-0.7395119071006775,"257":-0.23170332610607147,"258":-0.15393269062042236,"259":0.13391801714897156,"260":0.4927237927913666,"261":2.0329835414886475,"262":1.2411054372787476,"263":0.3795168995857239,"264":0.01601819507777691,"265":-1.1998268365859985,"266":-0.583117663860321,"267":-2.020514488220215,"268":-0.42564788460731506,"269":3.053109884262085,"270":1.4067862033843994,"271":-1.0208898782730103,"272":-0.7407100200653076,"273":0.45836198329925537,"274":-1.0964869260787964,"275":1.4427430629730225,"276":1.1154999732971191,"277":-0.3362589180469513,"278":0.5344551801681519,"279":0.6385249495506287,"280":0.3918623924255371,"281":-0.19112561643123627,"282":-2.6228127479553223,"283":1.8183033466339111,"284":0.7265204787254333,"285":-0.2283182293176651,"286":-0.6516321301460266,"287":0.19266387820243835,"288":0.5719494819641113,"289":-0.306471586227417,"290":-0.30433064699172974,"291":0.7382818460464478,"292":0.7013739943504333,"293":0.9136761426925659,"294":0.9350930452346802,"295":0.11525972932577133,"296":-0.8908926844596863,"297":-1.0339148044586182,"298":-1.1543569564819336,"299":0.4392978847026825,"300":0.2342109978199005,"301":2.5189523696899414,"302":-1.2837460041046143,"303":5.7666730880737305,"304":-1.4078402519226074,"305":0.9886489510536194,"306":-0.32051849365234375,"307":0.9649133086204529,"308":-0.05452975630760193,"309":-1.6409090757369995,"310":2.8027241230010986,"311":-0.7679781317710876,"312":0.713725209236145,"313":0.18004107475280762,"314":0.6553009152412415,"315":-0.5702670216560364,"316":0.7558647990226746,"317":-2.1218013763427734,"318":0.8894797563552856,"319":-0.628847599029541,"320":0.6137727499008179,"321":-2.410982847213745,"322":-0.4970785081386566,"323":2.0056705474853516,"324":-1.1054617166519165,"325":0.8122575283050537,"326":-0.10508617013692856,"327":-2.521177053451538,"328":-2.4679572582244873,"329":-2.122331380844116,"330":-0.17578768730163574,"331":-0.16298836469650269,"332":-2.095341205596924,"333":-0.6134700179100037,"334":-0.5247408747673035,"335":-0.2140682339668274,"336":0.4925214648246765,"337":2.635815382003784,"338":-0.8845622539520264,"339":-1.9950997829437256,"340":1.2010612487792969,"341":-0.3492957651615143,"342":1.2230312824249268,"343":-0.1203443855047226,"344":-0.8691550493240356,"345":-0.3486522436141968,"346":-0.23804520070552826,"347":1.787065029144287,"348":-0.39459845423698425,"349":-0.5848901271820068,"350":-0.3447205126285553,"351":-0.22101400792598724,"352":-0.5521306395530701,"353":0.1292218714952469,"354":-0.9075282216072083,"355":1.1200039386749268,"356":0.541572093963623,"357":-2.12630295753479,"358":-1.6584632396697998,"359":-0.040166690945625305,"360":-0.13222618401050568,"361":-3.880769729614258,"362":2.1455001831054688,"363":-1.2276489734649658,"364":-3.2877488136291504,"365":1.1808401346206665,"366":-0.4737716615200043,"367":0.6607380509376526,"368":1.3880343437194824,"369":1.9929825067520142,"370":-2.2530159950256348,"371":-2.9219565391540527,"372":-2.8420374393463135,"373":2.2412948608398438,"374":4.441418170928955,"375":5.766331195831299,"376":-0.986533522605896,"377":0.5488767623901367,"378":0.6814391016960144,"379":-2.3940610885620117,"380":3.268031120300293,"381":3.757319211959839,"382":0.21512822806835175,"383":-4.444361209869385,"384":0.22703833878040314,"385":-5.2851457595825195,"386":0.26409128308296204,"387":4.254443168640137,"388":1.1874207258224487,"389":6.350644111633301,"390":0.7037752866744995,"391":-0.0825800746679306,"392":-0.02995949238538742,"393":0.062082648277282715,"394":-0.029197271913290024,"395":-0.9999156594276428,"396":-0.48775994777679443,"397":-4.04991340637207,"398":1.361031413078308,"399":0.17620062828063965,"400":-2.4256465435028076,"401":-0.4881346523761749,"402":-1.9527978897094727,"403":3.730286121368408,"404":0.09239021688699722,"405":1.9358980655670166,"406":-1.157896637916565,"407":-0.8525528907775879,"408":0.38940709829330444,"409":0.7138256430625916,"410":0.8031190633773804,"411":1.2464693784713745,"412":0.041858039796352386,"413":1.9833557605743408,"414":2.6825997829437256,"415":3.0197014808654785,"416":0.21546082198619843,"417":4.866329193115234,"418":1.3042471408843994,"419":0.9101498126983643,"420":-1.5641359090805054,"421":1.5218636989593506,"422":2.6243715286254883,"423":-0.9006107449531555,"424":-0.4199763536453247,"425":-0.10080631077289581,"426":-1.4644765853881836,"427":0.2393551766872406,"428":-0.5090216398239136,"429":-3.5709965229034424,"430":1.121533989906311,"431":0.35798776149749756,"432":1.5230941772460938,"433":-1.716537356376648,"434":-0.3997422456741333,"435":-1.4212675094604492,"436":-1.7988438606262207,"437":1.0812623500823975,"438":-0.26162782311439514,"439":1.3881723880767822,"440":-1.0750092267990112,"441":-0.06510735303163528,"442":2.3455986976623535,"443":1.0593816041946411,"444":-2.310617208480835,"445":0.49966320395469666,"446":-1.0956355333328247,"447":-5.9565887451171875,"448":0.029031772166490555,"449":-1.2093688249588013,"450":0.6274327635765076,"451":0.40620237588882446,"452":0.5794548392295837,"453":-2.5159151554107666,"454":-0.0038959786761552095,"455":0.16802923381328583,"456":0.7146883010864258,"457":0.1383856236934662,"458":2.242142677307129,"459":-1.1775624752044678,"460":-0.8490920662879944,"461":-0.07833784073591232,"462":2.106187343597412,"463":-1.076540470123291,"464":0.4700498878955841,"465":-0.6436529755592346,"466":1.19223153591156,"467":0.9265939593315125,"468":-0.2696521580219269,"469":-0.5429950952529907,"470":-1.116910457611084,"471":-0.6052098274230957,"472":-0.5581774115562439,"473":0.49923399090766907,"474":-2.4329299926757812,"475":1.1799267530441284,"476":0.9347051382064819,"477":-2.545003890991211,"478":-1.7810207605361938,"479":-0.5037540197372437,"480":1.1529498100280762,"481":1.8307998180389404,"482":-2.5753486156463623,"483":-1.0097606182098389,"484":-0.028936387971043587,"485":3.2153913974761963,"486":1.5611385107040405,"487":3.4824726581573486,"488":-2.2601397037506104,"489":-1.32481050491333,"490":2.225604295730591,"491":-2.7401516437530518,"492":-0.7246919274330139,"493":5.925808429718018,"494":-2.1945712566375732,"495":-3.317876100540161,"496":1.9569309949874878,"497":-0.3275514841079712,"498":-3.106541633605957,"499":0.48510897159576416,"500":-1.405861496925354,"501":-1.5632237195968628,"502":-4.479466438293457,"503":-1.1878021955490112,"504":-1.965304970741272,"505":1.483677625656128,"506":2.781658172607422,"507":-5.001321792602539,"508":-2.1673779487609863,"509":5.77935791015625,"510":-0.21937575936317444,"511":0.6015079617500305,"512":-1.1966670751571655,"513":0.05525936931371689,"514":0.24930444359779358,"515":1.0459790229797363,"516":-2.1354591846466064,"517":-0.17164337635040283,"518":-0.28808721899986267,"519":0.5149236917495728,"520":0.44114288687705994,"521":-0.079524926841259,"522":1.5835561752319336,"523":0.3415353000164032,"524":-0.36521074175834656,"525":-1.0427205562591553,"526":-1.8337657451629639,"527":-1.057869791984558,"528":0.24487322568893433,"529":0.6907171010971069,"530":-0.04138217121362686,"531":1.6261075735092163,"532":1.621994972229004,"533":0.2660805583000183,"534":-2.0203700065612793,"535":0.7658985257148743,"536":-1.8938227891921997,"537":-0.9539230465888977,"538":-1.0648669004440308,"539":-0.03440248221158981,"540":-3.0655813217163086,"541":-2.698502540588379,"542":-0.49552035331726074,"543":1.282209038734436,"544":-1.7047109603881836,"545":5.053783416748047,"546":1.670480489730835,"547":-0.500564694404602,"548":-7.282835960388184,"549":-2.9762892723083496,"550":1.372819423675537,"551":-0.04112175852060318,"552":-2.7241530418395996,"553":2.3202624320983887,"554":0.510063648223877,"555":-0.19903235137462616,"556":2.3358025550842285,"557":1.9693424701690674,"558":-1.6419590711593628,"559":-5.038416385650635,"560":-1.8778326511383057,"561":-0.5945960283279419,"562":2.3025670051574707,"563":1.8685868978500366,"564":-0.20216169953346252,"565":-2.17476749420166,"566":-0.4222486913204193,"567":1.1719094514846802,"568":2.3668837547302246,"569":-3.2020809650421143,"570":0.06456220895051956,"571":-2.1117122173309326,"572":0.017462095245718956,"573":1.9580808877944946,"574":2.0980939865112305,"575":-4.297120571136475,"576":2.886749029159546,"577":-1.4206513166427612,"578":3.7489564418792725,"579":-1.8973761796951294,"580":-2.3228607177734375,"581":2.937025785446167,"582":1.326296091079712,"583":-4.044411659240723,"584":-1.7829363346099854,"585":-0.6644788980484009,"586":-1.9456186294555664,"587":4.321897506713867,"588":0.9029250741004944,"589":-4.161948204040527,"590":-1.4220952987670898,"591":-2.2860147953033447,"592":-0.18783776462078094,"593":-0.6995173692703247,"594":1.1977304220199585,"595":1.7073100805282593,"596":0.9828266501426697,"597":2.307325839996338,"598":5.2498779296875,"599":-4.785651206970215}},"outputHidden":{"rows":20,"columns":20,"weights":{"0":-2.021900177001953,"1":8.330716133117676,"2":-1.6172947883605957,"3":5.1320481300354,"4":-8.598233222961426,"5":-5.886270046234131,"6":2.070812225341797,"7":-5.316964149475098,"8":0.14944154024124146,"9":3.0625088214874268,"10":-2.9854495525360107,"11":-0.5800453424453735,"12":4.5271148681640625,"13":13.589630126953125,"14":3.593566656112671,"15":2.6421799659729004,"16":-5.937525749206543,"17":2.281829357147217,"18":10.240466117858887,"19":-3.2223174571990967,"20":5.60815954208374,"21":1.4539974927902222,"22":2.1907756328582764,"23":2.292978286743164,"24":5.947934627532959,"25":-2.6404082775115967,"26":-4.1565656661987305,"27":4.25762414932251,"28":-8.700004577636719,"29":6.719732284545898,"30":-0.5961238145828247,"31":-8.49140739440918,"32":-3.3573787212371826,"33":-3.376227378845215,"34":-2.402874708175659,"35":-1.016265630722046,"36":4.991207122802734,"37":-4.99028205871582,"38":-8.360187530517578,"39":-9.096909523010254,"40":-3.451205253601074,"41":3.6570780277252197,"42":-6.384602069854736,"43":0.007960464805364609,"44":0.8117106556892395,"45":1.4889894723892212,"46":4.007593154907227,"47":12.236043930053711,"48":-0.7441918253898621,"49":3.1572647094726562,"50":6.9426093101501465,"51":-0.6235692501068115,"52":3.8096210956573486,"53":11.332529067993164,"54":2.672055244445801,"55":3.506167411804199,"56":6.933087348937988,"57":-5.152029514312744,"58":3.8669817447662354,"59":-0.7338132262229919,"60":1.8451998233795166,"61":3.1408426761627197,"62":-4.372054576873779,"63":2.422502040863037,"64":-1.5167515277862549,"65":-4.674710273742676,"66":-0.07821308821439743,"67":-4.239321708679199,"68":-1.1469616889953613,"69":-1.6319780349731445,"70":3.237985849380493,"71":8.489713668823242,"72":-0.6133216619491577,"73":0.8108919262886047,"74":2.0340194702148438,"75":5.502751350402832,"76":1.7807029485702515,"77":6.264211177825928,"78":1.5202339887619019,"79":-5.931326866149902,"80":5.278834819793701,"81":-0.4070669412612915,"82":-0.49896329641342163,"83":11.05504035949707,"84":6.798354625701904,"85":-3.983706474304199,"86":-3.4180967807769775,"87":-5.896604061126709,"88":1.2367075681686401,"89":-0.7954967617988586,"90":-4.393929481506348,"91":-4.19356107711792,"92":-5.2951507568359375,"93":-8.912055015563965,"94":-0.8551626801490784,"95":-2.3074193000793457,"96":-4.726926326751709,"97":-2.3453195095062256,"98":-1.9360488653182983,"99":-0.24991348385810852,"100":-9.066144943237305,"101":-2.582829475402832,"102":-2.819812297821045,"103":2.646284818649292,"104":-1.3150490522384644,"105":-6.829489707946777,"106":4.292336940765381,"107":-9.50415325164795,"108":3.885467529296875,"109":-1.263289451599121,"110":-0.340716153383255,"111":-4.451998710632324,"112":8.054102897644043,"113":-1.2525660991668701,"114":5.013656139373779,"115":5.704207420349121,"116":6.939362525939941,"117":2.00689435005188,"118":-3.5059211254119873,"119":-9.92531967163086,"120":-2.0251564979553223,"121":3.9322783946990967,"122":-5.552174091339111,"123":-6.304779529571533,"124":-2.6027450561523438,"125":2.1564667224884033,"126":-0.9928275346755981,"127":0.5543493628501892,"128":-1.4405816793441772,"129":-2.259488821029663,"130":-3.1821610927581787,"131":-1.7208659648895264,"132":1.2216870784759521,"133":2.3563668727874756,"134":-0.4107799828052521,"135":-0.9783191680908203,"136":1.040380835533142,"137":-2.001817464828491,"138":1.4985419511795044,"139":-2.789203405380249,"140":-0.009914364665746689,"141":-4.420717716217041,"142":-4.964223861694336,"143":-4.664002418518066,"144":10.023896217346191,"145":3.796565532684326,"146":1.57505464553833,"147":-1.5149706602096558,"148":4.461647987365723,"149":-1.6650599241256714,"150":-9.357637405395508,"151":0.24525964260101318,"152":-4.804196834564209,"153":-3.3716351985931396,"154":-4.619455337524414,"155":-2.2532687187194824,"156":0.11548002809286118,"157":-5.112638473510742,"158":-4.39297342300415,"159":0.27203434705734253,"160":-3.7395150661468506,"161":-6.098470687866211,"162":-1.087104082107544,"163":3.904409170150757,"164":-0.7189187407493591,"165":-9.257487297058105,"166":-6.575751781463623,"167":2.410398006439209,"168":2.0473263263702393,"169":9.764250755310059,"170":2.1772406101226807,"171":-14.284933090209961,"172":11.223498344421387,"173":9.599997520446777,"174":0.17253269255161285,"175":-4.239253044128418,"176":0.8313849568367004,"177":-6.570106029510498,"178":-14.636232376098633,"179":-7.187777519226074,"180":6.890371799468994,"181":3.0612151622772217,"182":11.056507110595703,"183":23.987550735473633,"184":-2.3226969242095947,"185":-2.104339838027954,"186":4.174461841583252,"187":2.714547872543335,"188":0.3720994293689728,"189":11.35581111907959,"190":6.324429035186768,"191":2.9172863960266113,"192":5.261260032653809,"193":5.6962714195251465,"194":-2.1728153228759766,"195":-3.2939746379852295,"196":-1.2984378337860107,"197":4.423211574554443,"198":-0.8103976845741272,"199":-11.094823837280273,"200":1.9064871072769165,"201":12.292337417602539,"202":1.7517586946487427,"203":2.3895983695983887,"204":5.9992828369140625,"205":0.41454219818115234,"206":-2.156102418899536,"207":8.392719268798828,"208":6.9882731437683105,"209":4.770855903625488,"210":-1.7767932415008545,"211":-3.4413001537323,"212":-1.998613953590393,"213":-6.48223876953125,"214":-6.40624475479126,"215":0.11772364377975464,"216":3.6959567070007324,"217":1.1403852701187134,"218":-1.524477243423462,"219":2.4554080963134766,"220":-2.8002915382385254,"221":0.06889629364013672,"222":10.111638069152832,"223":-1.5936839580535889,"224":-6.151719093322754,"225":10.773887634277344,"226":8.876815795898438,"227":1.9950097799301147,"228":4.8295159339904785,"229":-11.172113418579102,"230":1.3412723541259766,"231":-0.8756729364395142,"232":2.0986416339874268,"233":-1.864890217781067,"234":1.4341999292373657,"235":5.440246105194092,"236":-0.7409734725952148,"237":5.60097074508667,"238":-0.3620385229587555,"239":8.896881103515625,"240":4.954146862030029,"241":-5.834859848022461,"242":0.9507681727409363,"243":0.4896233379840851,"244":-0.06662589311599731,"245":-2.095045566558838,"246":-2.289947271347046,"247":-7.000247001647949,"248":1.6292306184768677,"249":1.163636565208435,"250":2.8125596046447754,"251":0.21898365020751953,"252":-2.2100977897644043,"253":-0.6800649166107178,"254":-1.0539714097976685,"255":3.5444493293762207,"256":-5.157925605773926,"257":-0.13613511621952057,"258":-2.8690125942230225,"259":1.07528817653656,"260":-0.6594831943511963,"261":1.595054030418396,"262":-2.3404433727264404,"263":-6.458759784698486,"264":-1.6146053075790405,"265":-0.0600721500813961,"266":0.4393499791622162,"267":1.701852798461914,"268":-1.116207480430603,"269":1.6344821453094482,"270":-0.5300519466400146,"271":3.557905673980713,"272":-0.2913588285446167,"273":-0.3615260422229767,"274":3.761129140853882,"275":1.8313615322113037,"276":0.8767359852790833,"277":-3.947007894515991,"278":2.3741977214813232,"279":0.2138592153787613,"280":-11.568289756774902,