{"type":"LSTM","options":{"inputSize":30,"inputRange":30,"hiddenLayers":[20,20],"outputSize":30,"decayRate":0.999,"smoothEps":1e-8,"regc":0.000001,"clipval":5,"maxPredictionLength":100,"dataFormatter":{"values":["well done","good","raised good","well backed","impressive job","is good","well written","wow","best scripts","have read","good use","much technical jargon","impressive speech","have improved","last script","good effort","good signposting","is present","overarching ideas","well thought","well organised","clear","concise","professional","is much","latest revision","high quality","fine execution","is satisfactory","superior quality","is adequate","good content","good flow","sound","clear effort","good intonation","solid grasp","good job","fine delivery","flawless execution","is perfect","excellent","exceptional quality","superb delivery","ideas substantiated","robust evidence","wonderful presentation","have great","potential","very engaging script","content shows","good understanding","interesting topic","impeccable script","immaculate delivery","is supporting","evidence shown","logically presented","easily follow","appropriate tone","well developed","well selected","completely addressed","very nuanced","meets requirements","good time","just nice","used natural","conversational","was coherent","appropriately changed","maintain interest","avoided filler","well adapted","demonstrated command","formal","English","when appropriate","best vocabulary","technical words","well defined","easy","were incoherent","bad","is bad","was abrupt","should improve","presentation needs","was difficult","more varied","too long","should work","too much information","consistent colour","is difficult","better focus","is disappointing","better quality","could use","more hand","should try","should smile","when talking","would help","more friendly","presentation lacks","are unsupported","more reliable sources","need better","not convincing","be feasible","too tense","not consistent","could improve","more consistent pace","other parts","too slow","general audience","should use","less technical jargon","should replace","technical jargon","are easy","more concise","not professional","more formal words","more professional","pictures used","not appropriate","more formal","when speaking","be more","to rehearse more","have poor","was hard","to look more","font used","too small","were distracting","too distracting","overly use","should rehearse","badly prepared","is obvious","are reading","more confident","convincing","is more","too many","awkward","should look","maintain eye"],"indexTable":{"w":0,"e":1,"l":2," ":3,"d":4,"o":5,"n":6,"g":7,"r":8,"a":9,"i":10,"s":11,"b":12,"c":13,"k":14,"m":15,"p":16,"v":17,"j":18,"t":19,"h":20,"u":21,"f":22,"q":23,"y":24,"x":25,"E":26,"stop-input":27,"start-output":28,"unrecognized":29},"characterTable":{"0":"w","1":"e","2":"l","3":" ","4":"d","5":"o","6":"n","7":"g","8":"r","9":"a","10":"i","11":"s","12":"b","13":"c","14":"k","15":"m","16":"p","17":"v","18":"j","19":"t","20":"h","21":"u","22":"f","23":"q","24":"y","25":"x","26":"E","27":null,"28":null,"29":null},"characters":["w","e","l"," ","d","o","n","g","r","a","i","s","b","c","k","m","p","v","j","t","h","u","f","q","y","x","E","stop-input","start-output","unrecognized"],"specialIndexes":[27,28,29]}},"input":{"rows":31,"columns":30,"weights":{"0":0.3352627158164978,"1":0.08273402601480484,"2":3.756967544555664,"3":2.105231523513794,"4":-1.0983611345291138,"5":0.002106650033965707,"6":3.652226448059082,"7":0.18222962319850922,"8":-0.780833899974823,"9":0.9026066660881042,"10":-0.8524919748306274,"11":-2.290011167526245,"12":-0.5434642434120178,"13":-1.1527645587921143,"14":-0.34603533148765564,"15":2.5381340980529785,"16":0.1971980780363083,"17":-0.07267438620328903,"18":-0.894429087638855,"19":0.897838294506073,"20":-0.16761691868305206,"21":0.5545715689659119,"22":-0.46348080039024353,"23":2.453702211380005,"24":-2.2649660110473633,"25":-0.7531665563583374,"26":1.8734623193740845,"27":-2.880976676940918,"28":-0.4473319947719574,"29":1.5064952373504639,"30":-5.223057746887207,"31":5.554281234741211,"32":-2.197683572769165,"33":-2.6390531063079834,"34":1.0922534465789795,"35":8.610965728759766,"36":8.64366626739502,"37":4.08177375793457,"38":1.091477870941162,"39":-2.8002352714538574,"40":1.6711581945419312,"41":6.8548583984375,"42":0.027398664504289627,"43":-3.061140298843384,"44":-6.037683486938477,"45":-0.6249163150787354,"46":-2.156620740890503,"47":-1.7371443510055542,"48":-3.6186435222625732,"49":-6.953317165374756,"50":13.399460792541504,"51":0.5524008274078369,"52":1.9556275606155396,"53":0.4650452136993408,"54":3.0901546478271484,"55":-2.8886308670043945,"56":-4.621008396148682,"57":1.85054612159729,"58":-3.3138678073883057,"59":-5.034181118011475,"60":3.6284186840057373,"61":2.2322838306427,"62":2.5288963317871094,"63":-4.769875526428223,"64":-1.7792624235153198,"65":3.2774930000305176,"66":2.1861369609832764,"67":2.7329320907592773,"68":3.2548320293426514,"69":-3.696200132369995,"70":2.0314478874206543,"71":-2.8833746910095215,"72":-3.8505351543426514,"73":-0.33717799186706543,"74":-0.19780007004737854,"75":-2.97530198097229,"76":-2.516115665435791,"77":-1.0750367641448975,"78":-0.6442484855651855,"79":0.09189198166131973,"80":4.025847434997559,"81":0.08235674351453781,"82":3.436039686203003,"83":0.662221372127533,"84":1.8053654432296753,"85":-1.1110590696334839,"86":-0.06912491470575333,"87":4.236265659332275,"88":-4.883450031280518,"89":-4.614635944366455,"90":-3.1653594970703125,"91":-6.3493828773498535,"92":6.383883476257324,"93":0.6366400718688965,"94":-1.508817434310913,"95":-0.9716759324073792,"96":4.443741321563721,"97":2.9463915824890137,"98":-5.973999977111816,"99":-7.6637067794799805,"100":0.35326263308525085,"101":-0.9847940802574158,"102":-1.904235601425171,"103":-5.548900604248047,"104":-1.9201183319091797,"105":0.7367810010910034,"106":1.1745836734771729,"107":0.7298392653465271,"108":-4.572376251220703,"109":2.5499744415283203,"110":1.253577470779419,"111":1.8512247800827026,"112":-3.3611207008361816,"113":8.099166870117188,"114":1.2377216815948486,"115":-5.004892826080322,"116":3.6497020721435547,"117":1.4762099981307983,"118":-5.904105186462402,"119":6.106515407562256,"120":0.7164691686630249,"121":1.422951102256775,"122":2.6221530437469482,"123":2.1493752002716064,"124":3.4704747200012207,"125":0.13935419917106628,"126":-2.7966902256011963,"127":-1.1084047555923462,"128":3.019263982772827,"129":3.9827213287353516,"130":-1.2613667249679565,"131":-0.5089816451072693,"132":-3.265577793121338,"133":1.4100353717803955,"134":3.6035237312316895,"135":-0.588321328163147,"136":-1.4813456535339355,"137":2.609083414077759,"138":0.5179619789123535,"139":1.0205955505371094,"140":-1.460511326789856,"141":-1.868350625038147,"142":2.888788938522339,"143":1.2940189838409424,"144":-1.0608766078948975,"145":1.0447931289672852,"146":3.7155373096466064,"147":-0.3280821442604065,"148":-6.0395355224609375,"149":-1.5877068042755127,"150":1.6112122535705566,"151":-0.13921299576759338,"152":-0.08138390630483627,"153":-0.6135483384132385,"154":-0.09621725231409073,"155":-1.8381342887878418,"156":-0.07647255063056946,"157":-0.5856679081916809,"158":0.7708663940429688,"159":-5.83373498916626,"160":-0.1250191181898117,"161":-3.4984726905822754,"162":-1.3039604425430298,"163":0.6282445192337036,"164":-5.474876880645752,"165":2.5187363624572754,"166":-1.7241002321243286,"167":-0.8945979475975037,"168":0.07017872482538223,"169":-1.2526906728744507,"170":-0.0716894119977951,"171":0.04524599015712738,"172":-0.9573885202407837,"173":-0.11289355158805847,"174":-1.2399812936782837,"175":-0.08988213539123535,"176":-2.1976497173309326,"177":-0.08587431907653809,"178":1.8154511451721191,"179":4.629903316497803,"180":3.214630365371704,"181":-3.4227449893951416,"182":0.40007904171943665,"183":-3.28910756111145,"184":-1.1008422374725342,"185":2.966078996658325,"186":-1.5161360502243042,"187":2.3639843463897705,"188":5.60317325592041,"189":1.331175684928894,"190":3.0554091930389404,"191":-2.819338798522949,"192":-2.7485265731811523,"193":1.6241534948349,"194":0.9335631728172302,"195":-2.7112228870391846,"196":3.6960813999176025,"197":-1.7603875398635864,"198":-1.7631503343582153,"199":0.5455224514007568,"200":2.0826194286346436,"201":3.1188576221466064,"202":-0.5930606722831726,"203":-5.215915203094482,"204":4.665708541870117,"205":1.9775059223175049,"206":-5.079781532287598,"207":5.2682390213012695,"208":-3.120523691177368,"209":-3.5413098335266113,"210":-6.256567001342773,"211":3.0158770084381104,"212":6.004332542419434,"213":-1.428249716758728,"214":2.733203887939453,"215":-1.7742841243743896,"216":0.5112107396125793,"217":0.3598881661891937,"218":-3.5501227378845215,"219":-3.7330217361450195,"220":4.140196800231934,"221":-1.1712723970413208,"222":1.687087059020996,"223":1.2012280225753784,"224":0.5014698505401611,"225":-2.618277072906494,"226":1.1546865701675415,"227":3.384303331375122,"228":3.0720348358154297,"229":-3.069626808166504,"230":-2.9164116382598877,"231":3.3398897647857666,"232":7.187784671783447,"233":-1.241999626159668,"234":6.672024250030518,"235":-2.234492540359497,"236":-1.3310977220535278,"237":4.878636837005615,"238":-9.474515914916992,"239":-1.1739610433578491,"240":-1.1202168464660645,"241":1.3190113306045532,"242":2.2234487533569336,"243":-6.481692314147949,"244":0.9119458794593811,"245":-2.119675636291504,"246":0.39473748207092285,"247":-1.6213724613189697,"248":-3.2061309814453125,"249":-0.4488125145435333,"250":-1.784409761428833,"251":-5.829562187194824,"252":-1.9478402137756348,"253":-2.657783269882202,"254":-1.1580088138580322,"255":2.440422296524048,"256":-5.0321173667907715,"257":1.2273508310317993,"258":1.8663285970687866,"259":-5.488530158996582,"260":-0.45660799741744995,"261":-0.880161464214325,"262":1.7293375730514526,"263":-3.1804513931274414,"264":-3.9001920223236084,"265":2.5774707794189453,"266":-3.6145553588867188,"267":9.732598304748535,"268":-0.25945162773132324,"269":2.176989793777466,"270":0.9031215906143188,"271":0.5810645222663879,"272":-3.1397883892059326,"273":-2.9171061515808105,"274":-1.955856204032898,"275":-2.861222267150879,"276":-2.2647135257720947,"277":-9.122941017150879,"278":0.25837185978889465,"279":-0.6647887229919434,"280":-0.34890592098236084,"281":-0.36148080229759216,"282":1.4396045207977295,"283":1.7016769647598267,"284":2.819373607635498,"285":-2.0288097858428955,"286":1.0142390727996826,"287":1.8581175804138184,"288":-1.7246030569076538,"289":-5.1631951332092285,"290":2.2058613300323486,"291":-1.5957735776901245,"292":-1.7912232875823975,"293":5.368060111999512,"294":2.8851308822631836,"295":-0.8946525454521179,"296":-3.5766406059265137,"297":6.616452693939209,"298":-0.9242066144943237,"299":-3.496112585067749,"300":8.380669593811035,"301":-0.8496091961860657,"302":-4.432071208953857,"303":-0.8737033605575562,"304":-2.245636463165283,"305":-4.244533061981201,"306":-5.7157392501831055,"307":-4.140960216522217,"308":2.754284381866455,"309":0.25899580121040344,"310":-3.161083698272705,"311":-1.643310785293579,"312":-1.2170298099517822,"313":-0.9367681741714478,"314":1.4886006116867065,"315":0.021213700994849205,"316":-3.4406962394714355,"317":-0.670706570148468,"318":-5.8703718185424805,"319":-4.844266414642334,"320":-1.814369797706604,"321":2.5017755031585693,"322":1.9210947751998901,"323":-1.3986355066299438,"324":3.3415541648864746,"325":4.287574291229248,"326":1.1383585929870605,"327":5.021140098571777,"328":6.554094314575195,"329":-6.270543098449707,"330":-2.0238938331604004,"331":1.0303038358688354,"332":-0.5107223987579346,"333":-4.023525714874268,"334":2.5882363319396973,"335":5.489677906036377,"336":1.3461495637893677,"337":4.388643741607666,"338":-2.203922986984253,"339":-2.8534746170043945,"340":-2.062802314758301,"341":-0.9426632523536682,"342":3.2685635089874268,"343":-1.4460475444793701,"344":-0.5623735189437866,"345":1.3839753866195679,"346":2.75093674659729,"347":-7.203895092010498,"348":-2.197516441345215,"349":-0.4351087808609009,"350":2.2259178161621094,"351":-2.659416437149048,"352":-1.8385045528411865,"353":0.9147588014602661,"354":-1.0315327644348145,"355":1.989655613899231,"356":1.083174467086792,"357":1.3607345819473267,"358":-1.2617934942245483,"359":-0.6878987550735474,"360":0.11393114924430847,"361":3.022094964981079,"362":0.4820411205291748,"363":-6.054640293121338,"364":0.02508208341896534,"365":-3.2720940113067627,"366":-3.214494228363037,"367":-3.490105628967285,"368":3.8539860248565674,"369":-1.5388165712356567,"370":4.459255695343018,"371":-1.7017111778259277,"372":-2.703596830368042,"373":1.0390065908432007,"374":1.4821803569793701,"375":2.2720189094543457,"376":-3.1067557334899902,"377":-1.9869319200515747,"378":-2.1330182552337646,"379":-1.3036926984786987,"380":-0.2810938060283661,"381":-4.029829978942871,"382":-2.830078601837158,"383":-0.13948997855186462,"384":-7.751031875610352,"385":-2.5611484050750732,"386":-3.0194830894470215,"387":4.147101879119873,"388":-3.179239511489868,"389":0.8664080500602722,"390":-0.5458135604858398,"391":-3.3437142372131348,"392":-4.727292060852051,"393":5.852797031402588,"394":5.420139312744141,"395":-4.90584659576416,"396":7.619355201721191,"397":0.605018138885498,"398":0.998953104019165,"399":-1.3940496444702148,"400":12.611471176147461,"401":-9.648951530456543,"402":0.09604504704475403,"403":1.5649571418762207,"404":-9.03010368347168,"405":6.347867488861084,"406":-2.851177453994751,"407":-4.804384231567383,"408":0.7312179803848267,"409":0.7973885536193848,"410":-6.717753887176514,"411":15.558850288391113,"412":-4.433669567108154,"413":3.3320727348327637,"414":-5.343790531158447,"415":-1.1774910688400269,"416":-3.731656312942505,"417":1.507231593132019,"418":5.339827537536621,"419":2.621565818786621,"420":3.978621006011963,"421":-2.6163084506988525,"422":0.5097160339355469,"423":-2.1919848918914795,"424":0.09738966822624207,"425":-0.3085320293903351,"426":-6.01680326461792,"427":0.2500394880771637,"428":5.737035274505615,"429":-1.5407692193984985,"430":-4.366247653961182,"431":1.0113035440444946,"432":-6.834619045257568,"433":-3.693100929260254,"434":1.503989815711975,"435":0.34244969487190247,"436":-1.4560208320617676,"437":-1.3945322036743164,"438":-1.5327908992767334,"439":-4.469034671783447,"440":6.154252529144287,"441":1.4060343503952026,"442":-2.7512052059173584,"443":3.2754597663879395,"444":-2.2470345497131348,"445":2.012246608734131,"446":-7.906545639038086,"447":1.0238573551177979,"448":2.3580243587493896,"449":-8.419244766235352,"450":5.879580497741699,"451":6.343398094177246,"452":8.252248764038086,"453":4.890286445617676,"454":-13.705842018127441,"455":-12.859169006347656,"456":5.6127824783325195,"457":-9.946097373962402,"458":6.23882532119751,"459":6.497039794921875,"460":6.0091657638549805,"461":-12.751523971557617,"462":-14.954572677612305,"463":-8.049108505249023,"464":8.729290962219238,"465":-3.4022204875946045,"466":-3.712354898452759,"467":11.080568313598633,"468":-6.615446090698242,"469":-8.807937622070312,"470":-11.076422691345215,"471":-12.078425407409668,"472":3.1595208644866943,"473":-0.44022637605667114,"474":2.9718804359436035,"475":13.052461624145508,"476":8.244357109069824,"477":-8.30685806274414,"478":11.003971099853516,"479":-8.233951568603516,"480":-5.692932605743408,"481":0.8296045064926147,"482":1.6848454475402832,"483":-2.7101147174835205,"484":6.638772010803223,"485":0.5987005233764648,"486":9.776644706726074,"487":1.7669599056243896,"488":1.4017629623413086,"489":-13.784493446350098,"490":8.818894386291504,"491":7.095030784606934,"492":1.7909514904022217,"493":4.350752830505371,"494":7.177684783935547,"495":0.06821934878826141,"496":-7.562799453735352,"497":-1.6593009233474731,"498":-6.095975875854492,"499":5.981667995452881,"500":0.7865728139877319,"501":-5.093709468841553,"502":-1.0678843259811401,"503":12.214363098144531,"504":2.5139825344085693,"505":-11.436279296875,"506":-3.14357590675354,"507":1.1206130981445312,"508":-5.3972554206848145,"509":6.491131782531738,"510":-4.621232032775879,"511":5.335248947143555,"512":0.5522614121437073,"513":1.5938018560409546,"514":-0.7280229330062866,"515":8.142678260803223,"516":-4.193795204162598,"517":-6.0805134773254395,"518":1.0079536437988281,"519":4.351889610290527,"520":-3.4199769496917725,"521":2.5953378677368164,"522":7.563570022583008,"523":-4.7602314949035645,"524":13.212020874023438,"525":-3.496532678604126,"526":7.1409525871276855,"527":0.9843543767929077,"528":3.298917531967163,"529":8.4970703125,"530":4.738602638244629,"531":-3.0831797122955322,"532":4.242099761962891,"533":7.2034382820129395,"534":5.699826717376709,"535":-4.804915904998779,"536":-1.0866258144378662,"537":0.7566846013069153,"538":-5.82869815826416,"539":3.770531177520752,"540":12.679264068603516,"541":3.645585536956787,"542":-3.1496217250823975,"543":-5.443005561828613,"544":3.3545196056365967,"545":2.663358688354492,"546":-7.013171672821045,"547":2.301126003265381,"548":-3.265289068222046,"549":5.835168838500977,"550":-12.226327896118164,"551":5.198652267456055,"552":4.561343193054199,"553":8.935888290405273,"554":-2.049084424972534,"555":-1.3136320114135742,"556":-3.1655421257019043,"557":2.7403416633605957,"558":-1.3301036357879639,"559":-3.080639600753784,"560":8.708121299743652,"561":-0.26219668984413147,"562":5.352000713348389,"563":-13.398900985717773,"564":8.288642883300781,"565":-1.4057749509811401,"566":-3.692955732345581,"567":4.63955020904541,"568":-9.095745086669922,"569":-3.9542396068573,"570":13.894559860229492,"571":-17.58083724975586,"572":0.22857140004634857,"573":-8.74255084991455,"574":-13.764699935913086,"575":-11.9741849899292,"576":-4.222606658935547,"577":-8.432303428649902,"578":14.160341262817383,"579":-8.849555015563965,"580":-8.386956214904785,"581":-7.934785842895508,"582":-3.857930898666382,"583":-6.570236682891846,"584":0.9818108677864075,"585":-8.685612678527832,"586":-9.05502986907959,"587":-8.023749351501465,"588":3.3413047790527344,"589":1.3145246505737305,"590":15.28647518157959,"591":5.642271041870117,"592":2.8634774684906006,"593":21.698509216308594,"594":2.8189799785614014,"595":3.3089659214019775,"596":1.920769453048706,"597":11.247415542602539,"598":0.9872168302536011,"599":-6.986029148101807,"600":1.3531804084777832,"601":-3.701901912689209,"602":2.134415864944458,"603":-5.500240802764893,"604":-4.0827226638793945,"605":0.8194289207458496,"606":0.4099997282028198,"607":2.0286595821380615,"608":-0.4871516227722168,"609":-5.333374500274658,"610":-4.398528575897217,"611":-0.0610153004527092,"612":5.6769022941589355,"613":6.7639946937561035,"614":-7.58878755569458,"615":3.824596643447876,"616":-2.1584134101867676,"617":0.15019235014915466,"618":0.6868424415588379,"619":-0.7544083595275879,"620":-0.17686477303504944,"621":-2.544515371322632,"622":1.5801624059677124,"623":-5.5917887687683105,"624":5.353416442871094,"625":-5.994357109069824,"626":-10.137113571166992,"627":4.689295768737793,"628":-6.745107650756836,"629":1.0827441215515137,"630":-0.5627237558364868,"631":-5.790735244750977,"632":-8.502542495727539,"633":-5.33698844909668,"634":0.3216991424560547,"635":-7.478659629821777,"636":6.702230930328369,"637":-5.8151631355285645,"638":-3.586254119873047,"639":3.5342369079589844,"640":-6.421947956085205,"641":0.09789987653493881,"642":3.181596279144287,"643":1.2794889211654663,"644":-2.871048927307129,"645":-3.7610111236572266,"646":-7.522463798522949,"647":2.7903544902801514,"648":0.8545976877212524,"649":2.726472854614258,"650":3.1193530559539795,"651":5.422074794769287,"652":-4.030970573425293,"653":2.74495792388916,"654":2.0945940017700195,"655":4.453453540802002,"656":2.0583269596099854,"657":4.712522029876709,"658":-3.914893865585327,"659":2.5353357791900635,"660":1.8603134155273438,"661":-5.140448093414307,"662":4.97613000869751,"663":-3.7132935523986816,"664":-0.8456389904022217,"665":0.12886381149291992,"666":1.0102431774139404,"667":3.093625068664551,"668":-10.389264106750488,"669":-5.859151363372803,"670":4.693946361541748,"671":-3.6532247066497803,"672":1.1602206230163574,"673":14.73799991607666,"674":-10.49165153503418,"675":3.793515205383301,"676":-1.9172170162200928,"677":-4.862979888916016,"678":-1.4583956003189087,"679":-2.9867002964019775,"680":-1.5011069774627686,"681":-3.3389432430267334,"682":5.556478023529053,"683":-6.248489856719971,"684":6.054816246032715,"685":0.29450738430023193,"686":2.1359798908233643,"687":4.3173041343688965,"688":3.833881378173828,"689":-4.765344619750977,"690":0.8122333884239197,"691":4.1388163566589355,"692":-3.761667251586914,"693":11.278826713562012,"694":-3.0687243938446045,"695":-1.8869260549545288,"696":-5.824443340301514,"697":6.2495036125183105,"698":7.431385040283203,"699":5.885993003845215,"700":8.460942268371582,"701":0.6419450640678406,"702":-0.8498141765594482,"703":2.3994839191436768,"704":-3.6681079864501953,"705":6.5237956047058105,"706":11.772353172302246,"707":-3.846895694732666,"708":-1.4489936828613281,"709":3.0405113697052,"710":-7.570682525634766,"711":-4.557470321655273,"712":-8.958844184875488,"713":-1.7912609577178955,"714":-12.117024421691895,"715":6.485713958740234,"716":3.5091934204101562,"717":-14.741534233093262,"718":3.560452938079834,"719":-6.1943793296813965,"720":6.09654426574707,"721":-2.659426689147949,"722":7.889290809631348,"723":-5.100558757781982,"724":6.8771562576293945,"725":7.5189208984375,"726":9.995903015136719,"727":9.75321102142334,"728":-2.3349227905273438,"729":-4.074850082397461,"730":-6.016350269317627,"731":22.900367736816406,"732":6.96205997467041,"733":-9.166010856628418,"734":3.648879051208496,"735":-3.0939908027648926,"736":7.966319561004639,"737":-1.0574713945388794,"738":7.0764641761779785,"739":11.227006912231445,"740":18.007080078125,"741":-24.560178756713867,"742":-10.182923316955566,"743":9.190110206604004,"744":-3.438915967941284,"745":4.142149925231934,"746":-23.169189453125,"747":20.405092239379883,"748":-30.665021896362305,"749":11.073674201965332,"750":-6.984767436981201,"751":-0.09273805469274521,"752":-3.8858017921447754,"753":-3.0788300037384033,"754":4.065171718597412,"755":14.674201965332031,"756":14.916693687438965,"757":8.009843826293945,"758":-10.344897270202637,"759":-8.61906623840332,"760":-6.383955478668213,"761":-3.7520751953125,"762":2.0688295364379883,"763":-5.1203999519348145,"764":-4.094878196716309,"765":0.03005070798099041,"766":3.4111697673797607,"767":-8.965309143066406,"768":4.122926712036133,"769":2.2346115112304688,"770":5.544301509857178,"771":-3.808526039123535,"772":-12.583343505859375,"773":0.6750876307487488,"774":-12.059290885925293,"775":-0.10435766726732254,"776":-3.604673385620117,"777":1.6532002687454224,"778":-6.374227046966553,"779":4.165841102600098,"780":7.56603479385376,"781":-11.967635154724121,"782":21.445472717285156,"783":-4.613008975982666,"784":19.247079849243164,"785":4.701714515686035,"786":6.568739891052246,"787":11.408175468444824,"788":-12.9638090133667,"789":2.136857748031616,"790":3.8002586364746094,"791":-17.025028228759766,"792":-5.243842601776123,"793":-9.130524635314941,"794":-1.1840660572052002,"795":-27.213756561279297,"796":-3.945842742919922,"797":-9.40105152130127,"798":0.27920660376548767,"799":16.875606536865234,"800":8.042765617370605,"801":7.004995346069336,"802":25.52291488647461,"803":-2.084470748901367,"804":6.1407270431518555,"805":-4.3550543785095215,"806":3.3355660438537598,"807":6.581249713897705,"808":-14.747079849243164,"809":-11.498641967773438,"810":29.833158493041992,"811":-13.3800048828125,"812":20.21013069152832,"813":3.83833646774292,"814":0.0024261390790343285,"815":8.621786117553711,"816":-38.23676300048828,"817":19.877796173095703,"818":39.9729118347168,"819":-28.065948486328125,"820":-38.69144058227539,"821":-23.118896484375,"822":-46.55671691894531,"823":-7.575159549713135,"824":12.775951385498047,"825":-35.257057189941406,"826":8.284865379333496,"827":-22.65166473388672,"828":30.11832618713379,"829":11.398014068603516,"830":53.90268325805664,"831":-31.221120834350586,"832":-4.02148962020874,"833":6.845474720001221,"834":7.333819389343262,"835":-5.312863349914551,"836":2.9483518600463867,"837":-15.48760986328125,"838":-27.568830490112305,"839":-15.03369140625,"840":0.08652394264936447,"841":1.330018162727356,"842":0.022649653255939484,"843":-0.9461621046066284,"844":0.33823782205581665,"845":-2.4147441387176514,"846":1.7268708944320679,"847":-1.398606777191162,"848":0.04107607528567314,"849":-0.21579572558403015,"850":4.574696063995361,"851":1.27816903591156,"852":0.25403526425361633,"853":0.17165735363960266,"854":0.5829753875732422,"855":3.1296725273132324,"856":-4.414896011352539,"857":1.0876866579055786,"858":-3.8910467624664307,"859":-0.5441771745681763,"860":-3.8364617824554443,"861":1.620967149734497,"862":-1.4446187019348145,"863":3.7289345264434814,"864":-3.290773391723633,"865":3.0615642070770264,"866":-3.0257508754730225,"867":-0.11885657906532288,"868":3.66593074798584,"869":0.6589217185974121,"870":1.3913934230804443,"871":-0.8417454361915588,"872":-3.432968854904175,"873":-1.0881527662277222,"874":-0.15446828305721283,"875":-0.020961495116353035,"876":-0.1399986892938614,"877":-0.10217221826314926,"878":0.9988650679588318,"879":6.692392349243164,"880":-3.593376874923706,"881":-4.191747188568115,"882":-5.45985221862793,"883":-3.791382074356079,"884":1.5223000049591064,"885":-1.2400739192962646,"886":1.415255069732666,"887":-1.3840831518173218,"888":-0.6733911633491516,"889":1.013628363609314,"890":-2.751267433166504,"891":2.5191400051116943,"892":-1.2888314723968506,"893":1.4957354068756104,"894":-2.33601450920105,"895":1.062449336051941,"896":2.6230201721191406,"897":-4.736572742462158,"898":0.8510981798171997,"899":2.8114418983459473,"900":0.007273031398653984,"901":-0.00031918782042339444,"902":-0.008284355513751507,"903":0.007981356233358383,"904":0.005322364624589682,"905":-0.004310525953769684,"906":-0.009264567866921425,"907":-0.009695900604128838,"908":0.001093727070838213,"909":0.004554123617708683,"910":-0.003755594603717327,"911":0.002196931978687644,"912":0.00021286940318532288,"913":-0.009637236595153809,"914":-0.00855221413075924,"915":0.008202887140214443,"916":-0.008903483860194683,"917":-0.00988185964524746,"918":0.009771924465894699,"919":-0.006320057436823845,"920":-0.01203655544668436,"921":0.009334882721304893,"922":0.0022695332299917936,"923":-0.0006320240208879113,"924":-0.0021540126763284206,"925":0.0016919878544285893,"926":-0.007906094193458557,"927":-0.01031785923987627,"928":0.01045456063002348,"929":0.01336590014398098}},"hiddenLayers":[{"inputMatrix":{"rows":20,"columns":30,"weights":{"0":0.04518291354179382,"1":-0.06137123331427574,"2":0.029047640040516853,"3":0.6796519756317139,"4":-0.01273293886333704,"5":1.1124221086502075,"6":2.1029245853424072,"7":2.0381510257720947,"8":-0.9197473526000977,"9":0.26719391345977783,"10":1.154226541519165,"11":-0.6904522776603699,"12":3.055602788925171,"13":-1.2512739896774292,"14":-0.9843457341194153,"15":1.24772310256958,"16":2.1780903339385986,"17":-2.3617970943450928,"18":-0.6006166934967041,"19":2.260918378829956,"20":-2.0235674381256104,"21":0.7837517261505127,"22":-1.6982148885726929,"23":0.9155396223068237,"24":-2.031651735305786,"25":0.4592195749282837,"26":-0.45440033078193665,"27":-2.7466771602630615,"28":2.005552053451538,"29":0.6409468650817871,"30":0.7767424583435059,"31":-0.05964995548129082,"32":1.6077468395233154,"33":2.1434102058410645,"34":0.595041036605835,"35":-0.3917705714702606,"36":-1.1189227104187012,"37":-0.49405303597450256,"38":-0.6466814279556274,"39":1.066886305809021,"40":-0.5355895757675171,"41":0.4912945032119751,"42":0.08889839798212051,"43":5.128129959106445,"44":-0.8745020627975464,"45":-0.33792993426322937,"46":0.19200663268566132,"47":0.19213104248046875,"48":2.5683438777923584,"49":1.2106143236160278,"50":-1.3756026029586792,"51":2.5032882690429688,"52":0.8777180910110474,"53":-3.190032720565796,"54":-0.038492683321237564,"55":1.3213001489639282,"56":0.9266648888587952,"57":-0.5516066551208496,"58":-0.9096500277519226,"59":-0.2981361150741577,"60":0.06010116636753082,"61":-1.096697211265564,"62":3.9968373775482178,"63":1.9317312240600586,"64":-2.491398811340332,"65":0.07121051847934723,"66":0.6584532856941223,"67":0.4482163190841675,"68":-1.6179914474487305,"69":0.32156890630722046,"70":1.6786668300628662,"71":-2.132222890853882,"72":-3.891833782196045,"73":0.24942827224731445,"74":-0.9248367547988892,"75":-2.0954999923706055,"76":1.4158058166503906,"77":0.5763968229293823,"78":0.5056931376457214,"79":1.7296466827392578,"80":-0.9695332050323486,"81":1.219312071800232,"82":1.9975653886795044,"83":-1.970139741897583,"84":-0.13502517342567444,"85":0.2038586288690567,"86":2.755702257156372,"87":-1.3159128427505493,"88":-0.4618653357028961,"89":-1.1442638635635376,"90":-2.04366397857666,"91":0.8355867266654968,"92":-0.331071674823761,"93":-0.33839207887649536,"94":1.9547840356826782,"95":-3.44677996635437,"96":-0.1937408298254013,"97":1.1451810598373413,"98":-0.763615608215332,"99":-0.6585859656333923,"100":3.212200403213501,"101":1.3436262607574463,"102":-1.04238760471344,"103":-1.1105692386627197,"104":2.506136178970337,"105":-0.7522966861724854,"106":-5.0182061195373535,"107":2.6159322261810303,"108":0.23777326941490173,"109":1.7134788036346436,"110":1.7708567380905151,"111":1.0864142179489136,"112":-0.900031328201294,"113":2.3386993408203125,"114":0.046268198639154434,"115":-1.0511497259140015,"116":-1.0406895875930786,"117":2.3126871585845947,"118":-0.2539813220500946,"119":-1.7820988893508911,"120":1.8133341073989868,"121":-0.9661570191383362,"122":1.6791143417358398,"123":-0.8518580198287964,"124":0.2011556327342987,"125":-2.163316249847412,"126":-1.126657485961914,"127":-1.6732062101364136,"128":1.26060950756073,"129":-1.5404404401779175,"130":-0.9785460233688354,"131":-1.2502492666244507,"132":-0.09695801138877869,"133":2.8056697845458984,"134":0.2944960296154022,"135":0.22831770777702332,"136":-2.6853604316711426,"137":0.6373535990715027,"138":1.6577975749969482,"139":-1.0339279174804688,"140":0.18989503383636475,"141":-1.2550454139709473,"142":1.58336341381073,"143":-0.9602789282798767,"144":0.1909017711877823,"145":0.6600126028060913,"146":-2.0628509521484375,"147":1.8493140935897827,"148":-0.5413735508918762,"149":-0.9035632610321045,"150":-2.059722661972046,"151":2.7754485607147217,"152":-3.9377284049987793,"153":0.41032227873802185,"154":1.7370822429656982,"155":0.49238812923431396,"156":2.8055412769317627,"157":-0.6738390326499939,"158":0.6783028244972229,"159":-2.8889048099517822,"160":-0.28106489777565,"161":0.45604339241981506,"162":2.198289394378662,"163":0.6738109588623047,"164":0.5912814140319824,"165":-0.24647073447704315,"166":2.90661883354187,"167":1.578263521194458,"168":1.1267460584640503,"169":-1.9473838806152344,"170":-2.311338424682617,"171":-2.747511863708496,"172":-1.7210407257080078,"173":-0.07705631852149963,"174":-1.749737024307251,"175":0.6586775779724121,"176":-2.103612184524536,"177":1.0738788843154907,"178":-1.2814244031906128,"179":1.9097212553024292,"180":0.008833075873553753,"181":-0.7396089434623718,"182":0.031997814774513245,"183":1.6225061416625977,"184":1.1715123653411865,"185":-0.10891002416610718,"186":-2.4026341438293457,"187":2.0711522102355957,"188":-0.0064260209910571575,"189":2.378812551498413,"190":-0.16482098400592804,"191":-1.1103414297103882,"192":-1.7716339826583862,"193":2.638315439224243,"194":4.85670804977417,"195":-2.6103286743164062,"196":0.42382657527923584,"197":2.3430817127227783,"198":0.9707671403884888,"199":0.752190113067627,"200":0.1001347079873085,"201":1.6900900602340698,"202":1.4515767097473145,"203":-0.5094396471977234,"204":-0.0441359281539917,"205":2.063338041305542,"206":-0.8727025389671326,"207":-0.7974294424057007,"208":0.6048450469970703,"209":-2.00512957572937,"210":0.8925797343254089,"211":-2.2435500621795654,"212":-1.5061733722686768,"213":0.6038148999214172,"214":-0.5942305326461792,"215":-2.1428451538085938,"216":0.07993904501199722,"217":-0.5198561549186707,"218":0.4890902042388916,"219":2.0112576484680176,"220":1.165998101234436,"221":1.1909348964691162,"222":-0.15300938487052917,"223":0.26195475459098816,"224":0.639156699180603,"225":-1.3756202459335327,"226":0.18273983895778656,"227":1.9048441648483276,"228":-0.6156701445579529,"229":0.4352302551269531,"230":-0.021447649225592613,"231":1.4874347448349,"232":-2.050154447555542,"233":0.3559189736843109,"234":2.5492117404937744,"235":2.4141807556152344,"236":0.5026764869689941,"237":-0.6699728965759277,"238":2.911561965942383,"239":-3.2079737186431885,"240":0.3665803372859955,"241":0.7313579320907593,"242":-0.06927499175071716,"243":0.9601009488105774,"244":0.3974545896053314,"245":-0.7514088749885559,"246":2.732715606689453,"247":1.6811219453811646,"248":-1.9355154037475586,"249":0.5747503638267517,"250":0.008228595368564129,"251":-0.24615713953971863,"252":1.1381124258041382,"253":-0.32026979327201843,"254":-0.27180442214012146,"255":0.6748274564743042,"256":-0.5219858884811401,"257":-0.5067694783210754,"258":-1.9233766794204712,"259":2.4011406898498535,"260":-0.47102659940719604,"261":0.7277579307556152,"262":-3.0159993171691895,"263":0.31520113348960876,"264":-1.7397973537445068,"265":0.7171425223350525,"266":-0.5265744924545288,"267":-1.6747140884399414,"268":0.7235174179077148,"269":1.1465338468551636,"270":0.06478826701641083,"271":0.9817100167274475,"272":0.9097288846969604,"273":4.853471279144287,"274":-2.617128372192383,"275":-0.20249657332897186,"276":-0.7327373623847961,"277":-0.87997967004776,"278":-0.821681022644043,"279":0.9478365778923035,"280":-1.2268608808517456,"281":2.16439151763916,"282":1.7035733461380005,"283":-1.357887625694275,"284":3.3888919353485107,"285":-0.12931418418884277,"286":0.7495850324630737,"287":1.4801942110061646,"288":-2.017761707305908,"289":-0.5770134329795837,"290":0.254658579826355,"291":1.6304774284362793,"292":1.439456582069397,"293":-0.3320063650608063,"294":-1.2324806451797485,"295":2.7898755073547363,"296":1.4997937679290771,"297":-3.8695790767669678,"298":4.170193672180176,"299":0.041922152042388916,"300":-3.835249662399292,"301":0.9606692790985107,"302":-2.167435884475708,"303":1.4482084512710571,"304":1.0544136762619019,"305":2.2108867168426514,"306":-3.163966417312622,"307":-0.5358121395111084,"308":1.1354173421859741,"309":-0.22806310653686523,"310":-0.844097375869751,"311":1.9613349437713623,"312":0.5060929656028748,"313":0.8111563324928284,"314":1.1134047508239746,"315":-0.8789255023002625,"316":1.1860471963882446,"317":2.10693621635437,"318":1.262024164199829,"319":-0.2238977700471878,"320":0.8438791036605835,"321":-3.5737664699554443,"322":-0.13409869372844696,"323":0.702976405620575,"324":1.7225725650787354,"325":-1.520964503288269,"326":-1.5023019313812256,"327":-0.6723313331604004,"328":-0.3183884620666504,"329":-1.624691128730774,"330":0.43712952733039856,"331":-0.23679833114147186,"332":0.9684798717498779,"333":-0.4046742022037506,"334":0.32831448316574097,"335":2.574517250061035,"336":-1.2069554328918457,"337":0.6813451051712036,"338":-0.7331206798553467,"339":1.1002248525619507,"340":1.2860424518585205,"341":2.7889246940612793,"342":2.0613245964050293,"343":0.9753355383872986,"344":-2.3217663764953613,"345":0.3684176802635193,"346":3.282626152038574,"347":-0.25748398900032043,"348":-0.35158175230026245,"349":0.47593650221824646,"350":0.9083597660064697,"351":0.5119712948799133,"352":0.5826069116592407,"353":-3.658979654312134,"354":0.6191309094429016,"355":-0.7069738507270813,"356":0.5630678534507751,"357":0.5050615072250366,"358":-0.12203871458768845,"359":0.04619506746530533,"360":-0.8819044828414917,"361":0.05799337476491928,"362":-0.11614114046096802,"363":-1.9773370027542114,"364":0.06267059594392776,"365":1.305835485458374,"366":0.05430532619357109,"367":2.7949392795562744,"368":-1.7458622455596924,"369":-1.4716346263885498,"370":-0.018111836165189743,"371":2.383121967315674,"372":1.8284803628921509,"373":-0.17157112061977386,"374":0.43397337198257446,"375":-1.8349851369857788,"376":2.0652015209198,"377":-0.41874241828918457,"378":-0.3040880858898163,"379":0.8514773845672607,"380":1.451715111732483,"381":-0.13408751785755157,"382":0.46643486618995667,"383":0.061026789247989655,"384":4.307368278503418,"385":0.0907062366604805,"386":0.9708902835845947,"387":0.01242496445775032,"388":-1.5824977159500122,"389":-1.075461506843567,"390":-1.2052944898605347,"391":1.8153176307678223,"392":1.6806590557098389,"393":3.1247377395629883,"394":-0.30428576469421387,"395":-3.0479865074157715,"396":0.07478613406419754,"397":-0.29908668994903564,"398":-0.6351032853126526,"399":-0.71254962682724,"400":0.4145377576351166,"401":-0.187139630317688,"402":-0.7075739502906799,"403":0.10097857564687729,"404":0.5482112169265747,"405":1.2065660953521729,"406":0.8365389704704285,"407":2.888607978820801,"408":0.9139797687530518,"409":-0.3014760911464691,"410":-3.084916353225708,"411":2.650775194168091,"412":-1.522915244102478,"413":-0.3289567232131958,"414":-2.0217697620391846,"415":0.8719657063484192,"416":0.669485330581665,"417":-2.3730459213256836,"418":-1.30863356590271,"419":0.5036792159080505,"420":1.0031155347824097,"421":0.2654792070388794,"422":1.7237497568130493,"423":1.952138900756836,"424":1.605536937713623,"425":-1.1038814783096313,"426":2.8797385692596436,"427":-1.0029135942459106,"428":-1.4180136919021606,"429":-0.5767268538475037,"430":2.6936185359954834,"431":-1.9853203296661377,"432":-0.189342200756073,"433":1.2762835025787354,"434":-1.7332561016082764,"435":2.065260887145996,"436":-2.2925474643707275,"437":2.0551743507385254,"438":0.2599795460700989,"439":1.5316907167434692,"440":-2.9871766567230225,"441":-2.362576723098755,"442":-0.22800742089748383,"443":-0.5031707882881165,"444":-4.335318088531494,"445":-0.9824316501617432,"446":-0.9356597065925598,"447":-1.5645922422409058,"448":-0.16358627378940582,"449":2.147627592086792,"450":-0.0385902114212513,"451":3.0680935382843018,"452":-2.874260187149048,"453":1.4024403095245361,"454":0.5242195725440979,"455":2.132688283920288,"456":-0.8690282106399536,"457":0.9206347465515137,"458":0.6243028044700623,"459":1.1466655731201172,"460":-3.7073075771331787,"461":1.3301857709884644,"462":0.7243513464927673,"463":-1.3627877235412598,"464":-0.5759367942810059,"465":-0.1997038573026657,"466":0.7550574541091919,"467":-2.4245312213897705,"468":-0.6170322299003601,"469":-2.1596133708953857,"470":0.7816186547279358,"471":1.4889992475509644,"472":1.146702766418457,"473":-1.3966853618621826,"474":-0.34063002467155457,"475":-1.4708960056304932,"476":0.4107249081134796,"477":-1.1921206712722778,"478":3.488712787628174,"479":0.9017542004585266,"480":1.9487783908843994,"481":-0.7146996259689331,"482":2.26200008392334,"483":0.4662657082080841,"484":-0.3376708924770355,"485":-1.531069040298462,"486":-0.1452028751373291,"487":1.5208652019500732,"488":1.190232753753662,"489":-0.037221260368824005,"490":1.4797090291976929,"491":-0.22330793738365173,"492":-2.610069990158081,"493":1.2943613529205322,"494":-2.484280586242676,"495":2.258531332015991,"496":-0.81834876537323,"497":0.8698428273200989,"498":-2.397479772567749,"499":-1.293723225593567,"500":-3.2175261974334717,"501":0.07291342318058014,"502":-0.6932597756385803,"503":0.4196159541606903,"504":0.5544487237930298,"505":-1.6729950904846191,"506":1.7600414752960205,"507":0.3440115749835968,"508":-0.2323177307844162,"509":3.4715209007263184,"510":0.5997118949890137,"511":2.200221061706543,"512":0.955030620098114,"513":2.6628057956695557,"514":1.19127357006073,"515":0.2378043830394745,"516":-0.4036242365837097,"517":0.42417994141578674,"518":0.8983603119850159,"519":-1.3067872524261475,"520":-0.8973217010498047,"521":-1.9002747535705566,"522":-0.2507580816745758,"523":-0.021291986107826233,"524":-0.649166464805603,"525":-0.5375546813011169,"526":1.3905353546142578,"527":-0.32849007844924927,"528":0.5346149802207947,"529":1.3708815574645996,"530":1.3625904321670532,"531":-1.7488899230957031,"532":-0.8253927230834961,"533":1.6803081035614014,"534":-3.517538547515869,"535":-0.27926310896873474,"536":2.1978068351745605,"537":-2.574826717376709,"538":-0.8750078082084656,"539":4.0574469566345215,"540":0.9501813650131226,"541":-0.7143214344978333,"542":-1.1374993324279785,"543":0.3721739947795868,"544":-0.279117614030838,"545":-0.11334526538848877,"546":-0.8435684442520142,"547":2.4865691661834717,"548":-1.381452202796936,"549":0.7982079386711121,"550":-0.7966741919517517,"551":0.27407383918762207,"552":-0.06988298892974854,"553":-0.15057887136936188,"554":-2.41048002243042,"555":0.9520516395568848,"556":1.4744492769241333,"557":-1.5345780849456787,"558":-0.030634837225079536,"559":0.5127646327018738,"560":0.2100662887096405,"561":1.5497733354568481,"562":0.42454060912132263,"563":-1.221577525138855,"564":-0.3114321231842041,"565":-0.009352843277156353,"566":-0.38820627331733704,"567":0.06802995502948761,"568":0.5728687047958374,"569":-0.6813828945159912,"570":-0.5498035550117493,"571":1.3592623472213745,"572":0.2879789173603058,"573":-0.007741705980151892,"574":0.970482587814331,"575":3.976207733154297,"576":0.3016109764575958,"577":0.10141933709383011,"578":1.234518051147461,"579":-0.8550612330436707,"580":-1.6795551776885986,"581":3.370774030685425,"582":1.4909394979476929,"583":0.1239188089966774,"584":1.6229864358901978,"585":-0.6416063904762268,"586":0.1602816879749298,"587":0.3514753580093384,"588":1.1384520530700684,"589":-0.6225740313529968,"590":0.8657451272010803,"591":-1.6878325939178467,"592":3.3443756103515625,"593":0.5453282594680786,"594":0.6602779030799866,"595":0.7219809293746948,"596":0.023140044882893562,"597":0.6123777627944946,"598":-1.063303828239441,"599":0.04721686989068985}},"inputHidden":{"rows":20,"columns":20,"weights":{"0":-3.0892226696014404,"1":1.2235887050628662,"2":-0.13720931112766266,"3":-0.0211787112057209,"4":0.8359425067901611,"5":-0.6984451413154602,"6":-2.3469812870025635,"7":-0.2761839032173157,"8":0.09259328246116638,"9":-0.6134240627288818,"10":-0.042974986135959625,"11":0.39693939685821533,"12":1.1100335121154785,"13":-1.144605278968811,"14":1.9505560398101807,"15":0.148163840174675,"16":0.31205978989601135,"17":-0.4718894362449646,"18":-2.941091537475586,"19":0.6234151124954224,"20":1.0688321590423584,"21":-1.1118974685668945,"22":2.502786159515381,"23":0.4855054020881653,"24":0.08865819871425629,"25":1.2937098741531372,"26":0.9680854082107544,"27":-2.517181158065796,"28":0.2054591178894043,"29":-0.022050032392144203,"30":-0.08026377856731415,"31":-0.476955771446228,"32":0.0522061288356781,"33":1.0268312692642212,"34":1.6842988729476929,"35":1.9771289825439453,"36":-0.5452272891998291,"37":1.1101913452148438,"38":-0.45092689990997314,"39":-1.8098373413085938,"40":-2.5786995887756348,"41":-1.117870569229126,"42":-0.06536019593477249,"43":0.2809613347053528,"44":2.116114377975464,"45":-0.256733775138855,"46":2.810285806655884,"47":0.5348071455955505,"48":0.6147077083587646,"49":0.39005792140960693,"50":0.4909372329711914,"51":-0.04071512445807457,"52":1.384140133857727,"53":0.2729893922805786,"54":3.343381404876709,"55":0.3634427487850189,"56":0.7260560989379883,"57":0.5550841093063354,"58":-0.10170985758304596,"59":1.3185895681381226,"60":-1.1291791200637817,"61":3.472597122192383,"62":-5.4834303855896,"63":-2.1013474464416504,"64":1.3677608966827393,"65":1.962860107421875,"66":-0.7000656723976135,"67":1.6208579540252686,"68":-1.2093852758407593,"69":1.8350046873092651,"70":0.3639136552810669,"71":-2.704927444458008,"72":-0.5605530142784119,"73":3.7684195041656494,"74":-0.3087068498134613,"75":1.2418513298034668,"76":0.5670392513275146,"77":-0.23050634562969208,"78":1.1294000148773193,"79":1.1892904043197632,"80":-1.7588841915130615,"81":0.2063731700181961,"82":1.255151629447937,"83":-1.0943584442138672,"84":-2.532498836517334,"85":0.2590710520744324,"86":0.4371699392795563,"87":0.4700731039047241,"88":1.2249590158462524,"89":0.6245795488357544,"90":-2.0933375358581543,"91":-1.7315508127212524,"92":-0.5434811115264893,"93":2.2329206466674805,"94":-0.07709547877311707,"95":-1.4588496685028076,"96":0.48163673281669617,"97":-0.5550362467765808,"98":1.0925898551940918,"99":-0.48239609599113464,"100":-1.467771291732788,"101":2.8562114238739014,"102":1.7043911218643188,"103":-1.9144511222839355,"104":-1.3418879508972168,"105":1.4646317958831787,"106":-1.7264854907989502,"107":2.2753515243530273,"108":-0.42291128635406494,"109":-1.5204949378967285,"110":-2.797355890274048,"111":-0.2797556221485138,"112":-1.3116803169250488,"113":-4.705502986907959,"114":0.12169184535741806,"115":-1.3043622970581055,"116":0.20667658746242523,"117":-1.3855578899383545,"118":1.2038743495941162,"119":-0.8982115983963013,"120":-1.3450678586959839,"121":0.056219011545181274,"122":1.149146318435669,"123":-5.633849620819092,"124":-0.8968712091445923,"125":-7.844672679901123,"126":-3.482273817062378,"127":-2.365926504135132,"128":-1.9940990209579468,"129":-0.7297366857528687,"130":1.0926631689071655,"131":-0.43022245168685913,"132":-0.3500646948814392,"133":6.156865119934082,"134":-2.4367072582244873,"135":-8.240756034851074,"136":0.5120388269424438,"137":4.2917070388793945,"138":0.11038614064455032,"139":1.4620901346206665,"140":2.4222848415374756,"141":-0.20978498458862305,"142":1.1891741752624512,"143":2.347475051879883,"144":2.142037868499756,"145":1.4726715087890625,"146":0.9581571817398071,"147":-0.6925125122070312,"148":1.2726277112960815,"149":1.0010396242141724,"150":0.981033205986023,"151":2.161842107772827,"152":0.7106328010559082,"153":-0.06508951634168625,"154":1.0954082012176514,"155":-0.6968895196914673,"156":0.36724767088890076,"157":0.5480107665061951,"158":1.7173188924789429,"159":1.4268903732299805,"160":0.9594650268554688,"161":-0.9580560326576233,"162":-0.7137693762779236,"163":-0.816889226436615,"164":-0.12886515259742737,"165":-0.8171062469482422,"166":-1.8245152235031128,"167":-1.226853609085083,"168":-3.2222490310668945,"169":-0.6932125091552734,"170":1.9983928203582764,"171":-0.18346764147281647,"172":-0.06327082216739655,"173":2.202864646911621,"174":-2.0084662437438965,"175":-1.1492925882339478,"176":-0.43589770793914795,"177":0.10303846001625061,"178":-1.823952317237854,"179":-2.439023971557617,"180":1.4430131912231445,"181":-0.7020682096481323,"182":3.2488999366760254,"183":0.80717533826828,"184":2.6020939350128174,"185":-1.3112492561340332,"186":0.7866262793540955,"187":1.288921594619751,"188":-0.0744907557964325,"189":1.4720265865325928,"190":0.5723501443862915,"191":4.447392463684082,"192":-4.063830852508545,"193":3.1662654876708984,"194":2.9947421550750732,"195":-0.5351487398147583,"196":0.5699665546417236,"197":1.0741996765136719,"198":-0.2568468153476715,"199":3.739074945449829,"200":-7.868325233459473,"201":1.405465841293335,"202":-2.6850531101226807,"203":5.178897380828857,"204":2.0400445461273193,"205":4.820907115936279,"206":0.6065295338630676,"207":-1.4194284677505493,"208":-3.482724905014038,"209":1.4003199338912964,"210":0.25693556666374207,"211":-3.107292890548706,"212":-1.4857070446014404,"213":-0.02326560951769352,"214":3.4952127933502197,"215":0.07891827821731567,"216":4.613194942474365,"217":1.2667601108551025,"218":3.256561517715454,"219":2.968553066253662,"220":-0.3723422884941101,"221":-2.682178497314453,"222":-0.841177761554718,"223":1.3080509901046753,"224":-2.1107044219970703,"225":3.170654773712158,"226":-0.9086549878120422,"227":-2.127058982849121,"228":0.1836630403995514,"229":-5.561805725097656,"230":2.1969687938690186,"231":0.7016223073005676,"232":2.5957982540130615,"233":-1.5833624601364136,"234":-4.649345397949219,"235":-0.30597126483917236,"236":-1.9672037363052368,"237":-1.6636558771133423,"238":-4.455928325653076,"239":-1.8674558401107788,"240":6.238780498504639,"241":2.7607977390289307,"242":-5.05656099319458,"243":9.418265342712402,"244":-7.555456161499023,"245":1.0294650793075562,"246":-3.5427651405334473,"247":-1.7919076681137085,"248":-10.211036682128906,"249":-0.049902331084012985,"250":15.96049976348877,"251":-12.037993431091309,"252":-1.9912724494934082,"253":16.85134506225586,"254":-8.038220405578613,"255":0.29829099774360657,"256":-1.4619516134262085,"257":-0.9409000873565674,"258":-0.9081923365592957,"259":-12.374130249023438,"260":-3.573561429977417,"261":-0.30686917901039124,"262":1.0948494672775269,"263":1.8414772748947144,"264":0.650370180606842,"265":-3.2408478260040283,"266":0.8851111531257629,"267":-0.4010401666164398,"268":0.07251110672950745,"269":-0.6839171051979065,"270":0.06798844784498215,"271":0.3717253804206848,"272":1.9716901779174805,"273":-3.1737356185913086,"274":0.17838594317436218,"275":-6.871200084686279,"276":2.2899739742279053,"277":-1.3492481708526611,"278":1.014728307723999,"279":-3.6922035217285156,"280":4.40259313583374,"281":0.8591453433036804,"282":-1.3026094436645508,"283":-2.6527886390686035,"284":-3.4956533908843994,"285":1.8812668323516846,"286":-0.8776767253875732,"287":0.06994729489088058,"288":-1.5017333030700684,"289":-0.9123891592025757,"290":3.8244922161102295,"291":0.7582175135612488,"292":1.219662070274353,"293":-0.9144253134727478,"294":4.350536823272705,"295":-4.377758979797363,"296":-2.4937782287597656,"297":2.171506643295288,"298":-2.211437463760376,"299":0.729914128780365,"300":0.15214568376541138,"301":2.074453115463257,"302":0.7902131676673889,"303":2.484875202178955,"304":-2.160616636276245,"305":1.4481570720672607,"306":2.4368112087249756,"307":1.0723025798797607,"308":2.5148916244506836,"309":0.05343133583664894,"310":-1.3011746406555176,"311":0.6245008707046509,"312":-1.0773082971572876,"313":1.9249539375305176,"314":-1.5095257759094238,"315":-2.756990671157837,"316":0.7456093430519104,"317":-0.3197152316570282,"318":0.5198197364807129,"319":-0.20030345022678375,"320":-0.3475498855113983,"321":2.78910231590271,"322":-0.35088562965393066,"323":3.71450138092041,"324":-1.889212965965271,"325":4.410955905914307,"326":-0.16704057157039642,"327":-0.12819117307662964,"328":-1.4740239381790161,"329":-0.7595752477645874,"330":2.0650341510772705,"331":0.27619701623916626,"332":6.5701422691345215,"333":0.5809222459793091,"334":-8.288349151611328,"335":2.5116512775421143,"336":3.931972026824951,"337":3.1915717124938965,"338":-0.2640809118747711,"339":0.571567714214325,"340":-1.8965317010879517,"341":1.5540581941604614,"342":1.135977029800415,"343":-0.8463258147239685,"344":0.6929886341094971,"345":-0.2685009837150574,"346":-0.5867347717285156,"347":-1.7985479831695557,"348":-1.4169464111328125,"349":0.8651028275489807,"350":0.8739599585533142,"351":1.3317252397537231,"352":-2.054661989212036,"353":-0.9638916254043579,"354":1.7766135931015015,"355":1.754324197769165,"356":2.012155771255493,"357":1.4011679887771606,"358":1.0422991514205933,"359":2.113431930541992,"360":-1.0883666276931763,"361":-0.5728228092193604,"362":0.6566305756568909,"363":1.9669275283813477,"364":2.168682098388672,"365":-0.5225221514701843,"366":1.041786789894104,"367":0.8188133239746094,"368":-0.49899959564208984,"369":0.6195905208587646,"370":-0.7334945797920227,"371":0.6454367637634277,"372":0.4842439889907837,"373":2.1677510738372803,"374":-0.06470266729593277,"375":1.33413827419281,"376":-0.9693604707717896,"377":-0.1417102813720703,"378":-0.05929616093635559,"379":-0.04318707436323166,"380":2.592153310775757,"381":1.6650527715682983,"382":1.9968734979629517,"383":-1.9552146196365356,"384":-0.13901932537555695,"385":-0.841847836971283,"386":0.8115957379341125,"387":-0.06949228048324585,"388":1.6797608137130737,"389":2.6202049255371094,"390":-0.7199348211288452,"391":1.0502263307571411,"392":-1.4777981042861938,"393":-1.5271358489990234,"394":1.5985445976257324,"395":0.034905221313238144,"396":0.8370274901390076,"397":-0.9360803961753845,"398":-1.0092347860336304,"399":0.11562749743461609}},"inputBias":{"rows":20,"columns":1,"weights":{"0":0.3481706380844116,"1":-0.4262751042842865,"2":0.1852300763130188,"3":-0.8687092661857605,"4":-0.40325242280960083,"5":-0.43335816264152527,"6":-1.0977210998535156,"7":-0.8609095811843872,"8":0.0029036880005151033,"9":1.0554512739181519,"10":-0.25752779841423035,"11":-0.06205347925424576,"12":0.5570652484893799,"13":0.47285354137420654,"14":-0.17361217737197876,"15":-0.2851333022117615,"16":0.6465297937393188,"17":0.2504689693450928,"18":-0.20189622044563293,"19":-0.771945595741272}},"forgetMatrix":{"rows":20,"columns":30,"weights":{"0":-2.1707603931427,"1":-0.16796012222766876,"2":-0.18125107884407043,"3":1.8581104278564453,"4":0.8417810201644897,"5":0.13703151047229767,"6":0.04109429568052292,"7":-0.5409346222877502,"8":-1.6896559000015259,"9":2.6005194187164307,"10":-0.005230271257460117,"11":2.7144339084625244,"12":2.4104690551757812,"13":2.884093761444092,"14":3.464043378829956,"15":0.02484903112053871,"16":1.381251335144043,"17":2.3066484928131104,"18":0.19549740850925446,"19":-0.20904973149299622,"20":0.47976920008659363,"21":0.6572628617286682,"22":0.1704300045967102,"23":-1.7018680572509766,"24":0.12062157690525055,"25":-0.3216666281223297,"26":0.8087502717971802,"27":-1.7408061027526855,"28":-0.3319210708141327,"29":-2.5705204010009766,"30":-1.1507227420806885,"31":-2.1834664344787598,"32":1.377509593963623,"33":1.355995535850525,"34":0.519277811050415,"35":0.16932840645313263,"36":-0.08144301921129227,"37":-0.29721641540527344,"38":-0.13863833248615265,"39":1.7337875366210938,"40":-0.0024794782511889935,"41":-0.7943202257156372,"42":-1.1146612167358398,"43":-0.42533111572265625,"44":0.6319628953933716,"45":-0.2863566279411316,"46":-0.49084600806236267,"47":1.8468437194824219,"48":1.4520492553710938,"49":-0.004218381829559803,"50":0.10729842633008957,"51":1.6619389057159424,"52":2.0313539505004883,"53":0.28242841362953186,"54":0.5598716735839844,"55":-0.09043298661708832,"56":1.0190070867538452,"57":-0.01021029707044363,"58":-0.663401186466217,"59":-0.06483779847621918,"60":0.26888546347618103,"61":0.6024235486984253,"62":-0.5915291905403137,"63":0.3447091579437256,"64":-0.9869089722633362,"65":1.4196300506591797,"66":0.9018740057945251,"67":0.06716335564851761,"68":0.535652756690979,"69":-0.6934202313423157,"70":1.0899395942687988,"71":2.0488998889923096,"72":3.231199264526367,"73":0.08939141780138016,"74":-1.3331506252288818,"75":-0.24621176719665527,"76":2.045774459838867,"77":2.4016478061676025,"78":-2.1556522846221924,"79":1.3994840383529663,"80":0.5546275973320007,"81":1.6442898511886597,"82":-3.9207398891448975,"83":2.6464755535125732,"84":0.5637916922569275,"85":-0.07618249952793121,"86":0.13154156506061554,"87":-0.23537161946296692,"88":-0.7498754262924194,"89":0.1721893846988678,"90":-0.9739582538604736,"91":1.1320215463638306,"92":0.10036049783229828,"93":-0.3403500020503998,"94":0.6173856854438782,"95":-0.5245208144187927,"96":1.726871371269226,"97":1.3359285593032837,"98":-0.36990904808044434,"99":-1.2850685119628906,"100":-1.7291607856750488,"101":-1.2853286266326904,"102":1.0247267484664917,"103":2.8432114124298096,"104":-0.7005860209465027,"105":3.2287747859954834,"106":-0.5988406538963318,"107":-1.5389479398727417,"108":0.659409761428833,"109":-0.14455898106098175,"110":-1.6511895656585693,"111":-3.2525925636291504,"112":-1.1138943433761597,"113":-0.24822604656219482,"114":-2.867927074432373,"115":0.3381914496421814,"116":-0.2897089123725891,"117":-1.3237000703811646,"118":2.234558582305908,"119":-0.22522327303886414,"120":0.3852905333042145,"121":0.8480905294418335,"122":0.8236840963363647,"123":0.5685992240905762,"124":2.7927300930023193,"125":1.7256149053573608,"126":1.7658699750900269,"127":2.9382681846618652,"128":-1.8540376424789429,"129":-0.5574901700019836,"130":0.5089640617370605,"131":2.817262887954712,"132":1.015481948852539,"133":1.5680322647094727,"134":0.29572492837905884,"135":0.33611613512039185,"136":-2.946824073791504,"137":0.6272071599960327,"138":0.20303617417812347,"139":1.4927259683609009,"140":-0.28535565733909607,"141":-0.9264110922813416,"142":1.1078356504440308,"143":2.37296462059021,"144":2.4182889461517334,"145":-1.8076207637786865,"146":1.0063533782958984,"147":-0.10522840917110443,"148":-2.049633741378784,"149":-1.5852272510528564,"150":-0.8859489560127258,"151":0.14799445867538452,"152":0.1597990244626999,"153":-1.2060950994491577,"154":-1.3673961162567139,"155":0.8605697751045227,"156":1.8036184310913086,"157":-0.877614438533783,"158":-0.17062439024448395,"159":-2.3191208839416504,"160":-3.970747709274292,"161":0.3354169726371765,"162":1.451545238494873,"163":-1.9334348440170288,"164":-1.0533267259597778,"165":-1.3407104015350342,"166":-0.7113008499145508,"167":0.3938588798046112,"168":1.9829280376434326,"169":-0.5212516784667969,"170":0.14925798773765564,"171":-0.2572898268699646,"172":0.10704367607831955,"173":0.8712393045425415,"174":2.529892921447754,"175":-3.445486307144165,"176":-1.3207926750183105,"177":1.603861689567566,"178":-2.8057022094726562,"179":4.255441188812256,"180":0.07514648884534836,"181":-0.040110569447278976,"182":0.09414506703615189,"183":0.6530791521072388,"184":0.16820532083511353,"185":-2.6063389778137207,"186":1.047263741493225,"187":0.1265118569135666,"188":0.13597865402698517,"189":0.13157698512077332,"190":0.2972021698951721,"191":1.0404167175292969,"192":-2.5644779205322266,"193":-0.7080308198928833,"194":2.121432065963745,"195":-1.1247379779815674,"196":-2.302292585372925,"197":1.4880430698394775,"198":-0.7758241891860962,"199":-0.39430421590805054,"200":-1.0743262767791748,"201":1.1722066402435303,"202":0.14763526618480682,"203":2.6903350353240967,"204":0.304826557636261,"205":1.3755786418914795,"206":1.4203433990478516,"207":0.42393070459365845,"208":1.4044201374053955,"209":0.15370628237724304,"210":1.6510522365570068,"211":0.4986203908920288,"212":-0.29409658908843994,"213":0.6163293719291687,"214":-0.5526535511016846,"215":-0.9908560514450073,"216":-1.0175007581710815,"217":-0.720333456993103,"218":1.722680687904358,"219":0.07231048494577408,"220":0.11432661861181259,"221":-0.4185658395290375,"222":-2.250999689102173,"223":-0.17516177892684937,"224":1.051009178161621,"225":2.207548141479492,"226":-0.054949842393398285,"227":-0.38891759514808655,"228":-0.536966860294342,"229":-3.92710018157959,"230":-3.1620452404022217,"231":0.7372735738754272,"232":0.5665299296379089,"233":0.03067612275481224,"234":-2.7818892002105713,"235":-0.16451527178287506,"236":-1.7957745790481567,"237":-0.35479801893234253,"238":1.5665678977966309,"239":-0.6368786692619324,"240":1.003931999206543,"241":1.0137180089950562,"242":0.8849249482154846,"243":-0.7375238537788391,"244":-0.09950092434883118,"245":-1.6522150039672852,"246":0.10257883369922638,"247":-1.4183508157730103,"248":0.6442910432815552,"249":0.2485170066356659,"250":-0.484031081199646,"251":1.1165826320648193,"252":1.2623748779296875,"253":0.9284131526947021,"254":2.5238192081451416,"255":-0.48149171471595764,"256":-2.2070963382720947,"257":1.9301809072494507,"258":-0.5427124500274658,"259":-0.07728371769189835,"260":0.08408535271883011,"261":-0.2968204915523529,"262":0.06210176274180412,"263":1.2133795022964478,"264":0.3425264060497284,"265":1.1638439893722534,"266":-0.845156192779541,"267":-0.07875494658946991,"268":-0.9811688661575317,"269":-0.7987699508666992,"270":-0.5147167444229126,"271":0.01828792504966259,"272":-0.936759889125824,"273":3.144868850708008,"274":-0.09708846360445023,"275":0.11545097827911377,"276":1.1467465162277222,"277":-1.4102120399475098,"278":-1.194598913192749,"279":3.5934128761291504,"280":0.10332734137773514,"281":1.435538649559021,"282":2.2888786792755127,"283":-1.8806878328323364,"284":-1.3053550720214844,"285":1.8389861583709717,"286":-0.008584283292293549,"287":2.0901033878326416,"288":-0.008762210607528687,"289":1.7033109664916992,"290":0.3691360652446747,"291":0.5478580594062805,"292":0.7615523338317871,"293":0.9773873686790466,"294":1.2527923583984375,"295":-3.9227521419525146,"296":-2.3850786685943604,"297":0.5228434801101685,"298":-1.1609681844711304,"299":1.2643258571624756,"300":-0.7363951206207275,"301":-0.2542129456996918,"302":-1.320618987083435,"303":-0.8091609477996826,"304":0.8064671754837036,"305":-0.36307966709136963,"306":-1.1574290990829468,"307":-1.6032758951187134,"308":-0.9349108934402466,"309":-0.3240117132663727,"310":-0.1469331681728363,"311":1.1328967809677124,"312":0.9379910826683044,"313":1.1171483993530273,"314":-0.9797656536102295,"315":1.0240938663482666,"316":-0.13767164945602417,"317":0.6636971235275269,"318":1.127116322517395,"319":-3.5437469482421875,"320":0.36862096190452576,"321":2.6528799533843994,"322":0.038692180067300797,"323":-0.4004915952682495,"324":-0.6533810496330261,"325":1.1881569623947144,"326":-1.3016122579574585,"327":2.809335231781006,"328":0.8054764270782471,"329":-1.3202873468399048,"330":-1.3922922611236572,"331":-0.5151560306549072,"332":-0.1664011925458908,"333":0.6899837851524353,"334":2.255265951156616,"335":-1.0494513511657715,"336":0.519707441329956,"337":0.2438964545726776,"338":-0.21289139986038208,"339":-1.1311187744140625,"340":0.7809603810310364,"341":0.2922273278236389,"342":-0.31470805406570435,"343":-0.25021088123321533,"344":1.6119149923324585,"345":0.5824447274208069,"346":-0.17664118111133575,"347":1.7085695266723633,"348":0.8069314956665039,"349":-0.8014594316482544,"350":-0.6162936091423035,"351":-0.5603229999542236,"352":-1.3489431142807007,"353":2.575958728790283,"354":-0.835344135761261,"355":-2.3532135486602783,"356":-2.5478813648223877,"357":0.44194889068603516,"358":0.3173286020755768,"359":-0.41626855731010437,"360":-0.7783785462379456,"361":-1.225879430770874,"362":1.6098544597625732,"363":1.0198369026184082,"364":0.5501875281333923,"365":0.42914557456970215,"366":-0.5908554196357727,"367":-0.7954196333885193,"368":0.17385132610797882,"369":-0.06712028384208679,"370":-0.2972426414489746,"371":1.1075190305709839,"372":-0.11694976687431335,"373":-1.1091643571853638,"374":2.4493439197540283,"375":-1.3868646621704102,"376":0.34335756301879883,"377":1.5287330150604248,"378":1.1844592094421387,"379":0.11349716782569885,"380":0.03678581863641739,"381":-0.4322642385959625,"382":-0.0210020300000906,"383":2.258913040161133,"384":2.3914172649383545,"385":-1.9886109828948975,"386":2.0902557373046875,"387":0.3515999913215637,"388":-0.8231010437011719,"389":0.30258458852767944,"390":0.8927395343780518,"391":-1.5585986375808716,"392":-0.40394511818885803,"393":0.6902695298194885,"394":-0.3009593188762665,"395":-0.7808275818824768,"396":0.891592800617218,"397":0.7347254157066345,"398":0.7410546541213989,"399":1.1471292972564697,"400":-0.5607109069824219,"401":-0.9395021200180054,"402":-1.674279808998108,"403":-0.112140953540802,"404":0.6267814636230469,"405":-0.9792895913124084,"406":-1.0229030847549438,"407":0.3370400369167328,"408":-0.2302718460559845,"409":1.5727328062057495,"410":3.5512032508850098,"411":1.380724549293518,"412":-1.1230310201644897,"413":1.231014609336853,"414":0.0031559092458337545,"415":-3.3592424392700195,"416":-2.3466548919677734,"417":1.6441701650619507,"418":0.3037332594394684,"419":2.284290075302124,"420":-0.07109342515468597,"421":-1.6930639743804932,"422":0.2920689582824707,"423":0.2570190131664276,"424":2.219879627227783,"425":-1.4307031631469727,"426":0.5886765718460083,"427":-0.6387500762939453,"428":1.3986070156097412,"429":-2.516721487045288,"430":1.9484448432922363,"431":0.3917219042778015,"432":-3.142713785171509,"433":1.4064428806304932,"434":0.5636427402496338,"435":-0.3139207661151886,"436":-3.1249947547912598,"437":-0.23853296041488647,"438":-0.5235244631767273,"439":-2.4863758087158203,"440":-0.6808682084083557,"441":-0.9186821579933167,"442":0.5530017018318176,"443":1.8014841079711914,"444":1.2749724388122559,"445":-0.9535449743270874,"446":0.8326207399368286,"447":1.7013219594955444,"448":0.681110143661499,"449":0.03113614395260811,"450":-0.5299546122550964,"451":-0.19132086634635925,"452":-1.3770045042037964,"453":1.1846767663955688,"454":-1.1863116025924683,"455":0.9417494535446167,"456":-0.229780375957489,"457":0.9241910576820374,"458":0.40954649448394775,"459":0.41417014598846436,"460":-0.425553560256958,"461":-0.7159913778305054,"462":0.36273467540740967,"463":0.9543251991271973,"464":-2.6430089473724365,"465":0.6851245760917664,"466":0.7427048087120056,"467":-2.608165740966797,"468":-1.2439411878585815,"469":-0.41594645380973816,"470":-0.45574042201042175,"471":3.242748975753784,"472":-0.1856796145439148,"473":-2.918135166168213,"474":0.6949812173843384,"475":-1.5295233726501465,"476":-0.005691021215170622,"477":-0.42263343930244446,"478":2.6331183910369873,"479":-0.8197447657585144,"480":0.5805085897445679,"481":-0.9236751794815063,"482":-2.148131847381592,"483":3.301241397857666,"484":-0.6194106936454773,"485":2.2449865341186523,"486":-1.4599144458770752,"487":-0.8552426099777222,"488":0.8314570784568787,"489":2.868568181991577,"490":-0.9569182991981506,"491":2.301758289337158,"492":0.32288020849227905,"493":-0.8064136505126953,"494":0.42949220538139343,"495":0.111704520881176,"496":0.36975523829460144,"497":0.5392844080924988,"498":-0.22619427740573883,"499":1.0916379690170288,"500":-1.1871113777160645,"501":-0.8868759870529175,"502":0.8951095938682556,"503":-0.9600743651390076,"504":0.5296484231948853,"505":-0.25060367584228516,"506":1.9075638055801392,"507":-0.9525458216667175,"508":1.1600741147994995,"509":-0.17177607119083405,"510":-1.0537036657333374,"511":0.27450641989707947,"512":-0.08705349266529083,"513":1.8992831707000732,"514":-0.19958439469337463,"515":-2.095390796661377,"516":-0.8949264287948608,"517":0.9270103573799133,"518":-2.377927780151367,"519":1.2265198230743408,"520":1.0659103393554688,"521":0.5621387958526611,"522":0.19655264914035797,"523":-1.2505804300308228,"524":0.5173369646072388,"525":0.08250264823436737,"526":1.4460740089416504,"527":0.46111923456192017,"528":1.7064778804779053,"529":0.821932852268219,"530":-1.2817896604537964,"531":0.7767350673675537,"532":-0.0015705638797953725,"533":-0.969955325126648,"534":0.3375418782234192,"535":-1.7255291938781738,"536":-0.8553595542907715,"537":-0.019715100526809692,"538":1.3557223081588745,"539":1.6511435508728027,"540":-1.6786572933197021,"541":0.9881614446640015,"542":-0.8921972513198853,"543":0.2870415151119232,"544":-0.8259421586990356,"545":0.8422687649726868,"546":-2.0819389820098877,"547":-0.7300563454627991,"548":1.2050093412399292,"549":2.2744929790496826,"550":-0.3107948899269104,"551":0.13451725244522095,"552":-1.2771717309951782,"553":-1.9273645877838135,"554":-0.3468678891658783,"555":0.728078305721283,"556":-0.32891780138015747,"557":-0.6203973293304443,"558":2.4926483631134033,"559":0.0008537932299077511,"560":0.09708800911903381,"561":-2.2911386489868164,"562":1.140673279762268,"563":-0.06347257643938065,"564":-1.9854415655136108,"565":0.009638787247240543,"566":0.30517643690109253,"567":-1.0281915664672852,"568":0.2977566719055176,"569":1.227942943572998,"570":-2.1507866382598877,"571":-0.4808201193809509,"572":0.22473622858524323,"573":0.7774810791015625,"574":0.6691411137580872,"575":0.8430822491645813,"576":2.045370578765869,"577":0.7312894463539124,"578":-1.2263964414596558,"579":-0.6183608770370483,"580":-1.1049981117248535,"581":-0.6113979816436768,"582":0.5285674333572388,"583":-0.43055999279022217,"584":-1.2563958168029785,"585":-0.1999812126159668,"586":0.23590515553951263,"587":-1.4376239776611328,"588":2.0191965103149414,"589":-0.14513911306858063,"590":-0.19608023762702942,"591":-0.07552652806043625,"592":1.9896184206008911,"593":1.130077838897705,"594":1.0019068717956543,"595":-0.9049057960510254,"596":-1.5408927202224731,"597":2.2140417098999023,"598":0.43611279129981995,"599":2.152031660079956}},"forgetHidden":{"rows":20,"columns":20,"weights":{"0":-0.3944529592990875,"1":0.7091456651687622,"2":-0.3228111267089844,"3":0.6721258759498596,"4":1.1875461339950562,"5":-0.2862410545349121,"6":-2.133943557739258,"7":-2.0238118171691895,"8":2.641427993774414,"9":-0.6300230026245117,"10":-0.920530378818512,"11":1.005465030670166,"12":0.2940498888492584,"13":-2.1005163192749023,"14":2.515796661376953,"15":-4.608298301696777,"16":-1.8185876607894897,"17":0.8729071021080017,"18":-1.5797828435897827,"19":-0.3272247314453125,"20":0.6768857836723328,"21":-0.13368427753448486,"22":-0.35674455761909485,"23":0.13008612394332886,"24":-2.4900355339050293,"25":0.3209124207496643,"26":1.2448055744171143,"27":-0.5209705233573914,"28":1.30097496509552,"29":3.9007062911987305,"30":1.6253770589828491,"31":-0.7882973551750183,"32":0.23260590434074402,"33":-1.2214604616165161,"34":0.9262250065803528,"35":-0.4941375255584717,"36":-0.6926097869873047,"37":0.5679766535758972,"38":1.3014378547668457,"39":3.5858449935913086,"40":-0.8828655481338501,"41":2.151885509490967,"42":1.1837667226791382,"43":0.43941012024879456,"44":-2.0573604106903076,"45":0.38229092955589294,"46":-2.397581100463867,"47":-3.4477078914642334,"48":-4.14635705947876,"49":-0.4828561246395111,"50":-1.0804458856582642,"51":0.2721097469329834,"52":1.6768178939819336,"53":1.268088936805725,"54":1.2867671251296997,"55":5.430067539215088,"56":-2.1724023818969727,"57":0.6078459024429321,"58":-0.7613581418991089,"59":-1.7013578414916992,"60":-0.552838921546936,"61":-1.6329227685928345,"62":-0.11095350235700607,"63":-6.347922325134277,"64":-0.6000090837478638,"65":-3.163074254989624,"66":-1.0335057973861694,"67":-1.4331492185592651,"68":0.41298675537109375,"69":-3.6340129375457764,"70":-1.9854135513305664,"71":-4.273221492767334,"72":2.004033327102661,"73":-0.45733970403671265,"74":-4.123797416687012,"75":1.367055892944336,"76":-0.8333562612533569,"77":-0.31411051750183105,"78":0.9858322739601135,"79":-0.8406533598899841,"80":0.5988296866416931,"81":2.6205382347106934,"82":-0.21118199825286865,"83":4.64341926574707,"84":0.7967297434806824,"85":2.7491021156311035,"86":-3.660172939300537,"87":-0.6677756905555725,"88":0.7673506736755371,"89":0.4461681544780731,"90":-3.4831037521362305,"91":-0.33971738815307617,"92":3.009593963623047,"93":-0.3984997272491455,"94":0.456092894077301,"95":0.38909637928009033,"96":-0.7360924482345581,"97":0.13227377831935883,"98":-1.3637467622756958,"99":-0.710056483745575,"100":0.36740392446517944,"101":-0.2366832196712494,"102":-1.6224311590194702,"103":4.343799591064453,"104":-2.8851122856140137,"105":1.9039146900177002,"106":1.4612455368041992,"107":-2.581458568572998,"108":1.0862253904342651,"109":1.4434889554977417,"110":0.5351676344871521,"111":-0.8755776286125183,"112":-0.9929534196853638,"113":1.8118647336959839,"114":1.9140994548797607,"115":1.5078394412994385,"116":1.0430551767349243,"117":-0.7042105793952942,"118":-1.839224100112915,"119":1.5587973594665527,"120":0.5968549847602844,"121":-2.6903891563415527,"122":0.4748985767364502,"123":-1.3434460163116455,"124":1.2753620147705078,"125":-1.91548490524292,"126":0.6468395590782166,"127":0.3640713095664978,"128":1.627264380455017,"129":-0.3009832799434662,"130":3.6550281047821045,"131":0.9113455414772034,"132":2.0468387603759766,"133":-0.3515896797180176,"134":0.19020967185497284,"135":-0.14530690014362335,"136":1.1603431701660156,"137":-0.45171576738357544,"138":-0.9903467297554016,"139":-0.18248987197875977,"140":0.5444649457931519,"141":-0.900147020816803,"142":0.9966942667961121,"143":0.21459557116031647,"144":-1.5471582412719727,"145":2.2714951038360596,"146":-0.037106141448020935,"147":-0.30648452043533325,"148":-1.717187523841858,"149":0.7391095757484436,"150":2.3926947116851807,"151":-0.20521056652069092,"152":1.6258153915405273,"153":1.3496350049972534,"154":-1.0755490064620972,"155":-2.560523271560669,"156":-0.5575745105743408,"157":0.2725445032119751,"158":0.05280278995633125,"159":-0.22133852541446686,"160":0.14337503910064697,"161":-0.7823976874351501,"162":0.5526781678199768,"163":-1.4836210012435913,"164":-1.062846302986145,"165":0.9484862685203552,"166":0.17450429499149323,"167":-1.1427059173583984,"168":-1.353577971458435,"169":0.2012087106704712,"170":0.14585968852043152,"171":-1.5243377685546875,"172":-0.4974920451641083,"173":-2.21416974067688,"174":-0.9586094617843628,"175":-0.6844658255577087,"176":0.6516479253768921,"177":-0.21639984846115112,"178":0.7932898998260498,"179":-1.006867527961731,"180":4.914671897888184,"181":-3.323467969894409,"182":0.9443807601928711,"183":-5.188291549682617,"184":0.2350141555070877,"185":2.4576399326324463,"186":2.8155386447906494,"187":-0.6233066320419312,"188":2.114774703979492,"189":1.9519990682601929,"190":2.417534589767456,"191":2.063076972961426,"192":3.899195671081543,"193":0.0633276104927063,"194":0.670336127281189,"195":0.6733900308609009,"196":0.3345818519592285,"197":-1.4571306705474854,"198":-3.8353681564331055,"199":-0.6408757567405701,"200":-0.5951513051986694,"201":0.3895576596260071,"202":-0.05454513058066368,"203":0.02744476869702339,"204":0.6629471182823181,"205":-0.40723350644111633,"206":-2.9828784465789795,"207":-1.3605777025222778,"208":-0.7448304891586304,"209":0.7396721839904785,"210":1.9694396257400513,"211":1.216471552848816,"212":-1.2596436738967896,"213":-1.2505003213882446,"214":-0.6165486574172974,"215":-0.3300492763519287,"216":0.7950856685638428,"217":0.7880902290344238,"218":1.0280534029006958,"219":1.6851422786712646,"220":-0.14271578192710876,"221":-0.9098619222640991,"222":-0.13478566706180573,"223":1.3961200714111328,"224":-0.3066796362400055,"225":-1.3046962022781372,"226":1.09092378616333,"227":-1.5198577642440796,"228":0.4593546390533447,"229":-0.5186771154403687,"230":0.953466534614563,"231":-0.2389225959777832,"232":0.09138014912605286,"233":-1.2182481288909912,"234":0.9014914035797119,"235":-2.6003406047821045,"236":0.6009176969528198,"237":-2.2281198501586914,"238":-0.32013583183288574,"239":1.810192346572876,"240":1.0917218923568726,"241":-1.294852375984192,"242":-1.3513646125793457,"243":0.9646018147468567,"244":-1.5062297582626343,"245":1.3129726648330688,"246":-1.092634677886963,"247":-1.3147351741790771,"248":0.8000335693359375,"249":0.5166774988174438,"250":-0.17952707409858704,"251":1.258842945098877,"252":2.1782379150390625,"253":-0.39717116951942444,"254":1.7271702289581299,"255":-0.001764460001140833,"256":-1.6706230640411377,"257":0.12911847233772278,"258":-0.7516511678695679,"259":0.188002347946167,"260":1.2980730533599854,"261":-0.7956298589706421,"262":0.6243405938148499,"263":-0.16105329990386963,"264":0.20760641992092133,"265":-0.20155109465122223,"266":-2.5725977420806885,"267":-0.5560678839683533,"268":0.02514202520251274,"269":1.1939473152160645,"270":2.425729274749756,"271":1.607094407081604,"272":-0.19851607084274292,"273":2.540135383605957,"274":2.597046375274658,"275":-0.6089161038398743,"276":-0.455033540725708,"277":-1.2042609453201294,"278":-1.3269753456115723,"279":-0.3757275342941284,"280":1.912275791168213,"281":0.7753329873085022,"282":-0.2936078906059265,"283":-0.7965801358222961,"284":-1.5603889226913452,"285":-0.8481609225273132,"286":1.4179787635803223,"287":0.049093086272478104,"288":-0.2172650396823883,"289":0.6445054411888123,"290":-1.3803045749664307,"291":-0.2678297162055969,"292":-0.6706030368804932,"293":-1.6019046306610107,"294":-0.0704822689294815,"295":-0.9697372913360596,"296":0.7021084427833557,"297":1.0129013061523438,"298":-0.017809994518756866,"299":1.0128289461135864,"300":-4.163201808929443,"301":-3.6824419498443604,"302":-2.848762035369873,"303":-0.33000320196151733,"304":0.7298048734664917,"305":-1.6264939308166504,"306":2.323570489883423,"307":1.252717137336731,"308":-1.2457680702209473,"309":-4.3561272621154785,"310":3.885798215866089,"311":-4.007785320281982,"312":-2.1904125213623047,"313":-0.8567706346511841,"314":-3.2104110717773438,"315":0.8191494941711426,"316":2.105391025543213,"317":-2.018336296081543,"318":-0.2714989483356476,"319":-1.5758802890777588,"320":1.7280056476593018,"321":1.4205483198165894,"322":0.2096783071756363,"323":-1.4225877523422241,"324":-0.8906037211418152,"325":2.3188610076904297,"326":1.8548498153686523,"327":-0.29586261510849,"328":0.4820979833602905,"329":0.9440547227859497,"330":-0.5099642276763916,"331":2.129225969314575,"332":2.1058499813079834,"333":-1.780409574508667,"334":1.041522741317749,"335":-1.4640337228775024,"336":-2.6863605976104736,"337":-0.0654081478714943,"338":-0.6643960475921631,"339":0.6575897932052612,"340":1.7072033882141113,"341":-0.9422170519828796,"342":-3.593041181564331,"343":-3.175752639770508,"344":-0.4894140362739563,"345":0.5379365086555481,"346":0.8562537431716919,"347":-1.0373708009719849,"348":1.879143476486206,"349":1.1636914014816284,"350":0.2246444821357727,"351":-2.100733757019043,"352":-0.5389934778213501,"353":2.313720464706421,"354":1.7458157539367676,"355":4.610991954803467,"356":2.304884910583496,"357":0.7843458652496338,"358":-0.5064696669578552,"359":-1.598739743232727,"360":0.8330148458480835,"361":0.12813888490200043,"362":0.5936968922615051,"363":-4.003907203674316,"364":-0.41110166907310486,"365":-0.32822853326797485,"366":-0.2337043583393097,"367":-1.599815011024475,"368":0.14158596098423004,"369":-1.1178098917007446,"370":1.219536304473877,"371":0.339256227016449,"372":0.5715261101722717,"373":0.3878612220287323,"374":0.8517078161239624,"375":0.6676474809646606,"376":-1.2740768194198608,"377":1.2689878940582275,"378":-0.15856808423995972,"379":-1.1779897212982178,"380":0.17387759685516357,"381":-0.37041783332824707,"382":-0.047040291130542755,"383":0.1492045521736145,"384":-0.6348360180854797,"385":-0.3586219549179077,"386":-0.4957863688468933,"387":-1.0847610235214233,"388":-0.4953670799732208,"389":-0.32024842500686646,"390":1.0337066650390625,"391":0.3178546726703644,"392":-0.014126928523182869,"393":-0.36979764699935913,"394":1.1922638416290283,"395":0.14651617407798767,"396":-0.5538108944892883,"397":0.16151584684848785,"398":1.6355737447738647,"399":0.0027669460978358984}},"forgetBias":{"rows":20,"columns":1,"weights":{"0":0,"1":0,"2":0,"3":0,"4":0,"5":0,"6":0,"7":0,"8":0,"9":0,"10":0,"11":0,"12":0,"13":0,"14":0,"15":0,"16":0,"17":0,"18":0,"19":0}},"outputMatrix":{"rows":20,"columns":30,"weights":{"0":0.5559350848197937,"1":-1.0080769062042236,"2":-0.3303129971027374,"3":2.509570360183716,"4":0.5394887328147888,"5":0.005924563854932785,"6":0.2436145693063736,"7":0.4861781895160675,"8":0.46053215861320496,"9":2.4759886264801025,"10":1.202709674835205,"11":0.554602861404419,"12":-1.6954251527786255,"13":0.0712573379278183,"14":1.226151466369629,"15":-0.3106749653816223,"16":-0.798963189125061,"17":0.8118776082992554,"18":0.12949664890766144,"19":-0.05362033471465111,"20":-2.7215559482574463,"21":0.09327802062034607,"22":-0.31088197231292725,"23":-0.2233234941959381,"24":-2.825568675994873,"25":0.6093814969062805,"26":2.6940832138061523,"27":-1.6411707401275635,"28":1.4049887657165527,"29":-1.2819862365722656,"30":-1.2231396436691284,"31":2.3848953247070312,"32":-0.7188570499420166,"33":2.1674795150756836,"34":0.36305832862854004,"35":1.4097273349761963,"36":-2.583117961883545,"37":-1.081296682357788,"38":1.7658504247665405,"39":1.4283424615859985,"40":2.4295406341552734,"41":3.5030324459075928,"42":1.5028847455978394,"43":0.7533814311027527,"44":1.0013668537139893,"45":0.09773986786603928,"46":-0.2815929651260376,"47":0.02476814016699791,"48":0.16890566051006317,"49":1.7069231271743774,"50":-0.7259290218353271,"51":-3.599161148071289,"52":-1.6089632511138916,"53":0.8083651661872864,"54":-0.5668520927429199,"55":-0.5940102934837341,"56":0.8513283729553223,"57":-1.4273290634155273,"58":1.0237151384353638,"59":0.41061756014823914,"60":0.289184033870697,"61":1.478508710861206,"62":0.987219512462616,"63":1.6327742338180542,"64":-2.1431753635406494,"65":-0.940295398235321,"66":-1.4367812871932983,"67":0.19658304750919342,"68":0.17593257129192352,"69":2.3273732662200928,"70":0.33550578355789185,"71":0.45360976457595825,"72":0.9441710710525513,"73":-2.681489944458008,"74":2.5235135555267334,"75":1.2103568315505981,"76":-0.6797175407409668,"77":1.155707836151123,"78":-3.47102427482605,"79":2.275322437286377,"80":-3.155949354171753,"81":-1.1769524812698364,"82":0.26076123118400574,"83":0.5585914850234985,"84":-0.1658868044614792,"85":-1.760568618774414,"86":1.0705124139785767,"87":-3.0581741333007812,"88":-0.8687163591384888,"89":1.4958046674728394,"90":-0.5531098246574402,"91":1.7085559368133545,"92":2.470400333404541,"93":-1.4739917516708374,"94":0.6656186580657959,"95":2.943627119064331,"96":3.1913869380950928,"97":0.9050959348678589,"98":-1.0625238418579102,"99":-4.029299736022949,"100":1.3148525953292847,"101":0.5701003670692444,"102":0.9702258706092834,"103":-0.3015296459197998,"104":-1.389959454536438,"105":2.6491289138793945,"106":-0.7747208476066589,"107":-1.3639039993286133,"108":-1.514121413230896,"109":-2.2717907428741455,"110":-1.598525881767273,"111":0.09176506847143173,"112":0.6695693135261536,"113":0.2668784558773041,"114":-1.9506677389144897,"115":0.1561611443758011,"116":-2.7557172775268555,"117":1.01996910572052,"118":-1.009155035018921,"119":2.3599276542663574,"120":0.7590367197990417,"121":0.13122126460075378,"122":0.49764636158943176,"123":-1.850149393081665,"124":-2.4985525608062744,"125":0.5095096230506897,"126":-6.346647262573242,"127":-1.0978672504425049,"128":2.7144017219543457,"129":1.1205823421478271,"130":-0.6610994935035706,"131":-1.2860411405563354,"132":-0.365494042634964,"133":-0.1576469987630844,"134":0.8003036379814148,"135":-2.199793815612793,"136":-1.2214158773422241,"137":1.1118969917297363,"138":2.344900369644165,"139":-0.2718633711338043,"140":-2.5073235034942627,"141":-0.6666273474693298,"142":2.862794876098633,"143":-0.9934008717536926,"144":2.078791379928589,"145":0.45932257175445557,"146":-2.8669304847717285,"147":-0.09100531786680222,"148":-2.72391939163208,"149":-1.919769287109375,"150":-0.17462100088596344,"151":0.32369935512542725,"152":-2.518712282180786,"153":1.2716450691223145,"154":-0.9771228432655334,"155":0.4199276566505432,"156":-3.466386079788208,"157":0.45732131600379944,"158":0.9871509075164795,"159":1.1291821002960205,"160":-1.1667159795761108,"161":1.5580435991287231,"162":4.113842487335205,"163":2.786386728286743,"164":2.524519681930542,"165":-1.6507917642593384,"166":4.953944683074951,"167":2.103503704071045,"168":4.089996337890625,"169":-1.9446239471435547,"170":-2.569766044616699,"171":-0.7520766258239746,"172":0.4423424005508423,"173":-1.430189609527588,"174":1.2531336545944214,"175":-1.6582822799682617,"176":-2.5332236289978027,"177":-0.4773215651512146,"178":-0.6349124908447266,"179":0.8830533623695374,"180":0.8170650601387024,"181":-0.6160364151000977,"182":-0.4025711715221405,"183":1.0977427959442139,"184":0.44035598635673523,"185":2.798306703567505,"186":-2.2964489459991455,"187":1.0736218690872192,"188":1.1983067989349365,"189":1.5968024730682373,"190":-3.2009761333465576,"191":1.4452744722366333,"192":-0.5382794141769409,"193":0.585695207118988,"194":0.26916512846946716,"195":-0.6457653641700745,"196":2.685760021209717,"197":-0.14121626317501068,"198":3.0336945056915283,"199":2.2275137901306152,"200":1.7996667623519897,"201":-0.016625382006168365,"202":-1.530134677886963,"203":-1.8052071332931519,"204":-2.043381690979004,"205":2.4861984252929688,"206":-0.40966612100601196,"207":-1.5740448236465454,"208":-0.3222551643848419,"209":0.31934210658073425,"210":-1.8327223062515259,"211":-2.698589563369751,"212":2.5201714038848877,"213":-0.8551166653633118,"214":-0.23782695829868317,"215":-1.4588114023208618,"216":-0.055157363414764404,"217":-0.5527122616767883,"218":-1.5721237659454346,"219":-3.4020068645477295,"220":-1.632386565208435,"221":0.715764045715332,"222":0.2667190134525299,"223":-0.7303183078765869,"224":2.8852124214172363,"225":2.054224729537964,"226":-2.8509368896484375,"227":-1.0516546964645386,"228":1.5232791900634766,"229":0.7758729457855225,"230":0.7537611126899719,"231":0.9232183694839478,"232":-1.5477659702301025,"233":3.9040794372558594,"234":-0.48493140935897827,"235":-1.0527007579803467,"236":-1.7102854251861572,"237":2.05707049369812,"238":-0.09647804498672485,"239":2.645641803741455,"240":-0.7251535654067993,"241":-2.6497936248779297,"242":-1.8413578271865845,"243":1.5553818941116333,"244":-3.4209039211273193,"245":-2.0362637042999268,"246":0.32766368985176086,"247":-1.4731518030166626,"248":0.24794059991836548,"249":1.809818148612976,"250":-0.6650201082229614,"251":-0.2549933195114136,"252":-0.03512990474700928,"253":-1.5841777324676514,"254":1.6781221628189087,"255":0.5670405030250549,"256":-0.015045815147459507,"257":0.9483824372291565,"258":-1.8408221006393433,"259":0.516495406627655,"260":-0.0761624202132225,"261":1.8969372510910034,"262":-4.059501647949219,"263":1.986026644706726,"264":0.6442177295684814,"265":0.7703238129615784,"266":2.380952835083008,"267":-1.3317077159881592,"268":3.435549020767212,"269":-2.0492465496063232,"270":1.0729929208755493,"271":-0.17136280238628387,"272":1.3923004865646362,"273":-0.06529227644205093,"274":0.4146755337715149,"275":1.032197117805481,"276":2.415156126022339,"277":0.06500005722045898,"278":-1.9963231086730957,"279":-0.2002885341644287,"280":0.4768335521221161,"281":1.1727889776229858,"282":2.361668586730957,"283":0.5315850973129272,"284":-3.043900728225708,"285":0.6169098019599915,"286":-2.8407669067382812,"287":-1.9185174703598022,"288":-3.9759809970855713,"289":1.814111590385437,"290":2.836284637451172,"291":1.721179485321045,"292":-0.9095205664634705,"293":0.06441270560026169,"294":-1.261685848236084,"295":-0.09521928429603577,"296":-0.4002991020679474,"297":-0.3812469244003296,"298":-0.7209306955337524,"299":1.0054651498794556,"300":0.014758597128093243,"301":-0.3347010910511017,"302":-2.418311357498169,"303":4.343348026275635,"304":-0.6140591502189636,"305":-2.790092945098877,"306":-0.1912742555141449,"307":-3.0434165000915527,"308":0.7363324761390686,"309":-0.02163594216108322,"310":2.022510528564453,"311":1.5399826765060425,"312":0.13220636546611786,"313":0.8805213570594788,"314":2.3577792644500732,"315":-1.0329021215438843,"316":0.2768791615962982,"317":2.329474687576294,"318":0.743040144443512,"319":1.630405068397522,"320":-2.660634994506836,"321":1.5189496278762817,"322":1.26045560836792,"323":1.6302776336669922,"324":1.766754150390625,"325":-1.0052433013916016,"326":1.3609439134597778,"327":-0.5812895894050598,"328":0.4944628179073334,"329":-2.2309374809265137,"330":-0.10451251268386841,"331":-2.171738624572754,"332":0.40607598423957825,"333":2.688734531402588,"334":-0.47675153613090515,"335":-1.536798119544983,"336":-0.2510852515697479,"337":1.7717654705047607,"338":1.7112770080566406,"339":1.9925493001937866,"340":2.222208261489868,"341":0.09843595325946808,"342":-2.1458733081817627,"343":-0.48694857954978943,"344":1.5298199653625488,"345":-1.4725297689437866,"346":0.5004721283912659,"347":-3.1088509559631348,"348":-0.14944367110729218,"349":3.334354877471924,"350":-0.6174373626708984,"351":3.8285582065582275,"352":-2.3699920177459717,"353":-1.500391960144043,"354":1.30694580078125,"355":1.4114586114883423,"356":-2.1709656715393066,"357":-2.1179823875427246,"358":3.673438787460327,"359":-2.8626415729522705,"360":-1.6657309532165527,"361":0.9678560495376587,"362":2.116077184677124,"363":0.5586736798286438,"364":2.310178279876709,"365":-1.064023494720459,"366":1.0115951299667358,"367":-0.6251572370529175,"368":-2.625486373901367,"369":-2.7158427238464355,"370":1.7038257122039795,"371":-0.3339776396751404,"372":1.314978003501892,"373":0.32361912727355957,"374":-3.185997247695923,"375":3.655689001083374,"376":0.7116662859916687,"377":-1.0523247718811035,"378":-0.2921667695045471,"379":-1.6170827150344849,"380":-0.33437642455101013,"381":-1.5541443824768066,"382":-1.1164904832839966,"383":-0.4354153275489807,"384":-2.2388007640838623,"385":-1.984810471534729,"386":-0.9276384115219116,"387":-0.5619685053825378,"388":-1.2738089561462402,"389":2.6457159519195557,"390":0.23885668814182281,"391":-0.5746138095855713,"392":2.7374777793884277,"393":2.7791714668273926,"394":-1.5903871059417725,"395":2.218665361404419,"396":1.2931411266326904,"397":0.4221935272216797,"398":1.3672949075698853,"399":-0.9381732940673828,"400":3.137937068939209,"401":1.03806734085083,"402":-1.2243213653564453,"403":-0.4130539298057556,"404":1.6942566633224487,"405":-1.3005279302597046,"406":2.165010690689087,"407":-0.6033971905708313,"408":0.5410807132720947,"409":5.7304582595825195,"410":1.9460153579711914,"411":-0.4855358898639679,"412":1.933756709098816,"413":0.6151329278945923,"414":4.041844367980957,"415":-0.5454321503639221,"416":1.9364010095596313,"417":-1.4551520347595215,"418":-1.656812071800232,"419":-1.9097764492034912,"420":-0.8006207346916199,"421":0.59743332862854,"422":0.5104215145111084,"423":0.5538465976715088,"424":-1.5211879014968872,"425":-0.2891228199005127,"426":2.1014485359191895,"427":-1.3379920721054077,"428":-3.2724685668945312,"429":-2.5797626972198486,"430":3.0781795978546143,"431":-4.767012596130371,"432":-2.0794849395751953,"433":-0.7356012463569641,"434":-1.7911314964294434,"435":2.869920015335083,"436":1.5334376096725464,"437":0.6447931528091431,"438":-0.37604406476020813,"439":-1.1930826902389526,"440":-1.216627836227417,"441":0.7237982153892517,"442":-0.8571199178695679,"443":0.18459758162498474,"444":-6.37791633605957,"445":0.5416774153709412,"446":2.1286628246307373,"447":-2.9483845233917236,"448":3.0484533309936523,"449":-0.11690417677164078,"450":0.07766436785459518,"451":-1.9429454803466797,"452":-1.485177993774414,"453":0.5799279808998108,"454":-0.0431598462164402,"455":-0.8705317378044128,"456":-0.1572115421295166,"457":-1.8470666408538818,"458":-0.05016953870654106,"459":4.615621089935303,"460":0.8893762230873108,"461":0.2642399072647095,"462":0.6812130212783813,"463":1.8649245500564575,"464":5.038536548614502,"465":-0.15668146312236786,"466":0.02303357608616352,"467":1.7387312650680542,"468":-1.1348135471343994,"469":0.5266042351722717,"470":-0.9369240403175354,"471":1.3189361095428467,"472":0.7120723128318787,"473":-0.20281152427196503,"474":1.5360779762268066,"475":0.08877541869878769,"476":0.3953215181827545,"477":1.4788379669189453,"478":-1.2105880975723267,"479":-0.14138489961624146,"480":-1.1093820333480835,"481":-1.0977188348770142,"482":-1.2137490510940552,"483":3.397304058074951,"484":-0.7634154558181763,"485":-0.47374624013900757,"486":2.5892770290374756,"487":0.234558567404747,"488":-1.5285139083862305,"489":-2.7623300552368164,"490":0.9310738444328308,"491":1.492467999458313,"492":2.1783909797668457,"493":1.610777735710144,"494":-3.2801706790924072,"495":2.827641725540161,"496":-0.6498483419418335,"497":-0.44250187277793884,"498":-1.225967288017273,"499":2.3040788173675537,"500":-0.18876603245735168,"501":-0.25106295943260193,"502":-0.027457183226943016,"503":0.22306694090366364,"504":-0.5972090363502502,"505":-0.6805667877197266,"506":-0.6058043837547302,"507":-2.0494625568389893,"508":2.915443181991577,"509":0.6162177920341492,"510":0.2548181116580963,"511":-0.380429744720459,"512":-0.4134522080421448,"513":-0.8115490674972534,"514":-1.9815585613250732,"515":0.7792079448699951,"516":-2.0780768394470215,"517":-1.3156874179840088,"518":-0.2258535474538803,"519":-0.04774484410881996,"520":0.3104243278503418,"521":2.1853880882263184,"522":1.0460268259048462,"523":0.2032928615808487,"524":0.08427447080612183,"525":-1.2982310056686401,"526":2.5243773460388184,"527":0.2214260846376419,"528":0.6179437041282654,"529":-0.5633149147033691,"530":0.5284152030944824,"531":1.3673980236053467,"532":1.513750433921814,"533":-2.7092161178588867,"534":3.5036888122558594,"535":-3.8067281246185303,"536":-0.14202885329723358,"537":-0.5314445495605469,"538":0.5529243350028992,"539":-2.106321096420288,"540":-0.9172422885894775,"541":-1.5103631019592285,"542":-0.18445755541324615,"543":1.2846710681915283,"544":-1.301361083984375,"545":-1.3036445379257202,"546":-2.8862929344177246,"547":-0.2925705015659332,"548":1.6671741008758545,"549":2.093857765197754,"550":2.5062167644500732,"551":3.8208608627319336,"552":1.6920017004013062,"553":2.622905731201172,"554":0.7328569889068604,"555":-0.8832557797431946,"556":0.7204517126083374,"557":1.0207680463790894,"558":-1.248724102973938,"559":3.2318344116210938,"560":1.1095978021621704,"561":-0.1015261709690094,"562":-0.32102102041244507,"563":-2.527434825897217,"564":-0.025213705375790596,"565":-3.0190701484680176,"566":-1.457397222518921,"567":-1.468123435974121,"568":-2.8415262699127197,"569":0.6102002263069153,"570":-1.8082854747772217,"571":1.2088055610656738,"572":1.5302271842956543,"573":3.425020456314087,"574":1.591346263885498,"575":-0.752331554889679,"576":0.7464848160743713,"577":-1.2749637365341187,"578":0.15242108702659607,"579":1.1556087732315063,"580":0.7601937651634216,"581":1.5163832902908325,"582":-0.09270205348730087,"583":0.6533315181732178,"584":1.2102378606796265,"585":-0.008162934333086014,"586":-0.00902984756976366,"587":1.1208701133728027,"588":0.3980584740638733,"589":0.8110151886940002,"590":-1.8424712419509888,"591":1.2942306995391846,"592":0.827974796295166,"593":1.381339192390442,"594":-0.35095492005348206,"595":-2.517340898513794,"596":1.199169397354126,"597":-1.877395510673523,"598":-0.6624637246131897,"599":2.1811439990997314}},"outputHidden":{"rows":20,"columns":20,"weights":{"0":-1.7510660886764526,"1":2.638619899749756,"2":-1.4902992248535156,"3":8.745824813842773,"4":1.0286011695861816,"5":1.8729925155639648,"6":-1.1089576482772827,"7":4.555824279785156,"8":-4.609179973602295,"9":-2.6386382579803467,"10":1.0577435493469238,"11":-0.9323825836181641,"12":0.6810277700424194,"13":-7.1008429527282715,"14":-0.11525911837816238,"15":0.8305785059928894,"16":1.5225229263305664,"17":3.9163575172424316,"18":1.043175220489502,"19":1.2420780658721924,"20":-1.3662420511245728,"21":-2.9178051948547363,"22":-5.719533920288086,"23":-0.787115216255188,"24":-1.8408290147781372,"25":2.1279377937316895,"26":3.1730194091796875,"27":4.390092372894287,"28":-4.950838565826416,"29":-2.204346179962158,"30":2.163773536682129,"31":-0.6475815176963806,"32":2.2066874504089355,"33":1.0702602863311768,"34":1.0262163877487183,"35":-4.589824199676514,"36":0.5892957448959351,"37":3.8885388374328613,"38":-0.6447644829750061,"39":4.006402492523193,"40":-4.353176593780518,"41":2.455535650253296,"42":0.9932646751403809,"43":4.807157516479492,"44":-6.633877754211426,"45":3.3354251384735107,"46":-3.0065314769744873,"47":-3.0742461681365967,"48":-2.49810791015625,"49":3.288543224334717,"50":0.7855635285377502,"51":-0.44825589656829834,"52":4.395956993103027,"53":0.40146493911743164,"54":1.283531665802002,"55":6.118534088134766,"56":-1.2181214094161987,"57":0.10472387820482254,"58":0.06865115463733673,"59":-7.457000732421875,"60":0.4923425614833832,"61":-2.060734272003174,"62":0.5850891470909119,"63":-0.9411329627037048,"64":1.6624678373336792,"65":1.5364923477172852,"66":1.849570870399475,"67":-1.537448763847351,"68":-0.24233633279800415,"69":0.39131349325180054,"70":-0.4715886414051056,"71":2.729329824447632,"72":-2.42409610748291,"73":-5.242634296417236,"74":-3.7229254245758057,"75":6.3233513832092285,"76":1.1851849555969238,"77":-5.298414707183838,"78":1.5193727016448975,"79":2.556283473968506,"80":-1.588599443435669,"81":1.5711685419082642,"82":0.9812672734260559,"83":-1.7436145544052124,"84":3.378828287124634,"85":0.7863109707832336,"86":-0.9891735315322876,"87":-0.6430286169052124,"88":1.1943204402923584,"89":3.291517972946167,"90":0.8979671001434326,"91":0.25795572996139526,"92":-0.9704476594924927,"93":0.13620004057884216,"94":1.9955891370773315,"95":-1.1636738777160645,"96":0.9107547998428345,"97":1.284990668296814,"98":4.3431243896484375,"99":-1.0352932214736938,"100":1.8584985733032227,"101":1.0364747047424316,"102":-4.367044925689697,"103":-4.339555263519287,"104":-4.930150985717773,"105":4.211807727813721,"106":-4.809939861297607,"107":3.7451138496398926,"108":4.00709342956543,"109":4.106197357177734,"110":-9.850961685180664,"111":0.32740840315818787,"112":-0.8491742610931396,"113":3.76939058303833,"114":4.388903617858887,"115":1.061692714691162,"116":0.39034461975097656,"117":1.3805480003356934,"118":3.4495694637298584,"119":2.670650005340576,"120":0.10381361842155457,"121":-0.23547281324863434,"122":1.5933133363723755,"123":1.6017212867736816,"124":-2.558358907699585,"125":-2.4395923614501953,"126":5.458077907562256,"127":-2.770068645477295,"128":2.1214215755462646,"129":0.466742604970932,"130":-0.356254905462265,"131":-0.5565703511238098,"132":-1.4668819904327393,"133":3.8733930587768555,"134":-4.57487154006958,"135":-5.319024562835693,"136":-4.536508083343506,"137":1.7886126041412354,"138":-2.5634636878967285,"139":0.8370891809463501,"140":2.812659740447998,"141":0.160085067152977,"142":5.985351085662842,"143":-1.6056785583496094,"144":-1.908536434173584,"145":1.1616277694702148,"146":-1.3096030950546265,"147":-0.6939097046852112,"148":2.76180362701416,"149":0.7659974694252014,"150":-0.45620548725128174,"151":1.1373480558395386,"152":-1.1857753992080688,"153":-2.2103025913238525,"154":0.9024379849433899,"155":-0.056742358952760696,"156":-0.8010178804397583,"157":0.9544681310653687,"158":0.5565521717071533,"159":-0.6234704256057739,"160":-1.4665992259979248,"161":-0.4790889322757721,"162":2.530045986175537,"163":0.5879825949668884,"164":1.6276501417160034,"165":-0.7836626768112183,"166":0.9352919459342957,"167":1.9809556007385254,"168":1.2118256092071533,"169":1.5339467525482178,"170":-0.06667708605527878,"171":-0.7493095397949219,"172":-1.5274802446365356,"173":-1.7682982683181763,"174":-0.13370755314826965,"175":0.1613631546497345,"176":0.148668110370636,"177":-0.16864721477031708,"178":-0.28719791769981384,"179":-0.9041187763214111,"180":-0.37614333629608154,"181":-0.8922133445739746,"182":0.45988139510154724,"183":2.4111030101776123,"184":0.054639775305986404,"185":-2.5773701667785645,"186":5.303210258483887,"187":0.15872415900230408,"188":0.7219340205192566,"189":0.9674001932144165,"190":3.171215057373047,"191":-0.005333610810339451,"192":-0.22779949009418488,"193":6.317440032958984,"194":-2.7469749450683594,"195":-1.954925775527954,"196":2.442639112472534,"197":4.064600944519043,"198":0.9137703776359558,"199":-2.366779088973999,"200":0.41157266497612,"201":-1.4705034494400024,"202":2.6765027046203613,"203":-2.2257626056671143,"204":0.15153305232524872,"205":0.8044824600219727,"206":-1.4462780952453613,"207":1.1864030361175537,"208":3.145080327987671,"209":0.48101747035980225,"210":-1.5045545101165771,"211":2.8050127029418945,"212":-0.3886612057685852,"213":-5.291245460510254,"214":-1.65597665309906,"215":0.0509432889521122,"216":2.768824338912964,"217":0.11927632987499237,"218":1.645672082901001,"219":1.6117619276046753,"220":-1.7177608013153076,"221":2.4569506645202637,"222":-0.5215129852294922,"223":-1.085686445236206,"224":3.2310996055603027,"225":-3.675912380218506,"226":-0.662682294845581,"227":0.4257093071937561,"228":0.46611782908439636,"229":-1.0128635168075562,"230":2.13917875289917,"231":-0.7876091599464417,"232":1.014691948890686,"233":-1.1434687376022339,"234":-4.328897953033447,"235":2.329716920852661,"236":-0.1768418848514557,"237":0.24672266840934753,"238":-1.354798436164856,"239":0.1940995752811432,"240":0.765516996383667,"241":0.6452609896659851,"242":-2.0728557109832764,"243":0.303973913192749,"244":-0.07682303339242935,"245":-0.3568985164165497,"246":1.110884189605713,"247":-1.5870548486709595,"248":2.0785045623779297,"249":-0.0012724644038826227,"250":-0.6400502324104309,"251":-0.4752660095691681,"252":-1.2609285116195679,"253":0.3696165084838867,"254":1.5594274997711182,"255":-1.559165120124817,"256":0.7999109625816345,"257":-0.17600780725479126,"258":-1.3618310689926147,"259":-1.849526047706604,"260":-0.8705968260765076,"261":-3.0455992221832275,"262":2.401441812515259,"263":-1.9394837617874146,"264":-4.068552494049072,"265":-0.14225852489471436,"266":-3.47247314453125,"267":-2.987384557723999,"268":2.1262872219085693,