{"type":"LSTM","options":{"inputSize":30,"inputRange":30,"hiddenLayers":[20,20],"outputSize":30,"decayRate":0.999,"smoothEps":1e-8,"regc":0.000001,"clipval":5,"maxPredictionLength":100,"dataFormatter":{"values":["well done","good","raised good","well backed","impressive job","is good","well written","wow","best scripts","have read","good use","much technical jargon","impressive speech","have improved","last script","good effort","good signposting","is present","overarching ideas","well thought","well organised","clear","concise","professional","is much","latest revision","high quality","fine execution","is satisfactory","superior quality","is adequate","good content","good flow","sound","clear effort","good intonation","solid grasp","good job","fine delivery","flawless execution","is perfect","excellent","exceptional quality","superb delivery","ideas substantiated","robust evidence","wonderful presentation","have great","potential","very engaging script","content shows","good understanding","interesting topic","impeccable script","immaculate delivery","is supporting","evidence shown","logically presented","easily follow","appropriate tone","well developed","well selected","completely addressed","very nuanced","meets requirements","good time","just nice","used natural","conversational","was coherent","appropriately changed","maintain interest","avoided filler","well adapted","demonstrated command","formal","English","when appropriate","best vocabulary","technical words","well defined","easy","were incoherent","bad","is bad","was abrupt","should improve","presentation needs","was difficult","more varied","too long","should work","too much information","consistent colour","is difficult","better focus","is disappointing","better quality","could use","more hand","should try","should smile","when talking","would help","more friendly","presentation lacks","are unsupported","more reliable sources","need better","not convincing","be feasible","too tense","not consistent","could improve","more consistent pace","other parts","too slow","general audience","should use","less technical jargon","should replace","technical jargon","are easy","more concise","not professional","more formal words","more professional","pictures used","not appropriate","more formal","when speaking","be more","to rehearse more","have poor","was hard","to look more","font used","too small","were distracting","too distracting","overly use","should rehearse","badly prepared","is obvious","are reading","more confident","convincing","is more","too many","awkward","should look","maintain eye"],"indexTable":{"w":0,"e":1,"l":2," ":3,"d":4,"o":5,"n":6,"g":7,"r":8,"a":9,"i":10,"s":11,"b":12,"c":13,"k":14,"m":15,"p":16,"v":17,"j":18,"t":19,"h":20,"u":21,"f":22,"q":23,"y":24,"x":25,"E":26,"stop-input":27,"start-output":28,"unrecognized":29},"characterTable":{"0":"w","1":"e","2":"l","3":" ","4":"d","5":"o","6":"n","7":"g","8":"r","9":"a","10":"i","11":"s","12":"b","13":"c","14":"k","15":"m","16":"p","17":"v","18":"j","19":"t","20":"h","21":"u","22":"f","23":"q","24":"y","25":"x","26":"E","27":null,"28":null,"29":null},"characters":["w","e","l"," ","d","o","n","g","r","a","i","s","b","c","k","m","p","v","j","t","h","u","f","q","y","x","E","stop-input","start-output","unrecognized"],"specialIndexes":[27,28,29]}},"input":{"rows":31,"columns":30,"weights":{"0":5.131527423858643,"1":3.169977903366089,"2":-1.3937472105026245,"3":1.272477388381958,"4":1.8978244066238403,"5":0.9110906720161438,"6":-3.5314199924468994,"7":1.1302109956741333,"8":-0.3181556761264801,"9":1.5890295505523682,"10":-1.3237537145614624,"11":-1.5491769313812256,"12":-2.8721678256988525,"13":2.353304624557495,"14":-2.078239917755127,"15":0.8113388419151306,"16":2.2158164978027344,"17":-1.8587875366210938,"18":-1.419814109802246,"19":-0.5799680948257446,"20":0.9135532975196838,"21":-0.4816753566265106,"22":0.06839460879564285,"23":-0.4415992200374603,"24":2.332294464111328,"25":-4.0106706619262695,"26":1.6090357303619385,"27":0.25813040137290955,"28":1.3731049299240112,"29":2.634091854095459,"30":-7.772578239440918,"31":-7.338089466094971,"32":-12.33128833770752,"33":-8.427732467651367,"34":-1.7681584358215332,"35":5.1046671867370605,"36":8.346101760864258,"37":11.616697311401367,"38":2.091646909713745,"39":5.87933874130249,"40":6.8545427322387695,"41":-10.131401062011719,"42":5.114306449890137,"43":4.0363993644714355,"44":-2.603600025177002,"45":3.838228464126587,"46":-8.068929672241211,"47":-2.045072317123413,"48":1.149908423423767,"49":-8.417887687683105,"50":-6.403470039367676,"51":2.487083911895752,"52":-1.3916645050048828,"53":2.322659730911255,"54":-4.9095306396484375,"55":6.046379089355469,"56":-8.540985107421875,"57":0.8176540732383728,"58":-13.09832763671875,"59":-12.899901390075684,"60":0.3550536036491394,"61":7.4287824630737305,"62":-1.3499470949172974,"63":1.3821839094161987,"64":1.0523452758789062,"65":0.9177209734916687,"66":-1.5889122486114502,"67":-0.8590920567512512,"68":2.078740358352661,"69":-0.44183701276779175,"70":2.2519986629486084,"71":0.1389809399843216,"72":-4.276787281036377,"73":-0.3583250045776367,"74":0.2850220203399658,"75":1.9436482191085815,"76":-1.6885255575180054,"77":0.27987900376319885,"78":-0.6096208095550537,"79":0.40417739748954773,"80":-0.03299781307578087,"81":0.35936084389686584,"82":1.0232081413269043,"83":1.592620611190796,"84":2.130941867828369,"85":-2.184458017349243,"86":-0.6852171421051025,"87":0.02034824900329113,"88":1.430965542793274,"89":0.02787204086780548,"90":8.039664268493652,"91":11.908405303955078,"92":-3.9512298107147217,"93":-0.9231406450271606,"94":-1.0671759843826294,"95":8.195570945739746,"96":-10.651641845703125,"97":2.222705841064453,"98":-1.3794878721237183,"99":4.375734329223633,"100":0.13883329927921295,"101":-2.1648573875427246,"102":-3.3787593841552734,"103":-3.5530285835266113,"104":-6.476100921630859,"105":2.0673041343688965,"106":-6.657539367675781,"107":-1.9272129535675049,"108":-1.0100935697555542,"109":3.6733319759368896,"110":-0.0629415363073349,"111":-1.045878291130066,"112":-2.561413526535034,"113":-2.1044466495513916,"114":7.081545352935791,"115":-5.548954963684082,"116":-1.829972267150879,"117":-0.29701605439186096,"118":-2.3756988048553467,"119":6.676605224609375,"120":-1.7273396253585815,"121":-0.6646755337715149,"122":3.748997688293457,"123":2.2568259239196777,"124":8.599735260009766,"125":1.273923635482788,"126":4.929522514343262,"127":3.3662776947021484,"128":10.109088897705078,"129":0.14651000499725342,"130":-2.728255033493042,"131":-0.16658835113048553,"132":1.1173152923583984,"133":-0.03975062072277069,"134":-0.09319925308227539,"135":4.25306510925293,"136":0.20795804262161255,"137":0.5346823334693909,"138":-1.2326147556304932,"139":0.7844785451889038,"140":1.2691564559936523,"141":-1.6632741689682007,"142":3.001741409301758,"143":5.230189800262451,"144":-0.40023908019065857,"145":-0.489188015460968,"146":-6.664575099945068,"147":-1.638784408569336,"148":-1.3231093883514404,"149":1.948702096939087,"150":-5.252132892608643,"151":-3.663036346435547,"152":-0.8175783157348633,"153":-0.4778231382369995,"154":1.1777201890945435,"155":-0.21685898303985596,"156":-1.8932734727859497,"157":-0.36361587047576904,"158":-0.12433940917253494,"159":-2.3183162212371826,"160":2.0491890907287598,"161":1.2192747592926025,"162":2.4681074619293213,"163":0.06709018349647522,"164":-0.044793304055929184,"165":0.5245075225830078,"166":0.8875671625137329,"167":-2.4912028312683105,"168":-1.8542366027832031,"169":-1.1355069875717163,"170":-0.7403462529182434,"171":-0.5069769024848938,"172":1.1207069158554077,"173":3.2578303813934326,"174":-2.0414395332336426,"175":-0.8315961360931396,"176":-4.854424953460693,"177":-0.5884260535240173,"178":-0.30455702543258667,"179":-2.108916759490967,"180":0.4457438588142395,"181":-0.47745105624198914,"182":1.435951590538025,"183":0.7238373160362244,"184":-0.6849798560142517,"185":-0.8911844491958618,"186":2.267266035079956,"187":-0.46696293354034424,"188":0.15614661574363708,"189":0.1848304271697998,"190":-0.224382221698761,"191":0.11788143962621689,"192":-0.3047817051410675,"193":-0.06624295562505722,"194":0.4509265720844269,"195":-0.4056517481803894,"196":0.4099171459674835,"197":-0.33013319969177246,"198":2.8154373168945312,"199":0.6367731690406799,"200":0.046018198132514954,"201":0.04331865906715393,"202":0.4788283705711365,"203":-0.1257021576166153,"204":-2.1320440769195557,"205":0.2370534986257553,"206":-0.8035255074501038,"207":-0.09109712392091751,"208":-0.3034934103488922,"209":-1.4040768146514893,"210":1.2805109024047852,"211":-2.529664993286133,"212":2.067085027694702,"213":-1.404921054840088,"214":1.4586726427078247,"215":-1.3292924165725708,"216":4.6152873039245605,"217":-3.0742270946502686,"218":-1.8340823650360107,"219":4.8188700675964355,"220":-7.738186836242676,"221":3.3704981803894043,"222":1.8058505058288574,"223":-1.9837985038757324,"224":5.613552570343018,"225":-2.8883490562438965,"226":-3.3368406295776367,"227":7.000462055206299,"228":3.693850517272949,"229":1.5994913578033447,"230":1.0781292915344238,"231":-0.7987536787986755,"232":-4.862563133239746,"233":-5.1464080810546875,"234":1.1665757894515991,"235":-3.095226764678955,"236":6.5694661140441895,"237":-4.468113899230957,"238":-0.8692678809165955,"239":1.7869288921356201,"240":-0.22045186161994934,"241":-2.93452525138855,"242":0.7983129620552063,"243":-0.7627318501472473,"244":-0.05086592957377434,"245":1.0101275444030762,"246":-4.159343719482422,"247":0.09430673718452454,"248":1.7556719779968262,"249":1.8986871242523193,"250":-0.9275915026664734,"251":-0.570040225982666,"252":4.244907855987549,"253":-2.3638877868652344,"254":-0.7217901945114136,"255":3.5601680278778076,"256":-0.2676502764225006,"257":-3.8042144775390625,"258":-2.826611042022705,"259":-2.4033491611480713,"260":1.6702412366867065,"261":-1.4087265729904175,"262":-1.631828784942627,"263":-1.250135898590088,"264":-3.2830147743225098,"265":0.5195908546447754,"266":0.6606051921844482,"267":2.4689629077911377,"268":0.04553118348121643,"269":-3.5088412761688232,"270":0.399422287940979,"271":0.5259140133857727,"272":-0.26860636472702026,"273":0.7236239910125732,"274":-0.20088718831539154,"275":0.5980193018913269,"276":5.225101947784424,"277":-0.9191602468490601,"278":-0.12409868836402893,"279":0.4365144371986389,"280":-0.4598335921764374,"281":-0.2373991310596466,"282":-0.8334148526191711,"283":-0.05139870569109917,"284":0.77467942237854,"285":0.6654948592185974,"286":-3.619192123413086,"287":5.96718692779541,"288":0.7986227869987488,"289":0.571130096912384,"290":-0.9370017647743225,"291":-0.07240579277276993,"292":-0.5679229497909546,"293":0.3140859305858612,"294":0.6261087656021118,"295":-0.16494233906269073,"296":0.17633509635925293,"297":-0.3931366205215454,"298":-0.30648359656333923,"299":0.8375688791275024,"300":0.20026558637619019,"301":-1.474150538444519,"302":-1.190137267112732,"303":-0.22288358211517334,"304":-12.822769165039062,"305":-5.053493022918701,"306":-2.070826530456543,"307":-0.893398106098175,"308":-13.394736289978027,"309":0.9437450170516968,"310":-4.146525859832764,"311":6.448204040527344,"312":2.80959415435791,"313":-1.9712753295898438,"314":5.882688999176025,"315":-2.4542033672332764,"316":-1.634268879890442,"317":-5.28834342956543,"318":4.6429643630981445,"319":1.760428786277771,"320":-2.3335723876953125,"321":-2.53690242767334,"322":7.205626487731934,"323":0.5472475290298462,"324":-1.309613823890686,"325":-3.6710519790649414,"326":-2.561511754989624,"327":-0.6350077986717224,"328":0.16303864121437073,"329":2.673736810684204,"330":4.02241325378418,"331":-1.471105933189392,"332":0.9963825941085815,"333":1.0190969705581665,"334":-6.281947612762451,"335":-2.4759328365325928,"336":-1.9307550191879272,"337":-0.5933286547660828,"338":-6.431546688079834,"339":-2.319683313369751,"340":5.477051734924316,"341":0.29091379046440125,"342":1.8985460996627808,"343":-1.7577837705612183,"344":4.181979179382324,"345":3.2837085723876953,"346":4.562931537628174,"347":-4.224860668182373,"348":-1.1398533582687378,"349":6.461419582366943,"350":0.47525554895401,"351":-2.8077073097229004,"352":-4.508035659790039,"353":1.7453315258026123,"354":0.7114917635917664,"355":-3.1191587448120117,"356":-3.270753860473633,"357":1.0521408319473267,"358":7.3121137619018555,"359":4.284003257751465,"360":0.18861113488674164,"361":0.1256057173013687,"362":-0.7734907269477844,"363":0.9748145341873169,"364":-0.36915335059165955,"365":0.36365193128585815,"366":1.7034473419189453,"367":-0.10296329110860825,"368":-0.39699786901474,"369":-0.055160120129585266,"370":-0.1341458559036255,"371":-0.19864816963672638,"372":-0.5140538215637207,"373":-0.14613127708435059,"374":0.5808306336402893,"375":-0.2366296947002411,"376":0.12602567672729492,"377":0.002428002655506134,"378":1.1869548559188843,"379":-0.2364102303981781,"380":-0.012945374473929405,"381":0.4455636143684387,"382":-0.8298441171646118,"383":-0.3510311543941498,"384":-4.382092475891113,"385":0.23061610758304596,"386":2.454288959503174,"387":-0.04593164473772049,"388":0.11459778249263763,"389":-2.1647789478302,"390":-0.07496392726898193,"391":1.6310323476791382,"392":1.961151123046875,"393":11.761815071105957,"394":-10.611565589904785,"395":-10.469281196594238,"396":2.512791633605957,"397":-8.951650619506836,"398":-5.829807281494141,"399":9.3323392868042,"400":6.425431728363037,"401":18.197845458984375,"402":-4.158144474029541,"403":-8.973864555358887,"404":0.8565613627433777,"405":-0.39879024028778076,"406":-6.403226375579834,"407":3.7451372146606445,"408":-7.611843585968018,"409":10.377561569213867,"410":-3.9134716987609863,"411":1.2424954175949097,"412":1.6086373329162598,"413":-15.201630592346191,"414":-0.6957175731658936,"415":3.1250879764556885,"416":8.262482643127441,"417":0.2725471556186676,"418":2.1102190017700195,"419":3.0728890895843506,"420":7.2821245193481445,"421":5.56748104095459,"422":8.766522407531738,"423":-1.834015130996704,"424":8.077227592468262,"425":4.028036117553711,"426":4.075664043426514,"427":6.274801254272461,"428":9.952546119689941,"429":7.083869457244873,"430":-3.920219898223877,"431":1.8194538354873657,"432":-2.3057355880737305,"433":2.8653745651245117,"434":-4.063927173614502,"435":1.050122618675232,"436":4.978777885437012,"437":-9.350131034851074,"438":1.5833101272583008,"439":2.2740297317504883,"440":5.934014797210693,"441":2.4791433811187744,"442":-7.059153079986572,"443":-0.4252401888370514,"444":3.372130870819092,"445":1.0367059707641602,"446":-2.1478099822998047,"447":-3.834017276763916,"448":-1.1220993995666504,"449":-0.34603068232536316,"450":3.925975799560547,"451":15.06061840057373,"452":-5.4938859939575195,"453":-5.253891468048096,"454":18.27678108215332,"455":-5.162853240966797,"456":-13.007198333740234,"457":14.310524940490723,"458":8.22529125213623,"459":-24.385597229003906,"460":13.275189399719238,"461":-16.785194396972656,"462":-5.3468403816223145,"463":-19.89195442199707,"464":1.6180672645568848,"465":-11.774799346923828,"466":4.209469318389893,"467":22.249183654785156,"468":12.445440292358398,"469":-13.655678749084473,"470":-21.713468551635742,"471":4.558054447174072,"472":14.931134223937988,"473":14.627161979675293,"474":13.63039779663086,"475":1.431653380393982,"476":-7.206739902496338,"477":24.96120262145996,"478":9.027563095092773,"479":-10.843506813049316,"480":8.14928913116455,"481":8.070945739746094,"482":-6.994381904602051,"483":1.6144917011260986,"484":8.309650421142578,"485":5.958534240722656,"486":-5.141573905944824,"487":4.027556896209717,"488":13.886140823364258,"489":-12.669265747070312,"490":-1.8271496295928955,"491":1.4713331460952759,"492":-8.15186595916748,"493":0.4547762870788574,"494":-11.122570037841797,"495":1.599226713180542,"496":-3.1863601207733154,"497":9.569217681884766,"498":-4.065155029296875,"499":-13.584120750427246,"500":1.6790493726730347,"501":1.8992936611175537,"502":6.27677059173584,"503":9.394614219665527,"504":7.598302364349365,"505":-1.6833298206329346,"506":-0.47533610463142395,"507":1.5835093259811401,"508":-0.12876757979393005,"509":1.5504881143569946,"510":12.07473373413086,"511":3.11771559715271,"512":-8.169716835021973,"513":-4.60145378112793,"514":-11.130467414855957,"515":-4.786137104034424,"516":-9.439577102661133,"517":10.002676010131836,"518":-3.9974277019500732,"519":-1.9275330305099487,"520":-4.139031887054443,"521":3.7562389373779297,"522":3.530273675918579,"523":4.891185760498047,"524":-6.035032749176025,"525":11.172712326049805,"526":-1.1774585247039795,"527":-0.09865429997444153,"528":-6.251418590545654,"529":6.67045259475708,"530":4.709501266479492,"531":5.257951259613037,"532":1.364869236946106,"533":5.606620788574219,"534":1.3964911699295044,"535":-2.1310653686523438,"536":3.533141613006592,"537":2.0637431144714355,"538":-0.5184784531593323,"539":8.026067733764648,"540":-3.03413462638855,"541":0.3143797218799591,"542":-4.767099857330322,"543":-9.05810832977295,"544":-9.948254585266113,"545":-17.586793899536133,"546":10.811960220336914,"547":-5.8006591796875,"548":-18.622575759887695,"549":-4.733215808868408,"550":-6.771350383758545,"551":3.2566962242126465,"552":12.01249885559082,"553":1.9796968698501587,"554":9.620020866394043,"555":-8.924452781677246,"556":0.30255988240242004,"557":6.216843605041504,"558":4.610207557678223,"559":18.829639434814453,"560":-7.511399745941162,"561":5.303588390350342,"562":5.492922782897949,"563":-5.195127964019775,"564":-9.649077415466309,"565":1.343063473701477,"566":3.4668760299682617,"567":1.9749932289123535,"568":-3.8164570331573486,"569":-6.808787822723389,"570":-21.475542068481445,"571":-21.68256187438965,"572":21.17452621459961,"573":10.373357772827148,"574":-7.996564865112305,"575":-9.075499534606934,"576":-7.641646385192871,"577":-6.599018096923828,"578":-3.7054009437561035,"579":-29.362783432006836,"580":29.684030532836914,"581":7.080002307891846,"582":5.523171424865723,"583":4.463559150695801,"584":19.806352615356445,"585":6.247109889984131,"586":-8.273578643798828,"587":-13.798443794250488,"588":-18.771894454956055,"589":-20.96105194091797,"590":0.836396336555481,"591":-21.295825958251953,"592":-3.2201550006866455,"593":43.71813201904297,"594":-6.06478214263916,"595":-14.349902153015137,"596":-26.858440399169922,"597":2.8766837120056152,"598":-10.973773956298828,"599":6.731771469116211,"600":3.997326612472534,"601":-1.779392957687378,"602":-9.087748527526855,"603":0.2659772038459778,"604":-2.498300552368164,"605":3.2397103309631348,"606":-7.148083209991455,"607":5.588545322418213,"608":0.8630726337432861,"609":-0.7044963240623474,"610":2.8994977474212646,"611":-5.272170543670654,"612":0.09758426994085312,"613":-0.13847580552101135,"614":-4.23206901550293,"615":2.593716859817505,"616":-1.278182029724121,"617":2.5905349254608154,"618":-4.01912260055542,"619":0.2544487416744232,"620":-2.860826015472412,"621":-2.887552499771118,"622":-2.718766450881958,"623":2.0543413162231445,"624":2.635989189147949,"625":-4.74533224105835,"626":-0.11265507340431213,"627":-5.7540788650512695,"628":2.753577470779419,"629":-0.38454827666282654,"630":-7.523405075073242,"631":0.2154654860496521,"632":-4.41456937789917,"633":-2.198396921157837,"634":-2.096128463745117,"635":-9.57668685913086,"636":6.380943775177002,"637":5.835326194763184,"638":-6.657711982727051,"639":18.538021087646484,"640":5.8907389640808105,"641":17.267959594726562,"642":6.620187282562256,"643":-12.90771770477295,"644":-6.9263529777526855,"645":-6.937836647033691,"646":-0.8905996680259705,"647":-1.6995879411697388,"648":-2.8062500953674316,"649":6.024456977844238,"650":-1.8375016450881958,"651":7.428851127624512,"652":-1.6037060022354126,"653":-16.116832733154297,"654":-10.43722915649414,"655":3.600616931915283,"656":-1.0025559663772583,"657":-4.653018951416016,"658":4.334273815155029,"659":1.3506931066513062,"660":-5.746863842010498,"661":1.82578444480896,"662":5.733725547790527,"663":9.16849422454834,"664":-5.346665382385254,"665":-9.361927032470703,"666":-0.5478687286376953,"667":-4.309223651885986,"668":-8.520155906677246,"669":5.374750137329102,"670":-5.1231865882873535,"671":-1.864099144935608,"672":-1.1867923736572266,"673":-4.225208282470703,"674":9.982085227966309,"675":-10.183975219726562,"676":-0.4748235046863556,"677":-3.713956594467163,"678":3.4144182205200195,"679":-5.6914544105529785,"680":-4.771720886230469,"681":-1.3683503866195679,"682":7.321846008300781,"683":-6.080727577209473,"684":-3.1057426929473877,"685":4.475341796875,"686":8.905738830566406,"687":7.898921012878418,"688":-3.6733460426330566,"689":8.203932762145996,"690":4.265171527862549,"691":2.9982330799102783,"692":9.798519134521484,"693":3.9067654609680176,"694":-9.896844863891602,"695":-4.45671272277832,"696":5.151788234710693,"697":-10.01380443572998,"698":-13.155729293823242,"699":0.19948041439056396,"700":-9.48689079284668,"701":0.2054087370634079,"702":-4.8925395011901855,"703":-1.100480079650879,"704":7.014399528503418,"705":-1.336168885231018,"706":-10.73007869720459,"707":2.0964584350585938,"708":-2.3307206630706787,"709":4.247282981872559,"710":0.7612966895103455,"711":-1.1637250185012817,"712":1.627310872077942,"713":-4.88572359085083,"714":9.584697723388672,"715":3.290703535079956,"716":5.3505401611328125,"717":-2.129546642303467,"718":5.36709451675415,"719":3.0223593711853027,"720":-16.485719680786133,"721":-12.703551292419434,"722":-15.69722843170166,"723":-9.66928482055664,"724":-8.891526222229004,"725":-11.837737083435059,"726":-8.577420234680176,"727":4.8917765617370605,"728":3.4373414516448975,"729":18.825456619262695,"730":22.923908233642578,"731":-17.477706909179688,"732":15.559832572937012,"733":6.397919654846191,"734":-16.75588607788086,"735":14.11445140838623,"736":-18.14126968383789,"737":7.067996025085449,"738":-9.211050987243652,"739":-8.45042896270752,"740":-20.237506866455078,"741":-0.4819455146789551,"742":12.195972442626953,"743":5.017982482910156,"744":-12.525733947753906,"745":14.64863109588623,"746":-22.556568145751953,"747":18.96067237854004,"748":-7.434582710266113,"749":4.9797539710998535,"750":-5.923223972320557,"751":-0.3226644992828369,"752":2.5296835899353027,"753":-2.893749237060547,"754":8.993572235107422,"755":13.304025650024414,"756":7.990135669708252,"757":-15.023208618164062,"758":18.30135726928711,"759":14.414347648620605,"760":3.5323398113250732,"761":0.15642940998077393,"762":0.9796113967895508,"763":-5.026371955871582,"764":8.67132568359375,"765":-1.7734262943267822,"766":6.130562782287598,"767":-4.683444023132324,"768":9.622905731201172,"769":-3.79630184173584,"770":1.47357177734375,"771":6.351861953735352,"772":2.2851505279541016,"773":15.325965881347656,"774":5.4514875411987305,"775":2.145340919494629,"776":-14.908084869384766,"777":-5.582046031951904,"778":-5.787265777587891,"779":-8.936039924621582,"780":12.837559700012207,"781":28.130653381347656,"782":20.8615665435791,"783":18.343835830688477,"784":11.254597663879395,"785":23.666597366333008,"786":-1.3582873344421387,"787":-4.231196880340576,"788":13.182958602905273,"789":25.249271392822266,"790":-5.642604827880859,"791":1.6993120908737183,"792":-39.77560806274414,"793":3.9385318756103516,"794":-7.672301769256592,"795":6.048443794250488,"796":1.615169644355774,"797":-23.29619598388672,"798":-10.74015998840332,"799":2.4699289798736572,"800":27.259061813354492,"801":6.208415985107422,"802":-19.641918182373047,"803":-8.456247329711914,"804":-1.0590815544128418,"805":5.070123195648193,"806":7.3900065422058105,"807":17.655532836914062,"808":7.443390369415283,"809":9.40926742553711,"810":-64.23634338378906,"811":-9.182534217834473,"812":-0.43348821997642517,"813":-7.899508953094482,"814":-5.590999126434326,"815":-20.451610565185547,"816":-26.66281509399414,"817":24.25047492980957,"818":5.770750045776367,"819":-7.448894500732422,"820":50.577880859375,"821":-26.521791458129883,"822":58.86856460571289,"823":-46.88339614868164,"824":-10.805974006652832,"825":13.345794677734375,"826":27.724483489990234,"827":26.483570098876953,"828":-20.246931076049805,"829":-35.08137130737305,"830":9.275489807128906,"831":1.8043099641799927,"832":7.3068013191223145,"833":11.758861541748047,"834":-13.074073791503906,"835":56.17886734008789,"836":-27.604848861694336,"837":56.685184478759766,"838":-29.551513671875,"839":-16.057939529418945,"840":1.0850046873092651,"841":-3.030280828475952,"842":-2.536764621734619,"843":-2.117154598236084,"844":-1.6062767505645752,"845":-2.7398548126220703,"846":2.469139814376831,"847":-4.917210578918457,"848":-4.026374340057373,"849":1.2750667333602905,"850":1.4477825164794922,"851":3.5855109691619873,"852":2.8275725841522217,"853":-0.7410643696784973,"854":3.3902549743652344,"855":-0.3181300461292267,"856":6.219481468200684,"857":-4.714677333831787,"858":5.592337131500244,"859":1.2640899419784546,"860":4.307052135467529,"861":0.1883217990398407,"862":5.092433452606201,"863":-0.9535539150238037,"864":-2.1354010105133057,"865":2.791452646255493,"866":2.777282476425171,"867":-2.9530012607574463,"868":0.823209822177887,"869":-7.047576427459717,"870":-1.0561507940292358,"871":-1.360718846321106,"872":-2.2383177280426025,"873":-2.368607759475708,"874":-0.9232199192047119,"875":3.1158249378204346,"876":0.9923362731933594,"877":-0.0010157846845686436,"878":-0.8283315300941467,"879":-0.3061465919017792,"880":-2.307096004486084,"881":-1.359608769416809,"882":1.1434543132781982,"883":-2.095914125442505,"884":0.9007026553153992,"885":-0.23624436557292938,"886":1.2374662160873413,"887":-3.0364773273468018,"888":1.7445462942123413,"889":-0.5459479689598083,"890":2.0461645126342773,"891":0.7216712236404419,"892":1.3411928415298462,"893":0.020166704431176186,"894":-3.3639066219329834,"895":1.815014362335205,"896":2.2178866863250732,"897":0.643862247467041,"898":-1.9300369024276733,"899":-1.4334903955459595,"900":0.04384128376841545,"901":0.001726159593090415,"902":0.039645254611968994,"903":-0.0404883474111557,"904":-0.02865067683160305,"905":0.02876592054963112,"906":-0.010864228010177612,"907":0.0638229101896286,"908":0.008883212693035603,"909":-0.05959497392177582,"910":-0.042505163699388504,"911":0.007749954704195261,"912":0.03741074353456497,"913":-0.0058017633855342865,"914":-0.02574753947556019,"915":0.062371499836444855,"916":0.01895660161972046,"917":-0.0061289044097065926,"918":-0.03438321873545647,"919":0.06384404748678207,"920":0.02100543864071369,"921":0.014736308716237545,"922":-0.03704489395022392,"923":-0.056458476930856705,"924":-0.014443153515458107,"925":-0.0005152483936399221,"926":-0.023668358102440834,"927":0.015489200130105019,"928":0.04871795326471329,"929":0.020551325753331184}},"hiddenLayers":[{"inputMatrix":{"rows":20,"columns":30,"weights":{"0":0.3492428958415985,"1":5.233136177062988,"2":0.5836238861083984,"3":2.7756614685058594,"4":-1.75822114944458,"5":-0.9456248879432678,"6":-3.324061870574951,"7":-0.17438039183616638,"8":-1.0945466756820679,"9":1.1458559036254883,"10":1.010679841041565,"11":1.3265960216522217,"12":-0.23555636405944824,"13":-1.902653455734253,"14":-2.505289077758789,"15":0.8437022566795349,"16":0.12428613007068634,"17":-0.996806800365448,"18":-1.0917574167251587,"19":0.15080121159553528,"20":-0.5076931118965149,"21":2.0256643295288086,"22":2.1505725383758545,"23":0.7690187692642212,"24":2.7855727672576904,"25":-0.7662018537521362,"26":-0.3343988060951233,"27":0.7987672686576843,"28":0.9341678619384766,"29":4.015423774719238,"30":0.2573888897895813,"31":3.551017999649048,"32":0.0770227462053299,"33":0.6818114519119263,"34":3.870727300643921,"35":3.890185594558716,"36":-3.2225592136383057,"37":1.272173285484314,"38":1.858942985534668,"39":0.8405620455741882,"40":0.8950818777084351,"41":-0.84030681848526,"42":-3.162097692489624,"43":0.8643826842308044,"44":-2.821300745010376,"45":0.8769736289978027,"46":-0.15497855842113495,"47":-2.205261707305908,"48":-1.8556971549987793,"49":-2.6723546981811523,"50":3.16452693939209,"51":-2.3696722984313965,"52":0.8838968873023987,"53":-1.746830940246582,"54":2.1136887073516846,"55":-0.3221972584724426,"56":-0.7323649525642395,"57":-2.2518162727355957,"58":0.6135041117668152,"59":-0.2550134062767029,"60":1.0989925861358643,"61":0.624981701374054,"62":1.07742178440094,"63":0.956764280796051,"64":-2.6740341186523438,"65":-0.669914186000824,"66":0.2822197377681732,"67":-0.9073452949523926,"68":-1.8270825147628784,"69":-0.8453130125999451,"70":-2.1589059829711914,"71":0.2629657983779907,"72":-2.2870352268218994,"73":-1.4111016988754272,"74":1.0846598148345947,"75":-0.7557215690612793,"76":-1.4962395429611206,"77":0.6736899614334106,"78":0.7545226216316223,"79":-0.13753576576709747,"80":-0.276868999004364,"81":0.878032386302948,"82":-2.981348752975464,"83":2.178438425064087,"84":-0.5080923438072205,"85":-0.29069700837135315,"86":0.8872401714324951,"87":1.293830156326294,"88":-1.065517544746399,"89":1.89119291305542,"90":1.1363170146942139,"91":0.1029612347483635,"92":0.06966308504343033,"93":0.01104752253741026,"94":-1.759905219078064,"95":-1.210206389427185,"96":-0.8484291434288025,"97":-0.1671314388513565,"98":-0.8665062785148621,"99":-0.49064481258392334,"100":-0.05495886504650116,"101":-0.02071135677397251,"102":-0.32992810010910034,"103":0.4473227560520172,"104":1.269287109375,"105":-0.05481771007180214,"106":0.1671249121427536,"107":-0.972045361995697,"108":1.1977624893188477,"109":0.3747885525226593,"110":-0.1982424557209015,"111":-1.6840823888778687,"112":0.9600111842155457,"113":-0.42301106452941895,"114":0.35325634479522705,"115":-0.9500694274902344,"116":-0.195103719830513,"117":-0.2538270354270935,"118":0.6467190384864807,"119":0.6594367027282715,"120":0.11999708414077759,"121":-1.7450709342956543,"122":-0.6720901131629944,"123":-1.167729139328003,"124":1.8777363300323486,"125":0.737598717212677,"126":4.898701190948486,"127":-0.5547916889190674,"128":-2.0412051677703857,"129":-1.9186689853668213,"130":-1.2586629390716553,"131":3.221191644668579,"132":-0.7164553999900818,"133":0.6943880319595337,"134":2.4866952896118164,"135":-0.4212566614151001,"136":-0.8297359943389893,"137":-0.6141179800033569,"138":0.36984139680862427,"139":-0.539696991443634,"140":-0.8300853967666626,"141":-0.26310938596725464,"142":-0.559662938117981,"143":2.4260964393615723,"144":-0.7864617705345154,"145":-0.4625023603439331,"146":-1.1427143812179565,"147":-1.0987151861190796,"148":-3.2981083393096924,"149":-2.119577407836914,"150":0.48032474517822266,"151":-0.5417838096618652,"152":1.6537889242172241,"153":2.143156051635742,"154":-0.06737005710601807,"155":0.5694466829299927,"156":2.4033219814300537,"157":1.236148715019226,"158":1.2965679168701172,"159":-0.7492148280143738,"160":2.659871816635132,"161":1.834352731704712,"162":0.3000384569168091,"163":0.7746893167495728,"164":-2.208064556121826,"165":1.629500389099121,"166":3.552065134048462,"167":-3.261247396469116,"168":1.4040652513504028,"169":0.47007086873054504,"170":0.6463538408279419,"171":1.0832082033157349,"172":-5.973377704620361,"173":1.3569813966751099,"174":-3.0813546180725098,"175":-0.8334167003631592,"176":-2.6013922691345215,"177":-0.04580969363451004,"178":1.2220368385314941,"179":-1.9146267175674438,"180":0.2540411055088043,"181":2.583421230316162,"182":-0.3209829032421112,"183":0.4207908511161804,"184":2.6408300399780273,"185":2.140735387802124,"186":-2.013619899749756,"187":-1.5243408679962158,"188":1.2587333917617798,"189":0.5391809940338135,"190":-3.0319929122924805,"191":1.424505352973938,"192":-3.5677740573883057,"193":-1.451287031173706,"194":-0.03895870968699455,"195":0.6617273688316345,"196":3.554335832595825,"197":-3.529630184173584,"198":0.04447293281555176,"199":0.1508324295282364,"200":4.786224842071533,"201":1.6565883159637451,"202":-1.878858208656311,"203":2.410339117050171,"204":-1.0502320528030396,"205":1.719464659690857,"206":0.3219429552555084,"207":0.8215265274047852,"208":-1.20920991897583,"209":-3.9754385948181152,"210":-0.3926241099834442,"211":-1.7794610261917114,"212":1.3706536293029785,"213":1.2969553470611572,"214":-0.10569915920495987,"215":-2.569788694381714,"216":2.9310357570648193,"217":0.14444242417812347,"218":-2.9327292442321777,"219":0.562061071395874,"220":-1.2267029285430908,"221":1.830678939819336,"222":0.562566876411438,"223":0.5539048910140991,"224":1.1725008487701416,"225":-1.8733834028244019,"226":-0.7865738272666931,"227":3.3934786319732666,"228":2.343254566192627,"229":3.3176863193511963,"230":-2.324958324432373,"231":-0.08054150640964508,"232":-1.3790035247802734,"233":-3.074228286743164,"234":-0.5483449101448059,"235":-0.22398298978805542,"236":4.516453266143799,"237":-1.3992303609848022,"238":-0.23525919020175934,"239":-1.4385044574737549,"240":1.6311253309249878,"241":2.417105197906494,"242":-0.5950506925582886,"243":0.35765179991722107,"244":-0.7695659399032593,"245":2.4403398036956787,"246":-0.6604702472686768,"247":0.5127936601638794,"248":-0.09252389520406723,"249":-0.3016366958618164,"250":1.452904224395752,"251":-0.8294692039489746,"252":-0.9905623197555542,"253":0.24514541029930115,"254":-1.3600056171417236,"255":1.2555662393569946,"256":0.7230960130691528,"257":0.6729435920715332,"258":-0.02271306701004505,"259":-0.9567021727561951,"260":-0.5734899640083313,"261":1.2037931680679321,"262":-1.302544116973877,"263":1.2879799604415894,"264":-0.12629547715187073,"265":0.5693691372871399,"266":1.2050879001617432,"267":0.1602221578359604,"268":-0.06662312150001526,"269":-3.007180690765381,"270":0.3173721134662628,"271":1.5508872270584106,"272":-0.2755320072174072,"273":-0.843136727809906,"274":2.908860206604004,"275":1.8024150133132935,"276":-1.218901515007019,"277":-0.9642611742019653,"278":0.3212774991989136,"279":-1.4000953435897827,"280":2.3658125400543213,"281":0.7909009456634521,"282":0.6185790300369263,"283":-0.46443483233451843,"284":0.34230393171310425,"285":2.0293352603912354,"286":2.579638719558716,"287":-0.6936783194541931,"288":-1.2299673557281494,"289":-0.9903086423873901,"290":1.1937198638916016,"291":0.3246186077594757,"292":-0.06139101833105087,"293":2.223970890045166,"294":-1.5160185098648071,"295":0.9779587388038635,"296":1.1101640462875366,"297":-0.03563569113612175,"298":0.9351474642753601,"299":-0.7834833860397339,"300":-2.2463014125823975,"301":-0.935718834400177,"302":-0.5466014742851257,"303":-1.2270504236221313,"304":0.18980111181735992,"305":-0.3165634870529175,"306":3.7795069217681885,"307":0.4630027115345001,"308":-0.5992660522460938,"309":-0.932360053062439,"310":1.4895507097244263,"311":-0.31096529960632324,"312":1.8888393640518188,"313":-0.42963001132011414,"314":-1.4290870428085327,"315":-0.6638336777687073,"316":0.7046962380409241,"317":-0.4108773171901703,"318":0.5512617826461792,"319":-1.5943818092346191,"320":-0.6400883793830872,"321":0.9264905452728271,"322":0.22753818333148956,"323":1.5123331546783447,"324":-1.4193146228790283,"325":0.8506571054458618,"326":-3.7974629402160645,"327":0.07388797402381897,"328":0.4727478623390198,"329":-0.6709468960762024,"330":3.055391788482666,"331":3.204098701477051,"332":-0.18316063284873962,"333":0.6616805195808411,"334":-0.6702813506126404,"335":0.004771169740706682,"336":-2.6367883682250977,"337":-0.9332005977630615,"338":0.1757248193025589,"339":0.10914365947246552,"340":-0.49646326899528503,"341":-1.337739109992981,"342":-1.4218353033065796,"343":2.4551589488983154,"344":0.9167002439498901,"345":-1.5940924882888794,"346":-3.78633975982666,"347":2.520090341567993,"348":1.662338376045227,"349":-0.02110249549150467,"350":-1.9005217552185059,"351":-3.316837787628174,"352":2.3667705059051514,"353":-3.2235805988311768,"354":4.857071399688721,"355":-3.2063186168670654,"356":2.65356707572937,"357":0.06800176948308945,"358":-0.04200978949666023,"359":3.048765182495117,"360":2.0499565601348877,"361":0.6297652125358582,"362":-2.091259241104126,"363":-1.0562472343444824,"364":-1.5197603702545166,"365":0.5586205124855042,"366":1.318670630455017,"367":-0.6285342574119568,"368":-2.582339286804199,"369":0.586752712726593,"370":0.6263001561164856,"371":-0.2396775633096695,"372":0.7199004292488098,"373":-0.99510657787323,"374":0.8432071805000305,"375":0.4005175232887268,"376":0.1711692214012146,"377":0.04770806059241295,"378":0.22030524909496307,"379":-0.20584458112716675,"380":0.16459804773330688,"381":0.5896016955375671,"382":0.9467164874076843,"383":-1.3048774003982544,"384":0.3419401943683624,"385":0.8227395415306091,"386":4.209144592285156,"387":-0.4384825825691223,"388":1.1898624897003174,"389":3.326622724533081,"390":-4.1908040046691895,"391":-1.991146445274353,"392":1.4119782447814941,"393":-3.207615375518799,"394":4.108119010925293,"395":1.135851502418518,"396":0.19001565873622894,"397":2.524951934814453,"398":3.580561399459839,"399":1.3439489603042603,"400":-2.740921974182129,"401":-2.851715087890625,"402":2.615861415863037,"403":0.17592740058898926,"404":-1.6271413564682007,"405":-1.7985413074493408,"406":1.3731942176818848,"407":0.20422226190567017,"408":0.739047110080719,"409":-2.776550054550171,"410":-0.07579468190670013,"411":-0.37574031949043274,"412":4.4677252769470215,"413":-0.9285735487937927,"414":1.1366297006607056,"415":0.49064838886260986,"416":-4.311247825622559,"417":0.6040095686912537,"418":1.4351540803909302,"419":-0.7435048818588257,"420":-0.9833918213844299,"421":-1.1420730352401733,"422":1.0970386266708374,"423":-1.8725905418395996,"424":0.28817591071128845,"425":-2.3422183990478516,"426":3.429691791534424,"427":0.30092206597328186,"428":-5.571937561035156,"429":1.1496480703353882,"430":-2.857656955718994,"431":-1.855756402015686,"432":0.04926067590713501,"433":0.6260413527488708,"434":3.477842092514038,"435":-0.8198828101158142,"436":0.8601731061935425,"437":0.584977388381958,"438":3.620331048965454,"439":-0.024417545646429062,"440":0.1270674467086792,"441":-0.31511566042900085,"442":-1.1907497644424438,"443":-1.638323187828064,"444":0.4018946886062622,"445":0.5556461811065674,"446":-0.37345170974731445,"447":-1.6612282991409302,"448":-1.111392855644226,"449":-1.0235233306884766,"450":-0.6549167037010193,"451":-2.3333828449249268,"452":-0.06433357298374176,"453":-1.6180169582366943,"454":-2.7382328510284424,"455":-1.367578387260437,"456":-0.18086665868759155,"457":-0.7165221571922302,"458":-1.8796064853668213,"459":0.6805503368377686,"460":1.0979597568511963,"461":0.9807664155960083,"462":2.425016164779663,"463":-2.066617250442505,"464":-0.5925032496452332,"465":2.2435624599456787,"466":0.4726617634296417,"467":-1.993635892868042,"468":0.3178054690361023,"469":-0.1626550853252411,"470":-0.46959757804870605,"471":2.709977149963379,"472":-0.43797364830970764,"473":2.0589616298675537,"474":-5.712246894836426,"475":1.330765724182129,"476":1.2208495140075684,"477":1.2449699640274048,"478":-1.3745661973953247,"479":0.11219513416290283,"480":0.01624848134815693,"481":-2.4816689491271973,"482":-0.9972568154335022,"483":-1.2842528820037842,"484":-1.87909996509552,"485":-1.0774537324905396,"486":0.4486739933490753,"487":-1.2381142377853394,"488":-1.1888227462768555,"489":0.8266996145248413,"490":3.7695043087005615,"491":-1.4955499172210693,"492":0.45043087005615234,"493":-2.241231679916382,"494":2.2818708419799805,"495":-1.449934959411621,"496":1.7208044528961182,"497":-3.8991730213165283,"498":-0.8665287494659424,"499":-0.3162507712841034,"500":-1.6540766954421997,"501":1.7442365884780884,"502":2.185116767883301,"503":-1.3048319816589355,"504":-2.82716965675354,"505":0.580299437046051,"506":-1.930966854095459,"507":1.3005791902542114,"508":-1.1839483976364136,"509":-0.2501145601272583,"510":2.9572947025299072,"511":0.77158123254776,"512":1.2956318855285645,"513":0.9798148274421692,"514":2.8578522205352783,"515":0.5115612745285034,"516":1.1356016397476196,"517":1.9878904819488525,"518":1.3187141418457031,"519":-1.8042017221450806,"520":-0.5388340353965759,"521":-1.9899455308914185,"522":-0.8177986145019531,"523":0.8683252930641174,"524":-1.5512287616729736,"525":0.9703935384750366,"526":-0.7317029237747192,"527":2.1547508239746094,"528":-2.736943244934082,"529":0.4749838411808014,"530":0.01624607853591442,"531":-0.7677900791168213,"532":1.869282841682434,"533":-2.2412519454956055,"534":1.9876809120178223,"535":-1.8140183687210083,"536":0.6168182492256165,"537":-1.13140869140625,"538":0.5188711285591125,"539":2.9291765689849854,"540":4.902778625488281,"541":1.7666347026824951,"542":1.7611702680587769,"543":1.6658412218093872,"544":-0.4914913475513458,"545":2.370227098464966,"546":0.45912808179855347,"547":-0.5465764999389648,"548":0.20380115509033203,"549":0.7945382595062256,"550":3.1666064262390137,"551":-0.14985865354537964,"552":0.09358560293912888,"553":0.07134787738323212,"554":-1.7011209726333618,"555":3.853192090988159,"556":-0.6826273798942566,"557":2.3862128257751465,"558":-0.26457104086875916,"559":0.2803310453891754,"560":1.4170986413955688,"561":-2.075683832168579,"562":-1.5047168731689453,"563":-0.7434352040290833,"564":0.539826512336731,"565":-0.6645673513412476,"566":7.78942346572876,"567":-0.9164304137229919,"568":1.4862878322601318,"569":-0.28911101818084717,"570":7.378475189208984,"571":2.2097694873809814,"572":-2.041593551635742,"573":-0.8042033314704895,"574":-0.5370675921440125,"575":0.954841136932373,"576":-0.16653235256671906,"577":-0.6855418086051941,"578":-0.47805890440940857,"579":3.0873043537139893,"580":3.3439133167266846,"581":1.006084680557251,"582":0.33866432309150696,"583":-3.4176502227783203,"584":-1.6638258695602417,"585":3.0585715770721436,"586":-0.3360048234462738,"587":2.191964626312256,"588":0.44750747084617615,"589":1.0002332925796509,"590":2.2134227752685547,"591":0.6093345284461975,"592":0.8472403883934021,"593":-0.22354131937026978,"594":2.0392534732818604,"595":2.4061365127563477,"596":7.6757001876831055,"597":-1.740946888923645,"598":3.426405906677246,"599":-0.5335656404495239}},"inputHidden":{"rows":20,"columns":20,"weights":{"0":0.45111653208732605,"1":0.3044466972351074,"2":-0.24157021939754486,"3":-1.6890366077423096,"4":0.042164456099271774,"5":0.259101539850235,"6":-2.815171003341675,"7":-0.9508242011070251,"8":-2.7693679332733154,"9":-0.23447641730308533,"10":4.043379783630371,"11":0.29968172311782837,"12":0.3946074843406677,"13":-5.257289409637451,"14":-0.07217402011156082,"15":-0.17794176936149597,"16":-0.5811811685562134,"17":-1.8176496028900146,"18":-0.7720704078674316,"19":0.5576346516609192,"20":4.1277756690979,"21":0.6196697950363159,"22":-1.4603923559188843,"23":10.85882568359375,"24":-1.540324091911316,"25":-1.2321515083312988,"26":2.917724609375,"27":-1.0905752182006836,"28":-0.7363260388374329,"29":-1.1437170505523682,"30":2.9457497596740723,"31":-1.1344352960586548,"32":-2.945354700088501,"33":-0.8235958814620972,"34":0.10778927803039551,"35":1.658447027206421,"36":0.5452947020530701,"37":-3.322584867477417,"38":-1.2197070121765137,"39":0.9920176863670349,"40":-3.127079725265503,"41":4.592929840087891,"42":0.9751193523406982,"43":-1.095272421836853,"44":2.7653517723083496,"45":-2.3988099098205566,"46":-0.002402864396572113,"47":-3.9055144786834717,"48":11.263178825378418,"49":-6.52004337310791,"50":5.2452392578125,"51":1.3387892246246338,"52":-6.093221187591553,"53":8.638343811035156,"54":-0.9347478151321411,"55":-7.90757942199707,"56":-0.048869721591472626,"57":3.64866304397583,"58":-3.1902618408203125,"59":-3.311685800552368,"60":2.500387191772461,"61":4.358770370483398,"62":-2.5201990604400635,"63":5.990694046020508,"64":-3.0899908542633057,"65":1.379017949104309,"66":15.52096176147461,"67":-3.138413667678833,"68":4.038845539093018,"69":-1.5189552307128906,"70":3.5835185050964355,"71":-4.290673732757568,"72":13.111515998840332,"73":2.123741626739502,"74":-7.671726703643799,"75":-12.564764022827148,"76":-4.447266101837158,"77":-1.9036750793457031,"78":0.0895414650440216,"79":3.655022144317627,"80":-2.5585899353027344,"81":3.371816873550415,"82":2.1588873863220215,"83":-1.559303879737854,"84":-5.385143280029297,"85":10.500373840332031,"86":3.334028720855713,"87":2.6985251903533936,"88":0.8379035592079163,"89":-6.362737655639648,"90":-0.10645315796136856,"91":3.323507308959961,"92":-0.8089725375175476,"93":-5.749194145202637,"94":2.7309250831604004,"95":-2.4864509105682373,"96":-2.8416755199432373,"97":-0.3237091600894928,"98":-3.192664623260498,"99":-1.7295377254486084,"100":3.5619325637817383,"101":1.903320550918579,"102":-3.781498432159424,"103":4.399816513061523,"104":-1.491647720336914,"105":-0.8104390501976013,"106":3.1816036701202393,"107":-4.539941787719727,"108":-0.033343952149152756,"109":2.354708194732666,"110":-4.158649444580078,"111":4.021770477294922,"112":-1.220035433769226,"113":0.4847691059112549,"114":4.208311557769775,"115":2.060336112976074,"116":-2.2982449531555176,"117":-5.9113593101501465,"118":1.9087584018707275,"119":-2.245515823364258,"120":-1.6313509941101074,"121":0.9570440053939819,"122":1.0294013023376465,"123":-2.472885847091675,"124":2.865875005722046,"125":-2.725584030151367,"126":-1.2493982315063477,"127":-3.403228282928467,"128":0.6165692210197449,"129":-1.6820164918899536,"130":-6.221372127532959,"131":2.6133875846862793,"132":0.4552663266658783,"133":9.504164695739746,"134":-0.24193593859672546,"135":-0.7620692849159241,"136":-2.297088623046875,"137":-0.2233750969171524,"138":-1.9558436870574951,"139":1.4328763484954834,"140":1.6590368747711182,"141":3.220224142074585,"142":2.5649116039276123,"143":1.6098012924194336,"144":1.1374773979187012,"145":-3.4035396575927734,"146":-1.7311456203460693,"147":-0.710076630115509,"148":-0.8425164222717285,"149":-4.392996788024902,"150":0.5943810343742371,"151":1.565765380859375,"152":-2.4354465007781982,"153":-2.2593698501586914,"154":-2.7717766761779785,"155":3.0073158740997314,"156":0.28648841381073,"157":4.055267333984375,"158":-0.7982532382011414,"159":-0.5523391962051392,"160":1.8951975107192993,"161":-13.37497615814209,"162":-3.5014801025390625,"163":-4.540472984313965,"164":1.1977300643920898,"165":-4.347321510314941,"166":-2.6446914672851562,"167":6.792276382446289,"168":-7.796193599700928,"169":-10.232836723327637,"170":0.736429750919342,"171":6.455697059631348,"172":-6.671953201293945,"173":-4.432631492614746,"174":0.3235471248626709,"175":-6.312894344329834,"176":8.978948593139648,"177":-7.259183883666992,"178":9.686539649963379,"179":-0.6116960048675537,"180":-7.023455619812012,"181":3.1657187938690186,"182":2.6368730068206787,"183":2.2791454792022705,"184":-3.09329891204834,"185":2.108377695083618,"186":7.488502025604248,"187":2.219106912612915,"188":-6.046643257141113,"189":-1.3217432498931885,"190":-0.8106789588928223,"191":9.26711368560791,"192":-5.231237411499023,"193":6.476036071777344,"194":-3.3513832092285156,"195":2.45320200920105,"196":1.4813097715377808,"197":4.409841537475586,"198":1.0723917484283447,"199":1.361755609512329,"200":2.3175110816955566,"201":-7.229122638702393,"202":-3.1042873859405518,"203":6.541635036468506,"204":3.2870900630950928,"205":-0.44571781158447266,"206":5.29014778137207,"207":-10.550628662109375,"208":-3.0462334156036377,"209":5.552152156829834,"210":-9.295331954956055,"211":-3.1248931884765625,"212":-0.24650439620018005,"213":-3.878218650817871,"214":0.8496315479278564,"215":4.082052230834961,"216":3.9765079021453857,"217":-10.011295318603516,"218":-3.7675459384918213,"219":4.287928104400635,"220":-1.2792410850524902,"221":-5.411975860595703,"222":4.018404006958008,"223":0.9092636108398438,"224":2.4520103931427,"225":-0.8462552428245544,"226":-1.8405429124832153,"227":0.20155876874923706,"228":2.565824270248413,"229":-0.7388429045677185,"230":1.4601731300354004,"231":1.6286042928695679,"232":-4.487832069396973,"233":0.9394793510437012,"234":-4.354294300079346,"235":-1.3910335302352905,"236":-3.797419786453247,"237":1.6760051250457764,"238":3.263469696044922,"239":2.4276328086853027,"240":3.1006603240966797,"241":8.925814628601074,"242":4.2466535568237305,"243":-1.0665645599365234,"244":-2.3598365783691406,"245":-2.1504321098327637,"246":5.363827228546143,"247":-0.22064803540706635,"248":-0.7086490988731384,"249":-2.5772247314453125,"250":-5.1616973876953125,"251":-3.3252675533294678,"252":8.90554141998291,"253":-7.175364971160889,"254":-6.125354290008545,"255":2.0685207843780518,"256":-0.7156127691268921,"257":-2.3147051334381104,"258":-4.453851222991943,"259":7.224725246429443,"260":4.3047356605529785,"261":-0.4461139142513275,"262":-1.3886717557907104,"263":-6.658599853515625,"264":6.9366254806518555,"265":4.016635417938232,"266":-0.436988890171051,"267":-2.4797027111053467,"268":-5.2764892578125,"269":3.3123271465301514,"270":5.11789608001709,"271":-4.968245506286621,"272":1.560752272605896,"273":-1.9361151456832886,"274":1.7261216640472412,"275":0.6299035549163818,"276":-3.9364852905273438,"277":2.683119058609009,"278":2.1282026767730713,"279":-3.4239017963409424,"280":2.3916192054748535,"281":-3.870518445968628,"282":2.559753894805908,"283":1.2887825965881348,"284":1.8537451028823853,"285":-0.41344180703163147,"286":-2.964735269546509,"287":-0.47547638416290283,"288":-0.8644166588783264,"289":-5.186707973480225,"290":2.074496269226074,"291":3.879145383834839,"292":1.6457680463790894,"293":-3.746821880340576,"294":-1.6089352369308472,"295":1.1037263870239258,"296":2.9858970642089844,"297":-0.9062509536743164,"298":-1.6832828521728516,"299":2.1783337593078613,"300":3.929847478866577,"301":-0.6391516923904419,"302":-2.3121752738952637,"303":-3.9435062408447266,"304":1.4315868616104126,"305":-5.900295257568359,"306":4.947892665863037,"307":-2.000562906265259,"308":-0.5764642357826233,"309":2.0146989822387695,"310":2.844010829925537,"311":-0.07269615679979324,"312":-1.4703933000564575,"313":-2.501194715499878,"314":2.7152066230773926,"315":-0.8526799082756042,"316":5.600324630737305,"317":0.025645142421126366,"318":6.30572509765625,"319":-3.0350310802459717,"320":-1.2084475755691528,"321":0.2077324390411377,"322":1.202359676361084,"323":-1.530613899230957,"324":-0.022269675508141518,"325":-1.6995832920074463,"326":-0.6510070562362671,"327":1.6719807386398315,"328":1.7301124334335327,"329":-0.3520295321941376,"330":6.119072437286377,"331":-1.0639328956604004,"332":0.6353134512901306,"333":1.233610987663269,"334":0.20638641715049744,"335":-1.2755824327468872,"336":-1.4401341676712036,"337":0.8364136815071106,"338":0.25513502955436707,"339":1.664528250694275,"340":-0.3148171901702881,"341":-2.1852447986602783,"342":2.313735008239746,"343":2.4027764797210693,"344":-0.12537725269794464,"345":-1.4566130638122559,"346":0.2631188631057739,"347":1.3261476755142212,"348":4.939943790435791,"349":2.752789258956909,"350":3.5486886501312256,"351":-0.9008113741874695,"352":0.25543370842933655,"353":4.945634841918945,"354":-3.6345653533935547,"355":-1.824130654335022,"356":-0.8816211223602295,"357":-0.5525814890861511,"358":-3.3420345783233643,"359":5.491854190826416,"360":6.8053998947143555,"361":0.2174365371465683,"362":-4.766982078552246,"363":6.755024433135986,"364":0.9722902774810791,"365":-1.386797308921814,"366":-0.5925578474998474,"367":0.307127982378006,"368":-2.9172983169555664,"369":3.4625399112701416,"370":-0.42292603850364685,"371":-3.251112461090088,"372":-10.488419532775879,"373":1.1232924461364746,"374":-1.89414381980896,"375":3.6623852252960205,"376":6.548880100250244,"377":-2.268787384033203,"378":-0.005232442636042833,"379":-0.3364991545677185,"380":2.023033618927002,"381":-1.6293491125106812,"382":-6.465813159942627,"383":-6.36108922958374,"384":1.6912999153137207,"385":-1.5857305526733398,"386":-4.066832542419434,"387":3.3435938358306885,"388":-0.20352745056152344,"389":1.17495596408844,"390":1.115265130996704,"391":0.3324120342731476,"392":-0.5341635346412659,"393":4.39442253112793,"394":2.395707845687866,"395":-2.6200411319732666,"396":2.4620790481567383,"397":-0.3930942714214325,"398":1.702139139175415,"399":-2.436157464981079}},"inputBias":{"rows":20,"columns":1,"weights":{"0":-1.0547021627426147,"1":-1.7104032039642334,"2":0.4966687858104706,"3":3.351558208465576,"4":0.35370561480522156,"5":0.04195128753781319,"6":-0.45869848132133484,"7":0.1161157637834549,"8":-1.3298063278198242,"9":1.6901798248291016,"10":-0.13748714327812195,"11":-0.6925089359283447,"12":-0.3563816249370575,"13":-0.5410271883010864,"14":-0.41873472929000854,"15":-0.7042362093925476,"16":0.7947644591331482,"17":-0.3507640063762665,"18":0.15411558747291565,"19":0.5749163627624512}},"forgetMatrix":{"rows":20,"columns":30,"weights":{"0":-0.14068782329559326,"1":0.8824588656425476,"2":-0.05962468311190605,"3":-0.569545328617096,"4":1.3878188133239746,"5":0.6584669947624207,"6":-2.0856516361236572,"7":3.8710272312164307,"8":2.1751818656921387,"9":-0.9835267663002014,"10":1.2820369005203247,"11":1.2553819417953491,"12":-1.7453163862228394,"13":2.5024831295013428,"14":-2.630082368850708,"15":3.6998751163482666,"16":0.5489517450332642,"17":-1.6860424280166626,"18":-0.768648087978363,"19":-1.7375497817993164,"20":1.781481385231018,"21":-0.9639384746551514,"22":3.4203569889068604,"23":2.2149510383605957,"24":1.2696510553359985,"25":-3.820438861846924,"26":0.2747667133808136,"27":1.6648008823394775,"28":-2.5511670112609863,"29":2.3960020542144775,"30":0.9275187849998474,"31":-1.5228450298309326,"32":-1.4814870357513428,"33":-3.696579694747925,"34":0.7318599224090576,"35":1.057963490486145,"36":-2.4193365573883057,"37":-0.01567848026752472,"38":1.7719203233718872,"39":-0.04082129895687103,"40":2.1896302700042725,"41":0.41019123792648315,"42":2.6752448081970215,"43":-2.631438732147217,"44":-0.45759138464927673,"45":0.5510895252227783,"46":2.3455147743225098,"47":-2.23565936088562,"48":-2.7984795570373535,"49":-1.570928692817688,"50":0.950566291809082,"51":0.6085424423217773,"52":-0.20117288827896118,"53":1.1183747053146362,"54":-0.15760864317417145,"55":-0.6139848828315735,"56":-2.0537302494049072,"57":0.23102237284183502,"58":-0.532658576965332,"59":4.195474624633789,"60":1.2737840414047241,"61":0.9737318754196167,"62":-0.21458859741687775,"63":-0.2623995542526245,"64":0.1905893087387085,"65":1.2192469835281372,"66":0.22713305056095123,"67":1.194610357284546,"68":2.0160751342773438,"69":-1.7812349796295166,"70":0.5806170105934143,"71":0.0017940824618563056,"72":-2.524494171142578,"73":2.0123705863952637,"74":-2.187027931213379,"75":0.32824331521987915,"76":1.5274921655654907,"77":0.08014123141765594,"78":-0.6707220673561096,"79":-0.4750097095966339,"80":0.5750380158424377,"81":1.288101077079773,"82":-0.38850927352905273,"83":-1.1393359899520874,"84":0.9930635690689087,"85":0.1992281824350357,"86":-2.1981048583984375,"87":0.8580294251441956,"88":-1.6899693012237549,"89":0.8268696665763855,"90":-3.771183490753174,"91":0.43806689977645874,"92":0.5654346942901611,"93":0.2504325211048126,"94":-0.35651665925979614,"95":-3.2490978240966797,"96":-2.350862741470337,"97":1.7727638483047485,"98":0.7855963706970215,"99":-2.6046955585479736,"100":0.22373248636722565,"101":0.903359591960907,"102":-0.09376363456249237,"103":0.6977000832557678,"104":-1.6388245820999146,"105":-0.5406437516212463,"106":-1.0600450038909912,"107":-0.5993828177452087,"108":-0.4945436418056488,"109":1.02915358543396,"110":0.33484798669815063,"111":0.9701049327850342,"112":3.0935025215148926,"113":-1.6668840646743774,"114":1.1229196786880493,"115":0.44231846928596497,"116":-3.2565951347351074,"117":1.3139238357543945,"118":-0.9388813376426697,"119":2.9994871616363525,"120":-1.1023317575454712,"121":-1.09811532497406,"122":-2.316054582595825,"123":-1.2443785667419434,"124":-1.3216605186462402,"125":-0.9517175555229187,"126":4.530513286590576,"127":0.09427373856306076,"128":-3.0963258743286133,"129":1.1702094078063965,"130":-1.2998173236846924,"131":-0.5191926956176758,"132":-1.948157787322998,"133":0.8586716055870056,"134":1.9825661182403564,"135":-5.349669456481934,"136":-1.4572153091430664,"137":1.9126859903335571,"138":1.9753012657165527,"139":0.38987067341804504,"140":-1.4981261491775513,"141":2.1635422706604004,"142":1.3928875923156738,"143":-0.8383236527442932,"144":-1.53164803981781,"145":2.0976154804229736,"146":0.9778658151626587,"147":-0.7549395561218262,"148":-1.7025508880615234,"149":0.169022798538208,"150":-3.307847023010254,"151":-0.10660997778177261,"152":-0.06978145241737366,"153":0.6769645810127258,"154":-1.7937647104263306,"155":-2.126094102859497,"156":2.0062050819396973,"157":-0.7976187467575073,"158":-0.6693339347839355,"159":-1.6074512004852295,"160":-0.7347174286842346,"161":1.7903718948364258,"162":0.5864863395690918,"163":0.15495774149894714,"164":0.9250731468200684,"165":0.17720898985862732,"166":2.682441473007202,"167":-3.4801456928253174,"168":0.8038562536239624,"169":0.6387967467308044,"170":1.102175235748291,"171":0.8830018639564514,"172":-1.0831555128097534,"173":-0.5857603549957275,"174":-2.5349884033203125,"175":2.254591226577759,"176":-3.335230588912964,"177":2.3732142448425293,"178":-1.433826208114624,"179":-0.9001259803771973,"180":-0.4229792654514313,"181":-1.1193525791168213,"182":0.17571023106575012,"183":-2.4864890575408936,"184":0.13951557874679565,"185":1.9115186929702759,"186":1.8103210926055908,"187":1.92048978805542,"188":0.2838212251663208,"189":-1.9793041944503784,"190":3.521718978881836,"191":-2.0989882946014404,"192":-0.9044484496116638,"193":-0.5784440040588379,"194":-1.2863340377807617,"195":-0.5623123049736023,"196":-1.2409987449645996,"197":2.716472864151001,"198":0.45016351342201233,"199":-2.365703582763672,"200":-2.8173861503601074,"201":0.49602222442626953,"202":-1.2895922660827637,"203":3.4367082118988037,"204":-0.30852797627449036,"205":2.1958415508270264,"206":-0.6153746247291565,"207":1.5438563823699951,"208":-0.2580120265483856,"209":-0.31882983446121216,"210":3.6841580867767334,"211":-0.8115460276603699,"212":1.38167142868042,"213":-1.370634913444519,"214":-3.1555707454681396,"215":-1.5948290824890137,"216":-0.26420167088508606,"217":-1.1493449211120605,"218":-0.5750780701637268,"219":2.6189703941345215,"220":-0.578798234462738,"221":1.353533387184143,"222":0.2241322547197342,"223":0.9710901975631714,"224":1.5643327236175537,"225":0.16480860114097595,"226":-0.5742901563644409,"227":1.3046976327896118,"228":1.1056733131408691,"229":1.845098853111267,"230":-1.012731671333313,"231":-0.8814030289649963,"232":-1.8240569829940796,"233":-1.606163740158081,"234":-0.226764976978302,"235":-1.7716745138168335,"236":0.6411032676696777,"237":-1.6174836158752441,"238":-0.4268065392971039,"239":1.5410194396972656,"240":-2.9861857891082764,"241":-0.9213301539421082,"242":2.026453971862793,"243":0.3079104721546173,"244":-2.418445110321045,"245":-6.554831027984619,"246":2.4064040184020996,"247":-1.5837029218673706,"248":-2.2217178344726562,"249":4.305904865264893,"250":-0.8921749591827393,"251":-1.011392593383789,"252":1.9364445209503174,"253":-0.4500942826271057,"254":4.339160442352295,"255":-4.164548397064209,"256":0.06585738062858582,"257":2.142476797103882,"258":2.5152699947357178,"259":1.0598288774490356,"260":-0.08701687306165695,"261":-1.0244128704071045,"262":3.873121976852417,"263":-6.605790615081787,"264":0.39848488569259644,"265":-1.8018760681152344,"266":3.740450382232666,"267":-1.133266568183899,"268":-0.03560590371489525,"269":2.985203504562378,"270":-4.737412452697754,"271":-0.658952534198761,"272":-0.056535594165325165,"273":-3.1244962215423584,"274":0.15046913921833038,"275":1.7585585117340088,"276":0.12322183698415756,"277":1.4723691940307617,"278":1.3840919733047485,"279":-1.6759098768234253,"280":-2.472228527069092,"281":-1.906831979751587,"282":0.6265195608139038,"283":1.88308846950531,"284":-1.0680631399154663,"285":-0.15394091606140137,"286":-1.5232172012329102,"287":-0.4507810175418854,"288":-0.17515961825847626,"289":-0.35922303795814514,"290":-0.7900353670120239,"291":-0.8558605313301086,"292":-1.4011728763580322,"293":1.041921854019165,"294":-0.7814727425575256,"295":-0.5036189556121826,"296":-5.447108745574951,"297":0.05908790975809097,"298":-0.9640516042709351,"299":0.7272660732269287,"300":2.0447542667388916,"301":-1.5360502004623413,"302":-0.5563673973083496,"303":-1.111531138420105,"304":0.9509539008140564,"305":5.727147579193115,"306":-1.988552212715149,"307":-0.7286127805709839,"308":-0.4738658368587494,"309":-0.8105003237724304,"310":2.8159778118133545,"311":2.3546078205108643,"312":1.5194504261016846,"313":-2.014063835144043,"314":-1.6234545707702637,"315":1.7022802829742432,"316":-1.4299763441085815,"317":-3.62850022315979,"318":-2.3201913833618164,"319":-0.6608805060386658,"320":0.5025522112846375,"321":-0.16012942790985107,"322":-2.173154354095459,"323":1.3001646995544434,"324":2.1405932903289795,"325":-0.7092795968055725,"326":-1.1019189357757568,"327":0.19047121703624725,"328":1.9445769786834717,"329":4.783345699310303,"330":-2.24910831451416,"331":-0.8582674264907837,"332":0.08899795264005661,"333":-1.0866750478744507,"334":-1.0180174112319946,"335":-3.319793462753296,"336":1.2943297624588013,"337":-0.25124287605285645,"338":-1.8164491653442383,"339":-1.1081494092941284,"340":2.597726345062256,"341":2.205688953399658,"342":1.3536665439605713,"343":-0.9817057251930237,"344":1.8619599342346191,"345":-3.0049171447753906,"346":2.437717914581299,"347":-0.628720223903656,"348":1.1220378875732422,"349":-0.022726843133568764,"350":-1.458438515663147,"351":3.0497913360595703,"352":3.0419092178344727,"353":1.700862169265747,"354":-0.9984008073806763,"355":-0.2745886743068695,"356":-0.1293928623199463,"357":0.6304108500480652,"358":-2.699251651763916,"359":-2.092801809310913,"360":-3.591397523880005,"361":-3.836876392364502,"362":0.8563713431358337,"363":-0.5338277220726013,"364":-0.5896180868148804,"365":-4.13877534866333,"366":-1.6189987659454346,"367":-1.431380033493042,"368":-0.42176690697669983,"369":0.6810961961746216,"370":-2.712834119796753,"371":0.5757893919944763,"372":2.115752696990967,"373":-0.8473397493362427,"374":2.4163498878479004,"375":-3.39509916305542,"376":3.3069472312927246,"377":-3.742449998855591,"378":2.018446207046509,"379":-0.34302568435668945,"380":0.7389867901802063,"381":-1.0949633121490479,"382":3.86352801322937,"383":1.2347097396850586,"384":-0.36740294098854065,"385":-0.48643025755882263,"386":-4.903408527374268,"387":2.4095935821533203,"388":0.09906233102083206,"389":-0.5831542611122131,"390":-0.6788622736930847,"391":-0.7513977289199829,"392":-1.6788890361785889,"393":3.577969551086426,"394":1.417184591293335,"395":-1.6074700355529785,"396":-4.105233669281006,"397":-0.35035356879234314,"398":-0.39444684982299805,"399":-3.1328861713409424,"400":0.6272974014282227,"401":0.24751023948192596,"402":-1.473252773284912,"403":0.5460776090621948,"404":-0.009167053736746311,"405":0.08833733201026917,"406":-0.017553003504872322,"407":1.8914949893951416,"408":-1.7642861604690552,"409":-3.069302797317505,"410":0.05005868896842003,"411":-0.5936794877052307,"412":4.941805362701416,"413":-0.39448025822639465,"414":3.4566397666931152,"415":0.6290674209594727,"416":0.6688002347946167,"417":2.7957308292388916,"418":1.2754958868026733,"419":-1.7873963117599487,"420":-3.848302125930786,"421":0.671659529209137,"422":-0.6715887784957886,"423":0.7562476992607117,"424":3.6546647548675537,"425":-0.2151223123073578,"426":3.257429599761963,"427":-0.7377540469169617,"428":2.167146921157837,"429":-0.8540660738945007,"430":0.2562081515789032,"431":3.642925500869751,"432":-1.8743312358856201,"433":0.22727364301681519,"434":-0.5955341458320618,"435":2.6312448978424072,"436":1.1223134994506836,"437":-0.3488346338272095,"438":0.9914893507957458,"439":0.38243716955184937,"440":-0.05820658802986145,"441":4.528705596923828,"442":0.4277666509151459,"443":3.1801507472991943,"444":-1.0813270807266235,"445":1.4589842557907104,"446":-2.220353603363037,"447":1.7813243865966797,"448":0.6774242520332336,"449":-3.768188714981079,"450":-1.6304038763046265,"451":-0.44611063599586487,"452":-1.824026346206665,"453":-0.5250903367996216,"454":0.6089001893997192,"455":3.760531425476074,"456":2.1265060901641846,"457":3.162572145462036,"458":0.6523258686065674,"459":-1.9483692646026611,"460":1.2499303817749023,"461":-2.385028600692749,"462":-1.1206978559494019,"463":-1.2738385200500488,"464":-1.7929452657699585,"465":0.0577719621360302,"466":2.5235540866851807,"467":2.004622459411621,"468":0.3051980137825012,"469":-0.7604507803916931,"470":-3.684338092803955,"471":1.4498260021209717,"472":-1.9355543851852417,"473":3.8093743324279785,"474":-2.2403132915496826,"475":1.5760376453399658,"476":-1.7486133575439453,"477":-0.3127163350582123,"478":-0.48856446146965027,"479":-1.034173607826233,"480":0.15394334495067596,"481":1.4813592433929443,"482":0.8336739540100098,"483":3.6090433597564697,"484":1.4916023015975952,"485":2.6282479763031006,"486":-0.6908227801322937,"487":1.2236512899398804,"488":2.5616137981414795,"489":-1.7837210893630981,"490":1.4423925876617432,"491":-0.940672755241394,"492":-0.954412043094635,"493":-0.16607491672039032,"494":-1.3767646551132202,"495":1.4768080711364746,"496":-1.5235291719436646,"497":-1.1043462753295898,"498":-2.837139368057251,"499":-2.0615570545196533,"500":-0.34005308151245117,"501":-1.3169424533843994,"502":-2.9492225646972656,"503":-0.3665619492530823,"504":1.200700283050537,"505":0.7017225027084351,"506":-1.109514832496643,"507":1.5513966083526611,"508":0.46973884105682373,"509":-0.7212243676185608,"510":2.013674020767212,"511":2.6875483989715576,"512":0.27917441725730896,"513":0.7960226535797119,"514":2.185055732727051,"515":1.2863043546676636,"516":-3.1087896823883057,"517":-0.6038656234741211,"518":2.8194000720977783,"519":1.4742299318313599,"520":-0.6457536220550537,"521":-1.3185653686523438,"522":-0.8003088235855103,"523":-1.0448015928268433,"524":-2.249037265777588,"525":0.7917864918708801,"526":-1.0849390029907227,"527":-1.0035964250564575,"528":-2.2293851375579834,"529":-1.7129123210906982,"530":2.4037976264953613,"531":0.16680864989757538,"532":-0.6109851002693176,"533":0.7882857322692871,"534":1.0228856801986694,"535":-0.1223672479391098,"536":2.6510045528411865,"537":1.0315427780151367,"538":1.8262696266174316,"539":-1.5935648679733276,"540":-0.7197065949440002,"541":-0.3618083894252777,"542":-0.26735809445381165,"543":2.567944288253784,"544":0.1344689428806305,"545":0.5470590591430664,"546":-0.2682534158229828,"547":0.14007550477981567,"548":-0.6399965286254883,"549":-0.4249385595321655,"550":2.906160593032837,"551":-0.5552914142608643,"552":-0.21602849662303925,"553":-0.06779088079929352,"554":-0.9963477849960327,"555":1.003875970840454,"556":0.7080293297767639,"557":0.5738883018493652,"558":-0.4871732294559479,"559":-0.07706628739833832,"560":0.5581364035606384,"561":-1.2754169702529907,"562":-2.9326558113098145,"563":-1.950108528137207,"564":-1.4913499355316162,"565":-1.5709800720214844,"566":-0.17226280272006989,"567":-1.5799428224563599,"568":2.1796703338623047,"569":0.12751318514347076,"570":0.6939785480499268,"571":0.561810314655304,"572":3.3128154277801514,"573":0.9236020445823669,"574":-2.757056951522827,"575":-2.35261869430542,"576":1.198111891746521,"577":-0.2630927562713623,"578":-3.0656840801239014,"579":1.594815969467163,"580":-4.60036563873291,"581":-0.15119268000125885,"582":0.9596915245056152,"583":0.117721788585186,"584":-1.1564648151397705,"585":-0.339085191488266,"586":-0.7037544250488281,"587":1.1227772235870361,"588":1.955522060394287,"589":3.830091953277588,"590":-3.2569713592529297,"591":-0.7540246844291687,"592":-5.396455764770508,"593":-1.7051284313201904,"594":-1.7957311868667603,"595":-0.8119488954544067,"596":0.39715760946273804,"597":2.546018600463867,"598":-0.8582037091255188,"599":2.6581175327301025}},"forgetHidden":{"rows":20,"columns":20,"weights":{"0":-2.8096659183502197,"1":1.7451756000518799,"2":4.52311897277832,"3":2.7630059719085693,"4":0.8707341551780701,"5":-0.4382137060165405,"6":1.0808523893356323,"7":-0.42370060086250305,"8":1.2503286600112915,"9":-1.35468327999115,"10":0.3120935559272766,"11":-3.2684555053710938,"12":-3.078385353088379,"13":-2.167201042175293,"14":-2.551260232925415,"15":2.0654819011688232,"16":-0.6932978630065918,"17":1.08953058719635,"18":-1.9121098518371582,"19":3.3666253089904785,"20":-5.186822891235352,"21":0.3845610022544861,"22":4.253668785095215,"23":-2.9848947525024414,"24":-1.884110927581787,"25":1.0457969903945923,"26":2.289546489715576,"27":-0.4765244126319885,"28":2.2305407524108887,"29":1.368093729019165,"30":4.255741119384766,"31":0.5653809309005737,"32":0.16163752973079681,"33":-2.020482063293457,"34":-0.9934864640235901,"35":2.4890799522399902,"36":1.4009689092636108,"37":-2.514404058456421,"38":-0.8112198710441589,"39":2.2537457942962646,"40":-4.816582202911377,"41":-3.3596951961517334,"42":-2.357517957687378,"43":-7.045377254486084,"44":4.954857349395752,"45":-2.032534599304199,"46":-3.23408579826355,"47":-3.0682554244995117,"48":2.367366313934326,"49":-2.5747435092926025,"50":5.983747482299805,"51":4.85293436050415,"52":5.557647705078125,"53":-5.2494306564331055,"54":-6.771255016326904,"55":-9.991540908813477,"56":-9.061726570129395,"57":3.2998642921447754,"58":-4.712327480316162,"59":9.91421890258789,"60":2.9494845867156982,"61":3.0943820476531982,"62":-2.691574811935425,"63":-2.180305004119873,"64":3.9121758937835693,"65":-2.593259334564209,"66":0.054151665419340134,"67":-0.5954936742782593,"68":6.310049533843994,"69":3.417320728302002,"70":-0.45204442739486694,"71":-7.400789260864258,"72":-1.8114389181137085,"73":-7.465411186218262,"74":1.1198498010635376,"75":4.2662835121154785,"76":6.903550624847412,"77":3.0976803302764893,"78":-0.3157089352607727,"79":4.56782341003418,"80":-3.510145425796509,"81":-0.020671343430876732,"82":1.389878273010254,"83":-1.0927777290344238,"84":2.263939380645752,"85":0.4545612633228302,"86":-1.7088261842727661,"87":-5.1467390060424805,"88":-2.206271171569824,"89":3.416867256164551,"90":-1.1688274145126343,"91":0.559786856174469,"92":3.392352819442749,"93":10.677979469299316,"94":-1.1352335214614868,"95":-1.4293794631958008,"96":-0.3939540386199951,"97":-1.8933733701705933,"98":-2.715468406677246,"99":-1.2869858741760254,"100":-1.349503993988037,"101":1.130700945854187,"102":2.7856216430664062,"103":2.564281463623047,"104":-8.138873100280762,"105":-3.2074036598205566,"106":1.3883007764816284,"107":-6.112463474273682,"108":2.007124185562134,"109":-10.974608421325684,"110":1.8962477445602417,"111":1.3337339162826538,"112":1.4594056606292725,"113":2.5130350589752197,"114":7.051999568939209,"115":2.6786773204803467,"116":4.927169322967529,"117":-2.806344747543335,"118":0.9012381434440613,"119":3.1806375980377197,"120":-5.375405311584473,"121":8.18481159210205,"122":-1.0441762208938599,"123":-4.8213372230529785,"124":0.5743625164031982,"125":-1.25038480758667,"126":2.949782609939575,"127":1.7692147493362427,"128":6.987275123596191,"129":-1.9532824754714966,"130":4.37114143371582,"131":-6.359525680541992,"132":-3.5771334171295166,"133":0.3130453824996948,"134":-0.9580276608467102,"135":-1.6804734468460083,"136":-1.1091634035110474,"137":0.9219247698783875,"138":-3.1977407932281494,"139":5.317580699920654,"140":-1.4318166971206665,"141":-1.1820902824401855,"142":2.0480120182037354,"143":10.41717529296875,"144":-4.523431777954102,"145":-3.0598411560058594,"146":2.822756767272949,"147":-3.775949001312256,"148":0.5504967570304871,"149":-11.790328979492188,"150":-0.8860149383544922,"151":4.024186134338379,"152":-7.6490020751953125,"153":-5.541971683502197,"154":-0.04627126455307007,"155":-4.178193092346191,"156":5.739568710327148,"157":-0.7009028792381287,"158":5.561806678771973,"159":-5.593113422393799,"160":-4.220404148101807,"161":-0.7147015929222107,"162":2.914806604385376,"163":-1.2898987531661987,"164":1.1621625423431396,"165":4.4091339111328125,"166":-3.815980911254883,"167":0.5398061871528625,"168":-1.2010705471038818,"169":1.8223483562469482,"170":-1.0969599485397339,"171":2.3402795791625977,"172":-0.15476417541503906,"173":0.17783944308757782,"174":-2.400810480117798,"175":3.1860923767089844,"176":0.7014772891998291,"177":1.1950678825378418,"178":0.8586888909339905,"179":2.7423577308654785,"180":3.1976444721221924,"181":-3.339940309524536,"182":3.403101921081543,"183":2.739102363586426,"184":6.840090274810791,"185":-3.9663901329040527,"186":4.385361194610596,"187":-2.4085538387298584,"188":2.7029263973236084,"189":2.2271413803100586,"190":-6.229333877563477,"191":2.9610402584075928,"192":10.184520721435547,"193":6.189001083374023,"194":-3.2726781368255615,"195":-0.4987478256225586,"196":-1.7892425060272217,"197":1.2260000705718994,"198":-3.1542553901672363,"199":2.8067398071289062,"200":-0.31593459844589233,"201":0.5940479040145874,"202":3.0565202236175537,"203":6.678609848022461,"204":1.2695136070251465,"205":4.939453601837158,"206":-2.1732571125030518,"207":-1.8389098644256592,"208":1.8691431283950806,"209":4.442846298217773,"210":2.229832172393799,"211":3.4705753326416016,"212":-2.2515065670013428,"213":0.6107673645019531,"214":4.680366516113281,"215":2.796891450881958,"216":-3.633417844772339,"217":-4.8450212478637695,"218":-1.3073804378509521,"219":1.5225337743759155,"220":-10.586296081542969,"221":0.040568724274635315,"222":2.614298105239868,"223":-8.820878982543945,"224":4.466265678405762,"225":-1.7152053117752075,"226":2.9610519409179688,"227":8.139547348022461,"228":-2.905092477798462,"229":2.6729440689086914,"230":-1.507106065750122,"231":-1.0405193567276,"232":-1.184479832649231,"233":5.778183460235596,"234":-5.836223602294922,"235":-5.941171646118164,"236":-6.933834552764893,"237":-1.982301950454712,"238":6.863006591796875,"239":1.9704197645187378,"240":3.2164804935455322,"241":1.7859580516815186,"242":5.320688724517822,"243":-0.3412865996360779,"244":3.6936793327331543,"245":2.0147459506988525,"246":6.701361179351807,"247":2.866318702697754,"248":-4.483912467956543,"249":-2.1367721557617188,"250":3.017301321029663,"251":0.9294325709342957,"252":-1.6562867164611816,"253":-0.22053715586662292,"254":1.6816744804382324,"255":-0.4562208652496338,"256":-5.574585914611816,"257":2.873565196990967,"258":-0.3138347864151001,"259":0.4415058195590973,"260":-0.31317952275276184,"261":2.4739596843719482,"262":1.4166600704193115,"263":0.48250988125801086,"264":5.742351531982422,"265":8.07814884185791,"266":-3.031665325164795,"267":3.6903343200683594,"268":0.8193933963775635,"269":4.4425506591796875,"270":-4.4815354347229,"271":-1.7240859270095825,"272":3.7109053134918213,"273":-0.3784848153591156,"274":-1.6199837923049927,"275":5.5785980224609375,"276":-0.46752944588661194,"277":-1.0431652069091797,"278":-2.2626073360443115,"279":0.5127328634262085,"280":-6.889619827270508,"281":-4.23486852645874,"282":1.1112359762191772,"283":-0.4006657302379608,"284":8.136808395385742,"285":-2.4813997745513916,"286":-3.465867280960083,"287":-0.15164606273174286,"288":3.0467307567596436,"289":3.545168161392212,"290":4.800225734710693,"291":-2.4485411643981934,"292":-1.5531264543533325,"293":-1.902669906616211,"294":-1.7592190504074097,"295":0.8914605975151062,"296":1.3301336765289307,"297":-0.36176714301109314,"298":-7.76870584487915,"299":5.899971961975098,"300":-2.7677247524261475,"301":1.735517144203186,"302":6.3873982429504395,"303":3.961385488510132,"304":1.777028203010559,"305":-2.5115768909454346,"306":3.951357364654541,"307":-8.318163871765137,"308":2.4723057746887207,"309":-1.2092329263687134,"310":-6.626973628997803,"311":-8.003766059875488,"312":-1.9741965532302856,"313":-2.969021797180176,"314":-8.012534141540527,"315":-1.53226637840271,"316":-4.355015754699707,"317":0.946346640586853,"318":3.4813027381896973,"319":1.0342566967010498,"320":0.9757212400436401,"321":0.6335972547531128,"322":-2.4436206817626953,"323":-0.6571868062019348,"324":-0.9572436809539795,"325":-0.3375703692436218,"326":0.1051696166396141,"327":1.369388222694397,"328":0.02141704596579075,"329":0.19317077100276947,"330":1.5759048461914062,"331":0.013055660761892796,"332":0.367095410823822,"333":-0.40866461396217346,"334":2.1521036624908447,"335":-0.9425274729728699,"336":1.6818658113479614,"337":-0.9377440214157104,"338":1.4801721572875977,"339":-0.18841470777988434,"340":-0.16148559749126434,"341":3.8191401958465576,"342":3.660428285598755,"343":5.099497318267822,"344":-0.5864099264144897,"345":1.559529185295105,"346":1.563856601715088,"347":2.359013080596924,"348":2.595975637435913,"349":3.1901590824127197,"350":3.515401840209961,"351":-2.5617403984069824,"352":-3.4933433532714844,"353":1.4910266399383545,"354":-3.3340139389038086,"355":4.833200454711914,"356":0.6893526911735535,"357":-2.2632713317871094,"358":0.7043489217758179,"359":-3.6742188930511475,"360":1.2756456136703491,"361":1.0461690425872803,"362":-9.001852035522461,"363":-3.948512315750122,"364":-10.380120277404785,"365":2.6450958251953125,"366":-3.761725664138794,"367":6.10642671585083,"368":2.2462236881256104,"369":-5.680376052856445,"370":-2.869645118713379,"371":-8.552605628967285,"372":-3.814164161682129,"373":0.7998072504997253,"374":0.8452659845352173,"375":-9.333168983459473,"376":-6.955045700073242,"377":-4.479940414428711,"378":1.8635966777801514,"379":0.6961618065834045,"380":5.551910877227783,"381":-3.5719003677368164,"382":1.3427156209945679,"383":2.5914082527160645,"384":-5.372124671936035,"385":5.462778091430664,"386":-9.350732803344727,"387":2.2432291507720947,"388":-1.2042380571365356,"389":-7.048666954040527,"390":-1.6875207424163818,"391":1.8654906749725342,"392":-0.3697378635406494,"393":-1.7596904039382935,"394":-1.8933430910110474,"395":-1.6760822534561157,"396":-2.803419589996338,"397":-0.5926211476325989,"398":2.9955379962921143,"399":-3.897000551223755}},"forgetBias":{"rows":20,"columns":1,"weights":{"0":0,"1":0,"2":0,"3":0,"4":0,"5":0,"6":0,"7":0,"8":0,"9":0,"10":0,"11":0,"12":0,"13":0,"14":0,"15":0,"16":0,"17":0,"18":0,"19":0}},"outputMatrix":{"rows":20,"columns":30,"weights":{"0":1.216758131980896,"1":-0.636466383934021,"2":0.11826639622449875,"3":1.3314157724380493,"4":-1.847609281539917,"5":-0.09745625406503677,"6":-1.808103084564209,"7":-1.8110966682434082,"8":-4.8468828201293945,"9":-0.5768996477127075,"10":-0.7718210816383362,"11":3.400326728820801,"12":-1.0683397054672241,"13":-0.1492597758769989,"14":2.3232364654541016,"15":0.46289607882499695,"16":-0.2927496135234833,"17":-3.7715253829956055,"18":-0.08915786445140839,"19":0.8118630051612854,"20":-0.5888212323188782,"21":-0.0874016284942627,"22":-1.2516318559646606,"23":0.12185399979352951,"24":-1.0838195085525513,"25":-0.004011944402009249,"26":-0.19120152294635773,"27":1.0592095851898193,"28":0.34043464064598083,"29":4.303339958190918,"30":1.297372817993164,"31":2.407294511795044,"32":-0.15944090485572815,"33":-0.16446875035762787,"34":-2.0336475372314453,"35":0.0001576813665451482,"36":2.034278154373169,"37":0.4945436418056488,"38":-2.1309516429901123,"39":0.1635790765285492,"40":-0.2244047075510025,"41":0.09856720268726349,"42":-1.2011593580245972,"43":-0.05624806135892868,"44":-0.12061769515275955,"45":-0.5486335158348083,"46":-0.1520136147737503,"47":-3.517049551010132,"48":-0.1086626723408699,"49":0.5637021064758301,"50":0.046850260347127914,"51":0.21471895277500153,"52":-0.012002217583358288,"53":-0.6126445531845093,"54":-0.8457230925559998,"55":0.11806417256593704,"56":-0.5297367572784424,"57":-0.10945922881364822,"58":0.1621718853712082,"59":1.5797942876815796,"60":-0.11843971163034439,"61":-0.5170342326164246,"62":0.375266432762146,"63":0.4930579662322998,"64":-1.5462006330490112,"65":-1.5417494773864746,"66":1.4642339944839478,"67":-0.29702338576316833,"68":-2.2657642364501953,"69":0.46073293685913086,"70":-0.4420405626296997,"71":0.08154981583356857,"72":-0.6968460083007812,"73":-0.19097808003425598,"74":1.9506198167800903,"75":-0.973348081111908,"76":0.05489813908934593,"77":0.5357769727706909,"78":0.4519452154636383,"79":0.5928617715835571,"80":-0.37976348400115967,"81":-1.082282304763794,"82":-0.5597530603408813,"83":-0.7912840247154236,"84":-0.6050061583518982,"85":0.1255672574043274,"86":-0.1951015740633011,"87":0.10045894235372543,"88":-0.29634684324264526,"89":1.6588008403778076,"90":1.204519271850586,"91":-2.244626760482788,"92":-2.491901159286499,"93":-0.9519045352935791,"94":1.4463205337524414,"95":-0.014108246192336082,"96":5.2671051025390625,"97":1.8854568004608154,"98":0.3985580503940582,"99":0.4329114258289337,"100":-3.4148216247558594,"101":-0.9315334558486938,"102":0.5912055373191833,"103":4.798583030700684,"104":-0.6966994404792786,"105":-1.0793280601501465,"106":2.455023765563965,"107":0.2503741681575775,"108":0.7364663481712341,"109":2.1993842124938965,"110":2.134134292602539,"111":2.8921358585357666,"112":-1.1241079568862915,"113":-2.9354195594787598,"114":-3.6429250240325928,"115":-1.1486923694610596,"116":2.6570956707000732,"117":-0.2529330551624298,"118":-0.7818012237548828,"119":1.0153480768203735,"120":-4.849598407745361,"121":1.4290567636489868,"122":-0.645922839641571,"123":0.6692258715629578,"124":-0.45148804783821106,"125":-0.10344180464744568,"126":-0.139253169298172,"127":1.0819333791732788,"128":0.14668281376361847,"129":-0.8254877924919128,"130":0.040687453001737595,"131":-1.007603645324707,"132":1.1966519355773926,"133":0.7662141919136047,"134":-0.5237626433372498,"135":-0.484199196100235,"136":-0.02409536764025688,"137":-3.095015048980713,"138":-0.7002913951873779,"139":-1.8116756677627563,"140":0.4700605571269989,"141":-1.6104941368103027,"142":1.7807585000991821,"143":-0.4506455361843109,"144":-2.223200559616089,"145":-0.9749084711074829,"146":-4.081330299377441,"147":-0.1983863264322281,"148":-0.11410196870565414,"149":0.873875617980957,"150":-1.2179102897644043,"151":-1.2857155799865723,"152":0.09085236489772797,"153":0.2428581267595291,"154":-2.299898386001587,"155":-0.9013654589653015,"156":-0.4227890968322754,"157":-1.1618858575820923,"158":-1.3814048767089844,"159":0.7219826579093933,"160":0.20207266509532928,"161":0.03303222730755806,"162":0.6714189648628235,"163":-1.4137661457061768,"164":-0.10606315732002258,"165":-0.7415433526039124,"166":1.391988754272461,"167":-3.194456100463867,"168":-0.01215245109051466,"169":-0.5511376261711121,"170":-0.5756884813308716,"171":0.8258225917816162,"172":-0.7913451194763184,"173":0.33878788352012634,"174":-1.3179011344909668,"175":0.6243821978569031,"176":-2.877636432647705,"177":0.45085346698760986,"178":-0.13950251042842865,"179":-1.199276328086853,"180":0.8512975573539734,"181":2.2631425857543945,"182":0.28139787912368774,"183":0.3509693741798401,"184":3.356299638748169,"185":6.346553802490234,"186":-1.5299243927001953,"187":0.054469216614961624,"188":1.7611395120620728,"189":2.219867706298828,"190":0.4176383316516876,"191":-0.6176494359970093,"192":-1.258146047592163,"193":-2.2596960067749023,"194":0.4653848707675934,"195":3.7219486236572266,"196":0.45161324739456177,"197":-0.27280792593955994,"198":-1.853516697883606,"199":-1.3017499446868896,"200":2.7623467445373535,"201":1.3479760885238647,"202":-0.062015511095523834,"203":0.3209691345691681,"204":1.6583476066589355,"205":0.08689206093549728,"206":2.3316614627838135,"207":0.46296513080596924,"208":1.773249626159668,"209":-0.3006720542907715,"210":-2.417851686477661,"211":-1.0438939332962036,"212":0.49785682559013367,"213":-0.48210087418556213,"214":-0.01287807710468769,"215":-3.234945297241211,"216":2.7123024463653564,"217":-0.16138078272342682,"218":-0.03563825041055679,"219":0.5489439368247986,"220":-1.071833610534668,"221":0.7493566274642944,"222":1.03518807888031,"223":1.6257768869400024,"224":1.4792264699935913,"225":-3.166600465774536,"226":-2.4340152740478516,"227":0.7545730471611023,"228":-0.049284886568784714,"229":0.3232150971889496,"230":0.38352587819099426,"231":-0.6826573014259338,"232":5.775997638702393,"233":-3.434278964996338,"234":1.5810186862945557,"235":-0.9114469289779663,"236":-2.667983055114746,"237":-1.1334857940673828,"238":-0.5630573034286499,"239":1.611180067062378,"240":6.893158435821533,"241":3.000871419906616,"242":-0.1992512345314026,"243":0.10030241310596466,"244":1.8052092790603638,"245":5.003181457519531,"246":0.6474359035491943,"247":0.06430068612098694,"248":1.049946904182434,"249":1.0133094787597656,"250":1.7937753200531006,"251":1.1774166822433472,"252":-0.9084334373474121,"253":1.1988530158996582,"254":-1.8844236135482788,"255":4.474618434906006,"256":-2.652447462081909,"257":6.678152561187744,"258":-0.14197871088981628,"259":-1.2361111640930176,"260":1.6292365789413452,"261":1.2844289541244507,"262":-1.8237577676773071,"263":0.727354884147644,"264":1.8548305034637451,"265":1.219679355621338,"266":7.62047004699707,"267":-0.7387824654579163,"268":1.8151521682739258,"269":-0.14933772385120392,"270":-1.5996521711349487,"271":-1.0831530094146729,"272":-0.1259431689977646,"273":-0.4698561728000641,"274":-0.1178133562207222,"275":0.05196218937635422,"276":0.6360892057418823,"277":-0.029072383418679237,"278":-1.8018932342529297,"279":0.11287812143564224,"280":-0.6832452416419983,"281":0.017831040546298027,"282":0.9423254132270813,"283":-0.3766394555568695,"284":-0.06904985755681992,"285":-1.6594425439834595,"286":0.5215770602226257,"287":-0.3953874111175537,"288":0.15779493749141693,"289":-1.3953166007995605,"290":-0.35057637095451355,"291":0.13717491924762726,"292":0.9286344051361084,"293":-0.6568157076835632,"294":-1.173622965812683,"295":0.2703079283237457,"296":1.7811483144760132,"297":-0.3744544982910156,"298":-0.9202834963798523,"299":-0.29526445269584656,"300":-1.008109450340271,"301":2.3341856002807617,"302":0.9350675940513611,"303":1.3909766674041748,"304":-0.7022882699966431,"305":-2.4871692657470703,"306":1.0279873609542847,"307":0.6724730730056763,"308":1.125776767730713,"309":-3.347367525100708,"310":-1.5809186697006226,"311":0.6105924844741821,"312":-2.8375203609466553,"313":-0.6437857151031494,"314":-1.5321623086929321,"315":-4.376368522644043,"316":4.509310245513916,"317":0.7979804873466492,"318":0.05808624252676964,"319":-0.20675154030323029,"320":2.6398658752441406,"321":3.5914463996887207,"322":-2.105154037475586,"323":-0.7548373937606812,"324":-4.239082336425781,"325":4.185514450073242,"326":2.29640793800354,"327":2.396164894104004,"328":-1.2205363512039185,"329":-2.0054972171783447,"330":-0.9597281813621521,"331":0.9439465999603271,"332":-0.9402640461921692,"333":-0.4955803155899048,"334":3.4320642948150635,"335":2.382636308670044,"336":-1.5611432790756226,"337":0.6184046864509583,"338":1.0325883626937866,"339":-0.31749263405799866,"340":1.6107138395309448,"341":-0.7061836123466492,"342":0.3734259605407715,"343":-0.021448176354169846,"344":-1.0598251819610596,"345":1.7230538129806519,"346":-0.9235109090805054,"347":1.0363811254501343,"348":-1.0329383611679077,"349":-1.2771661281585693,"350":0.09682076424360275,"351":-0.9790558218955994,"352":1.0668317079544067,"353":0.5430706143379211,"354":1.7210311889648438,"355":-0.5179547667503357,"356":-0.4290037155151367,"357":-0.30478885769844055,"358":0.4552792012691498,"359":-1.1240991353988647,"360":-1.1220983266830444,"361":-1.2012778520584106,"362":2.262178897857666,"363":-1.3865723609924316,"364":-2.579843044281006,"365":-1.9388412237167358,"366":-1.8370976448059082,"367":-1.8454960584640503,"368":-3.2480154037475586,"369":-1.3528534173965454,"370":-0.2857620418071747,"371":1.9106372594833374,"372":2.749157190322876,"373":-2.540658473968506,"374":-0.38075941801071167,"375":1.5286800861358643,"376":0.7631632089614868,"377":-2.8183960914611816,"378":-2.4929921627044678,"379":0.9211704730987549,"380":2.14339017868042,"381":0.822650134563446,"382":2.5141046047210693,"383":0.30376511812210083,"384":-1.9385735988616943,"385":0.9842787981033325,"386":-0.7236356139183044,"387":0.9993854761123657,"388":-1.4668426513671875,"389":0.6146103143692017,"390":-1.6677600145339966,"391":2.312062978744507,"392":1.025750756263733,"393":0.5603674054145813,"394":2.233464241027832,"395":-1.6130259037017822,"396":0.2545863687992096,"397":-0.1809776872396469,"398":1.6776963472366333,"399":-2.2911620140075684,"400":0.1823606640100479,"401":0.7876918315887451,"402":-0.880678117275238,"403":0.10671684890985489,"404":-0.3066957890987396,"405":-0.7642556428909302,"406":2.38859486579895,"407":-0.4487660825252533,"408":-0.670315146446228,"409":-0.20039062201976776,"410":0.19830942153930664,"411":1.229592204093933,"412":0.3526914417743683,"413":0.9438257813453674,"414":1.0460684299468994,"415":0.6998277306556702,"416":-3.6684086322784424,"417":0.7606634497642517,"418":0.5401949286460876,"419":0.7338696718215942,"420":-2.0732815265655518,"421":-0.18283244967460632,"422":-0.3946537375450134,"423":-1.0511480569839478,"424":0.7204306125640869,"425":0.22723981738090515,"426":0.5761660933494568,"427":0.9239209294319153,"428":-0.9664689302444458,"429":1.0709331035614014,"430":-1.3499782085418701,"431":-0.6312614679336548,"432":1.4541258811950684,"433":1.6391302347183228,"434":0.6610323786735535,"435":-2.740616798400879,"436":-3.771651268005371,"437":0.5891525149345398,"438":0.03658653795719147,"439":-0.09836231172084808,"440":-0.7954629063606262,"441":-0.758857011795044,"442":2.094578742980957,"443":-2.855104446411133,"444":1.210137128829956,"445":0.3719894289970398,"446":1.1145541667938232,"447":-0.2247025966644287,"448":-0.20546114444732666,"449":1.4563299417495728,"450":-0.6853227019309998,"451":-0.2689991295337677,"452":-1.5886894464492798,"453":-0.9198237657546997,"454":-1.3182111978530884,"455":-1.1488621234893799,"456":-1.2106016874313354,"457":1.1459112167358398,"458":-1.3247829675674438,"459":-1.2350826263427734,"460":1.14712655544281,"461":-0.2511787414550781,"462":1.9186739921569824,"463":0.5098027586936951,"464":-1.272359848022461,"465":0.6559438109397888,"466":0.633560061454773,"467":-1.3027706146240234,"468":0.28166455030441284,"469":-0.6258652806282043,"470":-0.19245591759681702,"471":-0.5903270244598389,"472":-1.1044154167175293,"473":-0.08447490632534027,"474":-2.67714786529541,"475":-1.5962320566177368,"476":-0.4039190411567688,"477":-0.6944054365158081,"478":0.982163667678833,"479":-1.4107425212860107,"480":0.5418067574501038,"481":1.927520990371704,"482":2.8814477920532227,"483":2.7038304805755615,"484":0.823089599609375,"485":2.281663417816162,"486":-2.3347716331481934,"487":2.3365888595581055,"488":-0.44455862045288086,"489":-0.9582282304763794,"490":-1.2639191150665283,"491":-0.8188344836235046,"492":-3.8600687980651855,"493":3.5842268466949463,"494":-0.6626147031784058,"495":1.289576768875122,"496":1.8695024251937866,"497":-0.9110250473022461,"498":-0.9615656733512878,"499":0.6183878779411316,"500":3.169387102127075,"501":-1.6798938512802124,"502":-1.1815177202224731,"503":0.1429310142993927,"504":4.3844780921936035,"505":-2.7857792377471924,"506":0.7548844814300537,"507":-2.2848236560821533,"508":0.7513048052787781,"509":3.2958662509918213,"510":-2.7317092418670654,"511":-0.6467671394348145,"512":2.4151771068573,"513":-2.71230149269104,"514":-0.7643457651138306,"515":2.1723248958587646,"516":1.1231077909469604,"517":-1.4187192916870117,"518":0.7211875319480896,"519":-0.13156023621559143,"520":-0.2910836338996887,"521":0.2831885814666748,"522":1.914928913116455,"523":-1.4505735635757446,"524":2.292590618133545,"525":1.0424528121948242,"526":1.8012168407440186,"527":-6.645702838897705,"528":-0.09799417108297348,"529":-1.5707151889801025,"530":2.257054328918457,"531":-0.8681062459945679,"532":0.38439691066741943,"533":1.2210125923156738,"534":0.4105546474456787,"535":0.6349816918373108,"536":-2.086508274078369,"537":-0.6147280931472778,"538":-1.5669687986373901,"539":0.505920946598053,"540":-1.5977574586868286,"541":-0.5282356142997742,"542":-1.451505184173584,"543":-0.2369324117898941,"544":-5.347834587097168,"545":0.872416079044342,"546":2.082620859146118,"547":0.5302044153213501,"548":-2.610466718673706,"549":-0.606390118598938,"550":1.130236029624939,"551":-3.9290771484375,"552":1.7968477010726929,"553":-1.4105424880981445,"554":-1.5757383108139038,"555":-0.3359740972518921,"556":-3.938941240310669,"557":4.3849663734436035,"558":0.3808347284793854,"559":2.057628631591797,"560":-0.8876607418060303,"561":-0.7760939598083496,"562":-1.7554627656936646,"563":-1.921418309211731,"564":-1.3723710775375366,"565":-1.111024022102356,"566":2.653933525085449,"567":-1.1312335729599,"568":0.38395556807518005,"569":1.7095154523849487,"570":2.9082815647125244,"571":1.2209757566452026,"572":-2.273650884628296,"573":-0.7232884764671326,"574":-1.0557106733322144,"575":0.04558108374476433,"576":0.03732670471072197,"577":-0.7133380174636841,"578":-2.886598587036133,"579":-0.11682690680027008,"580":1.922267198562622,"581":0.2823203206062317,"582":1.0331969261169434,"583":-2.028251886367798,"584":-0.26306021213531494,"585":-0.48608875274658203,"586":-0.8052416443824768,"587":3.0671567916870117,"588":-0.13597600162029266,"589":0.6037124395370483,"590":-0.4346597194671631,"591":1.5363378524780273,"592":1.215633749961853,"593":1.201372742652893,"594":0.6374736428260803,"595":0.2750442326068878,"596":5.594349384307861,"597":-1.3734118938446045,"598":1.2162501811981201,"599":1.3066562414169312}},"outputHidden":{"rows":20,"columns":20,"weights":{"0":-5.797553062438965,"1":2.3711979389190674,"2":5.051912307739258,"3":0.01970040611922741,"4":1.7635656595230103,"5":0.542889416217804,"6":2.2384822368621826,"7":1.2691829204559326,"8":1.2077157497406006,"9":3.0949225425720215,"10":3.7630019187927246,"11":-2.362987756729126,"12":-2.2864673137664795,"13":-3.29359769821167,"14":-5.429469585418701,"15":0.818009078502655,"16":0.7669218182563782,"17":-2.2975473403930664,"18":-6.609418869018555,"19":7.029749393463135,"20":-5.855161190032959,"21":5.238245487213135,"22":-2.1879663467407227,"23":2.018803596496582,"24":1.1878697872161865,"25":-7.54396390914917,"26":1.3690236806869507,"27":2.0367302894592285,"28":5.23661470413208,"29":3.9768080711364746,"30":-5.506339073181152,"31":2.1464948654174805,"32":3.8606388568878174,"33":12.690879821777344,"34":-1.1681827306747437,"35":2.259767770767212,"36":-7.154598712921143,"37":-9.766271591186523,"38":-4.874294757843018,"39":6.001692771911621,"40":1.1820250749588013,"41":2.6679389476776123,"42":-2.650792121887207,"43":-4.706104278564453,"44":3.6152944564819336,"45":1.2835960388183594,"46":1.5051298141479492,"47":6.0084357261657715,"48":9.896930694580078,"49":3.6453232765197754,"50":8.64702320098877,"51":-8.595126152038574,"52":-1.3673014640808105,"53":0.9490442872047424,"54":-2.592339515686035,"55":5.9480204582214355,"56":2.654770612716675,"57":10.403190612792969,"58":-2.8632256984710693,"59":4.13912296295166,"60":-2.211637258529663,"61":2.8180623054504395,"62":-1.2870466709136963,"63":3.487105369567871,"64":1.9904197454452515,"65":3.296950340270996,"66":5.275323867797852,"67":-1.4690121412277222,"68":0.6767134070396423,"69":8.812485694885254,"70":-0.4843573272228241,"71":-5.472330093383789,"72":-5.887331008911133,"73":-3.841059923171997,"74":-5.319796085357666,"75":2.5797948837280273,"76":-1.5088516473770142,"77":-1.261441707611084,"78":1.8140310049057007,"79":-0.48835042119026184,"80":-4.209001541137695,"81":-4.867950916290283,"82":5.285452842712402,"83":2.7302417755126953,"84":-5.449250221252441,"85":4.958898544311523,"86":-5.596827030181885,"87":-2.7045085430145264,"88":-2.760077714920044,"89":-2.943272829055786,"90":0.7532305121421814,"91":-0.09015406668186188,"92":1.8928163051605225,"93":-2.9666390419006348,"94":-0.5198144912719727,"95":-10.58935260772705,"96":0.9544603228569031,"97":-7.882665157318115,"98":-5.857253074645996,"99":-4.807376384735107,"100":-1.1002955436706543,"101":-7.710514545440674,"102":3.019437313079834,"103":-0.6966032385826111,"104":-3.317619800567627,"105":-2.652726650238037,"106":4.971968650817871,"107":5.613004207611084,"108":-4.512617111206055,"109":-5.164641857147217,"110":1.181762933731079,"111":4.356062889099121,"112":3.3523693084716797,"113":-10.571598052978516,"114":7.3647942543029785,"115":-1.6106929779052734,"116":-1.6711076498031616,"117":-7.772076606750488,"118":-1.9390758275985718,"119":2.129460096359253,"120":-4.058220863342285,"121":3.949679374694824,"122":3.38901686668396,"123":-1.793241262435913,"124":0.5798012614250183,"125":-3.065746545791626,"126":6.802900314331055,"127":0.5379332304000854,"128":4.340953350067139,"129":-2.907033920288086,"130":-6.017740726470947,"131":8.761987686157227,"132":-5.35622501373291,"133":2.4254562854766846,"134":-2.657986640930176,"135":-3.8218698501586914,"136":-0.32938966155052185,"137":-9.641488075256348,"138":-8.819183349609375,"139":2.883317232131958,"140":-2.40557861328125,"141":-5.08717679977417,"142":-1.1732995510101318,"143":5.406825542449951,"144":8.131093978881836,"145":1.5440011024475098,"146":-6.554127216339111,"147":-5.484074592590332,"148":0.09147881716489792,"149":1.9687964916229248,"150":-2.013918876647949,"151":1.6117300987243652,"152":4.031883239746094,"153":-2.6357338428497314,"154":1.4663441181182861,"155":2.5745275020599365,"156":-4.072875499725342,"157":-0.3192816972732544,"158":1.2152029275894165,"159":-0.09934470057487488,"160":0.30465951561927795,"161":-1.3230568170547485,"162":-4.3868937492370605,"163":-1.255002737045288,"164":1.4284182786941528,"165":0.9895070195198059,"166":-0.058184683322906494,"167":2.7706360816955566,"168":2.650556802749634,"169":-3.001858949661255,"170":-4.856018543243408,"171":-0.24956244230270386,"172":-1.448343276977539,"173":1.1775106191635132,"174":2.0576236248016357,"175":0.7017361521720886,"176":3.0389244556427,"177":0.28270918130874634,"178":0.5542303323745728,"179":-0.6542507410049438,"180":-12.182565689086914,"181":6.875054359436035,"182":4.207968235015869,"183":-3.1308236122131348,"184":1.423962116241455,"185":-7.834609031677246,"186":1.7743085622787476,"187":4.536445140838623,"188":0.8394853472709656,"189":0.5944682359695435,"190":4.113265514373779,"191":4.527334213256836,"192":-0.27783411741256714,"193":9.66474723815918,"194":-7.707258224487305,"195":-1.7935720682144165,"196":-12.060842514038086,"197":0.19316335022449493,"198":-7.166364669799805,"199":3.2945783138275146,"200":0.1721601039171219,"201":0.06764750182628632,"202":0.5083698034286499,"203":6.580820560455322,"204":7.37360143661499,"205":8.205900192260742,"206":3.996837854385376,"207":-1.4203300476074219,"208":0.20219317078590393,"209":5.9707932472229,"210":-7.512351036071777,"211":-4.504642486572266,"212":1.3052972555160522,"213":4.394198894500732,"214":-3.5558648109436035,"215":-0.5216990113258362,"216":-4.532996654510498,"217":1.9055637121200562,"218":-2.2712481021881104,"219":2.032156467437744,"220":-4.114251136779785,"221":-8.102720260620117,"222":9.906877517700195,"223":-4.424304962158203,"224":1.8899983167648315,"225":-1.1447904109954834,"226":1.9669389724731445,"227":3.979377508163452,"228":-0.6647375822067261,"229":7.138032913208008,"230":3.7766993045806885,"231":4.601080417633057,"232":0.5140942931175232,"233":6.627974033355713,"234":-4.1729044914245605,"235":-10.875650405883789,"236":-3.162463665008545,"237":8.615994453430176,"238":7.772716045379639,"239":-0.43194591999053955,"240":1.780511736869812,"241":-1.9121637344360352,"242":7.482706546783447,"243":0.650864839553833,"244":-1.8967063426971436,"245":-2.3609797954559326,"246":-3.589851140975952,"247":0.8758508563041687,"248":-3.298877000808716,"249":-4.2497477531433105,"250":-0.32940226793289185,"251":-3.1479976177215576,"252":4.667242050170898,"253":1.0253006219863892,"254":1.7434091567993164,"255":-6.540183067321777,"256":-8.99185848236084,"257":-1.958600640296936,"258":3.4231278896331787,"259":-2.579589605331421,"260":-3.1160855293273926,"261":-4.206731796264648,"262":11.373663902282715,"263":-4.0695295333862305,"264":1.5419005155563354,"265":3.0262765884399414,"266":-2.2942957878112793,"267":2.2186670303344727,"268":-1.011247158050537,"269":0.6168603897094727,"270":-5.181206226348877,"271":-7.832436561584473,"272":2.0786778926849365,"273":8.289504051208496,"274":-1.6011892557144165,"275":4.627452373504639,"276":-4.553227424621582,"277":7.981257438659668,"278":2.4307503700256348,"279":-1.333312749862671,"280":1.685575008392334,"281":2.2722785472869873,"282":5.817808151245117,"283":-5.437606334686279,